tree
version=v4
num_class=1
num_tree_per_iteration=1
label_index=0
max_feature_idx=23
objective=regression
feature_names=Column_0 Column_1 Column_2 Column_3 Column_4 Column_5 Column_6 Column_7 Column_8 Column_9 Column_10 Column_11 Column_12 Column_13 Column_14 Column_15 Column_16 Column_17 Column_18 Column_19 Column_20 Column_21 Column_22 Column_23
feature_infos=[-0.44999999999999996:0.39000000000000001] [-2.3699951171875:1.9199981689453125] [9.1400000000000006:82.689999999999998] [-0.16000000000000014:0.18000000000000005] [-0.32000000000000006:0.25] [0.062820904573638398:1] [-2.1898293438554939:4] [-0.60115942848005144:0.65286096727414977] [0:0.95600122365057061] [-3.1350440623074869:2.948588012725212] [-2.0076739865379936:4] [2.4065265877879115e-06:0.99999999966894404] [-1.4994454039846317:2.9018939215715687] [-3.2512520386733867:3.6232361996001488] [-3.3443454326921862:4] [-4:4] [3.74565580788299e-17:1] [-2.2871198663396068:5.608612906046833] [-1.9474179976460813:1.9862228615195412] [0:1] [-2.3449343883314007:4] [-3.6866521606351692:3.5368837019186401] [1.4897736767695156e-32:1] [0.0066098889999999999:0.99993600000000005]
tree_sizes=1002 1209 1227 1221 1122 1206 1112 1107 1164 1206 1355 1223 1042 1221 1208 999 1237 1149 1110 1201 1301 1184 1196 1150 1185 1042 1282 1183 1125 1135 1208 1142 1203 1147 1127 1183 1189 1219 1267 1203 1206 1140 1211 1177 1223 1125 1212 1103 1209 1210 1147 1129 1174 1101 1137 1145 1292

Tree=0
num_leaves=10
num_cat=0
split_feature=8 21 4 7 8 9 8 18 8
split_gain=15.9791 14.4521 10.4817 3.91838 3.90385 2.45042 2.09056 1.2852 1.54127
threshold=1.6616863583518021e-07 -0.58495727723191249 0.014999999999999904 0.10019387843542947 9.8916733510423959e-09 0.72206569095448614 0.0056966033189413011 -0.56169113019253769 2.190489363664855e-08
decision_type=2 2 2 2 2 2 2 2 2
left_child=3 -2 6 4 -1 7 -3 -6 -9
right_child=1 2 -4 -5 5 -7 -8 8 -10
leaf_value=0.024104398793389818 0.01694795766770852 0.01958278356764075 0.024788235945609024 0.024995611644972139 0.022592901478613116 0.023565178728749966 0.022003417110966747 0.022175777375399438 0.020494743692305754
leaf_weight=201 98 132 90 122 159 138 95 140 115
leaf_count=201 98 132 90 122 159 138 95 140 115
internal_value=0.0223003 0.0205825 0.0217862 0.0231435 0.02281 0.0222933 0.0204857 0.0219291 0.0214178
internal_weight=1290 415 317 875 753 552 227 414 255
internal_count=1290 415 317 875 753 552 227 414 255
is_linear=0
shrinkage=1


Tree=1
num_leaves=12
num_cat=0
split_feature=8 7 15 17 11 10 8 19 22 11 21
split_gain=19.7704 22.4565 6.98344 9.72321 3.25845 2.76938 2.17543 2.04059 1.16491 0.45373 0.312265
threshold=4.0270732873984719e-08 -0.27412410707354445 0.40952643130658806 -0.21790355484259924 5.1371685050128982e-05 0.54547312773927392 1.1834456889586941e-08 0.0026572472243505505 0.00064288619810740002 1.2518888102441542e-05 -0.78385710877572123
decision_type=2 2 2 2 2 2 2 2 2 2 2
left_child=4 -2 3 -3 6 7 9 -5 -6 -1 -10
right_child=1 2 -4 5 8 -7 -8 -9 10 -11 -12
leaf_value=0.00029808267806552964 0.0037165653450211833 -0.0045156659397991355 -0.0046511595078125101 -0.001955870988872975 0.00071906468721804121 0.0011011026044162227 -0.00049360836774620662 0 0.0012017071425542076 0.0018211237985601347 0.0028371319491169379
leaf_weight=93 83 94 117 134 114 83 140 86 84 95 186
leaf_count=93 83 94 117 134 114 83 140 86 84 95 186
internal_value=5.86237e-05 -0.00136658 -0.00223645 -0.00146097 0.00128856 -0.000429815 0.000401768 -0.00112059 0.00198094 0.00120052 0.00242114
internal_weight=1309 597 514 397 712 303 328 220 384 188 270
internal_count=1309 597 514 397 712 303 328 220 384 188 270
is_linear=0
shrinkage=0.0107696


Tree=2
num_leaves=12
num_cat=0
split_feature=9 15 10 15 9 10 10 11 2 22 10
split_gain=12.0005 6.90545 5.65112 7.41487 3.43421 3.27689 4.50458 4.47348 3.51722 1.80074 0.649421
threshold=-0.6402047112059065 0.35975668441137648 0.97045939879846277 0.71680668619776167 0.72206569095448614 -0.038324753668652588 -0.31693896665876081 0.00011540890546540001 13.810000000000002 0.0043238128821635009 -0.38287261904330949
decision_type=2 2 2 2 2 2 2 2 2 2 2
left_child=1 9 3 4 5 6 7 -2 -8 -1 -6
right_child=2 -3 -4 -5 10 -7 8 -9 -10 -11 -12
leaf_value=-0.0016836961637642315 2.4281956846596453e-05 -0.0042680023306211319 0.0028482229351591611 0.0026027906853040559 0.0019211122346461599 -0.0021618711980365222 -9.5847063046525851e-05 -0.0026150142962140582 0.0026399655854721276 0.00035239038993317858 0.00018150343108803217
leaf_weight=84 161 97 119 137 86 115 90 115 95 91 87
leaf_count=84 161 97 119 137 86 115 90 115 95 91 87
internal_value=5.85108e-05 -0.00192584 0.000620472 0.000292845 -9.68656e-05 -0.00052687 -6.46254e-05 -0.000986124 0.00117564 -0.000483538 0.00119061
internal_weight=1277 272 1005 886 749 576 461 276 185 175 173
internal_count=1277 272 1005 886 749 576 461 276 185 175 173
is_linear=0
shrinkage=0.0107696


Tree=3
num_leaves=12
num_cat=0
split_feature=9 15 11 11 9 21 21 3 21 20 19
split_gain=16.3441 9.40358 10.5709 5.98565 3.52139 3.0981 1.79671 2.02223 4.30434 2.97995 0.0632302
threshold=0.62918157096342464 0.4581959297091478 0.00017859887314595002 0.00060950945214940011 0.39678885054179208 0.018166171717648453 0.61973924878525111 -0.020000000000000347 -1.0440118468238861 -0.068756341197509091 0.00029638564368185004
decision_type=2 2 2 2 2 2 2 2 2 2 2
left_child=1 4 -3 5 6 -2 7 -1 -9 -10 -11
right_child=3 2 -4 -5 -6 -7 -8 8 9 10 -12
leaf_value=0.0020013017653987427 -0.00049824019712559357 -0.00033912061300912197 -0.0050770134632186145 0.0040016111387207879 -0.0021762166533439609 0.0022330163294128759 -0.0007712021253791641 -0.0018502658886868943 0.0021343507926618534 0.00010030701217014849 -0.0002702616643781547
leaf_weight=88 90 133 110 123 85 83 165 92 117 89 88
leaf_count=88 90 133 110 123 85 83 165 92 117 89 88
internal_value=-5.32555e-05 -0.000750212 -0.00258761 0.00213904 -9.88496e-05 0.000669265 0.000138978 0.000508352 0.000103078 0.000799362 0
internal_weight=1263 967 243 296 724 173 639 474 386 294 177
internal_count=1263 967 243 296 724 173 639 474 386 294 177
is_linear=0
shrinkage=0.0107696


Tree=4
num_leaves=11
num_cat=0
split_feature=9 22 13 11 20 22 9 20 14 17
split_gain=9.46025 6.91761 5.42176 8.79064 4.40142 3.40499 2.96517 3.94333 1.07441 0.769346
threshold=0.70878086444536725 0.0043836967443089516 -0.090409206134341488 0.00013297084575195002 -0.57018381735836077 0.020401133753312952 -0.96309945870842706 0.64229626737786971 0.05231154072293541 -0.13423406212383723
decision_type=2 2 2 2 2 2 2 2 2 2
left_child=2 -2 3 8 -4 -5 -6 9 -1 -8
right_child=1 -3 4 5 6 -7 7 -9 -10 -11
leaf_value=-0.0005268981250620609 0.00013156196185189735 0.0037274063884160892 0.0019179802717299373 -0.0012968807948804729 -0.0019856428545388626 -0.0048753018580050371 -0.0011035648245737639 0.0019300059649834769 0.0010530729647870033 0
leaf_weight=113 150 128 139 88 92 84 122 108 84 198
leaf_count=113 150 128 139 88 92 84 122 108 84 198
internal_value=0.000100766 0.00187751 -0.000355717 -0.00140956 0.000196823 -0.00319119 -0.000215833 0.000107025 2.097e-05 -0.000431125
internal_weight=1306 278 1028 369 659 172 520 428 197 320
internal_count=1306 278 1028 369 659 172 520 428 197 320
is_linear=0
shrinkage=0.0107696


Tree=5
num_leaves=12
num_cat=0
split_feature=9 14 17 8 8 14 8 11 11 3 6
split_gain=12.4734 8.37852 10.0532 8.02744 5.30028 3.96631 3.95979 1.64988 0.859371 0.637591 0.157668
threshold=-0.65314588593347045 0.022144794943144055 0.12070513699110522 5.8557428677633038e-08 3.915589426008761e-08 -0.18333332253926707 1.0932283250453333e-08 3.3820238083489072e-05 0.00017103653164030001 -3.3306690738754691e-16 -0.17374779572441271
decision_type=2 2 2 2 2 2 2 2 2 2 2
left_child=3 4 6 -1 7 -6 -3 -2 -8 -7 -9
right_child=1 2 -4 -5 5 9 8 10 -10 -11 -12
leaf_value=-3.6683366333738065e-05 0 0.0023644213457646589 0.004329718937106917 -0.0038979049013705019 -0.0024872489600512903 0.00060574336559962572 -0.0010973953073365298 0.00063670218897051117 0.00025246854154107625 -0.00069432193709861921 0.002113499037302775
leaf_weight=142 133 93 127 134 145 83 90 83 90 90 83
leaf_count=142 133 93 127 134 145 83 90 83 90 90 83
internal_value=7.84219e-06 0.000577977 0.00179773 -0.00200227 -0.000172725 -0.00117309 0.00052738 0.000808174 -0.000284794 0 0.00152576
internal_weight=1293 1017 400 276 617 318 273 299 180 173 166
internal_count=1293 1017 400 276 617 318 273 299 180 173 166
is_linear=0
shrinkage=0.0107696


Tree=6
num_leaves=11
num_cat=0
split_feature=1 7 19 22 19 22 16 6 14 7
split_gain=5.01665 4.69226 3.88328 4.13238 2.92181 1.82082 1.91959 2.67756 2.17796 2.01522
threshold=0.42000198364257818 -0.096600129961593686 0.084365210097074317 0.013647225676812801 0.00010112640688570001 0.0043836967443089516 0.76427736169504712 -0.30945062154036157 -0.031529264065982894 -0.10329532986417293
decision_type=2 2 2 2 2 2 2 2 2 2
left_child=2 -2 3 5 -5 6 8 9 -1 -8
right_child=1 -3 -4 4 -6 -7 7 -9 -10 -11
leaf_value=-0.0017900587150659214 1.2040493450859824e-05 -0.0031939357901627947 0.0019045619529344073 0 -0.0019949205726153369 0.0020922091937824396 0.0010840954039811038 0.0019377461809685489 0.00034384740254835976 -0.0010656573442091629
leaf_weight=87 85 96 165 146 151 87 102 145 117 100
leaf_count=87 85 96 165 146 151 87 102 145 117 100
internal_value=8.26406e-05 -0.00155221 0.000374388 7.75573e-05 -0.00094003 0.000590301 0.000307634 0.000821701 -0.000445004 0
internal_weight=1281 181 1100 935 297 638 551 347 204 202
internal_count=1281 181 1100 935 297 638 551 347 204 202
is_linear=0
shrinkage=0.0107696


Tree=7
num_leaves=11
num_cat=0
split_feature=9 7 1 17 6 1 1 11 9 14
split_gain=13.6657 7.23486 6.91128 5.73596 3.24302 3.6846 7.83147 2.34373 4.34131 0.80508
threshold=0.70878086444536725 -0.24963865610866057 0.52000045776367199 0.42406067888905619 -1.105071537021231 -0.29499816894531244 -0.13000106811523435 0.00011540890546540001 -0.007677467163033299 0.095691040397929819
decision_type=2 2 2 2 2 2 2 2 2 2
left_child=1 -1 4 -2 -3 -6 -7 9 -9 -8
right_child=3 2 -4 -5 5 6 7 8 -10 -11
leaf_value=0.0014121266809959596 0.00062272900105614663 -0.002370849047206003 -0.0039320409533927844 0.0040767298607173857 -0.0022918330841210474 0.0026440018242147477 -0.00025854331307336142 -0.0027249812492062785 0 0.0010285644709580974
leaf_weight=160 161 116 89 107 96 105 121 127 139 85
leaf_count=160 161 116 89 107 96 105 121 127 139 85
internal_value=-5.06956e-05 -0.000629007 -0.00102942 0.00209573 -0.000669924 -0.000339434 0 -0.000606047 -0.0012865 0.000152287
internal_weight=1306 1038 878 268 789 673 577 472 266 206
internal_count=1306 1038 878 268 789 673 577 472 266 206
is_linear=0
shrinkage=0.0107696


Tree=8
num_leaves=12
num_cat=0
split_feature=0 2 11 20 21 9 9 3 0 2 2
split_gain=15.8144 8.05216 8.89259 7.09312 3.14542 2.30422 1.58934 2.94514 1.32126 3.28677 0.763413
threshold=0.044999999999999991 17.240000000000006 0.0072394759006679009 -0.57924504268365384 -0.49332356456961868 0.136360477650563 -0.54558638251632663 -1.6653345369377346e-16 -0.0099999999999999863 13.335000000000003 13.555000000000001
decision_type=2 2 2 2 2 2 2 2 2 2 2
left_child=1 3 6 5 -5 -1 -3 -8 10 -10 -6
right_child=-2 2 -4 4 8 -7 7 -9 9 -11 -12
leaf_value=0.00014103907840074843 -0.0027607263594634775 0 0.0050643538448745581 -0.001891061118706193 0 0.0027648376243491531 0.00025410685360126555 0.0027467056872584597 0.00066589083805500987 -0.0020907398153138883 0.0013279270872341713
leaf_weight=88 159 86 91 145 93 123 141 127 85 97 91
leaf_count=88 159 86 91 145 93 123 141 127 85 97 91
internal_value=0.000388309 0.000838904 0.00198171 9.99005e-05 -0.000549211 0.00178901 0.00111756 0.00152874 0 -0.000667284 0.000625976
internal_weight=1326 1167 445 722 511 211 354 268 366 182 184
internal_count=1326 1167 445 722 511 211 354 268 366 182 184
is_linear=0
shrinkage=0.0107696


Tree=9
num_leaves=12
num_cat=0
split_feature=4 8 0 10 2 8 16 10 20 14 10
split_gain=11.1315 11.358 11.1161 7.59069 7.19068 6.82606 4.2878 4.21858 3.63907 2.77896 0.87031
threshold=0.029999999999999919 2.8650286829323501e-06 0.010000000000000007 -0.17814459619127657 18.485000000000003 2.3786877967879446e-08 0.57177591875490485 -0.13334568083103338 -0.72422504045923308 -0.067368599978064478 -0.077099171058647789
decision_type=2 2 2 2 2 2 2 2 2 2 2
left_child=1 4 -3 -2 5 8 -6 -7 -1 -8 -10
right_child=3 2 -4 -5 6 7 9 -9 10 -11 -12
leaf_value=0.0021769478551803049 6.944847939913499e-05 -2.6454099420362931e-05 -0.0051608093434232505 0.0048808903258340712 0.0032842880317240628 -0.002959304444371212 -0.00072280949445848439 0 -0.00067514913107088548 0.0018637367128396486 0.00063750234891863419
leaf_weight=114 84 120 96 91 122 140 87 109 147 90 87
leaf_count=114 84 120 96 91 122 140 87 109 147 90 87
internal_value=0.000181307 -0.000195357 -0.00242508 0.00271504 0.000314702 -0.000333656 0.00169192 -0.001721 0.000587892 0.000452473 -8.08826e-05
internal_weight=1287 1112 216 175 896 597 299 249 348 177 234
internal_count=1287 1112 216 175 896 597 299 249 348 177 234
is_linear=0
shrinkage=0.0107696


Tree=10
num_leaves=14
num_cat=0
split_feature=4 3 15 11 2 2 18 2 10 10 16 14 16
split_gain=9.71268 9.17168 8.67953 3.28487 5.54647 5.42426 3.62534 3.13676 2.94336 2.55601 1.55897 0.399337 0.111887
threshold=-0.0099999999999998961 -0.02000000000000007 0.43078757538045837 0.0024795339822917006 17.305000000000003 16.595000000000002 -0.17089433841093501 22.530000000000005 -0.12638925768545781 -0.30511522732054513 0.9673468712354899 -0.019312691152741746 0.86872844911616387
decision_type=2 2 2 2 2 2 2 2 2 2 2 2 2
left_child=2 -2 7 5 -5 9 -7 8 12 10 -3 -11 -1
right_child=1 3 -4 4 -6 6 -8 -9 -10 11 -12 -13 -14
leaf_value=-0.0001083521880538923 0.0035821150099552565 -0.002205375635702778 -0.0038823507769426423 0.000475666562609978 -0.003054733270176543 0.0037581453171553953 0.00041833777609155378 -0.0022479843259582397 0.0014419111312754672 0 0 0.0011697679619112333 -0.0011613153750631366
leaf_weight=87 104 84 119 100 89 85 103 86 114 83 83 90 86
leaf_count=87 104 84 119 100 89 85 103 86 114 83 83 90 86
internal_value=-0.000110133 0.000586076 -0.00132225 0.000116287 -0.00105633 0.000583244 0.00206199 -0.000437829 1.87924e-05 -0.000161815 -0.00116891 0.000666946 -0.00077581
internal_weight=1313 821 492 717 189 528 188 373 287 340 167 173 173
internal_count=1313 821 492 717 189 528 188 373 287 340 167 173 173
is_linear=0
shrinkage=0.0107696


Tree=11
num_leaves=12
num_cat=0
split_feature=0 16 0 9 4 16 12 2 1 16 16
split_gain=12.8144 9.33113 9.29964 8.56283 3.26176 3.50697 5.64815 3.6513 3.46514 1.75123 1.40026
threshold=0.049999999999999975 0.12159603182370231 -0.020000000000000004 -0.75924277654259231 0.029999999999999919 0.84352128414909799 0.017537454965719405 15.230000000000002 -0.074996948242187486 0.98679373865865216 0.98448505580084189
decision_type=2 2 2 2 2 2 2 2 2 2 2
left_child=1 2 -1 -3 5 7 9 -5 -9 -7 -8
right_child=-2 3 -4 4 -6 6 10 8 -10 -11 -12
leaf_value=0.0051805858894032894 -0.0031084364495895488 -0.0024386478422407775 0.0001822164912176652 -0.0017997458295941409 0.0021712193622289073 0.0032637006014741843 0.0004003767882649226 -0.00097799181059127476 0.0020357727017727254 0.00076912190374100271 -0.0012620135214722148
leaf_weight=90 128 138 104 164 113 101 110 84 83 97 101
leaf_count=90 128 138 104 164 113 101 110 84 83 97 101
internal_value=0.00010207 0.000470127 0.00263095 2.17601e-05 0.000449246 0.000152388 0.000845883 -0.000629471 0.000371577 0.00216833 -0.000277936
internal_weight=1313 1185 194 991 853 740 409 331 167 198 211
internal_count=1313 1185 194 991 853 740 409 331 167 198 211
is_linear=0
shrinkage=0.0107696


Tree=12
num_leaves=10
num_cat=0
split_feature=4 15 15 19 14 9 9 18 9
split_gain=13.3145 9.53045 5.20743 5.4339 4.09996 2.3404 1.89706 1.05193 0.576716
threshold=-0.0099999999999998961 0.3105831193443464 -0.11940557714492808 0.00086373701995450013 -0.29837699743698082 0.136360477650563 -0.036044443207590447 0.29142900265557042 0.44022037043067347
decision_type=2 2 2 2 2 2 2 2 2
left_child=1 6 4 5 -2 7 -1 -4 -8
right_child=2 -3 3 -5 -6 -7 8 -9 -10
leaf_value=-0.0013827720732976637 0.00044926554415902618 -0.0039617555844063731 -0.00039912009685379607 0.001965832411369071 0.0034046086909048055 0.00054550877337121927 0.00084407052679160756 -0.0021758339060841949 -0.00021545236065017385
leaf_weight=144 126 128 164 150 139 147 93 83 109
leaf_count=144 126 128 164 150 139 147 93 83 109
internal_value=0 -0.00142718 0.000845601 0.000191415 0.00209406 -0.000421487 -0.000416613 -0.00109753 0.000149621
internal_weight=1283 474 809 544 265 394 346 247 202
internal_count=1283 474 809 544 265 394 346 247 202
is_linear=0
shrinkage=0.0107696


Tree=13
num_leaves=12
num_cat=0
split_feature=8 1 1 1 1 20 16 8 20 20 1
split_gain=15.9282 10.8769 5.79446 11.7051 8.63506 4.72196 4.04663 2.94068 2.17066 2.68283 0.845028
threshold=4.0270732873984719e-08 0.1899986267089844 0.049999237060546882 -0.11999893188476561 -0.29499816894531244 0.16456444463437078 0.98809631403594012 1.0165004910548029e-08 -0.075575642540507734 0.80170541762723058 -0.1700019836425781
decision_type=2 2 2 2 2 2 2 2 2 2 2
left_child=6 2 3 4 -2 -3 8 -8 10 -10 -1
right_child=1 5 -4 -5 -6 -7 7 -9 9 -11 -12
leaf_value=0.0008351990834793157 -0.0014438688934418854 -0.001696549138552123 0.0019556668398861871 -0.0037481907521662357 0.0029456872005069602 -0.0056981518610595963 0.00088806072063897978 -0.0017945188391367732 -0.00031694732007306851 0.0018633917350150185 0.0026423581582935172
leaf_weight=93 117 100 87 124 90 83 87 91 134 106 184
leaf_count=93 117 100 87 124 90 83 87 91 134 106 184
internal_value=-0.000141794 -0.00144211 -0.000415276 -0.00111402 0.00034529 -0.00364991 0.000946955 -0.000344156 0.00143951 0.00054302 0.00212597
internal_weight=1296 601 418 331 207 183 695 178 517 240 277
internal_count=1296 601 418 331 207 183 695 178 517 240 277
is_linear=0
shrinkage=0.0107696


Tree=14
num_leaves=12
num_cat=0
split_feature=15 21 22 21 22 13 20 18 22 19 17
split_gain=3.26983 9.27572 5.32018 4.26265 3.65929 1.58362 1.98022 1.15989 1.42115 1.56001 0.996953
threshold=0.26932024824840922 -0.72689683939065597 0.8712812211858515 1.1911646715473327 0.019545622022521105 -0.15643622044891797 -0.50424187017104727 0.39209748930219185 0.0089490006915756027 0.49620052665386177 -0.16602629487293477
decision_type=2 2 2 2 2 2 2 2 2 2 2
left_child=2 -2 3 5 10 6 -1 8 -7 -10 -3
right_child=1 4 -4 -5 -6 7 -8 -9 9 -11 -12
leaf_value=0.00081298226218533688 -0.0034066120881986427 0 0.0028694454751963063 -0.0019803691153399716 0.0020436787258072335 0.0011036870548649848 -0.0011191335990365498 0.0016791892006026315 -0.0013155335132515064 0.00060963527415566277 -0.0014894483881741851
leaf_weight=92 117 116 86 104 86 154 150 125 91 88 83
leaf_count=92 117 116 86 104 86 154 150 125 91 88 83
internal_value=-2.20114e-05 -0.000845565 0.000322124 1.83304e-05 0.000119708 0.000351084 -0.000281928 0.00073979 0.000312051 -0.000230583 -0.000587731
internal_weight=1292 402 890 804 285 700 242 458 333 179 199
internal_count=1292 402 890 804 285 700 242 458 333 179 199
is_linear=0
shrinkage=0.0107696


Tree=15
num_leaves=10
num_cat=0
split_feature=8 8 2 10 9 8 22 12 2
split_gain=12.5782 11.3107 6.86494 5.59599 5.02021 4.94291 2.9854 2.60978 1.54942
threshold=4.3289090690110495e-06 0.0019432819350843503 18.235000000000003 -0.57462183146919354 0.66604552169404496 1.6189223436437688e-08 0.0019015873926387001 0.14572750993550918 14.415000000000001
decision_type=2 2 2 2 2 2 2 2 2
left_child=2 -2 4 -4 5 8 -7 -5 -1
right_child=1 -3 3 7 -6 6 -8 -9 -10
leaf_value=0.0012278448730183062 -0.0046700012737864501 0 0 0.003657000658888646 0.0016082723948713858 -0.0027061183433526722 -0.00024402707971319569 0.0008419642950232497 -0.00036983301879154403
leaf_weight=148 110 138 124 154 164 138 140 86 101
leaf_count=148 110 138 124 154 164 138 140 86 101
internal_value=6.41408e-05 -0.00209583 0.000595634 0.00179296 0 -0.00054704 -0.00155625 0.00275276 0.000480177
internal_weight=1303 248 1055 364 691 527 278 240 249
internal_count=1303 248 1055 364 691 527 278 240 249
is_linear=0
shrinkage=0.0107696


Tree=16
num_leaves=12
num_cat=0
split_feature=0 10 14 4 2 22 10 4 4 10 19
split_gain=9.56466 9.31806 7.23727 2.95842 4.03778 2.90043 2.60111 2.19704 1.42146 0.582492 0.227085
threshold=-0.05999999999999988 1.3601630022178004 -0.56258540390822498 -0.024999999999999908 13.235000000000001 0.0084381389335671502 -0.49635946766265432 -0.0099999999999998961 1.0000000180025095e-35 -0.51376902569662974 0.00036275983927370006
decision_type=2 2 2 2 2 2 2 2 2 2 2
left_child=-1 2 5 -4 8 6 -2 -6 -5 -9 -11
right_child=1 -3 3 4 7 -7 -8 9 -10 10 -12
leaf_value=0.0036056452907087568 -0.0017616673985535491 -0.0031966665880149782 -0.00077865872539363275 0.00059074818005852591 0.00016269677413538531 -0.0027818876141237348 0.00064576668725158798 0.0010900157591016415 -0.0011100680835084936 0.0017739734405522473 0.0034918695517469601
leaf_weight=89 88 100 104 133 123 94 110 126 96 133 83
leaf_count=89 88 100 104 133 123 94 110 126 96 133 83
internal_value=0.000199323 -3.49139e-05 0.000232699 0.000782471 0.00105232 -0.00118437 -0.000299216 0.00163075 -1.40153e-05 0.00208584 0.00255075
internal_weight=1279 1190 1090 798 694 292 198 465 229 342 216
internal_count=1279 1190 1090 798 694 292 198 465 229 342 216
is_linear=0
shrinkage=0.0107696


Tree=17
num_leaves=11
num_cat=0
split_feature=0 8 4 22 22 8 8 17 4 10
split_gain=13.3557 11.6439 9.46341 5.98413 4.68037 7.89401 7.01416 4.07441 2.69159 1.41846
threshold=0.024999999999999915 6.8271963846614386e-07 0.029999999999999919 0.0017488429084795002 0.0009057274815889001 4.3289090690110495e-06 1.1531526851015259e-08 0.35897274459145273 -0.0099999999999998961 -0.49635946766265432
decision_type=2 2 2 2 2 2 2 2 2 2
left_child=2 3 4 -2 6 7 -1 8 -6 -10
right_child=1 -3 -4 -5 5 -7 -8 -9 9 -11
leaf_value=0.00076621169050210584 -0.0024312352039270505 -0.0053743828724375385 0.0032968404331512259 0.0011508715203723636 -0.00038557336504756363 -0.0014891105677254572 -0.0025998507676414035 0.0030043508986745946 0.00033254846815546237 0.002455022490400549
leaf_weight=120 104 88 127 103 139 142 152 133 111 97
leaf_count=120 104 88 127 103 139 142 152 133 111 97
internal_value=-2.48197e-05 -0.00206048 0.000539195 -0.00052924 0.000119239 0.000659159 -0.00102384 0.00134668 0.00063885 0.00144266
internal_weight=1316 295 1021 207 894 622 272 480 347 208
internal_count=1316 295 1021 207 894 622 272 480 347 208
is_linear=0
shrinkage=0.0107696


Tree=18
num_leaves=11
num_cat=0
split_feature=9 14 10 4 11 13 11 7 13 9
split_gain=10.2775 4.66581 5.65679 4.66524 5.66866 3.85628 5.17076 4.12361 3.32949 0.679431
threshold=0.65696646367698397 -0.29837699743698082 -0.12638925768545781 -0.0099999999999998961 0.00035183355184935009 -0.090409206134341488 0.00042987583983630009 -0.099798331322025993 0.13591929619062293 -0.017968482119169647
decision_type=2 2 2 2 2 2 2 2 2 2
left_child=3 -2 -3 4 9 6 -5 -7 -9 -1
right_child=1 2 -4 5 -6 7 -8 8 -10 -11
leaf_value=-0.00092234194009340419 0 0.00072565180159993227 0.0048168590776839926 0 -0.0032130083390991267 0.0020137194713167814 -0.0032761152513304638 0.00085491726971005958 -0.0015917252664301316 0.00025047971346947627
leaf_weight=98 117 105 85 160 150 149 85 136 116 88
leaf_count=98 117 105 85 160 150 149 85 136 116 88
internal_value=-5.09176e-05 0.00164712 0.00268865 -0.000607221 -0.00163865 -3.20699e-05 -0.00113169 0.000577961 -0.000172981 -0.000234146
internal_weight=1289 307 190 982 336 646 245 401 252 186
internal_count=1289 307 190 982 336 646 245 401 252 186
is_linear=0
shrinkage=0.0107696


Tree=19
num_leaves=12
num_cat=0
split_feature=9 15 17 14 1 2 23 23 1 2 15
split_gain=7.37888 6.54309 4.62643 2.93805 4.27071 2.63528 3.18042 3.71531 1.55655 0.647492 0.550898
threshold=-0.75924277654259231 0.3105831193443464 1.2876510743212399 0.6371532039050356 -0.014999389648437498 11.920000000000002 0.13401951000000004 0.50025642000000003 -0.19499969482421872 16.73 0.051107872848832905
decision_type=2 2 2 2 2 2 2 2 2 2 2
left_child=1 -1 3 5 -5 -2 8 9 -7 -8 -10
right_child=2 -3 -4 4 -6 6 7 -9 10 -11 -12
leaf_value=-0.00043213510982224754 0.00096161295245276383 -0.0043429586011543867 0.0022985434527492466 -0.00025317933966775288 0.0026927492918013053 -8.2082489690603393e-05 3.0775333302649277e-05 -0.0014759788415561836 -0.0027218774234130743 0.0014173870735159576 -0.0009382468923240417
leaf_weight=142 105 93 94 121 90 88 134 143 129 97 88
leaf_count=142 105 93 94 121 90 88 134 143 129 97 88
internal_value=-0.000356533 -0.00208704 0 -0.000198699 0.000886537 -0.000522562 -0.000788806 -5.27995e-05 -0.00160947 0.00072102 -0.002114
internal_weight=1324 235 1089 995 211 784 679 374 305 231 217
internal_count=1324 235 1089 995 211 784 679 374 305 231 217
is_linear=0
shrinkage=0.0107696


Tree=20
num_leaves=13
num_cat=0
split_feature=9 0 19 16 19 9 17 17 3 17 11 5
split_gain=12.9903 9.74756 4.6331 3.96966 5.32133 1.5966 1.83476 1.88849 1.71312 3.86898 1.86025 1.555
threshold=-0.79539701371655358 0.049999999999999975 7.4820203802111477e-05 0.34920587073057047 0.00023217105482825002 -0.14383080677139418 -0.96346987024255804 -0.71051259929304622 -0.0099999999999996741 -0.11823995480917239 0.0011640502828407001 0.075288649330301008
decision_type=2 2 2 2 2 2 2 2 2 2 2 2
left_child=2 3 -1 4 -2 11 -7 -8 10 -10 -9 -5
right_child=1 -3 -4 5 -6 6 7 8 9 -11 -12 -13
leaf_value=-0.00093627414812911495 8.4152717988370299e-05 -0.0031481530793336051 -0.0044555674000263511 0.0020728698891234283 0.0037802699957854543 -0.0013633590902941506 0.0015755163327284508 0.0014135110558464046 -0.0027141461410407626 0.0001894892081727102 -0.00052463748819210881 0
leaf_weight=113 120 94 104 83 90 119 86 116 83 110 90 94
leaf_count=113 120 94 104 83 90 119 86 116 83 110 90 94
internal_value=-0.000328814 0.000130592 -0.00273903 0.000467034 0.00178781 7.98453e-05 -0.000148571 9.85437e-05 -0.000157938 -0.000931513 0.00044638 0.000999149
internal_weight=1302 1085 217 991 210 781 604 485 399 193 206 177
internal_count=1302 1085 217 991 210 781 604 485 399 193 206 177
is_linear=0
shrinkage=0.0107696


Tree=21
num_leaves=12
num_cat=0
split_feature=9 17 5 7 1 21 14 14 14 7 9
split_gain=7.45255 4.07535 6.24795 3.78524 3.49293 3.42138 3.25525 3.11746 2.57906 1.1861 0.983282
threshold=0.6404303612845802 0.14427867199030578 0.11648575219076321 -0.086283022553275537 0.13500213623046878 -0.41803480524276587 -0.10672561471546603 -0.18333332253926707 -0.29460001511827266 -0.034842549886631442 -0.15246234247026688
decision_type=2 2 2 2 2 2 2 2 2 2 2
left_child=1 3 6 8 5 -5 -3 -2 -1 -7 -10
right_child=7 2 -4 4 -6 9 -8 -9 10 -11 -12
leaf_value=-0.00042297815475767999 0 -0.0046041510470763315 0.00015545225075267943 -0.0019614926628698931 -0.0022781193359126739 0 -0.0011261674245445546 0.0022821423277440953 0.0023264568208147644 0.0015748899449335454 0.00034522675506149176
leaf_weight=124 130 89 95 86 145 108 85 159 93 83 94
leaf_count=124 130 89 95 86 145 108 85 159 93 83 94
internal_value=-0.000222637 -0.000678389 -0.00182604 -0.000223074 -0.000912151 -0.000106714 -0.00304993 0.00127116 0.000632056 0.000599147 0.00146427
internal_weight=1291 1002 269 733 422 277 174 289 311 191 187
internal_count=1291 1002 269 733 422 277 174 289 311 191 187
is_linear=0
shrinkage=0.0107696


Tree=22
num_leaves=12
num_cat=0
split_feature=10 8 22 1 22 7 8 22 18 19 0
split_gain=6.46306 6.65004 9.39996 5.4626 3.16658 3.22688 3.46749 2.20189 2.04876 1.29757 1.04189
threshold=0.8913083929595943 2.3685760476072419e-07 0.057913677045448905 1.0000000180025095e-35 0.0084381389335671502 -0.040695738023564694 9.8916733510423959e-09 0.57112669604592303 0.034952757365901303 4.9518480248903338e-05 -0.010000000000000004
decision_type=2 2 2 2 2 2 2 2 2 2 2
left_child=1 4 -3 -2 5 6 -1 -4 -6 -7 -8
right_child=3 2 7 -5 8 9 10 -9 -10 -11 -12
leaf_value=0.00066488265712355554 0.0038503089991677652 -0.0044110038284877074 -0.0011792890204416931 0 0.00010878636359456742 0 -0.00027159488888662766 0.00090277763288749546 0.0024999461233759274 0.0018246152250727648 -0.0021568116258865134
leaf_weight=106 89 95 141 88 108 111 88 91 105 95 147
leaf_count=106 89 95 141 88 108 111 88 91 105 95 147
internal_value=4.67295e-05 -0.000243852 -0.00153998 0.00197045 0.000281297 -0.000111044 -0.000793543 -0.000255507 0.00140493 0.000897948 -0.00155709
internal_weight=1264 1087 327 177 760 547 341 232 213 206 235
internal_count=1264 1087 327 177 760 547 341 232 213 206 235
is_linear=0
shrinkage=0.0107696


Tree=23
num_leaves=11
num_cat=0
split_feature=0 8 22 22 0 5 22 0 11 8
split_gain=17.6591 12.3403 9.68598 5.1458 9.78248 4.62007 5.67038 1.58129 2.18756 1.81208
threshold=-0.050000000000000024 2.190489363664855e-08 0.94396316931171997 0.00067746860803490018 0.039999999999999959 0.11903955257110556 0.0091998807049187021 -0.010000000000000004 3.972632029854211e-05 9.992583265944377e-09
decision_type=2 2 2 2 2 2 2 2 2 2
left_child=-1 7 3 -3 5 6 -5 8 -2 -9
right_child=1 2 -4 4 -6 -7 -8 9 -10 -11
leaf_value=0.0042151596437005213 0.00013151537695008257 -0.0040468406911126674 0.0018606962577740985 4.2983172416660029e-05 -0.0042059769293226537 0.00082967668322005757 -0.0032253018406907031 0.0011523080369463944 0.0026743232947587974 -0.00046142452915899499
leaf_weight=102 99 116 85 106 109 163 111 142 104 163
leaf_count=102 99 116 85 106 109 163 111 142 104 163
internal_value=-6.08808e-05 -0.000446105 -0.00139714 -0.00189622 -0.00133432 -0.000444092 -0.00151527 0.000796777 0.00155745 0.000208607
internal_weight=1300 1198 690 605 489 380 217 508 203 305
internal_count=1300 1198 690 605 489 380 217 508 203 305
is_linear=0
shrinkage=0.0107696


Tree=24
num_leaves=12
num_cat=0
split_feature=9 9 15 23 1 2 3 18 18 19 15
split_gain=22.2185 9.032 8.70785 5.7337 3.47294 5.66636 4.88267 3.66587 2.93748 2.04545 1.28178
threshold=0.71962088095685628 -0.59579393985963958 0.32793609207623359 0.067824623000000014 -0.29499816894531244 17.565000000000001 -0.015000000000000123 0.23545231883356496 -0.30352797621096711 4.4818139696035213e-06 -0.061217246737953791
decision_type=2 2 2 2 2 2 2 2 2 2 2
left_child=1 2 10 -2 -3 6 -6 -7 -8 -10 -1
right_child=3 4 -4 -5 5 7 8 -9 9 -11 -12
leaf_value=-0.0015615549699932658 0.00069958553029026132 -0.0018300775706100443 -0.0047403668085582379 0.0041220890363575929 -0.0022131161434363056 0.0028914979853582488 -0.0011332738643777573 0 0.002287521736152349 0 3.5700354676882611e-05
leaf_weight=93 120 110 110 158 128 124 101 86 89 110 83
leaf_count=93 120 110 110 158 128 124 101 86 89 110 83
internal_value=1.46233e-05 -0.000693018 -0.0023224 0.00273511 -3.65097e-05 0.000234086 -0.000431083 0.00170747 0.000247065 0.00107272 -0.000667722
internal_weight=1312 1034 286 278 748 638 428 210 300 199 176
internal_count=1312 1034 286 278 748 638 428 210 300 199 176
is_linear=0
shrinkage=0.0107696


Tree=25
num_leaves=10
num_cat=0
split_feature=9 13 21 22 9 4 4 9 1
split_gain=9.94331 8.77218 6.52287 6.39078 9.3047 4.42681 1.33522 1.66272 1.12096
threshold=0.70878086444536725 0.49852177192226926 0.030522508625815254 0.0070426924981907505 -0.043156889021468546 -0.0099999999999998961 -1.0000000180025095e-35 -0.027200810525266947 -0.055000305175781243
decision_type=2 2 2 2 2 2 2 2 2
left_child=1 3 -2 6 -5 -3 -1 -8 -6
right_child=2 5 -4 4 8 -7 7 -9 -10
leaf_value=-0.00099055137018871984 0.00013130691357303144 -0.0002263229261856326 0.0039122488084269791 -0.0043285793708070968 -0.0015593711122204885 0.0025152791822899371 0.0011707458369719813 -0.00050122696054331103 0
leaf_weight=143 136 109 105 144 92 134 133 120 131
leaf_count=143 136 109 105 144 92 134 133 120 131
internal_value=-5.85306e-05 -0.000548499 0.00188287 -0.00113288 -0.00216151 0.00118382 -0.000116447 0.000279682 -0.00064909
internal_weight=1247 1006 241 763 367 243 396 253 223
internal_count=1247 1006 241 763 367 243 396 253 223
is_linear=0
shrinkage=0.0107696


Tree=26
num_leaves=13
num_cat=0
split_feature=4 0 0 13 23 2 21 19 2 19 0 23
split_gain=14.3048 9.78991 9.37869 4.6122 8.2314 3.37594 4.01916 2.86644 2.79209 3.05881 1.67599 1.16802
threshold=0.029999999999999919 -0.0099999999999999967 0.054999999999999945 0.21675505206686543 0.52611190000000019 11.920000000000002 0.93031911750312901 0.00014095389550690003 20.825000000000003 1.5997242854259842e-07 0.010000000000000007 0.037878698500000009
decision_type=2 2 2 2 2 2 2 2 2 2 2 2
left_child=2 -2 3 5 7 -1 8 11 9 -7 -11 -5
right_child=1 -3 -4 4 -6 6 -8 -9 -10 10 -12 -13
leaf_value=0.0011949000315092306 0.0051800956408884708 2.6300177971004974e-05 -0.0036689772208642409 0 0.0038558150496563796 -0.0022720203194134796 0.00087462393260722868 -0.0013634735653475717 -0.0031503323690176091 0.00060018715843209022 -0.0012710581537365147 0.0018043462085867571
leaf_weight=92 100 92 90 92 85 118 98 106 95 140 89 83
leaf_count=92 100 92 90 92 85 118 98 106 95 140 89 83
internal_value=0.000118199 0.00284158 -0.000339836 -1.4282e-05 0.000921506 -0.000595602 -0.000946873 0 -0.00140708 -0.000857242 -1.89048e-05 0.000878525
internal_weight=1280 192 1088 998 366 632 540 281 442 347 229 175
internal_count=1280 192 1088 998 366 632 540 281 442 347 229 175
is_linear=0
shrinkage=0.0107696


Tree=27
num_leaves=12
num_cat=0
split_feature=0 10 15 22 19 12 1 12 4 12 13
split_gain=10.089 7.67535 4.97106 3.15717 3.77197 2.68297 2.55737 2.37064 2.1272 2.39267 1.31004
threshold=-0.010000000000000004 -0.18776623432287043 -0.28645136540231991 0.014285304145215351 0.00023408784552950002 0.14731415643986959 -0.095001220703124986 -0.021740779185294747 -0.010000000000000118 0.052881584691385257 0.21675505206686543
decision_type=2 2 2 2 2 2 2 2 2 2 2
left_child=1 8 7 6 -5 -3 -4 -2 -1 -10 -8
right_child=2 5 3 4 -6 -7 10 -9 9 -11 -12
leaf_value=-0.0010960530684063154 0.0023352481637905209 0.0037763909664414639 -0.0017213301500725779 -0.0036931644105940385 -0.00054826658735737676 0.00092506830320672061 0.0011192795585287479 0 0 0.0023078147906203678 -0.00048693679114475815
leaf_weight=85 83 157 99 97 123 86 122 87 161 83 89
leaf_count=85 83 157 99 97 123 86 122 87 161 83 89
internal_value=0.000335172 0.00140779 -0.000505914 -0.00104363 -0.00204912 0.00287052 -0.000249369 0.00102394 0.000251218 0.000822682 0.00032418
internal_weight=1272 572 700 530 220 243 310 170 329 244 211
internal_count=1272 572 700 530 220 243 310 170 329 244 211
is_linear=0
shrinkage=0.0107696


Tree=28
num_leaves=11
num_cat=0
split_feature=8 23 8 16 8 15 11 16 23 22
split_gain=7.32758 10.9606 6.62784 10.2267 6.96216 3.33515 2.71999 0.70766 0.684586 0.535545
threshold=1.4688996370908667e-08 0.035343323000000003 3.5771721062007249e-06 0.23304956562724863 0.48725488808667167 -0.037308300434591095 1.2300436330564527e-05 0.89855257779089981 0.024189158000000006 0.0018029920527204502
decision_type=2 2 2 2 2 2 2 2 2 2
left_child=6 7 3 -3 -4 -5 -1 -2 -8 -10
right_child=1 2 4 5 -6 -7 8 -9 9 -11
leaf_value=0 -0.0036311405137109416 0.0032227966471042335 -0.0030006218977198856 -0.001417445505704443 0.00050846940438413056 0.00082819469678146193 0.0028120459071271516 -0.0014658214759051759 0.0003152852794462533 0.0018329288006783619
leaf_weight=115 100 153 128 139 114 163 98 86 100 109
leaf_count=115 100 153 128 139 114 163 98 86 100 109
internal_value=0.000101247 -0.000435796 0.000150564 0.000947856 -0.00124554 -0.0001233 0.00128363 -0.00276519 0.00181435 0.00122626
internal_weight=1305 883 697 455 242 302 422 186 307 209
internal_count=1305 883 697 455 242 302 422 186 307 209
is_linear=0
shrinkage=0.0107696


Tree=29
num_leaves=11
num_cat=0
split_feature=8 11 9 8 7 17 11 11 8 9
split_gain=16.6783 18.7844 10.3328 6.80223 9.41952 4.80279 3.27801 2.9211 2.43515 0.30722
threshold=2.8650286829323501e-06 0.25128973514291225 0.70878086444536725 2.3411621360632701e-08 -0.21470329672044089 -0.13423406212383723 8.1631590579925477e-05 5.8409434060016055e-05 1.0998948726084345e-08 -0.34789045682737046
decision_type=2 2 2 2 2 2 2 2 2 2
left_child=2 -2 3 7 -5 -6 -4 8 -1 -9
right_child=1 -3 6 4 5 -7 -8 9 -10 -11
leaf_value=0.00079225491415081607 -0.0066242912497378893 -0.00028496092273208243 0.00033901410452387274 0.0017222592363290636 -0.0036034268710924996 -0.00055365388536674886 0.0033614708914283973 0.00067184193228736098 -0.0013989761858554781 0.0022442911152564357
leaf_weight=147 91 156 85 85 150 137 150 83 97 110
leaf_count=147 91 156 85 85 150 137 150 83 97 110
internal_value=-0.000194812 -0.00272329 0.000379859 -0.00016918 -0.00126377 -0.00223506 0.00237472 0.000705842 0 0.00169763
internal_weight=1291 247 1044 809 372 287 235 437 244 193
internal_count=1291 247 1044 809 372 287 235 437 244 193
is_linear=0
shrinkage=0.0107696


Tree=30
num_leaves=12
num_cat=0
split_feature=0 5 10 19 19 2 2 10 23 23 23
split_gain=7.82712 7.77687 7.49347 5.81113 5.79211 2.60574 1.78172 1.56129 1.34055 1.67963 0.574069
threshold=-0.0099999999999999967 0.077654545867882313 -0.15618224215435417 2.0510880850743998e-05 0.00034311376194410002 18.655000000000005 13.555000000000001 -0.52311747193723812 0.04093449250000001 0.26083903000000003 0.059328417500000008
decision_type=2 2 2 2 2 2 2 2 2 2 2
left_child=1 6 7 8 10 -6 -1 -3 -2 -10 -5
right_child=3 2 -4 4 5 -7 -8 -9 9 -11 -12
leaf_value=-0.0016410384034722149 -0.00047225005839310325 0.0015421177922477951 0.0039086615094727616 -0.0017608881045052482 -0.0017055028977005999 0.00063972490406243206 9.8450839899011161e-05 -0.00033731612905179621 0.001992493228562227 0 -0.0038180867873978713
leaf_weight=97 130 83 138 94 93 117 155 97 85 88 108
leaf_count=97 130 83 138 94 93 117 155 97 85 88 108
internal_value=-5.86012e-05 0.000861574 0.00199708 -0.000826942 -0.00166779 -0.00028101 -0.000473038 0.000391822 0.000234625 0.000909307 -0.00298545
internal_weight=1285 570 318 715 412 210 252 180 303 173 202
internal_count=1285 570 318 715 412 210 252 180 303 173 202
is_linear=0
shrinkage=0.0107696


Tree=31
num_leaves=11
num_cat=0
split_feature=8 21 8 2 11 13 8 11 20 13
split_gain=8.49021 7.03357 4.12081 7.03217 5.48836 6.95604 2.59048 2.34983 1.29314 0.805576
threshold=3.5771721062007249e-06 0.096614640274968563 1.2779004695538737e-08 13.455000000000002 0.00013078340449200002 -0.061476115417928093 3.524777569151162e-08 1.9454050371350818e-05 -1.0000000180025095e-35 0.59155056579370002
decision_type=2 2 2 2 2 2 2 2 2 2
left_child=2 -2 7 6 -5 -6 -4 -1 -9 -7
right_child=1 -3 3 4 5 9 -8 8 -10 -11
leaf_value=0.00015700726935405159 -0.00032239011606132367 -0.0043562849757830154 -0.00017922282093851325 -0.00093073985146162222 -8.8110713514591589e-05 0.0039706718574605256 -0.0029685301114524137 0.0030539532493718789 0.00086265747714000596 0.0016757638644239133
leaf_weight=150 166 83 95 154 150 85 103 110 101 94
leaf_count=150 166 83 95 154 150 85 103 110 101 94
internal_value=0 -0.00176832 0.000444301 -1.31683e-05 0.000650383 0.00146607 -0.00175664 0.0013758 0.00212391 0.00290632
internal_weight=1291 249 1042 681 483 329 198 361 211 179
internal_count=1291 249 1042 681 483 329 198 361 211 179
is_linear=0
shrinkage=0.0107696


Tree=32
num_leaves=12
num_cat=0
split_feature=4 0 10 10 17 17 4 5 13 17 19
split_gain=12.7769 10.0528 7.71229 6.52692 5.11856 3.76768 3.32287 2.62479 2.5896 0.835536 0.193943
threshold=0.0099999999999998996 0.020000000000000014 0.10591026201596361 -0.30511522732054513 0.37208506765754207 -0.62029200503535065 0.029999999999999919 0.12719233968911739 0.013550743780747951 -0.086674872117385282 6.4621949261392517e-05
decision_type=2 2 2 2 2 2 2 2 2 2 2
left_child=1 4 9 5 7 -2 10 8 -1 -3 -5
right_child=3 2 -4 6 -6 -7 -8 -9 -10 -11 -12
leaf_value=-0.0022612835995442096 0.0012304909013307144 -9.7906808076905609e-05 -0.0052574857950188035 0.000315296406447868 0.001662715669522712 -0.0015665914007083413 0.0039540913922521655 0.00026309669535715639 0 -0.001960985494309557 0.0016402968292269977
leaf_weight=165 103 85 97 83 129 116 99 145 110 92 91
leaf_count=165 103 85 97 83 129 116 99 145 110 92 91
internal_value=-0.000206299 -0.00104296 -0.00273357 0.00114264 -0.00015349 -0.000137704 0.0022603 -0.000770815 -0.00140617 -0.00120731 0.00115168
internal_weight=1315 823 274 492 549 219 273 420 275 177 174
internal_count=1315 823 274 492 549 219 273 420 275 177 174
is_linear=0
shrinkage=0.0107696


Tree=33
num_leaves=11
num_cat=0
split_feature=9 3 8 20 8 6 11 8 9 10
split_gain=16.482 11.1288 9.51272 5.17145 4.0134 3.79148 4.24303 2.82054 2.54145 0.308598
threshold=-0.7083659553245224 -0.039999999999999862 3.5771721062007249e-06 -0.60202366894917347 7.9246284016331171e-08 -0.059613342746487344 0.00013879617540085002 3.3082926633075954e-08 0.50404468097070787 -0.33362396710449477
decision_type=2 2 2 2 2 2 2 2 2 2
left_child=4 -2 3 8 -1 7 -7 9 -3 -5
right_child=1 2 -4 5 -6 6 -8 -9 -10 -11
leaf_value=-0.00095368857047604147 0.0039479213968700196 0.0010083101968658573 -0.0019758601362582216 -8.9363569160876447e-05 -0.0040642892558818561 -0.00011374231264988523 0.0026763488981429114 -0.001947494349983521 0.0036296262183542851 0.00066405640973278654
leaf_weight=142 112 147 167 99 104 101 119 110 96 86
leaf_count=142 112 147 167 99 104 101 119 110 96 86
internal_value=0.000111011 0.000724016 0.000306306 0.000842135 -0.00237114 0.000177593 0.00128322 -0.000562936 0.00214747 0.000126849
internal_weight=1283 1037 925 758 246 515 220 295 243 185
internal_count=1283 1037 925 758 246 515 220 295 243 185
is_linear=0
shrinkage=0.0107696


Tree=34
num_leaves=11
num_cat=0
split_feature=20 4 3 12 15 20 20 5 5 12
split_gain=7.34829 6.51081 2.49254 3.42546 1.65956 1.59057 1.23041 0.706838 0.612607 0.514468
threshold=-0.57924504268365384 0.030000000000000141 -0.029999999999999968 0.035156545920449554 0.35975668441137648 1.0000000180025095e-35 -1.2321848985646493 0.12719233968911739 0.089315006724343962 -0.056796663755724543
decision_type=2 2 2 2 2 2 2 2 2 2
left_child=6 2 -2 4 5 7 -1 -4 -5 -8
right_child=1 -3 3 8 -6 -7 9 -9 -10 -11
leaf_value=0.00015669344474953943 0.00053005689851964995 0.0023004045530987268 -0.0011055523899990048 -0.0024323565391814483 -0.0013978956532739205 0.0011123244505836993 0.00089478806626526128 0 -0.00083269119133904496 0.0025471408305211955
leaf_weight=87 164 100 95 152 109 123 94 117 108 149
leaf_count=87 164 100 95 152 109 123 94 117 108 149
internal_value=0.000199495 -0.000251629 -0.000574565 -0.000867237 -0.00022713 8.00365e-05 0.00159766 -0.000402038 -0.00186415 0.00201098
internal_weight=1298 968 868 704 444 335 330 212 260 243
internal_count=1298 968 868 704 444 335 330 212 260 243
is_linear=0
shrinkage=0.0107696


Tree=35
num_leaves=12
num_cat=0
split_feature=9 17 19 19 9 14 11 1 11 11 9
split_gain=7.86593 4.72575 4.29463 7.07182 4.28755 3.06607 3.176 2.97953 1.98378 1.86613 1.49685
threshold=-0.81695173171381519 1.4170666420951987 0.038557807348407004 0.00059713912415065016 -1.4145950276910695 -0.29460001511827266 0.042252297560890405 0.079998016357421889 0.070484422064438071 6.9209484175422405e-05 0.62918157096342464
decision_type=2 2 2 2 2 2 2 2 2 2 2
left_child=4 2 3 5 -1 9 7 10 -4 -2 -7
right_child=1 -3 8 -5 -6 6 -8 -9 -10 -11 -12
leaf_value=0 0 0.0026878194170825999 6.5697477403177393e-05 -0.0030193582895412106 -0.0031810892436743396 -0.0002006908449993547 -0.0011143395015424471 0.0025137621394640637 0.0026096054186011139 -0.0018766296679366943 0.0014995631609685596
leaf_weight=90 148 86 90 97 133 156 84 121 97 113 83
leaf_count=90 148 86 90 97 133 156 84 121 97 113 83
internal_value=-9.77673e-05 0.000263875 2.76517e-05 -0.000289275 -0.00195164 5.15881e-05 0.000628669 0.00110463 0.00151895 -0.000834768 0.000286332
internal_weight=1298 1075 989 802 223 705 444 360 187 261 239
internal_count=1298 1075 989 802 223 705 444 360 187 261 239
is_linear=0
shrinkage=0.0107696


Tree=36
num_leaves=12
num_cat=0
split_feature=4 9 13 15 15 11 13 16 7 16 23
split_gain=4.95281 3.88571 5.40549 4.07547 2.95809 9.05062 5.60848 3.15134 1.44073 2.45501 0.707315
threshold=0.039999999999999931 0.62918157096342464 0.86304187822199085 0.013485908774882751 0.29284252220440832 0.00014177644048755003 -0.12702405538731013 0.90679394516043799 -0.043721250497214294 0.65362204011243563 0.055482480500000007
decision_type=2 2 2 2 2 2 2 2 2 2 2
left_child=1 2 4 10 6 -6 7 -1 9 -8 -3
right_child=-2 3 -4 -5 5 -7 8 -9 -10 -11 -12
leaf_value=-0.0034986637730792295 0.0023084484509281388 -0.000826770809717611 0.0012583304582287158 0.0026220734064222317 0 -0.0044202895932512103 0.00068627545155174876 -0.00033286623198322708 0.0014387207050679967 -0.0015502585123572826 0.00055075926210348524
leaf_weight=87 98 83 147 100 137 101 155 97 98 88 83
leaf_count=87 98 83 147 100 137 101 155 97 98 88 83
internal_value=0 -0.000209322 -0.000561064 0.000900313 -0.000944308 -0.00197218 -0.000430645 -0.0019661 0.000325444 -2.18338e-05 0
internal_weight=1274 1176 910 266 763 238 525 184 341 243 166
internal_count=1274 1176 910 266 763 238 525 184 341 243 166
is_linear=0
shrinkage=0.0107696


Tree=37
num_leaves=12
num_cat=0
split_feature=9 10 6 11 2 6 20 1 6 1 20
split_gain=8.39242 4.99485 4.35103 5.24504 8.32691 3.28938 3.13657 3.35613 3.14203 2.81073 1.79444
threshold=-0.81695173171381519 0.97045939879846277 1.0000000180025095e-35 6.8028428412290608e-05 23.235000000000003 -0.18287757072017688 -0.51327090055409663 0.065002441406250014 -0.47591585517092722 -0.11999893188476561 -0.9117227726167384
decision_type=2 2 2 2 2 2 2 2 2 2 2
left_child=5 2 6 -4 -5 -1 10 9 -9 -8 -2
right_child=1 -3 3 4 -6 -7 7 8 -10 -11 -12
leaf_value=-0.00046758188530624358 -0.00029707342268127439 0.0023894590257416445 -0.00051857879556249263 0.0040960641237272567 -0.00011021440026155023 -0.0034065706769725659 -0.000534850890410738 -0.0011941989002775223 0.0016801998922047951 -0.0029685210236007286 0.0016827857822394867
leaf_weight=113 83 115 128 112 85 109 151 91 83 128 95
leaf_count=113 83 115 128 112 85 109 151 91 83 128 95
internal_value=-0.000104866 0.00026985 0 0.00102653 0.00215621 -0.00202361 -0.000506715 -0.00100454 3.44258e-05 -0.00174126 0.000620524
internal_weight=1293 1071 956 325 197 222 631 453 174 279 178
internal_count=1293 1071 956 325 197 222 631 453 174 279 178
is_linear=0
shrinkage=0.0107696


Tree=38
num_leaves=13
num_cat=0
split_feature=10 10 18 3 12 7 12 7 19 18 2 5
split_gain=3.96319 8.1013 3.91019 3.99296 2.82037 2.36082 3.66197 2.55961 4.03826 1.36055 3.15419 0.520801
threshold=-0.76515515892127128 -0.61112148239539865 -1.2975515986617745 0.039999999999999709 0.091559419886469304 -0.10900838937617784 -0.13608421473266247 -0.020229828895437497 0.0015932724846439501 -0.15484875848052956 17.015000000000004 0.079078210126096865
decision_type=2 2 2 2 2 2 2 2 2 2 2 2
left_child=4 -2 -3 5 -1 9 -7 8 -8 -4 -11 -9
right_child=1 2 3 -5 -6 6 7 11 -10 10 -12 -13
leaf_value=0.0020676018957737621 -0.0034171905142904254 -0.0022772227856601526 -4.1976362710204691e-05 0.0023875636978367048 -1.0251377913496579e-05 0.0011221521517452888 -0.0030065576930849839 -0.00067893281086508649 0 0 0.0027592091984995344 0.00050640507920075232
leaf_weight=150 93 85 120 83 107 104 134 83 85 88 85 86
leaf_count=150 93 85 120 83 107 104 134 83 85 88 85 86
internal_value=-6.75733e-05 -0.000379842 -5.69443e-05 0.000132155 0.00110628 -7.50109e-05 -0.000558615 -0.00107338 -0.0018427 0.000652154 0.00127685 0
internal_weight=1303 1046 953 868 257 785 492 388 219 293 173 169
internal_count=1303 1046 953 868 257 785 492 388 219 293 173 169
is_linear=0
shrinkage=0.0107696


Tree=39
num_leaves=12
num_cat=0
split_feature=9 22 11 18 16 9 3 1 18 16 9
split_gain=4.64981 7.60249 4.48003 4.71783 3.32348 3.21658 3.87272 2.7971 1.30021 0.720349 0.499445
threshold=0.2869226221364185 0.0015870701509684501 0.00011237268962355003 0.18052223146433014 0.53320597743565112 -0.91679745462105566 0.010000000000000177 0.055000305175781257 0.79025240787394779 0.92849947154531765 -0.11625040044931943
decision_type=2 2 2 2 2 2 2 2 2 2 2
left_child=2 9 8 5 -3 -4 7 -7 10 -2 -1
right_child=1 4 3 -5 -6 6 -8 -9 -10 -11 -12
leaf_value=0.00027426544829611447 -0.0014982410843400514 0.0033284384772880125 -0.002220619914723661 -0.0028875273254400434 0.00060608592274886855 -5.5597596228010051e-06 -0.0016395678447007234 0.0025025454250779829 0.0014413523212456999 0 -0.00074486765819158421
leaf_weight=135 98 118 94 153 143 87 94 83 88 87 86
leaf_count=135 98 118 94 153 143 87 94 83 88 87 86
internal_value=-0.000139954 0.000719156 -0.000637568 -0.00126714 0.00193308 -0.000504447 1.33024e-05 0.00107387 0.000323265 -0.000859372 -1.01336e-05
internal_weight=1266 446 820 511 261 358 264 170 309 185 221
internal_count=1266 446 820 511 261 358 264 170 309 185 221
is_linear=0
shrinkage=0.0107696


Tree=40
num_leaves=12
num_cat=0
split_feature=23 0 17 14 5 5 20 18 14 5 5
split_gain=11.2349 6.39792 4.83931 3.38183 2.1817 5.14775 3.32761 1.96262 1.35765 1.50168 0.777725
threshold=0.98098536500000011 0.024999999999999915 0.25704005626740228 0.73886473290654042 0.089315006724343962 0.072852012275594014 -0.77411511118616572 -1.0000000180025095e-35 -0.35171533050861675 0.33481068114057116 0.088841109114721512
decision_type=2 2 2 2 2 2 2 2 2 2 2
left_child=1 3 10 4 5 6 -1 -8 -6 -10 -3
right_child=-2 2 -4 -5 8 -7 7 -9 9 -11 -12
leaf_value=0.0022270886403660023 0.0036009827012450277 0.00016230086699330952 -0.0035149044689834342 0.0020398807536697303 0 -0.0022933750920631334 0.00075438477993084721 -0.0013410992377201312 0.0024279969359848018 0.00035043464947091834 -0.0010482170757953547
leaf_weight=84 116 109 84 148 126 112 88 106 95 131 93
leaf_count=84 116 109 84 148 126 112 88 106 95 131 93
internal_value=0.00040075 6.35932e-05 -0.00131273 0.000533917 0.000199748 -0.000309603 0.000400947 -0.00026268 0.00083457 0.00133453 -0.000272375
internal_weight=1292 1176 286 890 742 390 278 194 352 226 202
internal_count=1292 1176 286 890 742 390 278 194 352 226 202
is_linear=0
shrinkage=0.0107696


Tree=41
num_leaves=11
num_cat=0
split_feature=0 0 18 7 7 3 0 14 19 6
split_gain=14.4562 8.63949 1.85351 2.57392 2.10308 4.17804 2.74215 1.56301 1.66173 0.380644
threshold=-0.050000000000000024 0.049999999999999975 -0.70671942387741782 -0.076632238069210989 -0.098226095766751328 -0.019999999999999848 -0.0099999999999999967 0.086863150256713317 1.387223532831673e-05 -0.45520586723667072
decision_type=2 2 2 2 2 2 2 2 2 2
left_child=-1 2 3 9 6 -6 -4 8 -7 -2
right_child=1 -3 4 -5 5 7 -8 -9 -10 -11
leaf_value=0.0041617148882587803 -0.00055632892404186497 -0.0026408296916615613 0.0017150464478376175 0.0018870154400693502 -0.0021393461379665222 0.0017154512780979281 -0.00029303169667488246 -0.000922583508554947 -5.6587371018590801e-05 0.00045461780697764333
leaf_weight=98 83 141 138 153 138 97 146 104 101 89
leaf_count=98 83 141 138 153 138 97 146 104 101 89
internal_value=0.00018058 -0.000126808 0.000187703 0.000871126 -8.4862e-05 -0.000580574 0.000595589 5.00603e-05 0.000686645 0
internal_weight=1288 1190 1049 325 724 440 284 302 198 172
internal_count=1288 1190 1049 325 724 440 284 302 198 172
is_linear=0
shrinkage=0.0107696


Tree=42
num_leaves=12
num_cat=0
split_feature=0 2 8 10 10 16 4 16 8 10 23
split_gain=11.4045 7.35822 4.79425 7.01041 5.60676 3.07313 2.31397 2.99318 0.854061 0.321706 0.125704
threshold=0.049999999999999975 22.975000000000005 1.0932283250453333e-08 -0.30511522732054513 -0.76515515892127128 0.80020915585999763 1.0000000180025095e-35 0.49891426735819683 2.8650286829323501e-06 0.37587355419081375 0.061396895000000007
decision_type=2 2 2 2 2 2 2 2 2 2 2
left_child=1 2 10 4 -4 -3 8 -8 9 -5 -1
right_child=-2 5 3 6 -6 -7 7 -9 -10 -11 -12
leaf_value=0.0016589537583297537 -0.0028259440511630156 0.0036395398957922622 -9.2889271772512153e-05 -7.1345582481187702e-05 -0.0033901009584300502 0.00048413145361268339 0.0028805306991305487 0 -0.0010659902587540355 0.00070760150073270213 0.00046021712575757142
leaf_weight=169 135 109 143 83 128 84 83 111 89 83 83
leaf_count=169 135 109 143 83 128 84 83 111 89 83 83
internal_value=0.000109973 0.00047179 6.38669e-05 -0.000356528 -0.00174277 0.00239611 0.000425082 0.00132844 -0.000165089 0.000168776 0.00136314
internal_weight=1300 1165 972 720 271 193 449 194 255 166 252
internal_count=1300 1165 972 720 271 193 449 194 255 166 252
is_linear=0
shrinkage=0.0107696


Tree=43
num_leaves=12
num_cat=0
split_feature=9 5 21 23 7 15 15 7 11 5 22
split_gain=8.49878 5.6899 4.9109 10.0804 7.15152 5.02259 5.83388 4.82079 5.39903 9.95424 1.40707
threshold=-0.93019086971895104 0.079387850618425557 0.0063646728529704504 0.70444927000000013 0.10019387843542947 0.48364303764161104 -0.12471855894076078 -0.17344309351617762 0.00012039875899435002 0.23373458545454617 0.0013871358327234003
decision_type=2 2 2 2 2 2 2 2 2 2 2
left_child=1 -1 4 5 7 6 -4 10 -9 -10 -2
right_child=2 -3 3 -5 -6 -7 -8 8 9 -11 -12
leaf_value=0 0 -0.0039704191767672295 0.001195047937671737 0.004390057752125154 0.0026646361011329459 0.0027452333908406321 -0.001718295492310189 0.0001370991452065023 -0.0047452896548047518 -0.00018374591819904972 0.0018269891410274608
leaf_weight=83 87 91 163 97 88 86 152 157 108 139 83
leaf_count=83 87 91 163 97 88 86 152 157 108 139 83
internal_value=8.29287e-05 -0.00211188 0.000433769 0.00124714 -0.000140692 0.00042377 -0.000132019 -0.000614561 -0.0012796 -0.00228025 0.000819568
internal_weight=1334 174 1160 498 662 401 315 574 404 247 170
internal_count=1334 174 1160 498 662 401 315 574 404 247 170
is_linear=0
shrinkage=0.0107696


Tree=44
num_leaves=12
num_cat=0
split_feature=0 11 10 13 11 7 19 19 4 10 3
split_gain=11.5661 8.70951 6.35692 6.05798 5.02617 3.6895 2.64359 3.27167 2.39982 1.20482 0.686589
threshold=-0.010000000000000004 0.0015486324238064002 -0.19423718017234581 0.068967345985944811 0.45825379315534576 0.08689071434742332 6.865169694117109e-07 0.00036275983927370006 0.01999999999999991 -0.38287261904330949 -0.01000000000000034
decision_type=2 2 2 2 2 2 2 2 2 2 2
left_child=2 5 8 -4 -3 6 -2 9 10 -8 -1
right_child=1 4 3 -5 -6 -7 7 -9 -10 -11 -12
leaf_value=0.00010049963396015658 0.00055567933345092399 -0.0042292217753754548 0.0043475028137203728 0.00052944111937902464 -0.000621466907477121 0.0019612599058235298 -0.0031020844617781099 0.00034603045100813128 0.0017572209178127649 -0.00074451451019451494 -0.00094952997811323272
leaf_weight=145 156 112 121 108 106 90 83 84 92 88 101
leaf_count=145 156 112 121 108 106 90 83 84 92 88 101
internal_value=9.18532e-05 -0.000794044 0.00125899 0.00265661 -0.00259032 0 -0.000444539 -0.00115382 0.000237929 -0.00203552 -0.000229907
internal_weight=1286 719 567 229 218 501 411 255 338 171 246
internal_count=1286 719 567 229 218 501 411 255 338 171 246
is_linear=0
shrinkage=0.0107696


Tree=45
num_leaves=11
num_cat=0
split_feature=8 5 9 23 8 2 23 8 12 19
split_gain=33.5513 15.0503 5.61247 5.5987 4.37219 5.15312 3.2565 1.99862 1.57506 0.445418
threshold=2.8650286829323501e-06 0.13851549400796903 0.6404303612845802 0.058447241500000004 2.190489363664855e-08 13.335000000000003 0.58762751500000021 5.9726868114308949e-08 0.14420779419500576 0.00021409319699570005
decision_type=2 2 2 2 2 2 2 2 2 2
left_child=2 -2 4 -4 8 -6 7 -7 9 -1
right_child=1 -3 3 -5 5 6 -8 -9 -10 -11
leaf_value=0.0015114538614000362 -0.0072970709949171392 -0.0014972330891456047 1.7487233150960585e-05 0.0033084703910135262 -0.0029215203865727017 8.5116559645573349e-05 0.0015732763996102188 -0.0019478136983338483 -9.6208728392209542e-05 0.00019300117570970847
leaf_weight=230 95 146 127 148 95 83 97 97 107 88
leaf_count=230 95 146 127 148 95 83 97 97 107 88
internal_value=-0.000246457 -0.0038892 0.000549667 0.00187968 5.93497e-05 -0.000758794 0 -0.000873043 0.000833937 0.00122494
internal_weight=1313 241 1072 275 797 372 277 180 425 318
internal_count=1313 241 1072 275 797 372 277 180 425 318
is_linear=0
shrinkage=0.0107696


Tree=46
num_leaves=13
num_cat=0
split_feature=8 20 20 23 8 13 20 2 2 20 20 2
split_gain=9.09607 10.4788 9.8561 6.99896 2.93817 2.30631 2.19788 1.78217 1.53588 0.730518 1.19214 0.687094
threshold=2.3685760476072419e-07 -0.57307240396727599 -0.2913479363211437 0.72061092000000004 3.524777569151162e-08 -0.42046483239521676 0.073929592891023008 14.155000000000003 13.505000000000001 1.0884272299589293 0.17976152145795429 14.615
decision_type=2 2 2 2 2 2 2 2 2 2 2 2
left_child=1 5 -2 7 9 -1 -6 -4 -7 10 11 -3
right_child=2 4 3 -5 6 8 -8 -9 -10 -11 -12 -13
leaf_value=0.0038301057805315195 -0.0046151632608431989 0.0012301277311339667 -0.00027551823020394753 0.0020958096589892023 -0.0026560039113056725 0 0 -0.0025798799058932629 0.0022158747323338247 0.0011127179921348186 -0.00070930358518831046 0
leaf_weight=93 87 93 109 86 84 86 88 101 117 87 153 119
leaf_count=93 87 93 109 86 84 86 88 101 117 87 153 119
internal_value=0 0.000572105 -0.00140271 -0.000373004 -0.000183047 0.00224736 -0.00140244 -0.00150297 0.00139796 0.000226268 0 0.000537258
internal_weight=1303 920 383 296 624 296 172 210 203 452 365 212
internal_count=1303 920 383 296 624 296 172 210 203 452 365 212
is_linear=0
shrinkage=0.0107696


Tree=47
num_leaves=11
num_cat=0
split_feature=9 4 9 14 6 5 6 5 22 14
split_gain=8.83921 7.6261 5.34683 4.47372 2.92115 2.30092 4.0096 1.94781 1.86643 1.52233
threshold=-0.79539701371655358 0.029999999999999919 0.89124082495452639 -1.1486365908126615 -0.24151464927510516 0.083920584674393908 0.63489811967060805 0.06441240836117966 0.073173640214496669 0.25730261867558224
decision_type=2 2 2 2 2 2 2 2 2 2
left_child=4 2 3 -2 -1 7 8 -5 -7 -9
right_child=1 -3 -4 5 -6 6 -8 9 -10 -11
leaf_value=-0.00034799208035529749 -0.0025468635484953007 0.0027826921675907358 0.0018846804317519804 0.00032078084675155445 -0.0031634724283578896 0.0024563446491179665 -0.0011960428954041376 -0.0021228495533573816 0.0003695612614578858 0
leaf_weight=105 89 142 159 112 113 110 91 116 155 86
leaf_count=105 89 142 159 112 113 110 91 116 155 86
internal_value=3.06425e-05 0.000455917 6.85958e-05 -0.000279365 -0.00192233 0 0.000614522 -0.000649179 0.00133028 -0.00130979
internal_weight=1278 1060 918 759 218 670 356 314 265 202
internal_count=1278 1060 918 759 218 670 356 314 265 202
is_linear=0
shrinkage=0.0107696


Tree=48
num_leaves=12
num_cat=0
split_feature=9 15 16 22 22 16 16 22 15 3 19
split_gain=6.91742 6.89964 5.33227 5.87473 3.13302 3.97991 3.83216 2.19162 2.1906 1.66281 1.00003
threshold=-0.81695173171381519 0.3105831193443464 0.23304956562724863 0.067999304121042617 0.00052404465750715017 0.87418822618835212 0.59178953887090768 0.22108757608559532 -0.20161932635784338 -0.0099999999999998406 1.387223532831673e-05
decision_type=2 2 2 2 2 2 2 2 2 2 2
left_child=1 -1 3 -2 10 6 7 -6 -7 -10 -4
right_child=2 -3 4 -5 5 8 -8 -9 9 -11 -12
leaf_value=0 0.00011464232048814606 -0.0039210468110618072 -7.9778021946776422e-05 0.0042486486161827913 0.0016948405699741924 0.0024055721601004281 -0.0020987629348899937 -0.0004149795197707669 -0.00049205399721583595 0.0012746549847776339 -0.0019192558087637586
leaf_weight=141 102 91 102 83 90 130 105 126 90 133 96
leaf_count=141 102 91 102 83 90 130 105 126 90 133 96
internal_value=5.21637e-05 -0.0016088 0.000440387 0.00210526 5.84223e-05 0.000435077 -0.000374389 0.000349607 0.00124141 0.000450379 -0.00109774
internal_weight=1289 232 1057 185 872 674 321 216 353 223 198
internal_count=1289 232 1057 185 872 674 321 216 353 223 198
is_linear=0
shrinkage=0.0107696


Tree=49
num_leaves=12
num_cat=0
split_feature=22 20 22 11 22 22 11 20 21 3 17
split_gain=5.36663 3.88635 5.93432 9.16157 2.63479 3.46515 2.51311 1.45767 1.40548 1.75004 1.39601
threshold=0.7856493874405005 1.0000000180025095e-35 0.0032352362496923001 0.00023068443374325002 0.00067746860803490018 0.0070426924981907505 0.00013078340449200002 0.73696000558596231 -0.25732505098577302 -0.01000000000000009 -0.49991230082908972
decision_type=2 2 2 2 2 2 2 2 2 2 2
left_child=1 4 7 -4 10 6 -6 -3 -7 -10 -1
right_child=-2 2 3 -5 5 8 -8 -9 9 -11 -12
leaf_value=0.00023041172569326587 0.0021781166217658995 -0.00046884076646547886 0 -0.0048302336933680658 0.00051563225945376763 -0.00096312747335736289 0.0031251274566424575 0.0010554864458199368 -0.00038104191138599791 0.0014086977560325623 -0.0014765737699249401
leaf_weight=87 151 157 84 86 113 88 113 124 86 138 95
leaf_count=87 151 157 84 86 113 88 113 124 86 138 95
internal_value=0.000267396 0 -0.000762555 -0.00235915 0.00051153 0.000908251 0.00193131 0.000115589 8.70778e-05 0.000610856 -0.000524554
internal_weight=1322 1171 451 170 720 538 226 281 312 224 182
internal_count=1322 1171 451 170 720 538 226 281 312 224 182
is_linear=0
shrinkage=0.0107696


Tree=50
num_leaves=11
num_cat=0
split_feature=8 15 19 6 17 20 8 17 19 8
split_gain=15.4465 13.5075 11.0562 4.02897 3.84206 3.25338 3.98001 2.97392 2.1936 1.03982
threshold=5.6715850166715848e-07 0.07787126499774337 0.014122041214177551 -0.35778061769479369 -0.7632807356256619 -0.57924504268365384 1.3330606494669692e-08 0.37208506765754207 0.00017926485550340002 1.2548093387408285e-08
decision_type=2 2 2 2 2 2 2 2 2 2
left_child=3 2 -2 5 -5 -1 -7 9 -8 -6
right_child=1 -3 -4 4 7 6 8 -9 -10 -11
leaf_value=0.001080242470749059 -0.0028434500626533543 -0.0057055602250377204 0.0016881013485779684 0.0030701379972691003 0.00079312766773267571 0.00053163629409175371 -0.003211997389179017 0.0018851048497612914 -0.00051540029322532147 -0.00067979104456587509
leaf_weight=149 136 93 109 107 84 123 84 134 107 147
leaf_count=149 136 93 109 107 84 123 84 134 107 147
internal_value=-0.000184526 -0.00217137 -0.000726159 0.000507336 0.0012143 -0.000159841 -0.000827603 0.000601305 -0.00183272 -3.65162e-05
internal_weight=1273 338 245 935 472 463 314 365 191 231
internal_count=1273 338 245 935 472 463 314 365 191 231
is_linear=0
shrinkage=0.0107696


Tree=51
num_leaves=11
num_cat=0
split_feature=9 0 2 19 22 6 22 22 22 19
split_gain=18.9644 6.15036 7.21529 4.55867 3.57786 4.15606 3.88032 2.87595 2.56874 2.34246
threshold=-0.83687017380219586 -0.030000000000000016 17.490000000000006 1.387223532831673e-05 0.0070426924981907505 -1.0000000180025095e-35 0.00079218164966855006 0.032245297994474613 0.0016993346442301502 5.8349420994982429e-08
decision_type=2 2 2 2 2 2 2 2 2 2
left_child=8 2 -2 7 6 -6 -5 9 -1 -3
right_child=1 3 -4 4 5 -7 -8 -9 -10 -11
leaf_value=-0.0011779463390279494 0.00028249267291596819 -0.00030932904435300803 0.0042340305953364517 -0.00098586493728388433 -0.0029568262212346518 0 0.0017289593476084953 0.0027465529356430459 -0.004099435907189735 0.0017260498547376733
leaf_weight=93 136 154 108 107 112 137 127 96 116 99
leaf_count=93 136 154 108 107 112 137 127 96 116 99
internal_value=2.72063e-05 0.000622999 0.00213464 0.000149556 -0.000492916 -0.00141424 0.000381557 0.00110975 -0.0029198 0.000389413
internal_weight=1285 1076 244 832 483 249 234 349 209 253
internal_count=1285 1076 244 832 483 249 234 349 209 253
is_linear=0
shrinkage=0.0107696


Tree=52
num_leaves=12
num_cat=0
split_feature=9 0 14 9 9 2 1 1 1 2 1
split_gain=15.4474 7.10293 5.77878 3.99362 6.26649 7.94951 3.44726 3.59646 2.84201 3.93179 2.61825
threshold=0.70878086444536725 0.044999999999999991 -0.23317634773000087 -0.93019086971895104 -0.15772812322448942 16.73 0.079998016357421889 0.2100028991699219 -0.11999893188476561 14.340000000000002 -0.29499816894531244
decision_type=2 2 2 2 2 2 2 2 2 2 2
left_child=1 3 -2 -1 5 -5 8 -8 10 -10 -6
right_child=2 -3 -4 4 6 -7 7 -9 9 -11 -12
leaf_value=-0.0016932333800263753 0.00026083085032733961 -0.0026899692563702024 0.0038390074877961652 0 -0.0013865301409096344 0.0037481054299202507 0.0023597147172579264 -0.00052516657861071444 -0.00011372870297785965 -0.0037075956917339845 0.0011920460358299625
leaf_weight=144 102 136 158 124 89 116 90 90 88 83 93
leaf_count=144 102 136 158 124 89 116 90 90 88 83 93
internal_value=0.000168332 -0.000391834 0.00253162 -2.35728e-05 0.000255547 0.00171877 -0.000356952 0.000779956 -0.00100713 -0.00200481 0
internal_weight=1313 1053 260 917 773 240 533 180 353 171 182
internal_count=1313 1053 260 917 773 240 533 180 353 171 182
is_linear=0
shrinkage=0.0107696


Tree=53
num_leaves=11
num_cat=0
split_feature=8 8 0 8 14 10 20 5 20 1
split_gain=16.3706 26.4133 4.53091 3.25155 3.09549 3.07898 2.85926 2.4993 1.04199 0.982887
threshold=2.5512468204402028e-06 0.0019432819350843503 -0.010000000000000004 1.4688996370908667e-08 -1.0000000180025095e-35 -0.58839233935468116 -0.64868074620517813 0.079078210126096865 -0.35480868616705069 -0.074996948242187486
decision_type=2 2 2 2 2 2 2 2 2 2
left_child=2 -2 5 8 -5 -1 -7 -6 -4 -8
right_child=1 -3 3 4 7 6 9 -9 -10 -11
leaf_value=0 -0.0060498503285451545 0.00084457413135593281 0.0018304700019192183 -0.0019870829674567278 0.0013175003085881382 0.0039057802203062695 0.0020672985806900676 -0.0011553287679932785 9.4981987428886463e-05 0.00026362817762535157
leaf_weight=143 123 124 96 135 100 83 98 87 128 114
leaf_count=143 123 124 96 135 100 83 98 87 128 114
internal_value=0 -0.00248947 0.000610811 0 -0.000736519 0.00142741 0.00205786 3.4228e-05 0.000950267 0.0012153
internal_weight=1231 247 984 546 322 438 295 187 224 212
internal_count=1231 247 984 546 322 438 295 187 224 212
is_linear=0
shrinkage=0.0107696


Tree=54
num_leaves=11
num_cat=0
split_feature=0 6 15 21 0 13 17 1 17 23
split_gain=8.19656 4.58931 3.73248 7.32368 5.65143 2.92993 3.90517 2.56977 3.78631 0.234403
threshold=-0.059999999999999963 1.310012876775194 0.19249969280392493 0.66584568735986782 0.020000000000000014 -0.83774710356236948 0.42406067888905619 0.18499755859375003 -0.54477575348539364 0.42017108500000006
decision_type=2 2 2 2 2 2 2 2 2 2
left_child=-1 2 5 4 -4 -2 7 8 -7 -10
right_child=1 -3 3 -5 -6 6 -8 -9 9 -11
leaf_value=0.0031034417002893055 -0.001343165702680157 -0.0021244605124535226 -0.00061339450698901161 0.0014403427413994384 -0.0043480591319128604 0.0020695533070901459 0.0027132543625294193 -0.00095643702857161304 -0.0005630589700288286 7.5082934023845948e-05
leaf_weight=84 94 151 147 87 86 148 92 138 86 132
leaf_count=84 94 151 147 87 86 148 92 138 86 132
internal_value=-0.000112287 -0.000366669 -7.90317e-05 -0.00105971 -0.00210009 0.000339877 0.000647243 0.000220224 0.000731941 -6.29098e-05
internal_weight=1245 1161 1010 320 233 690 596 504 366 218
internal_count=1245 1161 1010 320 233 690 596 504 366 218
is_linear=0
shrinkage=0.0107696


Tree=55
num_leaves=11
num_cat=0
split_feature=8 11 11 8 16 8 22 3 7 11
split_gain=18.9882 15.6989 5.90328 2.96879 3.70006 4.44595 3.48748 2.55436 2.02974 1.53644
threshold=2.8650286829323501e-06 0.17073074753546438 0.0072394759006679009 1.0932283250453333e-08 0.13801897257309234 1.1360413568621922e-07 0.0084381389335671502 1.6653345369377351e-16 -0.086283022553275537 1.9454050371350818e-05
decision_type=2 2 2 2 2 2 2 2 2 2
left_child=2 -2 3 9 -5 6 7 8 -6 -1
right_child=1 -3 -4 4 5 -7 -8 -9 -10 -11
leaf_value=0.00010433472512366571 -0.0066245567700995486 -0.00069420047700404668 0.0032186157701727881 0.0015153686445521775 -0.00079014652805129923 -0.0024399708651663033 0.0015448205292314604 -0.0017696816115108293 0.0014001839696502214 0.0020459318652238604
leaf_weight=116 83 168 89 130 105 109 121 131 87 139
leaf_count=116 83 168 89 130 105 109 121 131 87 139
internal_value=-8.53961e-05 -0.00275657 0.000543509 0.000262792 -7.35296e-05 -0.000492244 0 -0.000597677 7.32662e-05 0.0012606
internal_weight=1278 251 1027 938 683 553 444 323 192 255
internal_count=1278 251 1027 938 683 553 444 323 192 255
is_linear=0
shrinkage=0.0107696


Tree=56
num_leaves=13
num_cat=0
split_feature=0 17 2 2 7 4 10 7 4 0 19 5
split_gain=6.80497 10.5082 4.3773 4.0618 2.68805 2.56143 3.45366 5.80301 2.53553 3.59412 1.28174 0.00416488
threshold=-0.010000000000000004 0.41732955308853431 14.025 25.820000000000004 -0.10900838937617784 0.01999999999999991 -0.09628492222243408 -0.040695738023564694 0.014999999999999904 -0.029999999999999857 1.9680747344085879e-05 0.072852012275594014
decision_type=2 2 2 2 2 2 2 2 2 2 2 2
left_child=1 2 11 4 10 6 7 -6 9 -4 -2 -1
right_child=3 -3 8 -5 5 -7 -8 -9 -10 -11 -12 -13
leaf_value=-0.00060525206981107069 0.0013447678953864208 0.0032769943487568876 -0.001377096914360675 -0.0029873496380388438 -0.002491526034590661 0.00044802073107870645 -0.0031105397016726673 0.0011056526996635931 0.0023344387754154769 0.0015429020836143048 -9.6102332609696969e-05 -0.0018285605517659321
leaf_weight=87 106 151 94 85 95 88 103 105 89 100 139 85
leaf_count=87 106 151 94 85 95 88 103 105 89 100 139 85
internal_value=-5.47165e-06 0.000816536 0 -0.000730854 -0.00038967 -0.000964459 -0.00145669 -0.000479326 0.000822695 6.25553e-08 0.000426287 -0.00135509
internal_weight=1327 606 455 721 636 391 303 200 283 194 245 172
internal_count=1327 606 455 721 636 391 303 200 283 194 245 172
is_linear=0
shrinkage=0.0107696


end of trees

feature_importances:
Column_8=51
Column_9=50
Column_22=37
Column_11=36
Column_10=33
Column_2=32
Column_0=31
Column_19=30
Column_1=27
Column_20=27
Column_4=24
Column_15=23
Column_17=23
Column_14=22
Column_16=22
Column_7=21
Column_5=19
Column_23=18
Column_3=15
Column_13=15
Column_21=15
Column_6=13
Column_18=13
Column_12=10

parameters:
[boosting: gbdt]
[objective: regression]
[metric: l2]
[tree_learner: serial]
[device_type: cpu]
[data_sample_strategy: bagging]
[data: ]
[valid: ]
[num_iterations: 219]
[learning_rate: 0.0107696]
[num_leaves: 66]
[num_threads: 2]
[seed: 42]
[deterministic: 0]
[force_col_wise: 0]
[force_row_wise: 0]
[histogram_pool_size: -1]
[max_depth: -1]
[min_data_in_leaf: 83]
[min_sum_hessian_in_leaf: 0.001]
[bagging_fraction: 0.608541]
[pos_bagging_fraction: 1]
[neg_bagging_fraction: 1]
[bagging_freq: 1]
[bagging_seed: 400]
[bagging_by_query: 0]
[feature_fraction: 0.419804]
[feature_fraction_bynode: 1]
[feature_fraction_seed: 30056]
[extra_trees: 0]
[extra_seed: 12879]
[early_stopping_round: 0]
[early_stopping_min_delta: 0]
[first_metric_only: 0]
[max_delta_step: 0]
[lambda_l1: 2.30762]
[lambda_l2: 0.127904]
[linear_lambda: 0]
[min_gain_to_split: 0]
[drop_rate: 0.1]
[max_drop: 50]
[skip_drop: 0.5]
[xgboost_dart_mode: 0]
[uniform_drop: 0]
[drop_seed: 17869]
[top_rate: 0.2]
[other_rate: 0.1]
[min_data_per_group: 100]
[max_cat_threshold: 32]
[cat_l2: 10]
[cat_smooth: 10]
[max_cat_to_onehot: 4]
[top_k: 20]
[monotone_constraints: ]
[monotone_constraints_method: basic]
[monotone_penalty: 0]
[feature_contri: ]
[forcedsplits_filename: ]
[refit_decay_rate: 0.9]
[cegb_tradeoff: 1]
[cegb_penalty_split: 0]
[cegb_penalty_feature_lazy: ]
[cegb_penalty_feature_coupled: ]
[path_smooth: 0]
[interaction_constraints: ]
[verbosity: -1]
[saved_feature_importance_type: 0]
[use_quantized_grad: 0]
[num_grad_quant_bins: 4]
[quant_train_renew_leaf: 0]
[stochastic_rounding: 1]
[linear_tree: 0]
[max_bin: 255]
[max_bin_by_feature: ]
[min_data_in_bin: 3]
[bin_construct_sample_cnt: 200000]
[data_random_seed: 175]
[is_enable_sparse: 1]
[enable_bundle: 1]
[use_missing: 1]
[zero_as_missing: 0]
[feature_pre_filter: 1]
[pre_partition: 0]
[two_round: 0]
[header: 0]
[label_column: ]
[weight_column: ]
[group_column: ]
[ignore_column: ]
[categorical_feature: ]
[forcedbins_filename: ]
[precise_float_parser: 0]
[parser_config_file: ]
[objective_seed: 16083]
[num_class: 1]
[is_unbalance: 0]
[scale_pos_weight: 1]
[sigmoid: 1]
[boost_from_average: 1]
[reg_sqrt: 0]
[alpha: 0.9]
[fair_c: 1]
[poisson_max_delta_step: 0.7]
[tweedie_variance_power: 1.5]
[lambdarank_truncation_level: 30]
[lambdarank_norm: 1]
[label_gain: ]
[lambdarank_position_bias_regularization: 0]
[eval_at: ]
[multi_error_top_k: 1]
[auc_mu_weights: ]
[num_machines: 1]
[local_listen_port: 12400]
[time_out: 120]
[machine_list_filename: ]
[machines: ]
[gpu_platform_id: -1]
[gpu_device_id: -1]
[gpu_use_dp: 0]
[num_gpu: 1]

end of parameters

pandas_categorical:null
