{"learner":{"attributes":{"best_iteration":"36","best_score":"0.5305819417041271"},"feature_names":["rv_ratio_10_30","rv_ratio_10_30_z","gvz_level_z","gvz_vix_ratio","intraday_range_ratio","risk_off_score","gold_silver_ratio_change","equity_gold_beta_20d","gold_copper_ratio_change","rate_surprise_signed","dxy_acceleration","gld_volume_z","volume_return_sign","momentum_divergence","distance_from_20d_high","day_of_week","month_of_year"],"feature_types":[],"gradient_booster":{"model":{"cats":{"enc":[],"feature_segments":[],"sorted_idx":[]},"gbtree_model_param":{"num_parallel_tree":"1","num_trees":"87"},"iteration_indptr":[0,1,2,3,4,5,6,7,8,9,10,11,12,13,14,15,16,17,18,19,20,21,22,23,24,25,26,27,28,29,30,31,32,33,34,35,36,37,38,39,40,41,42,43,44,45,46,47,48,49,50,51,52,53,54,55,56,57,58,59,60,61,62,63,64,65,66,67,68,69,70,71,72,73,74,75,76,77,78,79,80,81,82,83,84,85,86,87],"tree_info":[0,0,0,0,0,0,0,0,0,0,0,0,0,0,0,0,0,0,0,0,0,0,0,0,0,0,0,0,0,0,0,0,0,0,0,0,0,0,0,0,0,0,0,0,0,0,0,0,0,0,0,0,0,0,0,0,0,0,0,0,0,0,0,0,0,0,0,0,0,0,0,0,0,0,0,0,0,0,0,0,0,0,0,0,0,0,0],"trees":[{"base_weights":[-6.3699717E-4,1.736057E-1,-1.2638594E-1,-1.7988457E-1,3.2793295E-1,3.7865385E-1,-2.0713674E-1,2.636108E-1,-6.5619534E-1,1.4026575E-1,7.1904135E-1,7.3593056E-1,-3.3041324E-2,2.6637223E-2,-3.8282257E-1,1.0792594E-1,-1.4600076E-1,-1.7597996E-1,-2.3718728E-1,3.0641878E-2,1.2361546E-1,1.1408144E0,3.055198E-1,4.8350167E-2,1.642402E-1,-3.3931643E-1,3.412776E-1,-2.3516831E-1,-9.2463994E-1,-9.7484075E-2,4.9081523E-2,6.032471E-2,-1.01549774E-1,1.0464309E-1,-1.1626568E-2,9.077308E-2,1.9541581E-1,-3.201395E-2,7.793989E-2,7.626356E-2,-6.8352245E-2,6.44803E-2,-2.8131362E-2,-8.14432E-2,7.775965E-4,-6.6546574E-2,-2.0519297E-1],"categories":[],"categories_nodes":[],"categories_segments":[],"categories_sizes":[],"default_left":[0,0,0,0,0,0,0,0,0,0,0,0,0,0,0,0,0,0,0,0,0,0,0,0,0,0,0,0,0,0,0,0,0,0,0,0,0,0,0,0,0,0,0,0,0,0,0],"id":0,"left_children":[1,3,5,7,9,11,13,15,17,19,21,23,-1,25,27,-1,29,-1,31,33,-1,35,37,-1,-1,39,41,43,45,-1,-1,-1,-1,-1,-1,-1,-1,-1,-1,-1,-1,-1,-1,-1,-1,-1,-1],"loss_changes":[1.0095249E1,1.0546264E1,1.0927457E1,1.2451371E1,9.850834E0,8.570433E0,9.484853E0,7.6792135E0,9.1032915E0,8.598745E0,7.5308704E0,4.786824E0,0E0,1.144293E1,1.0503443E1,0E0,6.5206714E0,0E0,7.992151E0,8.291327E0,0E0,3.6472168E0,4.130942E0,0E0,0E0,9.51E0,5.5427203E0,1.0662048E1,7.8496304E0,0E0,0E0,0E0,0E0,0E0,0E0,0E0,0E0,0E0,0E0,0E0,0E0,0E0,0E0,0E0,0E0,0E0,0E0],"parents":[2147483647,0,0,1,1,2,2,3,3,4,4,5,5,6,6,7,7,8,8,9,9,10,10,11,11,13,13,14,14,16,16,18,18,19,19,21,21,22,22,25,25,26,26,27,27,28,28],"right_children":[2,4,6,8,10,12,14,16,18,20,22,24,-1,26,28,-1,30,-1,32,34,-1,36,38,-1,-1,40,42,44,46,-1,-1,-1,-1,-1,-1,-1,-1,-1,-1,-1,-1,-1,-1,-1,-1,-1,-1],"split_conditions":[-1.660957E-1,-1.1070174E0,-2.5007303E0,-3.211222E-1,4.472733E-1,8.0338985E-1,-2.6783243E-1,-1.7796694E0,-3.7666592E-1,1.1124388E0,9.684597E-1,1.0185843E0,-3.3041324E-2,-4.7083485E-1,1.6128472E0,1.0792594E-1,9.319502E-1,-1.7597996E-1,9.586261E-1,-1.3917892E0,1.2361546E-1,-2.1474472E-1,-7.1378785E-1,4.8350167E-2,1.642402E-1,6.725735E-1,1.1077136E0,-2.430163E-1,9.0383923E-1,-9.7484075E-2,4.9081523E-2,6.032471E-2,-1.01549774E-1,1.0464309E-1,-1.1626568E-2,9.077308E-2,1.9541581E-1,-3.201395E-2,7.793989E-2,7.626356E-2,-6.8352245E-2,6.44803E-2,-2.8131362E-2,-8.14432E-2,7.775965E-4,-6.6546574E-2,-2.0519297E-1],"split_indices":[6,6,5,2,10,9,9,6,11,8,10,4,0,2,5,0,3,0,3,10,0,8,6,0,0,3,1,8,6,0,0,0,0,0,0,0,0,0,0,0,0,0,0,0,0,0,0],"split_type":[0,0,0,0,0,0,0,0,0,0,0,0,0,0,0,0,0,0,0,0,0,0,0,0,0,0,0,0,0,0,0,0,0,0,0,0,0,0,0,0,0,0,0,0,0,0,0],"sum_hessian":[4.604046E2,1.9294756E2,2.6745703E2,5.8619865E1,1.3432768E2,3.677293E1,2.3068411E2,3.0390911E1,2.8228956E1,9.0939095E1,4.338859E1,2.367349E1,1.3099441E1,9.903136E1,1.3165276E2,1.2118152E1,1.8272758E1,9.793168E0,1.8435787E1,8.084167E1,1.0097422E1,2.1323587E1,2.2065004E1,1.5193898E1,8.479591E0,4.576964E1,5.3261715E1,1.0366055E2,2.7992199E1,8.332137E0,9.940622E0,8.242835E0,1.0192953E1,1.0583394E1,7.025828E1,1.1392309E1,9.931278E0,8.086036E0,1.3978968E1,8.322792E0,3.744685E1,4.0405262E1,1.2856455E1,3.7449966E1,6.621059E1,1.8601933E1,9.390267E0],"tree_param":{"num_deleted":"0","num_feature":"17","num_nodes":"47","size_leaf_vector":"1"}},{"base_weights":[-2.5951074E-2,5.2742984E-2,-4.1726917E-1,2.1522959E-1,-7.235205E-2,-1.5800962E-1,-1.8856458E-1,-2.4858263E-1,3.7681082E-1,-2.953651E-1,1.3020585E-1,-6.391505E-1,3.8916585E-1,2.901682E-1,-9.43284E-1,1.9165723E-1,6.375906E-1,9.06291E-2,-4.1001967E-1,3.826478E-1,-1.19561985E-1,-3.918272E-1,-1.5068267E-1,1.0911999E-1,3.2038018E-2,9.458128E-2,-6.365626E-2,-1.814622E-1,-3.3884075E-2,1.4623086E-3,8.042329E-2,-5.3910248E-2,1.0516157E-1,-4.1014295E-2,-1.4703622E-1,1.934983E-2,1.1127106E-1,2.3961319E-2,-9.234149E-2,-1.399213E-1,1.7159184E-2,5.042914E-2,-4.8708227E-2],"categories":[],"categories_nodes":[],"categories_segments":[],"categories_sizes":[],"default_left":[0,0,0,0,0,0,0,0,0,0,0,0,0,0,0,0,0,0,0,0,0,0,0,0,0,0,0,0,0,0,0,0,0,0,0,0,0,0,0,0,0,0,0],"id":1,"left_children":[1,3,5,7,9,11,-1,13,15,17,19,21,23,25,27,29,31,-1,33,35,37,39,-1,-1,41,-1,-1,-1,-1,-1,-1,-1,-1,-1,-1,-1,-1,-1,-1,-1,-1,-1,-1],"loss_changes":[1.4151745E1,7.780369E0,2.2121572E1,1.2494173E1,9.778024E0,1.6521223E1,0E0,1.6186394E1,5.9406815E0,1.2217115E1,7.162632E0,4.7171316E0,5.190988E0,9.449891E0,6.5833645E0,5.997345E0,1.1897198E1,0E0,5.5503654E0,6.59396E0,1.1310105E1,9.369642E0,0E0,0E0,2.804996E0,0E0,0E0,0E0,0E0,0E0,0E0,0E0,0E0,0E0,0E0,0E0,0E0,0E0,0E0,0E0,0E0,0E0,0E0],"parents":[2147483647,0,0,1,1,2,2,3,3,4,4,5,5,7,7,8,8,9,9,10,10,11,11,12,12,13,13,14,14,15,15,16,16,18,18,19,19,20,20,21,21,24,24],"right_children":[2,4,6,8,10,12,-1,14,16,18,20,22,24,26,28,30,32,-1,34,36,38,40,-1,-1,42,-1,-1,-1,-1,-1,-1,-1,-1,-1,-1,-1,-1,-1,-1,-1,-1,-1,-1],"split_conditions":[9.4585615E-1,-1.660957E-1,-2.280134E-1,-1.1656253E0,-4.5072377E-1,1.4464519E0,-1.8856458E-1,-2.8644526E-1,1.340434E-1,6.6558816E-2,-2.5484538E-1,5.4814214E-1,-1.2176498E-1,-1.7551497E-1,-3.0101126E-2,8.012073E-1,6.8915486E-1,9.06291E-2,6.244368E-1,-8.117567E-2,5.697385E-1,-5.1611555E-1,-1.5068267E-1,1.0911999E-1,1.832002E0,9.458128E-2,-6.365626E-2,-1.814622E-1,-3.3884075E-2,1.4623086E-3,8.042329E-2,-5.3910248E-2,1.0516157E-1,-4.1014295E-2,-1.4703622E-1,1.934983E-2,1.1127106E-1,2.3961319E-2,-9.234149E-2,-1.399213E-1,1.7159184E-2,5.042914E-2,-4.8708227E-2],"split_indices":[9,6,14,6,2,9,0,2,8,4,9,11,7,14,14,13,3,0,9,14,8,2,0,0,9,0,0,0,0,0,0,0,0,0,0,0,0,0,0,0,0,0,0],"split_type":[0,0,0,0,0,0,0,0,0,0,0,0,0,0,0,0,0,0,0,0,0,0,0,0,0,0,0,0,0,0,0,0,0,0,0,0,0,0,0,0,0,0,0],"sum_hessian":[4.5920557E2,3.8243643E2,7.676916E1,1.6631693E2,2.1611949E2,6.2412586E1,1.4356569E1,4.293963E1,1.233773E2,1.0283842E2,1.1328108E2,3.3199036E1,2.9213549E1,2.4237646E1,1.870198E1,7.233648E1,5.104082E1,1.0202073E1,9.2636345E1,5.6301865E1,5.6979218E1,2.351266E1,9.686378E0,1.2124061E1,1.7089487E1,1.5241559E1,8.996087E0,1.0330937E1,8.371043E0,5.215356E1,2.0182917E1,8.474461E0,4.256636E1,8.451221E1,8.124136E0,3.9407368E1,1.6894495E1,3.8090054E1,1.8889164E1,9.724296E0,1.3788363E1,9.087073E0,8.002415E0],"tree_param":{"num_deleted":"0","num_feature":"17","num_nodes":"43","size_leaf_vector":"1"}},{"base_weights":[3.65818E-2,1.0408133E-1,-3.0690557E-1,1.2569048E-1,-1.00696586E-1,1.3865148E-1,-6.723292E-1,4.496841E-1,6.719758E-2,-9.5438585E-2,4.329011E-1,2.3893038E-2,-8.869525E-1,7.20895E-1,3.2804725E-3,2.2285153E-1,-4.5716617E-2,9.138472E-2,-1.6159737E-3,-3.9590772E-2,-1.1127491E0,1.6477315E-1,4.6324756E-2,-1.0299975E-1,7.640719E-2,-3.1369053E-2,4.0077046E-2,1.8351328E-2,-2.8384684E-2,-1.9632323E-1,-4.4585273E-2],"categories":[],"categories_nodes":[],"categories_segments":[],"categories_sizes":[],"default_left":[0,0,0,0,0,0,0,0,0,0,0,0,0,0,0,0,0,0,0,0,0,0,0,0,0,0,0,0,0,0,0],"id":2,"left_children":[1,3,5,7,-1,9,11,13,15,-1,17,-1,19,21,23,25,27,-1,-1,-1,29,-1,-1,-1,-1,-1,-1,-1,-1,-1,-1],"loss_changes":[1.0522084E1,7.558218E0,1.2154232E1,7.0180926E0,0E0,9.110311E0,7.650875E0,6.8551254E0,5.525525E0,0E0,3.523106E0,0E0,4.133766E0,7.387554E0,1.1241076E1,6.4505286E0,6.5426188E0,0E0,0E0,0E0,8.319946E0,0E0,0E0,0E0,0E0,0E0,0E0,0E0,0E0,0E0,0E0],"parents":[2147483647,0,0,1,1,2,2,3,3,5,5,6,6,7,7,8,8,10,10,12,12,13,13,14,14,15,15,16,16,20,20],"right_children":[2,4,6,8,-1,10,12,14,16,-1,18,-1,20,22,24,26,28,-1,-1,-1,30,-1,-1,-1,-1,-1,-1,-1,-1,-1,-1],"split_conditions":[9.653131E-1,1.3866416E0,-7.2591156E-1,-2.1000156E0,-1.00696586E-1,1.1354418E0,-8.063047E-1,1.0160376E0,-1.660957E-1,-9.5438585E-2,1.6667268E0,2.3893038E-2,-2.5007303E0,-2.831708E-1,1.0790464E0,-1.0831629E0,-3.5715485E-1,9.138472E-2,-1.6159737E-3,-3.9590772E-2,2.0812619E-1,1.6477315E-1,4.6324756E-2,-1.0299975E-1,7.640719E-2,-3.1369053E-2,4.0077046E-2,1.8351328E-2,-2.8384684E-2,-1.9632323E-1,-4.4585273E-2],"split_indices":[9,3,14,5,0,9,1,0,6,0,9,0,5,9,1,9,9,0,0,0,5,0,0,0,0,0,0,0,0,0,0],"split_type":[0,0,0,0,0,0,0,0,0,0,0,0,0,0,0,0,0,0,0,0,0,0,0,0,0,0,0,0,0,0,0],"sum_hessian":[4.534531E2,3.7909088E2,7.4362206E1,3.7054617E2,8.5447235E0,3.3550266E1,4.0811935E1,5.6477802E1,3.1406836E2,8.108993E0,2.5441277E1,8.10471E0,3.2707226E1,3.5060368E1,2.1417435E1,1.3198936E2,1.8207901E2,1.4987696E1,1.045358E1,9.452682E0,2.3254543E1,1.2425081E1,2.2635284E1,9.043951E0,1.2373484E1,2.3202509E1,1.0878686E2,8.861911E1,9.345989E1,1.4080254E1,9.174291E0],"tree_param":{"num_deleted":"0","num_feature":"17","num_nodes":"31","size_leaf_vector":"1"}},{"base_weights":[-4.024431E-2,-2.2995742E-1,3.467538E-2,-8.813399E-2,-6.0405505E-1,9.1715455E-2,-2.743903E-1,1.64593E-1,-3.329762E-1,-9.263173E-1,1.0310749E-2,-1.6061999E-1,1.8103935E-1,-6.0694605E-1,8.258928E-2,3.9885587E-1,-9.197144E-2,-5.0049055E-1,5.4425254E-2,-5.3555798E-2,-1.4771321E-1,1.8989597E-1,-6.467545E-1,2.537058E-1,-3.2326004E-1,-2.2615221E-1,-1.6246745E-1,9.843435E-2,-4.6156097E-2,2.2834355E-3,9.764161E-2,-1.2680742E-2,-1.09621644E-1,-2.9580658E-2,5.691236E-2,-1.4285737E-1,1.5889434E-2,2.4805337E-2,1.2740925E-1,-8.6537845E-2,4.43709E-2,-7.485605E-2,2.6345233E-2],"categories":[],"categories_nodes":[],"categories_segments":[],"categories_sizes":[],"default_left":[0,0,0,0,0,0,0,0,0,0,0,0,0,0,0,0,0,0,0,0,0,0,0,0,0,0,0,0,0,0,0,0,0,0,0,0,0,0,0,0,0,0,0],"id":3,"left_children":[1,3,5,7,9,11,13,15,17,19,-1,21,23,25,27,29,-1,31,-1,-1,-1,33,35,37,39,41,-1,-1,-1,-1,-1,-1,-1,-1,-1,-1,-1,-1,-1,-1,-1,-1,-1],"loss_changes":[6.545245E0,6.90441E0,5.823841E0,5.8727007E0,7.9502554E0,6.2904215E0,6.1212807E0,1.0013656E1,6.28807E0,3.1583652E0,0E0,1.2459541E1,7.5645986E0,7.1549063E0,8.213497E0,5.5623918E0,0E0,6.1093016E0,0E0,0E0,0E0,4.9825373E0,1.2175527E1,7.345316E0,6.767994E0,2.9668188E0,0E0,0E0,0E0,0E0,0E0,0E0,0E0,0E0,0E0,0E0,0E0,0E0,0E0,0E0,0E0,0E0,0E0],"parents":[2147483647,0,0,1,1,2,2,3,3,4,4,5,5,6,6,7,7,8,8,9,9,11,11,12,12,13,13,14,14,15,15,17,17,21,21,22,22,23,23,24,24,25,25],"right_children":[2,4,6,8,10,12,14,16,18,20,-1,22,24,26,28,30,-1,32,-1,-1,-1,34,36,38,40,42,-1,-1,-1,-1,-1,-1,-1,-1,-1,-1,-1,-1,-1,-1,-1,-1,-1],"split_conditions":[-5.8042026E-1,1.109467E0,9.653131E-1,-1.421885E-1,1.5191623E0,5.609748E-1,1.4464519E0,5.809442E-1,2.525761E-1,6.662705E-1,1.0310749E-2,2.1188468E-1,1.9191717E0,-4.6855133E-2,-2.4102607E-1,-8.173699E-1,-9.197144E-2,-7.8375146E-2,5.4425254E-2,-5.3555798E-2,-1.4771321E-1,-6.175783E-1,9.9525696E-1,1.7395471E0,3.5187133E-2,9.301326E-1,-1.6246745E-1,9.843435E-2,-4.6156097E-2,2.2834355E-3,9.764161E-2,-1.2680742E-2,-1.09621644E-1,-2.9580658E-2,5.691236E-2,-1.4285737E-1,1.5889434E-2,2.4805337E-2,1.2740925E-1,-8.6537845E-2,4.43709E-2,-7.485605E-2,2.6345233E-2],"split_indices":[12,0,9,10,1,4,9,9,1,4,0,8,4,8,11,11,0,7,0,0,0,1,8,4,7,4,0,0,0,0,0,0,0,0,0,0,0,0,0,0,0,0,0],"split_type":[0,0,0,0,0,0,0,0,0,0,0,0,0,0,0,0,0,0,0,0,0,0,0,0,0,0,0,0,0,0,0,0,0,0,0,0,0,0,0,0,0,0,0],"sum_hessian":[4.6017136E2,1.3019334E2,3.2997803E2,9.4568085E1,3.5625256E1,2.7868185E2,5.129616E1,4.655382E1,4.8014263E1,2.4220585E1,1.1404671E1,7.280978E1,2.0587209E2,2.6500082E1,2.4796078E1,3.710609E1,9.447731E0,3.9528553E1,8.485708E0,8.771278E0,1.5449307E1,4.2362152E1,3.0447626E1,1.800264E2,2.5845678E1,1.7403515E1,9.096566E0,9.615711E0,1.5180367E1,1.8948309E1,1.8157784E1,1.9640158E1,1.9888395E1,1.6403488E1,2.5958664E1,1.830066E1,1.2146967E1,1.688505E2,1.117591E1,1.6633844E1,9.211833E0,9.29785E0,8.105665E0],"tree_param":{"num_deleted":"0","num_feature":"17","num_nodes":"43","size_leaf_vector":"1"}},{"base_weights":[6.3198023E-3,9.1142885E-2,-1.7502919E-2,-4.0069852E-2,9.240409E-2,2.3932664E-2,-3.6144158E-1,1.0900681E-1,-2.40167E-1,8.265875E-2,-8.627799E-1,-1.8332043E-4,3.5673525E-2,-1.0548832E-1,-1.4787001E-2,-9.930568E-2,4.2824995E-2,-6.847299E-2,-1.6880047E-1],"categories":[],"categories_nodes":[],"categories_segments":[],"categories_sizes":[],"default_left":[0,0,0,0,0,0,0,0,0,0,0,0,0,0,0,0,0,0,0],"id":4,"left_children":[1,-1,3,5,-1,7,9,11,13,15,17,-1,-1,-1,-1,-1,-1,-1,-1],"loss_changes":[7.9957185E0,0E0,7.676286E0,8.869549E0,0E0,8.08418E0,1.59603615E1,5.4199095E0,6.4633203E0,9.0001335E0,5.0964985E0,0E0,0E0,0E0,0E0,0E0,0E0,0E0,0E0],"parents":[2147483647,0,0,2,2,3,3,5,5,6,6,7,7,8,8,9,9,10,10],"right_children":[2,-1,4,6,-1,8,10,12,14,16,18,-1,-1,-1,-1,-1,-1,-1,-1],"split_conditions":[-4.3026476E0,9.1142885E-2,2.1333873E0,9.653131E-1,9.240409E-2,1.0939504E0,-6.255127E-1,9.9838257E-1,-7.869561E-1,1.1354418E0,-1.542324E-1,-1.8332043E-4,3.5673525E-2,-1.0548832E-1,-1.4787001E-2,-9.930568E-2,4.2824995E-2,-6.847299E-2,-1.6880047E-1],"split_indices":[5,0,1,9,0,0,14,4,6,9,14,0,0,0,0,0,0,0,0],"split_type":[0,0,0,0,0,0,0,0,0,0,0,0,0,0,0,0,0,0,0],"sum_hessian":[4.5766864E2,1.4255999E1,4.4341266E2,4.3089865E2,1.2513981E1,3.5945792E2,7.144074E1,2.719679E2,8.749003E1,3.795508E1,3.3485664E1,1.686837E2,1.0328419E2,1.4132716E1,7.3357315E1,8.628128E0,2.9326952E1,2.1050917E1,1.2434746E1],"tree_param":{"num_deleted":"0","num_feature":"17","num_nodes":"19","size_leaf_vector":"1"}},{"base_weights":[-8.621311E-3,6.5405205E-2,-2.0789053E-1,8.787138E-3,4.1110295E-1,-9.343845E-2,-1.3336773E-1,-3.8716383E-2,5.9690934E-1,1.159425E-1,1.6800772E-1,-1.21326864E-1,1.7785853E-2,4.256226E-1,-9.140981E-2,5.215161E-3,1.6598748E-1,8.165789E-2,-1.406242E-1,4.4113144E-1,-1.6235326E-1,9.8248504E-2,-3.0412679E-3,1.43818995E-2,-2.685694E-2,5.677519E-2,-6.7745104E-2,1.8181637E-2,1.361882E-1,-3.4932017E-2,7.1927726E-2],"categories":[],"categories_nodes":[],"categories_segments":[],"categories_sizes":[],"default_left":[0,0,0,0,0,0,0,0,0,0,0,0,0,0,0,0,0,0,0,0,0,0,0,0,0,0,0,0,0,0,0],"id":5,"left_children":[1,3,5,7,9,11,-1,13,15,-1,17,-1,19,21,23,-1,-1,-1,25,27,29,-1,-1,-1,-1,-1,-1,-1,-1,-1,-1],"loss_changes":[6.8174667E0,6.5924845E0,1.2490226E1,8.100553E0,6.0619364E0,1.0984947E1,0E0,6.567986E0,8.982965E0,0E0,5.002904E0,0E0,7.542721E0,4.5755906E0,6.338133E0,0E0,0E0,0E0,5.018316E0,5.7154183E0,6.2771125E0,0E0,0E0,0E0,0E0,0E0,0E0,0E0,0E0,0E0,0E0],"parents":[2147483647,0,0,1,1,2,2,3,3,4,4,5,5,7,7,8,8,10,10,12,12,13,13,14,14,18,18,19,19,20,20],"right_children":[2,4,6,8,10,12,-1,14,16,-1,18,-1,20,22,24,-1,-1,-1,26,28,30,-1,-1,-1,-1,-1,-1,-1,-1,-1,-1],"split_conditions":[-1.4976014E-1,9.0601355E-1,8.429783E-1,1.528028E0,-1.2148026E0,-1.3752912E0,-1.3336773E-1,-1.2277777E0,1.7197238E0,1.159425E-1,-2.7931178E-1,-1.21326864E-1,-2.8125962E-2,-2.9828978E-1,-1.8357426E-1,5.215161E-3,1.6598748E-1,8.165789E-2,1.1293247E0,5.001142E-1,8.0775845E-1,9.8248504E-2,-3.0412679E-3,1.43818995E-2,-2.685694E-2,5.677519E-2,-6.7745104E-2,1.8181637E-2,1.361882E-1,-3.4932017E-2,7.1927726E-2],"split_indices":[14,12,9,9,5,2,0,9,4,0,8,0,8,12,6,0,0,0,12,1,6,0,0,0,0,0,0,0,0,0,0],"split_type":[0,0,0,0,0,0,0,0,0,0,0,0,0,0,0,0,0,0,0,0,0,0,0,0,0,0,0,0,0,0,0],"sum_hessian":[4.6178702E2,3.367734E2,1.2501363E2,2.8954306E2,4.7230335E1,1.10702866E2,1.4310766E1,2.6804706E2,2.1496006E1,1.4711081E1,3.2519253E1,1.2149048E1,9.855382E1,2.7184309E1,2.4086275E2,1.2457539E1,9.038467E0,1.2433654E1,2.00856E1,2.9350445E1,6.920338E1,1.4838593E1,1.23457155E1,9.099873E1,1.4986401E2,8.116299E0,1.1969301E1,2.049055E1,8.859895E0,5.964795E1,9.555425E0],"tree_param":{"num_deleted":"0","num_feature":"17","num_nodes":"31","size_leaf_vector":"1"}},{"base_weights":[3.3444375E-2,-1.649339E-1,1.11482E-1,6.9985956E-2,-2.3739144E-1,4.274716E-1,5.155795E-2,-3.022465E-1,5.021046E-2,1.2643537E-1,2.7682957E-1,1.1398412E-1,2.0538576E-2,-1.02660455E-1,-6.3540256E-1,2.3927175E-2,9.119589E-2,4.697495E-1,-3.331433E-2,3.398027E-3,-1.1035216E-1,-1.6650331E-1,-5.5352163E-2,-4.1255362E-2,6.71958E-2,-3.6995213E-2,1.0068652E-1,-5.9270304E-2,5.045135E-3],"categories":[],"categories_nodes":[],"categories_segments":[],"categories_sizes":[],"default_left":[0,0,0,0,0,0,0,0,0,0,0,0,0,0,0,0,0,0,0,0,0,0,0,0,0,0,0,0,0],"id":6,"left_children":[1,3,5,-1,7,9,11,13,-1,-1,15,-1,17,19,21,23,-1,25,27,-1,-1,-1,-1,-1,-1,-1,-1,-1,-1],"loss_changes":[7.0918903E0,6.884455E0,6.219146E0,0E0,4.945068E0,4.659171E0,7.477512E0,7.110072E0,0E0,0E0,4.914357E0,0E0,6.4696646E0,6.9401064E0,5.234642E0,5.143893E0,0E0,7.680276E0,7.930456E0,0E0,0E0,0E0,0E0,0E0,0E0,0E0,0E0,0E0,0E0],"parents":[2147483647,0,0,1,1,2,2,4,4,5,5,6,6,7,7,10,10,12,12,13,13,14,14,15,15,17,17,18,18],"right_children":[2,4,6,-1,8,10,12,14,-1,-1,16,-1,18,20,22,24,-1,26,28,-1,-1,-1,-1,-1,-1,-1,-1,-1,-1],"split_conditions":[-5.8042026E-1,-1.2073458E0,-2.9360488E-1,6.9985956E-2,1.505152E0,-1.2832867E0,5.32323E-1,1.0262786E0,5.021046E-2,1.2643537E-1,-3.9195073E-1,1.1398412E-1,-9.7493374E-1,8.6451006E-1,-1.0758624E0,1.0542415E0,9.119589E-2,3.7144016E-2,-8.0020595E-1,3.398027E-3,-1.1035216E-1,-1.6650331E-1,-5.5352163E-2,-4.1255362E-2,6.71958E-2,-3.6995213E-2,1.0068652E-1,-5.9270304E-2,5.045135E-3],"split_indices":[12,9,12,0,9,2,0,0,0,0,12,0,14,9,8,0,0,13,14,0,0,0,0,0,0,0,0,0,0],"split_type":[0,0,0,0,0,0,0,0,0,0,0,0,0,0,0,0,0,0,0,0,0,0,0,0,0,0,0,0,0],"sum_hessian":[4.577394E2,1.291582E2,3.285812E2,1.1516538E1,1.1764167E2,5.2197365E1,2.7638385E2,1.0697511E2,1.0666562E1,1.0300842E1,4.1896523E1,9.312143E0,2.670717E2,6.7048325E1,3.9926785E1,2.7209822E1,1.4686701E1,2.8455341E1,2.3861636E2,5.7720352E1,9.327972E0,8.041744E0,3.1885038E1,1.6150316E1,1.1059505E1,8.837191E0,1.961815E1,3.3837147E1,2.047792E2],"tree_param":{"num_deleted":"0","num_feature":"17","num_nodes":"29","size_leaf_vector":"1"}},{"base_weights":[3.3433195E-2,1.7631924E-1,-7.065374E-2,6.952636E-1,9.8450385E-2,-2.5976762E-1,1.03680484E-1,5.102522E-2,1.4189926E-1,-1.2350457E-1,3.0051377E-1,9.491413E-2,-3.6322471E-1,-1.3016398E-1,3.1494513E-1,-8.216544E-2,-2.5038514E-3,1.3041897E-1,2.0170212E-1,-3.0839557E-2,3.4891054E-1,-8.983619E-2,-5.447697E-1,1.3791007E-2,-1.1057874E-1,6.337673E-1,1.5509744E-1,2.7103292E-2,-5.257173E-2,-2.913273E-2,4.7543444E-2,9.1624685E-2,-4.099909E-3,-6.1955072E-2,3.5762392E-2,-8.898609E-2,-1.8638683E-2,2.2489397E-2,-7.387802E-2,1.3029721E-1,1.9149598E-2,-6.262526E-2,3.758038E-2],"categories":[],"categories_nodes":[],"categories_segments":[],"categories_sizes":[],"default_left":[0,0,0,0,0,0,0,0,0,0,0,0,0,0,0,0,0,0,0,0,0,0,0,0,0,0,0,0,0,0,0,0,0,0,0,0,0,0,0,0,0,0,0],"id":7,"left_children":[1,3,5,7,9,11,13,-1,-1,15,17,19,21,23,25,-1,27,-1,29,-1,31,33,35,37,-1,39,41,-1,-1,-1,-1,-1,-1,-1,-1,-1,-1,-1,-1,-1,-1,-1,-1],"loss_changes":[6.8292713E0,7.8045554E0,8.764086E0,3.1418228E0,7.5632777E0,4.6854315E0,6.842654E0,0E0,0E0,5.275512E0,6.5569096E0,2.5491507E0,4.8897753E0,7.262096E0,3.686633E0,0E0,6.224179E0,0E0,6.314352E0,0E0,2.5263886E0,6.232392E0,4.100689E0,5.7523685E0,0E0,4.864793E0,4.8527827E0,0E0,0E0,0E0,0E0,0E0,0E0,0E0,0E0,0E0,0E0,0E0,0E0,0E0,0E0,0E0,0E0],"parents":[2147483647,0,0,1,1,2,2,3,3,4,4,5,5,6,6,9,9,10,10,11,11,12,12,13,13,14,14,16,16,18,18,20,20,21,21,22,22,23,23,25,25,26,26],"right_children":[2,4,6,8,10,12,14,-1,-1,16,18,20,22,24,26,-1,28,-1,30,-1,32,34,36,38,-1,40,42,-1,-1,-1,-1,-1,-1,-1,-1,-1,-1,-1,-1,-1,-1,-1,-1],"split_conditions":[-1.660957E-1,6.8070877E-1,-3.8084358E-1,3.1380105E-1,-7.869561E-1,-7.4444956E-1,6.1685395E-1,5.102522E-2,1.4189926E-1,4.5896167E-1,-9.454829E-1,3.8824132E-1,-6.631831E-1,4.4529456E-1,-2.9450166E-1,-8.216544E-2,9E0,1.3041897E-1,-5.088968E-1,-3.0839557E-2,3E0,-1.0130602E0,1.2333097E0,1.4927999E0,-1.1057874E-1,1.8168893E-1,-9.2905647E-1,2.7103292E-2,-5.257173E-2,-2.913273E-2,4.7543444E-2,9.1624685E-2,-4.099909E-3,-6.1955072E-2,3.5762392E-2,-8.898609E-2,-1.8638683E-2,2.2489397E-2,-7.387802E-2,1.3029721E-1,1.9149598E-2,-6.262526E-2,3.758038E-2],"split_indices":[6,0,2,9,6,9,6,0,0,4,14,6,11,6,11,0,16,0,14,0,15,2,4,2,0,13,9,0,0,0,0,0,0,0,0,0,0,0,0,0,0,0,0],"split_type":[0,0,0,0,0,0,0,0,0,0,0,0,0,0,0,0,0,0,0,0,0,0,0,0,0,0,0,0,0,0,0,0,0,0,0,0,0,0,0,0,0,0,0],"sum_hessian":[4.5883527E2,1.9334366E2,2.654916E2,2.5039455E1,1.683042E2,1.273191E2,1.3817252E2,1.5679145E1,9.3603115E0,8.0226036E1,8.807816E1,2.8744797E1,9.85743E1,6.560326E1,7.256927E1,1.4478855E1,6.5747185E1,9.97229E0,7.810587E1,1.2183983E1,1.6560812E1,3.945016E1,5.912414E1,5.5366837E1,1.0236417E1,2.4052813E1,4.8516457E1,4.317483E1,2.257235E1,2.3064371E1,5.5041496E1,8.080151E0,8.480661E0,1.8890324E1,2.055984E1,4.0703896E1,1.8420244E1,4.3524437E1,1.1842402E1,1.265714E1,1.1395672E1,8.850555E0,3.96659E1],"tree_param":{"num_deleted":"0","num_feature":"17","num_nodes":"43","size_leaf_vector":"1"}},{"base_weights":[-8.196904E-3,-9.0959355E-2,1.5958229E-1,-3.6080983E-2,-5.405147E-1,3.017985E-1,-1.819516E-1,1.623085E-1,-1.848147E-1,-1.468599E-1,-2.4373169E-1,1.0974565E-1,2.0456642E-1,-3.8639078E-1,7.772166E-2,1.0120431E-1,5.4690663E-2,-2.4389513E-1,6.512403E-2,-8.3599575E-2,8.212398E-3,-2.237055E-1,3.903992E-1,-6.141884E-1,4.625522E-2,2.4525646E-2,-4.8169028E-2,-1.340816E-2,-8.255512E-2,2.3635674E-2,-1.3754736E-1,7.007229E-2,-2.8048276E-3,-1.03855014E-1,-2.770038E-2],"categories":[],"categories_nodes":[],"categories_segments":[],"categories_sizes":[],"default_left":[0,0,0,0,0,0,0,0,0,0,0,0,0,0,0,0,0,0,0,0,0,0,0,0,0,0,0,0,0,0,0,0,0,0,0],"id":8,"left_children":[1,3,5,7,9,11,13,15,17,-1,19,-1,21,23,-1,-1,25,27,-1,-1,-1,29,31,33,-1,-1,-1,-1,-1,-1,-1,-1,-1,-1,-1],"loss_changes":[6.2615056E0,7.444477E0,7.2447867E0,7.952569E0,6.277919E0,5.979212E0,7.3272243E0,8.167889E0,6.507236E0,0E0,3.0764918E0,0E0,7.22108E0,6.141524E0,0E0,0E0,6.3940697E0,8.170928E0,0E0,0E0,0E0,1.022167E1,4.6444416E0,2.3712587E0,0E0,0E0,0E0,0E0,0E0,0E0,0E0,0E0,0E0,0E0,0E0],"parents":[2147483647,0,0,1,1,2,2,3,3,4,4,5,5,6,6,7,7,8,8,10,10,12,12,13,13,16,16,17,17,21,21,22,22,23,23],"right_children":[2,4,6,8,10,12,14,16,18,-1,20,-1,22,24,-1,-1,26,28,-1,-1,-1,30,32,34,-1,-1,-1,-1,-1,-1,-1,-1,-1,-1,-1],"split_conditions":[1.1690825E0,6.65502E-1,1.0720887E0,-2.4270475E-1,-6.474942E-1,-9.780381E-1,-5.113844E-3,6.481593E-1,3.21463E-1,-1.468599E-1,-2.0391184E-1,1.0974565E-1,-5.5984503E-1,4E0,7.772166E-2,1.0120431E-1,-1.4976014E-1,-2.9450166E-1,6.512403E-2,-8.3599575E-2,8.212398E-3,-7.2591156E-1,1.9191717E0,6.65502E-1,4.625522E-2,2.4525646E-2,-4.8169028E-2,-1.340816E-2,-8.255512E-2,2.3635674E-2,-1.3754736E-1,7.007229E-2,-2.8048276E-3,-1.03855014E-1,-2.770038E-2],"split_indices":[4,11,3,9,2,14,14,3,11,0,9,0,14,15,0,0,14,11,0,0,0,14,4,11,0,0,0,0,0,0,0,0,0,0,0],"split_type":[0,0,0,0,0,0,0,0,0,0,0,0,0,0,0,0,0,0,0,0,0,0,0,0,0,0,0,0,0,0,0,0,0,0,0],"sum_hessian":[4.5059512E2,3.018191E2,1.4877603E2,2.6915942E2,3.265966E1,1.0506124E2,4.3714787E1,1.1530861E2,1.5385083E2,1.0068249E1,2.2591412E1,1.470252E1,9.035873E1,3.499972E1,8.715063E0,1.6037481E1,9.9271126E1,1.4218578E2,1.1665058E1,9.338706E0,1.3252706E1,2.7325314E1,6.303341E1,2.6969976E1,8.029747E0,7.507159E1,2.4199543E1,1.08068E2,3.4117767E1,1.8729898E1,8.595416E0,4.403905E1,1.899436E1,1.6885838E1,1.0084138E1],"tree_param":{"num_deleted":"0","num_feature":"17","num_nodes":"35","size_leaf_vector":"1"}},{"base_weights":[1.48468E-2,-8.652254E-2,1.7040768E-1,-1.4050944E-1,3.8679126E-1,4.6139824E-1,1.4382791E-2,-1.8824269E-1,3.5869572E-1,7.872979E-1,-3.846782E-2,8.3552897E-1,-2.348226E-2,1.7478044E-1,-2.593043E-1,-1.384126E-1,-7.242044E-1,5.505355E-3,1.0001699E-1,1.6207425E-1,2.4781447E-2,1.1596081E0,3.0956225E-2,2.9631147E-1,-7.9674646E-2,3.527461E-1,-2.8802288E-1,-4.6701506E-1,5.201715E-2,-2.5044251E-2,2.2419618E-2,-1.4765143E-1,-1.0530667E-2,1.8611476E-1,9.424667E-2,-2.2076434E-3,7.4814446E-2,2.8546436E-2,1.1885127E-1,-1.11752786E-1,6.698032E-2,7.556771E-3,-1.2546965E-1],"categories":[],"categories_nodes":[],"categories_segments":[],"categories_sizes":[],"default_left":[0,0,0,0,0,0,0,0,0,0,0,0,0,0,0,0,0,0,0,0,0,0,0,0,0,0,0,0,0,0,0,0,0,0,0,0,0,0,0,0,0,0,0],"id":9,"left_children":[1,3,5,7,9,11,13,15,17,19,-1,21,23,25,27,29,31,-1,-1,-1,-1,33,-1,35,-1,37,39,41,-1,-1,-1,-1,-1,-1,-1,-1,-1,-1,-1,-1,-1,-1,-1],"loss_changes":[7.1226544E0,6.9960384E0,8.08779E0,5.8632736E0,7.889541E0,1.1288153E1,5.1084027E0,5.968821E0,3.040986E0,5.467187E0,0E0,6.595022E0,5.4585805E0,6.0613346E0,6.1162024E0,4.256856E0,5.7246237E0,0E0,0E0,0E0,0E0,2.9029274E0,0E0,1.7701263E0,0E0,3.8893147E0,1.0598105E1,9.616158E0,0E0,0E0,0E0,0E0,0E0,0E0,0E0,0E0,0E0,0E0,0E0,0E0,0E0,0E0,0E0],"parents":[2147483647,0,0,1,1,2,2,3,3,4,4,5,5,6,6,7,7,8,8,9,9,11,11,12,12,13,13,14,14,15,15,16,16,21,21,23,23,25,25,26,26,27,27],"right_children":[2,4,6,8,10,12,14,16,18,20,-1,22,24,26,28,30,32,-1,-1,-1,-1,34,-1,36,-1,38,40,42,-1,-1,-1,-1,-1,-1,-1,-1,-1,-1,-1,-1,-1,-1,-1],"split_conditions":[1.0620031E0,1.6990815E0,-4.8825607E-1,1.2E1,1.1334409E-1,1.569212E0,1.0399352E0,1.1848801E0,-4.0149623E-1,-6.631831E-1,-3.846782E-2,1.4131618E-1,1.1167109E0,1.1530166E0,4E0,6.5800166E-1,-6.1355275E-1,5.505355E-3,1.0001699E-1,1.6207425E-1,2.4781447E-2,1.2078369E0,3.0956225E-2,8.975795E-1,-7.9674646E-2,1.505152E0,4.0993312E-1,-1.9432139E-2,5.201715E-2,-2.5044251E-2,2.2419618E-2,-1.4765143E-1,-1.0530667E-2,1.8611476E-1,9.424667E-2,-2.2076434E-3,7.4814446E-2,2.8546436E-2,1.1885127E-1,-1.11752786E-1,6.698032E-2,7.556771E-3,-1.2546965E-1],"split_indices":[4,13,9,16,7,4,3,9,2,11,0,13,0,5,15,9,5,0,0,0,0,5,0,0,0,9,13,13,0,0,0,0,0,0,0,0,0,0,0,0,0,0,0],"split_type":[0,0,0,0,0,0,0,0,0,0,0,0,0,0,0,0,0,0,0,0,0,0,0,0,0,0,0,0,0,0,0,0,0,0,0,0,0,0,0,0,0,0,0],"sum_hessian":[4.513248E2,2.732883E2,1.780365E2,2.4542603E2,2.7862284E1,6.2012836E1,1.1602366E2,2.241136E2,2.1312428E1,1.7699982E1,1.0162302E1,3.4938316E1,2.7074522E1,7.320178E1,4.2821877E1,2.0525684E2,1.8856773E1,1.2694919E1,8.617508E0,9.207657E0,8.492324E0,2.2362444E1,1.2575873E1,1.7940825E1,9.133696E0,5.290762E1,2.029416E1,3.2860367E1,9.96151E0,1.7085022E2,3.4406616E1,1.0745365E1,8.111409E0,1.1611199E1,1.0751244E1,8.987125E0,8.9537E0,4.434584E1,8.561778E0,1.16332855E1,8.660875E0,1.6838295E1,1.602207E1],"tree_param":{"num_deleted":"0","num_feature":"17","num_nodes":"43","size_leaf_vector":"1"}},{"base_weights":[-1.2133097E-2,1.151977E-1,-1.0701448E-1,4.091778E-2,5.367072E-1,-6.4738065E-1,-6.625921E-2,4.1440343E-3,8.69596E-2,8.477334E-1,1.0873522E-2,-1.3094732E-1,-1.602547E-2,-1.0471625E-1,5.966976E-2,1.2546124E-1,-2.2365998E-1,1.644098E-1,4.2819053E-2,-2.8820977E-1,2.8819466E-4,-1.6735187E-2,5.160595E-2,-8.574818E-2,8.142896E-3,-9.800972E-2,-1.2892926E-2,5.120752E-2,-1.0412579E-2],"categories":[],"categories_nodes":[],"categories_segments":[],"categories_sizes":[],"default_left":[0,0,0,0,0,0,0,0,0,0,0,0,0,0,0,0,0,0,0,0,0,0,0,0,0,0,0,0,0],"id":10,"left_children":[1,3,5,7,9,11,13,15,-1,17,-1,-1,-1,19,-1,21,23,-1,-1,25,27,-1,-1,-1,-1,-1,-1,-1,-1],"loss_changes":[5.4674006E0,6.043334E0,5.700507E0,4.0127325E0,4.018343E0,3.8631516E0,5.1118536E0,4.3163037E0,0E0,4.054352E0,0E0,0E0,0E0,4.3503747E0,0E0,7.807487E0,7.422517E0,0E0,0E0,7.624385E0,5.057882E0,0E0,0E0,0E0,0E0,0E0,0E0,0E0,0E0],"parents":[2147483647,0,0,1,1,2,2,3,3,4,4,5,5,6,6,7,7,9,9,13,13,15,15,16,16,19,19,20,20],"right_children":[2,4,6,8,10,12,14,16,-1,18,-1,-1,-1,20,-1,22,24,-1,-1,26,28,-1,-1,-1,-1,-1,-1,-1,-1],"split_conditions":[-1.660957E-1,-3.2705057E-1,-1.5523933E0,1.7896506E0,8E0,1.1128269E-2,4.1553783E-1,-1.6409251E-1,8.69596E-2,-3.0242778E-2,1.0873522E-2,-1.3094732E-1,-1.602547E-2,3.2562038E-1,5.966976E-2,-5.2509004E-1,-3.6727983E-1,1.644098E-1,4.2819053E-2,5.698446E-1,5.0794715E-1,-1.6735187E-2,5.160595E-2,-8.574818E-2,8.142896E-3,-9.800972E-2,-1.2892926E-2,5.120752E-2,-1.0412579E-2],"split_indices":[6,6,2,1,16,12,7,14,0,12,0,0,0,6,0,14,2,0,0,4,6,0,0,0,0,0,0,0,0],"split_type":[0,0,0,0,0,0,0,0,0,0,0,0,0,0,0,0,0,0,0,0,0,0,0,0,0,0,0,0,0],"sum_hessian":[4.5220227E2,1.9304799E2,2.591543E2,1.6429604E2,2.8751944E1,1.7986258E1,2.4116803E2,1.5584706E2,8.448983E0,1.6881838E1,1.1870106E1,9.883628E0,8.102631E0,2.255461E2,1.5621933E1,1.0175486E2,5.4092197E1,8.422242E0,8.459596E0,8.199707E1,1.4354903E2,5.383665E1,4.791821E1,2.0498758E1,3.359344E1,2.1667131E1,6.032994E1,2.423386E1,1.1931516E2],"tree_param":{"num_deleted":"0","num_feature":"17","num_nodes":"29","size_leaf_vector":"1"}},{"base_weights":[2.7886268E-2,-3.0521378E-2,2.4084839E-1,-7.960116E-3,-8.595381E-2,-2.2640905E-1,4.4217116E-1,6.960584E-2,-2.9514983E-2,-1.23760395E-1,1.1558185E-1,5.377838E-1,-3.1346977E-2,-6.442817E-2,2.5805128E-1,7.0527904E-2,-5.83322E-2,-3.1505525E-3,6.322059E-1,-1.3057276E-2,3.9511297E-2,5.9234165E-2,-6.0729787E-2,1.452633E-1,6.464926E-2],"categories":[],"categories_nodes":[],"categories_segments":[],"categories_sizes":[],"default_left":[0,0,0,0,0,0,0,0,0,0,0,0,0,0,0,0,0,0,0,0,0,0,0,0,0],"id":11,"left_children":[1,3,5,7,-1,9,11,-1,13,-1,15,17,-1,19,21,-1,-1,-1,23,-1,-1,-1,-1,-1,-1],"loss_changes":[5.6215158E0,5.3275356E0,9.168479E0,4.2342706E0,0E0,7.835129E0,4.5551243E0,0E0,3.3246768E0,0E0,5.568063E0,3.1911278E0,0E0,4.711284E0,6.0175934E0,0E0,0E0,0E0,2.910345E0,0E0,0E0,0E0,0E0,0E0,0E0],"parents":[2147483647,0,0,1,1,2,2,3,3,5,5,6,6,8,8,10,10,11,11,13,13,14,14,18,18],"right_children":[2,4,6,8,-1,10,12,-1,14,-1,16,18,-1,20,22,-1,-1,-1,24,-1,-1,-1,-1,-1,-1],"split_conditions":[7.400989E-1,6.617513E-1,-6.9379777E-1,-2.070416E0,-8.595381E-2,-3.3521277E-1,1.2081752E0,6.960584E-2,1.2725616E0,-1.23760395E-1,1.0393813E0,-1.2949752E0,-3.1346977E-2,1.0783167E0,1.1892867E0,7.0527904E-2,-5.83322E-2,-3.1505525E-3,-3.7210035E-1,-1.3057276E-2,3.9511297E-2,5.9234165E-2,-6.0729787E-2,1.452633E-1,6.464926E-2],"split_indices":[12,12,13,13,0,1,0,0,8,0,0,11,0,11,0,0,0,0,13,0,0,0,0,0,0],"split_type":[0,0,0,0,0,0,0,0,0,0,0,0,0,0,0,0,0,0,0,0,0,0,0,0,0],"sum_hessian":[4.5158948E2,3.5449298E2,9.7096504E1,3.4305923E2,1.1433741E1,2.9224539E1,6.787197E1,1.2286679E1,3.3077255E2,8.83376E0,2.039078E1,5.9717712E1,8.154254E0,2.9509537E2,3.567721E1,1.1493508E1,8.89727E0,8.584125E0,5.113359E1,2.665337E2,2.8561668E1,2.7580153E1,8.097061E0,8.166418E0,4.296717E1],"tree_param":{"num_deleted":"0","num_feature":"17","num_nodes":"25","size_leaf_vector":"1"}},{"base_weights":[2.1950344E-2,7.284984E-2,-1.7731698E-1,4.704837E-2,7.902094E-2,-2.6619893E-1,8.0305316E-2,1.15802705E-1,-1.9851324E-1,-8.3246183E-1,-1.1751962E-1,5.7315275E-2,5.738572E-1,-6.911859E-2,-1.3140786E-1,-1.4854562E-1,-5.117297E-2,2.3861778E-1,-3.266852E-1,1.15946665E-1,2.687459E-3,1.0568298E-1,-8.92749E-3,-8.567177E-2,1.801728E-2,8.976445E-2,-4.6464156E-2,4.685255E-2,-7.436788E-2],"categories":[],"categories_nodes":[],"categories_segments":[],"categories_sizes":[],"default_left":[0,0,0,0,0,0,0,0,0,0,0,0,0,0,0,0,0,0,0,0,0,0,0,0,0,0,0,0,0],"id":12,"left_children":[1,3,5,7,-1,9,-1,11,13,15,17,19,21,23,-1,-1,-1,25,27,-1,-1,-1,-1,-1,-1,-1,-1,-1,-1],"loss_changes":[4.556217E0,5.2335625E0,6.757439E0,5.785513E0,0E0,6.9386873E0,0E0,7.1625595E0,8.389839E0,2.5699673E0,4.906826E0,7.4421034E0,5.550453E0,8.823618E0,0E0,0E0,0E0,7.3910513E0,8.132115E0,0E0,0E0,0E0,0E0,0E0,0E0,0E0,0E0,0E0,0E0],"parents":[2147483647,0,0,1,1,2,2,3,3,5,5,7,7,8,8,9,9,10,10,11,11,12,12,13,13,17,17,18,18],"right_children":[2,4,6,8,-1,10,-1,12,14,16,18,20,22,24,-1,-1,-1,26,28,-1,-1,-1,-1,-1,-1,-1,-1,-1,-1],"split_conditions":[1.8038409E0,1.539971E0,1.6730114E0,8.6451006E-1,7.902094E-2,-6.0402536E-1,8.0305316E-2,1.1113052E0,-7.7706695E-2,3.1119015E0,-5.671911E-1,-3.9681008E0,1.6284314E0,1.0655457E0,-1.3140786E-1,-1.4854562E-1,-5.117297E-2,3.9217368E-1,-2.2207321E-1,1.15946665E-1,2.687459E-3,1.0568298E-1,-8.92749E-3,-8.567177E-2,1.801728E-2,8.976445E-2,-4.6464156E-2,4.685255E-2,-7.436788E-2],"split_indices":[5,5,13,9,0,11,0,6,14,5,13,5,6,9,0,0,0,11,7,0,0,0,0,0,0,0,0,0,0],"split_type":[0,0,0,0,0,0,0,0,0,0,0,0,0,0,0,0,0,0,0,0,0,0,0,0,0,0,0,0,0],"sum_hessian":[4.4886685E2,3.5764484E2,9.122202E1,3.4228604E2,1.5358798E1,8.249363E1,8.728393E0,2.674992E2,7.4786835E1,1.6983198E1,6.551043E1,2.373923E2,3.0106897E1,6.5240486E1,9.546351E0,8.805696E0,8.177502E0,2.4222374E1,4.128806E1,9.009698E0,2.283826E2,2.0905052E1,9.201844E0,1.6607029E1,4.8633457E1,1.3481457E1,1.0740917E1,1.1582014E1,2.9706043E1],"tree_param":{"num_deleted":"0","num_feature":"17","num_nodes":"29","size_leaf_vector":"1"}},{"base_weights":[2.8253956E-2,1.047509E-1,-1.5002197E-1,1.2431448E-1,-7.251623E-2,1.5374644E-1,-3.6169013E-1,7.012722E-2,3.72196E-1,3.296752E-1,-7.762869E-2,-6.1598253E-1,-8.162229E-2,1.04834E-1,4.391073E-2,-1.870072E-2,5.796119E-1,-2.5853999E-2,5.618883E-1,-1.6653195E-2,-8.2724124E-1,-7.885127E-2,1.2879845E-1,1.5563647E-2,-2.3682771E-2,9.496103E-2,4.0392852E-3,4.7963746E-2,1.2927572E-1,-1.597525E-1,-4.250619E-2,-4.976943E-2,1.2093004E-1],"categories":[],"categories_nodes":[],"categories_segments":[],"categories_sizes":[],"default_left":[0,0,0,0,0,0,0,0,0,0,0,0,0,0,0,0,0,0,0,0,0,0,0,0,0,0,0,0,0,0,0,0,0],"id":13,"left_children":[1,3,5,7,-1,9,11,13,15,17,-1,19,21,-1,23,-1,25,-1,27,-1,29,-1,31,-1,-1,-1,-1,-1,-1,-1,-1,-1,-1],"loss_changes":[6.164071E0,4.2962503E0,8.736557E0,4.126955E0,0E0,7.7281647E0,5.688616E0,5.156588E0,6.0087123E0,5.7471304E0,0E0,4.2354403E0,4.5103407E0,0E0,4.753211E0,0E0,4.106371E0,0E0,2.6158085E0,0E0,6.4828854E0,0E0,1.273795E1,0E0,0E0,0E0,0E0,0E0,0E0,0E0,0E0,0E0,0E0],"parents":[2147483647,0,0,1,1,2,2,3,3,5,5,6,6,7,7,8,8,9,9,11,11,12,12,14,14,16,16,18,18,20,20,22,22],"right_children":[2,4,6,8,-1,10,12,14,16,18,-1,20,22,-1,24,-1,26,-1,28,-1,30,-1,32,-1,-1,-1,-1,-1,-1,-1,-1,-1,-1],"split_conditions":[1.0794243E0,2.101229E0,7.386079E-1,8.580514E-1,-7.251623E-2,8.048412E-1,1.2910478E-1,-1.9643364E0,-6.3501364E-1,-6.700214E-1,-7.762869E-2,8.4119433E-1,8.134765E-1,1.04834E-1,1.107046E0,-1.870072E-2,3.21463E-1,-2.5853999E-2,6.165902E-1,-1.6653195E-2,1.2185996E0,-7.885127E-2,3E0,1.5563647E-2,-2.3682771E-2,9.496103E-2,4.0392852E-3,4.7963746E-2,1.2927572E-1,-1.597525E-1,-4.250619E-2,-4.976943E-2,1.2093004E-1],"split_indices":[3,6,4,6,0,8,12,2,12,1,0,0,0,0,0,0,11,0,4,0,4,0,15,0,0,0,0,0,0,0,0,0,0],"split_type":[0,0,0,0,0,0,0,0,0,0,0,0,0,0,0,0,0,0,0,0,0,0,0,0,0,0,0,0,0,0,0,0,0],"sum_hessian":[4.516333E2,3.1609543E2,1.3553787E2,3.075573E2,8.538116E0,5.567061E1,7.986727E1,2.5258282E2,5.4974472E1,4.554464E1,1.0125968E1,4.174249E1,3.812478E1,8.033013E0,2.4454982E2,1.5601102E1,3.9373367E1,1.3707995E1,3.1836643E1,1.2832364E1,2.8910126E1,1.0353858E1,2.7770922E1,1.8139453E2,6.3155277E1,2.9152922E1,1.02204485E1,2.371637E1,8.120274E0,1.4526587E1,1.4383539E1,1.7142288E1,1.0628633E1],"tree_param":{"num_deleted":"0","num_feature":"17","num_nodes":"33","size_leaf_vector":"1"}},{"base_weights":[2.735649E-2,6.2725055E-3,9.185408E-2,9.284697E-2,-1.4726615E-1,2.7682781E-2,4.2874047E-1,2.1489483E-1,-2.2062933E-1,1.3941549E-1,-1.735895E-1,-2.205827E-2,6.4255434E-1,1.1672451E-1,-1.08269334E-1,-1.2077939E-1,-7.3765486E-1,-1.1771335E-2,4.317376E-2,2.270769E-2,-4.7341324E-2,1.4749753E-2,1.1566395E-1,-7.204073E-2,4.0654108E-2,-7.827061E-2,1.6752266E-3,-1.5308684E-1,-4.907553E-2],"categories":[],"categories_nodes":[],"categories_segments":[],"categories_sizes":[],"default_left":[0,0,0,0,0,0,0,0,0,0,0,0,0,0,0,0,0,0,0,0,0,0,0,0,0,0,0,0,0],"id":14,"left_children":[1,3,-1,5,7,9,11,13,15,17,19,-1,21,-1,23,25,27,-1,-1,-1,-1,-1,-1,-1,-1,-1,-1,-1,-1],"loss_changes":[6.7996397E0,5.813761E0,0E0,6.1179657E0,4.1979065E0,5.276463E0,5.922632E0,6.318131E0,6.7550373E0,7.4684796E0,6.310363E0,0E0,5.168438E0,0E0,3.9150062E0,7.6110353E0,3.5333881E0,0E0,0E0,0E0,0E0,0E0,0E0,0E0,0E0,0E0,0E0,0E0,0E0],"parents":[2147483647,0,0,1,1,3,3,4,4,5,5,6,6,7,7,8,8,9,9,10,10,12,12,14,14,15,15,16,16],"right_children":[2,4,-1,6,8,10,12,14,16,18,20,-1,22,-1,24,26,28,-1,-1,-1,-1,-1,-1,-1,-1,-1,-1,-1,-1],"split_conditions":[2.078299E0,1.0343769E0,9.185408E-2,9.5113003E-1,-9.6390885E-1,3.7196606E-1,7.1036583E-1,-7.251053E-1,9.823499E-1,8.459095E-1,-1.7817314E-1,-2.205827E-2,-5.3306913E-1,1.1672451E-1,-4.2693937E-1,1.1068112E0,-4.1815746E-1,-1.1771335E-2,4.317376E-2,2.270769E-2,-4.7341324E-2,1.4749753E-2,1.1566395E-1,-7.204073E-2,4.0654108E-2,-7.827061E-2,1.6752266E-3,-1.5308684E-1,-4.907553E-2],"split_indices":[1,3,0,12,12,1,3,2,9,4,7,0,2,0,8,3,1,0,0,0,0,0,0,0,0,0,0,0,0],"split_type":[0,0,0,0,0,0,0,0,0,0,0,0,0,0,0,0,0,0,0,0,0,0,0,0,0,0,0,0,0],"sum_hessian":[4.4970154E2,4.3703687E2,1.2664686E1,2.795225E2,1.5751436E2,2.3427383E2,4.5248676E1,2.6466406E1,1.3104794E2,1.5069408E2,8.357975E1,1.1780675E1,3.3468002E1,8.012161E0,1.8454245E1,1.10022606E2,2.1025343E1,7.1279976E1,7.94141E1,3.0937796E1,5.2641956E1,1.2167078E1,2.1300922E1,8.8213005E0,9.632943E0,2.2681364E1,8.734124E1,8.28194E0,1.2743403E1],"tree_param":{"num_deleted":"0","num_feature":"17","num_nodes":"29","size_leaf_vector":"1"}},{"base_weights":[1.1382898E-2,-2.3017531E-2,4.6435362E-1,-4.0443006E-1,-2.2524922E-5,1.0309785E-1,2.0861267E-1,1.4876458E-2,-1.0173903E-1,5.174011E-2,-2.3013358E-1,-7.5120814E-3,6.833014E-2,-2.856182E-1,1.1644432E-1,-3.143662E-2,-6.2796074E-1,-3.5237041E-3,-7.412373E-2,3.4645002E-2,-7.611162E-3,5.8440346E-2,-2.9817838E-2,-1.4770585E-1,-1.7758401E-2],"categories":[],"categories_nodes":[],"categories_segments":[],"categories_sizes":[],"default_left":[0,0,0,0,0,0,0,0,0,0,0,0,0,0,0,0,0,0,0,0,0,0,0,0,0],"id":15,"left_children":[1,3,5,7,9,-1,11,-1,-1,13,15,-1,-1,17,19,21,23,-1,-1,-1,-1,-1,-1,-1,-1],"loss_changes":[7.0423813E0,3.6816201E0,2.995564E0,5.2885365E0,4.722988E0,0E0,1.7886639E0,0E0,0E0,7.069434E0,5.749793E0,0E0,0E0,4.218677E0,7.9621243E0,5.1987257E0,6.6451387E0,0E0,0E0,0E0,0E0,0E0,0E0,0E0,0E0],"parents":[2147483647,0,0,1,1,2,2,3,3,4,4,6,6,9,9,10,10,13,13,14,14,15,15,16,16],"right_children":[2,4,6,8,10,-1,12,-1,-1,14,16,-1,-1,18,20,22,24,-1,-1,-1,-1,-1,-1,-1,-1],"split_conditions":[1.7568204E0,-1.2721174E0,7E0,4.348484E-1,9.653131E-1,1.0309785E-1,8.199221E-1,1.4876458E-2,-1.0173903E-1,3.5696876E-1,1.0672691E0,-7.5120814E-3,6.833014E-2,1.1921239E-1,9.764228E-1,8.7911206E-1,9.5912004E-1,-3.5237041E-3,-7.412373E-2,3.4645002E-2,-7.611162E-3,5.8440346E-2,-2.9817838E-2,-1.4770585E-1,-1.7758401E-2],"split_indices":[13,11,16,4,9,0,4,0,0,4,3,0,0,4,0,0,0,0,0,0,0,0,0,0,0],"split_type":[0,0,0,0,0,0,0,0,0,0,0,0,0,0,0,0,0,0,0,0,0,0,0,0,0],"sum_hessian":[4.5152673E2,4.1980032E2,3.172642E1,2.3695616E1,3.961047E2,1.2768779E1,1.8957642E1,1.0586517E1,1.3109099E1,3.23459E2,7.264568E1,1.0720887E1,8.236754E0,5.1948116E1,2.715109E2,4.858035E1,2.4065334E1,2.8729698E1,2.3218416E1,1.4115504E2,1.3035587E2,1.4208251E1,3.43721E1,1.0934338E1,1.3130997E1],"tree_param":{"num_deleted":"0","num_feature":"17","num_nodes":"25","size_leaf_vector":"1"}},{"base_weights":[-4.0256407E-2,-2.5173064E-2,-9.5009394E-2,-4.036571E-2,7.215495E-2,-1.6686996E-2,-5.9910023E-1,2.6321793E-1,-5.2832812E-2,-1.3306664E-1,-1.8491825E-2,-5.4454006E-2,6.265016E-2,-9.094146E-3,9.758775E-2],"categories":[],"categories_nodes":[],"categories_segments":[],"categories_sizes":[],"default_left":[0,0,0,0,0,0,0,0,0,0,0,0,0,0,0],"id":16,"left_children":[1,3,-1,5,-1,7,9,11,13,-1,-1,-1,-1,-1,-1],"loss_changes":[4.827818E0,3.991214E0,0E0,5.553539E0,0E0,4.080902E0,3.6438518E0,7.993073E0,6.30673E0,0E0,0E0,0E0,0E0,0E0,0E0],"parents":[2147483647,0,0,1,1,3,3,5,5,6,6,7,7,8,8],"right_children":[2,4,-1,6,-1,8,10,12,14,-1,-1,-1,-1,-1,-1],"split_conditions":[5.748535E0,2.1333873E0,-9.5009394E-2,1.3542664E0,7.215495E-2,6.481593E-1,-5.4164433E-1,-6.0402536E-1,1.7896506E0,-1.3306664E-1,-1.8491825E-2,-5.4454006E-2,6.265016E-2,-9.094146E-3,9.758775E-2],"split_indices":[5,1,0,0,0,3,5,12,1,0,0,0,0,0,0],"split_type":[0,0,0,0,0,0,0,0,0,0,0,0,0,0,0],"sum_hessian":[4.3891986E2,4.3021613E2,8.70373E0,4.1992905E2,1.0287096E1,4.0303537E2,1.6893663E1,4.595529E1,3.5708008E2,8.04717E0,8.846494E0,1.180384E1,3.415145E1,3.4861337E2,8.466731E0],"tree_param":{"num_deleted":"0","num_feature":"17","num_nodes":"15","size_leaf_vector":"1"}},{"base_weights":[3.9244108E-2,-4.0728003E-2,2.1643881E-1,-1.2944883E-1,1.8650648E-1,5.2324766E-1,4.284438E-2,-6.746808E-2,-5.4862666E-1,-7.711278E-2,4.5175666E-1,2.3926492E-1,1.0879502E0,8.7229304E-2,-4.7165707E-2,-1.0255764E-1,-2.0782698E-2,-9.189617E-1,1.2307862E-2,2.6809803E-1,-4.1397765E-1,1.440934E-1,1.8725014E-1,9.428946E-2,-7.2948853E-3,1.7241032E-1,9.150684E-2,4.795217E-1,-1.9660234E-1,2.826074E-2,-2.4476007E-2,-1.6213621E-1,-6.571031E-2,-2.7326465E-2,1.03400916E-1,-1.10476665E-1,1.3032331E-2,-2.3778033E-2,6.856049E-2,7.1423225E-2,-4.445907E-2,6.2941588E-3,1.12793885E-1,-4.9016308E-2,1.4546339E-2],"categories":[],"categories_nodes":[],"categories_segments":[],"categories_sizes":[],"default_left":[0,0,0,0,0,0,0,0,0,0,0,0,0,0,0,0,0,0,0,0,0,0,0,0,0,0,0,0,0,0,0,0,0,0,0,0,0,0,0,0,0,0,0,0,0],"id":17,"left_children":[1,3,5,7,9,11,13,15,17,19,21,23,25,-1,27,-1,29,31,-1,33,35,-1,37,-1,39,-1,-1,41,43,-1,-1,-1,-1,-1,-1,-1,-1,-1,-1,-1,-1,-1,-1,-1,-1],"loss_changes":[6.290021E0,6.1701965E0,7.345021E0,5.708996E0,6.0172753E0,7.943492E0,5.291687E0,6.839222E0,6.8193655E0,5.0487065E0,8.080234E0,4.32873E0,1.5932884E0,0E0,6.1513953E0,0E0,8.046129E0,2.626707E0,0E0,6.025064E0,5.5165076E0,0E0,4.435488E0,0E0,4.7754645E0,0E0,0E0,3.206977E0,3.8528082E0,0E0,0E0,0E0,0E0,0E0,0E0,0E0,0E0,0E0,0E0,0E0,0E0,0E0,0E0,0E0,0E0],"parents":[2147483647,0,0,1,1,2,2,3,3,4,4,5,5,6,6,7,7,8,8,9,9,10,10,11,11,12,12,14,14,16,16,17,17,19,19,20,20,22,22,24,24,27,27,28,28],"right_children":[2,4,6,8,10,12,14,16,18,20,22,24,26,-1,28,-1,30,32,-1,34,36,-1,38,-1,40,-1,-1,42,44,-1,-1,-1,-1,-1,-1,-1,-1,-1,-1,-1,-1,-1,-1,-1,-1],"split_conditions":[4.6385548E-1,6.4493376E-1,-3.278603E-1,3.1720477E-1,9.447162E-1,2.211807E-1,-1.0871035E0,-7.0844007E-1,2.772379E-1,1.0183161E0,1.0343769E0,7.6337916E-1,-7.686644E-1,8.7229304E-2,-8.164966E-1,-1.0255764E-1,-1.4524229E-1,9.426322E-1,1.2307862E-2,-7.22292E-2,-8.146621E-2,1.440934E-1,-2.0391184E-1,9.428946E-2,-8.587109E-1,1.7241032E-1,9.150684E-2,-1.1896513E0,4.7203925E-1,2.826074E-2,-2.4476007E-2,-1.6213621E-1,-6.571031E-2,-2.7326465E-2,1.03400916E-1,-1.10476665E-1,1.3032331E-2,-2.3778033E-2,6.856049E-2,7.1423225E-2,-4.445907E-2,6.2941588E-3,1.12793885E-1,-4.9016308E-2,1.4546339E-2],"split_indices":[10,12,8,12,3,12,12,7,9,12,3,10,8,0,9,0,7,3,0,13,7,0,9,0,2,0,0,9,13,0,0,0,0,0,0,0,0,0,0,0,0,0,0,0,0],"split_type":[0,0,0,0,0,0,0,0,0,0,0,0,0,0,0,0,0,0,0,0,0,0,0,0,0,0,0,0,0,0,0,0,0,0,0,0,0,0,0,0,0,0,0,0,0],"sum_hessian":[4.4354065E2,3.0568604E2,1.3785463E2,2.1991658E2,8.5769455E1,4.9678444E1,8.8176186E1,1.917726E2,2.814397E1,4.3070316E1,4.269914E1,3.3224907E1,1.6453537E1,1.0385394E1,7.7790794E1,1.0870659E1,1.8090195E2,1.787129E1,1.027268E1,2.1282642E1,2.1787674E1,1.1349497E1,3.1349644E1,1.0504689E1,2.2720217E1,8.397259E0,8.056277E0,1.7102009E1,6.0688786E1,7.51347E1,1.0576725E2,8.618345E0,9.252946E0,1.1502928E1,9.779716E0,1.1246212E1,1.0541462E1,1.54699545E1,1.5879688E1,8.493905E0,1.4226312E1,8.71727E0,8.38474E0,3.702373E1,2.3665052E1],"tree_param":{"num_deleted":"0","num_feature":"17","num_nodes":"45","size_leaf_vector":"1"}},{"base_weights":[1.0918125E-2,-6.7962945E-2,1.8573855E-1,2.0312479E-2,-3.093202E-1,4.425414E-1,-4.7307167E-2,-1.5939084E-1,1.7833585E-1,7.0600316E-2,-4.9860114E-1,-4.5420915E-2,5.802288E-1,-9.969917E-2,5.775576E-2,2.401443E-3,-6.284191E-1,3.1623685E-1,-4.8721427E-1,-6.3204214E-2,4.1190124E-1,-2.7534503E-1,-7.4109745E-1,4.5190746E-1,1.5836285E-1,3.298036E-1,-1.8091424E-1,-5.0800126E-2,3.3638842E-2,-1.424723E-1,-1.05582E-2,3.0852465E-2,1.19176924E-1,-8.163648E-3,-1.3441975E-1,1.0385442E-1,-1.0003326E-2,1.6995784E-2,-8.141824E-2,-1.555089E-1,-6.018444E-2,3.3867694E-2,1.17854506E-1,7.868075E-2,-5.4582175E-2,-6.1851613E-2,6.0084693E-2],"categories":[],"categories_nodes":[],"categories_segments":[],"categories_sizes":[],"default_left":[0,0,0,0,0,0,0,0,0,0,0,0,0,0,0,0,0,0,0,0,0,0,0,0,0,0,0,0,0,0,0,0,0,0,0,0,0,0,0,0,0,0,0,0,0,0,0],"id":18,"left_children":[1,3,5,7,9,11,13,15,17,19,21,-1,23,-1,25,27,29,31,33,-1,35,37,39,41,-1,43,45,-1,-1,-1,-1,-1,-1,-1,-1,-1,-1,-1,-1,-1,-1,-1,-1,-1,-1,-1,-1],"loss_changes":[6.202203E0,6.604956E0,8.374518E0,6.4527483E0,5.977661E0,7.4678545E0,5.884454E0,8.070987E0,1.112309E1,5.5576997E0,2.9614182E0,0E0,5.035101E0,0E0,4.212287E0,8.888874E0,7.7743473E0,4.26122E0,5.262868E0,0E0,3.7474868E0,4.6510744E0,3.3667316E0,4.2757864E0,0E0,7.260762E0,7.444433E0,0E0,0E0,0E0,0E0,0E0,0E0,0E0,0E0,0E0,0E0,0E0,0E0,0E0,0E0,0E0,0E0,0E0,0E0,0E0,0E0],"parents":[2147483647,0,0,1,1,2,2,3,3,4,4,5,5,6,6,7,7,8,8,9,9,10,10,12,12,14,14,15,15,16,16,17,17,18,18,20,20,21,21,22,22,23,23,25,25,26,26],"right_children":[2,4,6,8,10,12,14,16,18,20,22,-1,24,-1,26,28,30,32,34,-1,36,38,40,42,-1,44,46,-1,-1,-1,-1,-1,-1,-1,-1,-1,-1,-1,-1,-1,-1,-1,-1,-1,-1,-1,-1],"split_conditions":[4.6385548E-1,-2.584669E-2,-5.5800926E-2,8.6045563E-1,5E0,-1.262695E0,-1.2792774E0,6.832796E-1,1.2114583E0,-5.9635735E-1,8.086565E-1,-4.5420915E-2,1.2081752E0,-9.969917E-2,2.0889857E-1,-1.4128299E-1,-8.968283E-2,2.8887737E-1,7.026368E-1,-6.3204214E-2,-9.40856E-2,-7.52442E-2,1.0408688E0,8.960886E-1,1.5836285E-1,6.2762487E-1,1.1261429E0,-5.0800126E-2,3.3638842E-2,-1.424723E-1,-1.05582E-2,3.0852465E-2,1.19176924E-1,-8.163648E-3,-1.3441975E-1,1.0385442E-1,-1.0003326E-2,1.6995784E-2,-8.141824E-2,-1.555089E-1,-6.018444E-2,3.3867694E-2,1.17854506E-1,7.868075E-2,-5.4582175E-2,-6.1851613E-2,6.0084693E-2],"split_indices":[10,10,8,4,16,12,13,4,3,8,4,0,0,0,13,13,12,7,13,0,5,7,4,13,0,6,4,0,0,0,0,0,0,0,0,0,0,0,0,0,0,0,0,0,0,0,0],"split_type":[0,0,0,0,0,0,0,0,0,0,0,0,0,0,0,0,0,0,0,0,0,0,0,0,0,0,0,0,0,0,0,0,0,0,0,0,0,0,0,0,0,0,0,0,0,0,0],"sum_hessian":[4.4938992E2,3.0972086E2,1.3966907E2,2.268807E2,8.284014E1,6.638248E1,7.328659E1,1.0614435E2,1.2073635E2,2.7575853E1,5.5264286E1,9.589873E0,5.6792603E1,8.755119E0,6.453147E1,7.904187E1,2.7102478E1,1.00094635E2,2.064172E1,1.0145555E1,1.74303E1,2.8976084E1,2.6288202E1,4.827913E1,8.513473E0,3.0134739E1,3.4396732E1,3.1169104E1,4.787277E1,1.3653209E1,1.3449269E1,9.107696E1,9.017677E0,1.2268682E1,8.373038E0,9.248692E0,8.181608E0,1.4020207E1,1.4955876E1,8.380408E0,1.7907793E1,3.590934E1,1.2369791E1,2.1567587E1,8.567152E0,2.3277868E1,1.1118865E1],"tree_param":{"num_deleted":"0","num_feature":"17","num_nodes":"47","size_leaf_vector":"1"}},{"base_weights":[1.2250045E-2,-5.3071064E-1,4.4541787E-2,4.2672537E-2,-1.2534599E-1,-3.9004735E-4,2.1510836E-1,-1.586392E-2,7.365326E-2,1.0680859E-1,1.2845755E-1,-1.5918846E-1,6.497506E-2,4.6405032E-1,-1.12333074E-1,-3.0361757E-2,5.3620223E-2,7.3456354E-2,2.6906063E-3,9.029637E-2,-2.3315152E-2,-5.7581298E-2,4.0317968E-2],"categories":[],"categories_nodes":[],"categories_segments":[],"categories_sizes":[],"default_left":[0,0,0,0,0,0,0,0,0,0,0,0,0,0,0,0,0,0,0,0,0,0,0],"id":19,"left_children":[1,3,5,-1,-1,7,9,11,-1,-1,13,15,17,19,21,-1,-1,-1,-1,-1,-1,-1,-1],"loss_changes":[7.777921E0,1.0661992E1,3.2103918E0,0E0,0E0,3.0650198E0,4.9013133E0,3.749379E0,0E0,0E0,6.255708E0,6.044451E0,4.732569E0,5.6841655E0,7.0531006E0,0E0,0E0,0E0,0E0,0E0,0E0,0E0,0E0],"parents":[2147483647,0,0,1,1,2,2,5,5,6,6,7,7,10,10,11,11,12,12,13,13,14,14],"right_children":[2,4,6,-1,-1,8,10,12,-1,-1,14,16,18,20,22,-1,-1,-1,-1,-1,-1,-1,-1],"split_conditions":[-1.4063685E0,-3.4358272E-1,8.0775845E-1,4.2672537E-2,-1.2534599E-1,2.6589022E0,-1.1033615E0,-2.6528645E-1,7.365326E-2,1.0680859E-1,-2.740687E-1,3.223307E-1,-1.1017607E0,1.0794243E0,2.4616817E-1,-3.0361757E-2,5.3620223E-2,7.3456354E-2,2.6906063E-3,9.029637E-2,-2.3315152E-2,-5.7581298E-2,4.0317968E-2],"split_indices":[12,9,6,0,0,2,8,13,0,0,9,7,12,3,12,0,0,0,0,0,0,0,0],"split_type":[0,0,0,0,0,0,0,0,0,0,0,0,0,0,0,0,0,0,0,0,0,0,0],"sum_hessian":[4.4332794E2,2.4728113E1,4.1859985E2,8.827802E0,1.5900312E1,3.314374E2,8.716243E1,3.2324252E2,8.194893E0,1.0052343E1,7.7110085E1,1.1652849E2,2.0671404E2,3.2154083E1,4.4956E1,1.0174097E2,1.47875185E1,1.5377271E1,1.9133676E2,2.2788599E1,9.365484E0,2.487671E1,2.0079292E1],"tree_param":{"num_deleted":"0","num_feature":"17","num_nodes":"23","size_leaf_vector":"1"}},{"base_weights":[8.431018E-3,-3.5853624E-2,2.4256149E-1,4.2471004E-4,-3.3238205E-1,7.5817066E-1,1.7067993E-2,-4.497475E-2,3.4969473E-1,-1.3971917E-1,-1.22483626E-1,3.9378423E-2,1.4803442E-1,7.401341E-2,-1.7040497E-1,-2.5920856E-3,-5.8034784E-1,-8.253128E-2,6.8518174E-1,-4.427028E-1,3.2358214E-2,-7.873266E-2,2.9531062E-2,-2.8437018E-2,8.172655E-3,-2.4930246E-2,-1.2680824E-1,4.493831E-2,-6.134898E-2,1.2653945E-1,2.8550645E-2,-1.22885995E-1,2.7876806E-2,-2.6596058E-2,4.4679474E-2],"categories":[],"categories_nodes":[],"categories_segments":[],"categories_sizes":[],"default_left":[0,0,0,0,0,0,0,0,0,0,0,0,0,0,0,0,0,0,0,0,0,0,0,0,0,0,0,0,0,0,0,0,0,0,0],"id":20,"left_children":[1,3,5,7,9,11,13,15,17,-1,19,-1,-1,-1,21,23,25,27,29,31,-1,-1,33,-1,-1,-1,-1,-1,-1,-1,-1,-1,-1,-1,-1],"loss_changes":[4.676929E0,4.081477E0,8.336333E0,5.364961E0,6.917696E0,4.1596994E0,5.495239E0,6.789244E0,5.6563196E0,0E0,4.0827413E0,0E0,0E0,0E0,3.564458E0,4.3593354E0,3.6753697E0,3.2124324E0,3.3441305E0,6.7282095E0,0E0,0E0,2.2007716E0,0E0,0E0,0E0,0E0,0E0,0E0,0E0,0E0,0E0,0E0,0E0,0E0],"parents":[2147483647,0,0,1,1,2,2,3,3,4,4,5,5,6,6,7,7,8,8,10,10,14,14,15,15,16,16,17,17,18,18,19,19,22,22],"right_children":[2,4,6,8,10,12,14,16,18,-1,20,-1,-1,-1,22,24,26,28,30,32,-1,-1,34,-1,-1,-1,-1,-1,-1,-1,-1,-1,-1,-1,-1],"split_conditions":[9.3831205E-1,3.0676265E0,-2.7931178E-1,8.0701435E-1,3.6019745E0,8E0,-1.1509715E0,5.603199E-1,-3.9197814E-1,-1.3971917E-1,3.1009245E-1,3.9378423E-2,1.4803442E-1,7.401341E-2,-8.0111134E-1,-7.7102715E-1,2.2624178E-1,-1.1033615E0,-7.095202E-1,-5.6273746E-1,3.2358214E-2,-7.873266E-2,3.065715E-1,-2.8437018E-2,8.172655E-3,-2.4930246E-2,-1.2680824E-1,4.493831E-2,-6.134898E-2,1.2653945E-1,2.8550645E-2,-1.22885995E-1,2.7876806E-2,-2.6596058E-2,4.4679474E-2],"split_indices":[12,5,8,11,5,16,5,11,8,0,8,0,0,0,13,11,9,8,14,14,0,0,6,0,0,0,0,0,0,0,0,0,0,0,0],"split_type":[0,0,0,0,0,0,0,0,0,0,0,0,0,0,0,0,0,0,0,0,0,0,0,0,0,0,0,0,0,0,0,0,0,0,0],"sum_hessian":[4.5066846E2,3.790929E2,7.157558E1,3.379101E2,4.1182796E1,2.1647415E1,4.992816E1,2.991623E2,3.8747787E1,8.393807E0,3.278899E1,1.1015824E1,1.0631591E1,1.2062058E1,3.7866104E1,2.7738577E2,2.1776518E1,1.6984001E1,2.1763786E1,1.7888573E1,1.4900417E1,1.1229329E1,2.6636774E1,6.426591E1,2.1311987E2,1.1945771E1,9.830748E0,8.181454E0,8.802547E0,1.2299813E1,9.463973E0,9.744166E0,8.144407E0,1.5363582E1,1.1273192E1],"tree_param":{"num_deleted":"0","num_feature":"17","num_nodes":"35","size_leaf_vector":"1"}},{"base_weights":[9.121526E-3,8.632303E-2,-1.4793275E-2,1.5126579E-1,-9.285284E-2,1.3056735E-2,5.0613236E-1,-5.751956E-1,-4.9838208E-2,1.0400436E-1,-9.906817E-2,3.030092E-1,1.275116E-1,-2.1549761E-2,-1.602413E-1,3.8395727E-1,-1.0278689E-1,-8.9377865E-2,2.605972E-2,-5.94159E-3,8.3030835E-2,1.0815057E-1,7.6748235E-3,-8.706202E-3,-1.0619298E-1],"categories":[],"categories_nodes":[],"categories_segments":[],"categories_sizes":[],"default_left":[0,0,0,0,0,0,0,0,0,0,0,0,0,0,0,0,0,0,0,0,0,0,0,0,0],"id":21,"left_children":[1,-1,3,5,7,9,11,13,15,17,-1,19,-1,-1,-1,21,23,-1,-1,-1,-1,-1,-1,-1,-1],"loss_changes":[7.340228E0,0E0,5.568103E0,6.732932E0,6.0549946E0,7.363118E0,4.064172E0,6.8830624E0,6.1723943E0,7.9580626E0,0E0,3.6529002E0,0E0,0E0,0E0,4.621643E0,5.831028E0,0E0,0E0,0E0,0E0,0E0,0E0,0E0,0E0],"parents":[2147483647,0,0,2,2,3,3,4,4,5,5,6,6,7,7,8,8,9,9,11,11,15,15,16,16],"right_children":[2,-1,4,6,8,10,12,14,16,18,-1,20,-1,-1,-1,22,24,-1,-1,-1,-1,-1,-1,-1,-1],"split_conditions":[-4.0770087E0,8.632303E-2,-4.1420856E-1,-6.6518897E-1,-1.5523933E0,1.8936666E0,3.341221E-1,-5.3414696E-1,-2.5007303E0,2.7186075E-1,-9.906817E-2,-3.8893294E-2,1.275116E-1,-2.1549761E-2,-1.602413E-1,-7.0869106E-1,2.2491746E0,-8.9377865E-2,2.605972E-2,-5.94159E-3,8.3030835E-2,1.0815057E-1,7.6748235E-3,-8.706202E-3,-1.0619298E-1],"split_indices":[5,0,6,6,2,4,12,14,5,4,0,5,0,0,0,10,11,0,0,0,0,0,0,0,0],"split_type":[0,0,0,0,0,0,0,0,0,0,0,0,0,0,0,0,0,0,0,0,0,0,0,0,0],"sum_hessian":[4.4391086E2,1.4697637E1,4.2921323E2,1.3717534E2,2.9203787E2,9.886359E1,3.8311756E1,2.3726929E1,2.6831094E2,8.909304E1,9.770544E0,2.7865477E1,1.044628E1,1.5418287E1,8.308641E0,2.9060108E1,2.3925084E2,1.0092152E1,7.900089E1,1.4370026E1,1.3495451E1,1.1354544E1,1.7705564E1,2.296891E2,9.561746E0],"tree_param":{"num_deleted":"0","num_feature":"17","num_nodes":"25","size_leaf_vector":"1"}},{"base_weights":[1.8378578E-2,2.77865E-1,-1.9905036E-2,1.3743505E-1,1.1556649E-1,-4.6160164E-1,1.6166827E-2,-4.25903E-2,3.6910406E-1,3.7464377E-2,-8.397093E-1,8.7873645E-2,-1.259011E-1,8.975149E-2,1.9002433E-1,-6.2951215E-2,-1.5180421E-1,4.420014E-2,5.918852E-1,-3.8432643E-1,6.895009E-2,-1.4175366E-2,5.9909157E-2,3.0534904E-2,-6.9291852E-3,3.405749E-2,1.20498344E-1,-2.0306833E-2,-1.24524616E-1,-1.2919993E-2,4.9231846E-2],"categories":[],"categories_nodes":[],"categories_segments":[],"categories_sizes":[],"default_left":[0,0,0,0,0,0,0,0,0,0,0,0,0,0,0,0,0,0,0,0,0,0,0,0,0,0,0,0,0,0,0],"id":22,"left_children":[1,3,5,7,-1,9,11,-1,13,-1,15,17,19,-1,21,-1,-1,23,25,27,29,-1,-1,-1,-1,-1,-1,-1,-1,-1,-1],"loss_changes":[4.4009457E0,5.2441506E0,6.1536593E0,5.2962446E0,0E0,8.484821E0,3.6389384E0,0E0,2.0236702E0,0E0,2.4030123E0,5.218193E0,6.0390162E0,0E0,1.9547276E0,0E0,0E0,4.466376E0,2.2464209E0,7.045188E0,3.9338021E0,0E0,0E0,0E0,0E0,0E0,0E0,0E0,0E0,0E0,0E0],"parents":[2147483647,0,0,1,1,2,2,3,3,5,5,6,6,8,8,10,10,11,11,12,12,14,14,17,17,18,18,19,19,20,20],"right_children":[2,4,6,8,-1,10,12,-1,14,-1,16,18,20,-1,22,-1,-1,24,26,28,30,-1,-1,-1,-1,-1,-1,-1,-1,-1,-1],"split_conditions":[-9.701495E-1,1.1354418E0,-9.1060185E-1,8.9182384E-2,1.1556649E-1,5.095848E-1,-1.5899341E-1,-4.25903E-2,5.3022367E-1,3.7464377E-2,-3.4220807E-2,-2.0984876E-1,-5.036992E-1,8.975149E-2,-3.7526658E-1,-6.2951215E-2,-1.5180421E-1,-1.1032673E0,9.4699645E-1,-1.1509715E0,4.4092304E-1,-1.4175366E-2,5.9909157E-2,3.0534904E-2,-6.9291852E-3,3.405749E-2,1.20498344E-1,-2.0306833E-2,-1.24524616E-1,-1.2919993E-2,4.9231846E-2],"split_indices":[14,9,14,13,0,4,14,0,13,0,10,14,5,0,12,0,0,5,3,5,10,0,0,0,0,0,0,0,0,0,0],"split_type":[0,0,0,0,0,0,0,0,0,0,0,0,0,0,0,0,0,0,0,0,0,0,0,0,0,0,0,0,0,0,0],"sum_hessian":[4.4262973E2,5.6783176E1,3.8584656E2,4.6987385E1,9.795794E0,2.8986423E1,3.5686014E2,1.5203798E1,3.1783585E1,9.592556E0,1.9393867E1,2.3722269E2,1.1963744E2,1.0402216E1,2.1381369E1,1.074962E1,8.644246E0,2.1848787E2,1.8734818E1,5.136612E1,6.8271324E1,1.0570281E1,1.0811088E1,7.213711E1,1.4635077E2,1.0462711E1,8.272107E0,3.8176888E1,1.318923E1,4.480569E1,2.3465631E1],"tree_param":{"num_deleted":"0","num_feature":"17","num_nodes":"31","size_leaf_vector":"1"}},{"base_weights":[-1.4648491E-2,2.861461E-2,-1.9529164E-1,-5.0032735E-1,5.4224283E-2,-4.2105675E-1,3.0242175E-1,-1.1067669E-2,-1.1076712E-1,3.3297163E-2,8.311701E-2,-6.088787E-1,2.7150547E-2,1.10858E-1,-2.1151898E-2,-2.4495035E-2,2.573328E-1,-1.3467734E-1,-4.3640298E-1,-6.463016E-2,6.07414E-2,4.3679845E-2,-1.0399942E-2,4.773383E-2,-5.8974348E-2,-7.543845E-2,8.826679E-3],"categories":[],"categories_nodes":[],"categories_segments":[],"categories_sizes":[],"default_left":[0,0,0,0,0,0,0,0,0,0,0,0,0,0,0,0,0,0,0,0,0,0,0,0,0,0,0],"id":23,"left_children":[1,3,5,7,9,11,13,-1,-1,15,-1,17,-1,-1,19,21,23,-1,25,-1,-1,-1,-1,-1,-1,-1,-1],"loss_changes":[3.486232E0,4.8772306E0,9.707706E0,2.6965337E0,4.4456277E0,7.1751165E0,5.2151976E0,0E0,0E0,4.305415E0,0E0,3.7400246E0,0E0,0E0,4.605798E0,5.9908953E0,6.5330915E0,0E0,3.0507016E0,0E0,0E0,0E0,0E0,0E0,0E0,0E0,0E0],"parents":[2147483647,0,0,1,1,2,2,3,3,4,4,5,5,6,6,9,9,11,11,14,14,15,15,16,16,18,18],"right_children":[2,4,6,8,10,12,14,-1,-1,16,-1,18,-1,-1,20,22,24,-1,26,-1,-1,-1,-1,-1,-1,-1,-1],"split_conditions":[1.1792186E0,-1.7213814E0,4.472733E-1,-3.3581558E-1,1.7545948E0,1.6478559E0,8.8168764E-1,-1.1067669E-2,-1.1076712E-1,7.536595E-1,8.311701E-2,7.771528E-1,2.7150547E-2,1.10858E-1,-7.086795E-2,3E0,1.2565005E0,-1.3467734E-1,5.77975E-1,-6.463016E-2,6.07414E-2,4.3679845E-2,-1.0399942E-2,4.773383E-2,-5.8974348E-2,-7.543845E-2,8.826679E-3],"split_indices":[0,2,10,6,10,4,10,0,0,12,0,3,0,0,12,16,2,0,12,0,0,0,0,0,0,0,0],"split_type":[0,0,0,0,0,0,0,0,0,0,0,0,0,0,0,0,0,0,0,0,0,0,0,0,0,0,0],"sum_hessian":[4.456923E2,3.5967377E2,8.6018524E1,1.6453497E1,3.4322025E2,5.920053E1,2.6817997E1,8.205215E0,8.248282E0,3.321906E2,1.1029642E1,4.5799732E1,1.3400799E1,9.329706E0,1.748829E1,2.6417804E2,6.8012566E1,1.1801951E1,3.399778E1,8.839459E0,8.648832E0,3.5917088E1,2.2826096E2,5.789482E1,1.0117747E1,2.5259817E1,8.737962E0],"tree_param":{"num_deleted":"0","num_feature":"17","num_nodes":"27","size_leaf_vector":"1"}},{"base_weights":[9.880414E-4,2.6898432E-1,-4.144141E-2,-2.524332E-3,6.098528E-1,6.1640095E-2,-6.3840225E-2,-7.328762E-2,3.860208E-1,1.2685376E-1,4.0880883E-1,-4.0950897E-1,-3.1467278E-2,-5.569472E-3,8.704912E-2,8.2322955E-2,7.867159E-3,1.1184465E-2,-1.0360041E-1,9.39092E-2,-5.321578E-2,-2.925006E-2,3.192595E-2,1.6568597E-2,-1.5309481E-2],"categories":[],"categories_nodes":[],"categories_segments":[],"categories_sizes":[],"default_left":[0,0,0,0,0,0,0,0,0,0,0,0,0,0,0,0,0,0,0,0,0,0,0,0,0],"id":24,"left_children":[1,3,5,7,9,-1,11,-1,13,-1,15,17,19,-1,-1,-1,-1,21,-1,-1,23,-1,-1,-1,-1],"loss_changes":[5.0902786E0,5.665879E0,4.687084E0,7.9080806E0,2.204198E0,0E0,4.1495185E0,0E0,2.8698604E0,0E0,1.6512649E0,5.7557306E0,5.859319E0,0E0,0E0,0E0,0E0,1.0085797E0,0E0,0E0,4.3999314E0,0E0,0E0,0E0,0E0],"parents":[2147483647,0,0,1,1,2,2,3,3,4,4,6,6,8,8,10,10,11,11,12,12,17,17,20,20],"right_children":[2,4,6,8,10,-1,12,-1,14,-1,16,18,20,-1,-1,-1,-1,22,-1,-1,24,-1,-1,-1,-1],"split_conditions":[-9.701495E-1,3E0,5.32323E-1,-3.3428824E-1,2.3962617E-1,6.1640095E-2,-1.2877891E0,-7.328762E-2,-4.8029977E-1,1.2685376E-1,5.6392354E-1,-5.5800926E-2,-1.1832668E0,-5.569472E-3,8.704912E-2,8.2322955E-2,7.867159E-3,-3.3581558E-1,-1.0360041E-1,9.39092E-2,-9.0702236E-1,-2.925006E-2,3.192595E-2,1.6568597E-2,-1.5309481E-2],"split_indices":[14,15,0,2,6,0,1,0,8,0,13,8,1,0,0,0,0,6,0,0,2,0,0,0,0],"split_type":[0,0,0,0,0,0,0,0,0,0,0,0,0,0,0,0,0,0,0,0,0,0,0,0,0],"sum_hessian":[4.4722455E2,6.1014965E1,3.862096E2,3.405149E1,2.6963474E1,1.519517E1,3.710144E2,1.3466388E1,2.0585104E1,8.510074E0,1.84534E1,3.1586332E1,3.3942807E2,8.821922E0,1.1763182E1,1.0448018E1,8.005383E0,1.605324E1,1.5533092E1,8.899831E0,3.3052826E2,8.010422E0,8.042818E0,9.061637E1,2.3991188E2],"tree_param":{"num_deleted":"0","num_feature":"17","num_nodes":"25","size_leaf_vector":"1"}},{"base_weights":[-9.5684165E-3,3.7594208E-1,-4.0523153E-2,7.126265E-1,-1.898997E-2,-1.1135783E-1,1.4837508E-1,4.178675E-2,1.5030351E-1,-4.298192E-2,-3.9015016E-1,3.147613E-1,-1.4274038E-1,1.3132855E-1,-1.6966596E-1,-1.46393E-1,-2.1979177E-1,1.0738427E-1,1.5660723E-1,-9.173607E-2,2.2642E-1,-1.1534263E-2,4.9589857E-2,-5.4874744E-2,-9.775989E-3,-6.511159E-2,2.8050586E-3,-2.5004502E-2,6.099729E-2,-2.5171181E-2,7.654722E-2],"categories":[],"categories_nodes":[],"categories_segments":[],"categories_sizes":[],"default_left":[0,0,0,0,0,0,0,0,0,0,0,0,0,0,0,0,0,0,0,0,0,0,0,0,0,0,0,0,0,0,0],"id":25,"left_children":[1,3,5,7,-1,9,11,-1,-1,13,15,17,19,21,23,-1,25,-1,27,-1,29,-1,-1,-1,-1,-1,-1,-1,-1,-1,-1],"loss_changes":[5.3144836E0,5.92687E0,5.5198026E0,3.7563257E0,0E0,5.713775E0,5.4581003E0,0E0,0E0,5.328389E0,7.962615E0,6.2703476E0,9.133386E0,6.189395E0,3.468114E0,0E0,3.65534E0,0E0,6.8177404E0,0E0,4.3578916E0,0E0,0E0,0E0,0E0,0E0,0E0,0E0,0E0,0E0,0E0],"parents":[2147483647,0,0,1,1,2,2,3,3,5,5,6,6,9,9,10,10,11,11,12,12,13,13,14,14,16,16,18,18,20,20],"right_children":[2,4,6,8,-1,10,12,-1,-1,14,16,18,20,22,24,-1,26,-1,28,-1,30,-1,-1,-1,-1,-1,-1,-1,-1,-1,-1],"split_conditions":[-1.3490684E0,2.9627958E-1,6.4582276E-1,-1.5728923E0,-1.898997E-2,1.8451138E-1,4.1871235E-1,4.178675E-2,1.5030351E-1,-6.0336125E-1,2.4594223E-1,-9.0025884E-1,-6.9379777E-1,8.514725E-2,-4.3301538E-1,-1.46393E-1,0E0,1.0738427E-1,1.6691118E-2,-9.173607E-2,2.6018128E-1,-1.1534263E-2,4.9589857E-2,-5.4874744E-2,-9.775989E-3,-6.511159E-2,2.8050586E-3,-2.5004502E-2,6.099729E-2,-2.5171181E-2,7.654722E-2],"split_indices":[10,8,8,10,0,7,2,0,0,2,7,13,13,12,7,0,9,0,10,0,12,0,0,0,0,0,0,0,0,0,0],"split_type":[0,0,0,0,0,0,0,0,0,0,0,0,0,0,0,0,0,0,0,0,0,0,0,0,0,0,0,0,0,0,0],"sum_hessian":[4.450758E2,3.2926888E1,4.1214893E2,2.0102617E1,1.2824272E1,2.9981604E2,1.1233288E2,1.1731425E1,8.371192E0,2.4093993E2,5.887613E1,7.147989E1,4.0852985E1,1.0139056E2,1.3954936E2,1.018511E1,4.869102E1,1.5654599E1,5.582529E1,1.5483263E1,2.5369722E1,5.5440147E1,4.5950413E1,3.4328083E1,1.0522128E2,2.1365812E1,2.7325209E1,2.7082417E1,2.8742874E1,1.2160602E1,1.3209121E1],"tree_param":{"num_deleted":"0","num_feature":"17","num_nodes":"31","size_leaf_vector":"1"}},{"base_weights":[-2.7113473E-2,2.3622971E-2,-1.6054058E-1,-1.0541523E-2,6.149556E-1,-5.354038E-1,-4.926173E-2,-1.7510864E-1,7.6319516E-2,1.3239343E-1,1.1887136E-2,-1.24247335E-2,-8.144396E-1,2.4360806E-1,-2.1510248E-1,-1.0484409E-1,-1.1205929E-1,3.095556E-1,-6.1785564E-2,-6.039967E-2,-1.3682012E-1,4.3637812E-1,-3.898467E-2,-6.6065747E-1,6.1181013E-2,5.9216E-3,-4.8736237E-2,7.680029E-3,7.2528735E-2,6.1059244E-2,-2.4182914E-2,1.35577675E-2,1.2070127E-1,-1.2651825E-1,6.648324E-4,-3.3360988E-2,4.4066846E-2],"categories":[],"categories_nodes":[],"categories_segments":[],"categories_sizes":[],"default_left":[0,0,0,0,0,0,0,0,0,0,0,0,0,0,0,0,0,0,0,0,0,0,0,0,0,0,0,0,0,0,0,0,0,0,0,0,0],"id":26,"left_children":[1,3,5,7,9,11,13,15,17,-1,-1,-1,19,21,23,25,-1,27,29,-1,-1,31,-1,33,35,-1,-1,-1,-1,-1,-1,-1,-1,-1,-1,-1,-1],"loss_changes":[2.9399686E0,6.360254E0,4.9835324E0,4.256986E0,4.064203E0,3.300096E0,4.4994516E0,5.280669E0,6.282361E0,0E0,0E0,0E0,1.4908934E0,3.6383414E0,7.2886124E0,4.1794343E0,0E0,4.98459E0,9.177036E0,0E0,0E0,4.4003205E0,0E0,5.513074E0,3.6158714E0,0E0,0E0,0E0,0E0,0E0,0E0,0E0,0E0,0E0,0E0,0E0,0E0],"parents":[2147483647,0,0,1,1,2,2,3,3,4,4,5,5,6,6,7,7,8,8,12,12,13,13,14,14,15,15,17,17,18,18,21,21,23,23,24,24],"right_children":[2,4,6,8,10,12,14,16,18,-1,-1,-1,20,22,24,26,-1,28,30,-1,-1,32,-1,34,36,-1,-1,-1,-1,-1,-1,-1,-1,-1,-1,-1,-1],"split_conditions":[-1.542324E-1,-2.0611715E-1,7.8455275E-1,-5.8042026E-1,3E0,-7.7706695E-2,9.4860077E-1,-6.5435904E-1,-4.6266928E-1,1.3239343E-1,1.1887136E-2,-1.24247335E-2,-1.5233228E-1,3.3313859E-1,6E0,3E0,-1.1205929E-1,9.6400833E-1,7.6414967E-1,-6.039967E-2,-1.3682012E-1,-2.7858762E-2,-3.898467E-2,7.371632E-1,1.7787185E-1,5.9216E-3,-4.8736237E-2,7.680029E-3,7.2528735E-2,6.1059244E-2,-2.4182914E-2,1.35577675E-2,1.2070127E-1,-1.2651825E-1,6.648324E-4,-3.3360988E-2,4.4066846E-2],"split_indices":[14,14,0,12,15,14,0,12,11,0,0,0,7,9,16,15,0,0,0,0,0,7,0,8,11,0,0,0,0,0,0,0,0,0,0,0,0],"split_type":[0,0,0,0,0,0,0,0,0,0,0,0,0,0,0,0,0,0,0,0,0,0,0,0,0,0,0,0,0,0,0,0,0,0,0,0,0],"sum_hessian":[4.339283E2,3.1446188E2,1.1946643E2,2.974401E2,1.7021797E1,2.7185581E1,9.228085E1,1.0271355E2,1.9472655E2,8.932471E0,8.089325E0,1.072714E1,1.645844E1,3.3323837E1,5.8957016E1,9.391935E1,8.794195E0,7.235236E1,1.2237419E2,8.057467E0,8.400974E0,2.4820688E1,8.503148E0,2.2479527E1,3.647749E1,6.1606976E1,3.2312374E1,3.844016E1,3.3912205E1,2.3679066E1,9.869512E1,1.562734E1,9.193347E0,1.4464913E1,8.014613E0,1.720526E1,1.927223E1],"tree_param":{"num_deleted":"0","num_feature":"17","num_nodes":"37","size_leaf_vector":"1"}},{"base_weights":[3.9650463E-2,6.0612913E-3,3.8091713E-1,-3.0514764E-2,2.5222257E-1,6.260935E-1,-4.3087687E-2,-1.4348933E-2,-8.7532885E-2,-5.2652363E-2,4.1080084E-1,3.7181005E-1,1.1801632E-1,9.055146E-2,-9.6242055E-2,6.091417E-1,-5.6759007E-3,8.485202E-2,6.7990622E-3,-9.488269E-2,1.7850563E-2,-1.9702148E-2,3.7824795E-2,1.1004832E-1,2.297107E-2],"categories":[],"categories_nodes":[],"categories_segments":[],"categories_sizes":[],"default_left":[0,0,0,0,0,0,0,0,0,0,0,0,0,0,0,0,0,0,0,0,0,0,0,0,0],"id":27,"left_children":[1,3,5,7,9,11,-1,13,-1,-1,15,17,-1,19,21,23,-1,-1,-1,-1,-1,-1,-1,-1,-1],"loss_changes":[5.114846E0,3.663038E0,7.1978736E0,3.8827884E0,5.698105E0,2.4549742E0,0E0,2.974538E0,0E0,0E0,3.8817883E0,1.7169592E0,0E0,7.085165E0,4.981515E0,3.537488E0,0E0,0E0,0E0,0E0,0E0,0E0,0E0,0E0,0E0],"parents":[2147483647,0,0,1,1,2,2,3,3,4,4,5,5,7,7,10,10,11,11,13,13,14,14,15,15],"right_children":[2,4,6,8,10,12,-1,14,-1,-1,16,18,-1,20,22,24,-1,-1,-1,-1,-1,-1,-1,-1,-1],"split_conditions":[1.2E1,1.1113052E0,3.5075083E-1,2.0692239E0,-9.615056E-1,-2.2851558E-1,-4.3087687E-2,6E0,-8.7532885E-2,-5.2652363E-2,7.016631E-1,-8.145634E-1,1.1801632E-1,-1.9500865E0,1.2766457E0,1.4131618E-1,-5.6759007E-3,8.485202E-2,6.7990622E-3,-9.488269E-2,1.7850563E-2,-1.9702148E-2,3.7824795E-2,1.1004832E-1,2.297107E-2],"split_indices":[16,6,1,8,2,6,0,16,0,0,11,2,0,13,1,13,0,0,0,0,0,0,0,0,0],"split_type":[0,0,0,0,0,0,0,0,0,0,0,0,0,0,0,0,0,0,0,0,0,0,0,0,0],"sum_hessian":[4.462213E2,4.0641003E2,3.98113E1,3.539518E2,5.24582E1,2.9827484E1,9.983814E0,3.4590164E2,8.050176E0,9.870096E0,4.2588104E1,1.7077225E1,1.275026E1,1.5161676E2,1.9428488E2,2.9661482E1,1.29266205E1,8.437919E0,8.639306E0,8.844869E0,1.427719E2,1.6793826E2,2.6346615E1,1.7647999E1,1.2013483E1],"tree_param":{"num_deleted":"0","num_feature":"17","num_nodes":"25","size_leaf_vector":"1"}},{"base_weights":[-2.2135623E-2,-5.0377715E-2,3.6128345E-1,-1.8940572E-4,-3.6327276E-1,4.1306093E-2,1.020263E-1,2.9666373E-1,-5.0768275E-2,-1.2552631E-1,-2.4177687E-1,-4.0579863E-2,5.404312E-2,1.17377035E-1,1.4348945E-1,-1.3135092E-1,1.257848E-1,5.416838E-2,-3.8549256E-1,4.9980912E-2,-2.707314E-2,4.767229E-3,-3.6041256E-2,2.6144642E-2,-6.4415075E-2,5.407282E-4,-8.612136E-2],"categories":[],"categories_nodes":[],"categories_segments":[],"categories_sizes":[],"default_left":[0,0,0,0,0,0,0,0,0,0,0,0,0,0,0,0,0,0,0,0,0,0,0,0,0,0,0],"id":28,"left_children":[1,3,5,7,9,11,-1,13,15,-1,17,-1,-1,-1,19,21,23,-1,25,-1,-1,-1,-1,-1,-1,-1,-1],"loss_changes":[4.696057E0,6.341578E0,4.4249887E0,5.2308073E0,4.3898025E0,2.6447384E0,0E0,5.0590177E0,4.238882E0,0E0,4.6592712E0,0E0,0E0,0E0,3.940591E0,5.5955095E0,5.231998E0,0E0,4.778482E0,0E0,0E0,0E0,0E0,0E0,0E0,0E0,0E0],"parents":[2147483647,0,0,1,1,2,2,3,3,4,4,5,5,7,7,8,8,10,10,14,14,15,15,16,16,18,18],"right_children":[2,4,6,8,10,12,-1,14,16,-1,18,-1,-1,-1,20,22,24,-1,26,-1,-1,-1,-1,-1,-1,-1,-1],"split_conditions":[1.505152E0,8.429783E-1,3E0,-2.1000156E0,-8.7992436E-1,8.859646E-2,1.020263E-1,3E0,4.4092304E-1,-1.2552631E-1,4.031383E-1,-4.0579863E-2,5.404312E-2,1.17377035E-1,3E0,-4.2548224E-1,4.15422E0,5.416838E-2,2.5914556E-1,4.9980912E-2,-2.707314E-2,4.767229E-3,-3.6041256E-2,2.6144642E-2,-6.4415075E-2,5.407282E-4,-8.612136E-2],"split_indices":[9,9,15,5,10,6,0,16,10,0,4,0,0,0,15,9,5,0,10,0,0,0,0,0,0,0,0],"split_type":[0,0,0,0,0,0,0,0,0,0,0,0,0,0,0,0,0,0,0,0,0,0,0,0,0,0,0],"sum_hessian":[4.3333557E2,4.0375766E2,2.9577904E1,3.4810886E2,5.5648792E1,1.7651815E1,1.1926088E1,5.054173E1,2.9756714E2,8.508073E0,4.7140717E1,9.140766E0,8.51105E0,9.403291E0,4.113844E1,2.0436162E2,9.320552E1,8.148015E0,3.8992702E1,2.3898996E1,1.7239445E1,9.940172E1,1.0495989E2,8.237494E1,1.0830576E1,1.7424458E1,2.1568245E1],"tree_param":{"num_deleted":"0","num_feature":"17","num_nodes":"27","size_leaf_vector":"1"}},{"base_weights":[-1.8618008E-2,-3.4031823E-1,1.9484218E-2,-8.0051494E-1,1.2642638E-1,1.3119628E-1,-7.6025344E-2,-1.2755751E-3,-1.5030564E-1,6.588898E-2,-5.041804E-2,1.8915381E-2,4.4446388E-1,-1.9320247E-1,1.2933834E-1,-7.490645E-2,4.5233244E-1,6.878269E-1,-1.1499943E-3,-7.221344E-2,-5.5169326E-1,2.6737693E-1,-1.2752196E-1,-1.7654564E-2,9.48017E-2,1.04245484E-1,2.7616287E-2,2.9937172E-2,1.0437064E-1,-6.92983E-2,7.280208E-2,-2.193513E-2,8.01907E-2,-3.8266677E-2,-1.6109473E-1,1.4612754E-2,1.1955838E-1,-6.842462E-2,2.2758719E-2],"categories":[],"categories_nodes":[],"categories_segments":[],"categories_sizes":[],"default_left":[0,0,0,0,0,0,0,0,0,0,0,0,0,0,0,0,0,0,0,0,0,0,0,0,0,0,0,0,0,0,0,0,0,0,0,0,0,0,0],"id":29,"left_children":[1,3,5,7,9,11,13,-1,-1,-1,-1,15,17,19,21,23,25,27,29,31,33,35,37,-1,-1,-1,-1,-1,-1,-1,-1,-1,-1,-1,-1,-1,-1,-1,-1],"loss_changes":[5.374836E0,9.994516E0,4.184686E0,7.72484E0,5.1005545E0,6.354896E0,5.0923495E0,0E0,0E0,0E0,0E0,5.4266715E0,5.1736765E0,5.8326936E0,2.7331464E0,6.328102E0,2.0933304E0,2.1330252E0,5.696323E0,7.7169237E0,6.1068077E0,5.2102137E0,3.6167052E0,0E0,0E0,0E0,0E0,0E0,0E0,0E0,0E0,0E0,0E0,0E0,0E0,0E0,0E0,0E0,0E0],"parents":[2147483647,0,0,1,1,2,2,3,3,4,4,5,5,6,6,11,11,12,12,13,13,14,14,15,15,16,16,17,17,18,18,19,19,20,20,21,21,22,22],"right_children":[2,4,6,8,10,12,14,-1,-1,-1,-1,16,18,20,22,24,26,28,30,32,34,36,38,-1,-1,-1,-1,-1,-1,-1,-1,-1,-1,-1,-1,-1,-1,-1,-1],"split_conditions":[-1.220025E0,-1.2176498E-1,-1.2176498E-1,-4.664096E-1,2.6116645E-1,-2.2623293E-1,2.9504707E-1,-1.2755751E-3,-1.5030564E-1,6.588898E-2,-5.041804E-2,-5.113844E-3,5.976954E-1,7.444784E-1,-2.7777794E-1,1.5674262E0,-4.444842E-1,-6.700214E-1,3.1009245E-1,9.272829E-1,-3.7561134E-1,-3.988871E-1,-8.936936E-1,-1.7654564E-2,9.48017E-2,1.04245484E-1,2.7616287E-2,2.9937172E-2,1.0437064E-1,-6.92983E-2,7.280208E-2,-2.193513E-2,8.01907E-2,-3.8266677E-2,-1.6109473E-1,1.4612754E-2,1.1955838E-1,-6.842462E-2,2.2758719E-2],"split_indices":[6,7,7,7,8,7,12,0,0,0,0,14,5,1,14,1,6,1,8,2,14,14,5,0,0,0,0,0,0,0,0,0,0,0,0,0,0,0,0],"split_type":[0,0,0,0,0,0,0,0,0,0,0,0,0,0,0,0,0,0,0,0,0,0,0,0,0,0,0,0,0,0,0,0,0,0,0,0,0,0,0],"sum_hessian":[4.3811032E2,4.626142E1,3.918489E2,2.3236408E1,2.3025013E1,1.805968E2,2.112521E2,8.104688E0,1.513172E1,1.3073257E1,9.9517565E0,1.3309225E2,4.750455E1,1.3452579E2,7.672631E1,1.0951815E2,2.3574104E1,3.0670252E1,1.68343E1,1.007455E2,3.3780293E1,4.991291E1,2.6813396E1,1.0146129E2,8.056865E0,8.489475E0,1.5084629E1,8.168946E0,2.2501305E1,8.649799E0,8.1845E0,8.801343E1,1.2732071E1,2.5778906E1,8.001389E0,4.134945E1,8.563463E0,1.126697E1,1.5546427E1],"tree_param":{"num_deleted":"0","num_feature":"17","num_nodes":"39","size_leaf_vector":"1"}},{"base_weights":[-2.8257712E-3,9.341043E-2,-7.58284E-2,5.3486365E-1,2.5827723E-2,-1.75239E-1,9.247808E-2,1.1419E-1,-1.792683E-2,-9.034265E-2,2.3708338E-1,-8.816598E-2,-5.1837015E-1,-3.5406286E-1,2.397878E-1,-5.8502096E-1,9.39604E-2,5.980199E-1,5.4232303E-2,-1.5367508E-2,-9.3169585E-2,-2.812095E-1,-1.2902714E-1,-1.2568095E-1,2.564047E-3,9.7118765E-2,9.3215585E-2,-3.8485833E-2,-1.333959E-1,-5.954418E-2,2.4113948E-2,1.8336361E-2,1.276905E-1,-2.754052E-2,6.8543494E-2,9.704788E-3,-5.655972E-2,-8.831466E-2,4.448006E-2,-2.5769955E-2,5.910785E-2],"categories":[],"categories_nodes":[],"categories_segments":[],"categories_sizes":[],"default_left":[0,0,0,0,0,0,0,0,0,0,0,0,0,0,0,0,0,0,0,0,0,0,0,0,0,0,0,0,0,0,0,0,0,0,0,0,0,0,0,0,0],"id":30,"left_children":[1,3,5,7,9,11,13,-1,-1,15,17,19,21,23,25,27,29,31,33,35,-1,37,-1,-1,-1,-1,39,-1,-1,-1,-1,-1,-1,-1,-1,-1,-1,-1,-1,-1,-1],"loss_changes":[3.1052403E0,5.6827726E0,4.2088966E0,6.75157E0,4.066506E0,4.7131114E0,6.1604295E0,0E0,0E0,9.758407E0,3.8713338E0,6.1298776E0,3.941803E0,5.7998886E0,5.6309733E0,3.8723373E0,4.583964E0,3.8464065E0,5.48055E0,4.762406E0,0E0,6.265691E0,0E0,0E0,0E0,0E0,6.5156302E0,0E0,0E0,0E0,0E0,0E0,0E0,0E0,0E0,0E0,0E0,0E0,0E0,0E0,0E0],"parents":[2147483647,0,0,1,1,2,2,3,3,4,4,5,5,6,6,9,9,10,10,11,11,12,12,13,13,14,14,15,15,16,16,17,17,18,18,19,19,21,21,26,26],"right_children":[2,4,6,8,10,12,14,-1,-1,16,18,20,22,24,26,28,30,32,34,36,-1,38,-1,-1,-1,-1,40,-1,-1,-1,-1,-1,-1,-1,-1,-1,-1,-1,-1,-1,-1],"split_conditions":[-2.5484538E-1,6.481593E-1,3E0,1.8272974E0,5.118862E-1,9.2590517E-1,-5.888984E-1,1.1419E-1,-1.792683E-2,6.3985395E-1,5.5328375E-1,2.318699E0,6.8025327E-1,8.737174E-1,-2.6508313E-1,4.5481944E-1,7.6414967E-1,5.6090176E-1,-6.243745E-1,-7.7706695E-2,-9.3169585E-2,3.093441E-1,-1.2902714E-1,-1.2568095E-1,2.564047E-3,9.7118765E-2,1.4131618E-1,-3.8485833E-2,-1.333959E-1,-5.954418E-2,2.4113948E-2,1.8336361E-2,1.276905E-1,-2.754052E-2,6.8543494E-2,9.704788E-3,-5.655972E-2,-8.831466E-2,4.448006E-2,-2.5769955E-2,5.910785E-2],"split_indices":[9,3,15,5,13,13,11,0,0,4,4,5,9,3,11,4,0,5,9,14,0,9,0,0,0,0,13,0,0,0,0,0,0,0,0,0,0,0,0,0,0],"split_type":[0,0,0,0,0,0,0,0,0,0,0,0,0,0,0,0,0,0,0,0,0,0,0,0,0,0,0,0,0,0,0,0,0,0,0,0,0,0,0,0,0],"sum_hessian":[4.4165857E2,1.904661E2,2.5119246E2,2.511943E1,1.6534666E2,1.5792998E2,9.326248E1,1.5916693E1,9.202738E0,1.0673239E2,5.861427E1,1.26149345E2,3.1780636E1,2.306667E1,7.0195816E1,2.8875616E1,7.785678E1,1.9568676E1,3.9045593E1,1.13904655E2,1.2244693E1,2.2115177E1,9.665458E0,8.213249E0,1.4853421E1,1.4655942E1,5.553987E1,1.8817968E1,1.0057647E1,1.1551413E1,6.630537E1,9.7694235E0,9.7992525E0,2.5191824E1,1.3853767E1,9.4073814E1,1.9830841E1,1.3176391E1,8.9387865E0,3.1191685E1,2.4348186E1],"tree_param":{"num_deleted":"0","num_feature":"17","num_nodes":"41","size_leaf_vector":"1"}},{"base_weights":[-5.8308116E-4,9.7373754E-2,-7.3066294E-2,9.002092E-2,6.3601024E-2,-4.297277E-1,-2.8516136E-2,1.7506501E-1,-1.12952165E-1,-1.033035E-2,-1.0249729E-1,4.7400054E-1,-7.3763296E-2,1.0093538E-1,9.226728E-2,6.0988776E-2,-2.4631847E-1,1.1123082E-3,1.2680812E-1,2.0574866E-1,-1.4189802E-1,-1.2295079E-2,4.1367214E-2,-1.1128105E-1,-1.1901789E-2,6.053226E-2,-1.1275496E-1,-1.1570012E-1,-1.2366908E-2],"categories":[],"categories_nodes":[],"categories_segments":[],"categories_sizes":[],"default_left":[0,0,0,0,0,0,0,0,0,0,0,0,0,0,0,0,0,0,0,0,0,0,0,0,0,0,0,0,0],"id":31,"left_children":[1,3,5,-1,7,9,11,13,15,-1,-1,17,19,21,-1,-1,23,-1,-1,25,27,-1,-1,-1,-1,-1,-1,-1,-1],"loss_changes":[3.10922E0,3.9656367E0,3.995347E0,0E0,3.4862761E0,3.8604355E0,5.0965157E0,4.5940666E0,5.5751185E0,0E0,0E0,4.763572E0,3.9206324E0,4.5373516E0,0E0,0E0,5.5178785E0,0E0,0E0,1.2955594E1,5.462906E0,0E0,0E0,0E0,0E0,0E0,0E0,0E0,0E0],"parents":[2147483647,0,0,1,1,2,2,4,4,5,5,6,6,7,7,8,8,11,11,12,12,13,13,16,16,19,19,20,20],"right_children":[2,4,6,-1,8,10,12,14,16,-1,-1,18,20,22,-1,-1,24,-1,-1,26,28,-1,-1,-1,-1,-1,-1,-1,-1],"split_conditions":[-1.660957E-1,5.4619706E-1,6.999737E-1,9.002092E-2,-3.0073889E-2,7.123101E-1,-8.9331335E-1,-2.701647E-1,-1.2189972E0,-1.033035E-2,-1.0249729E-1,1.7590137E-1,-8.581693E-1,-4.1993663E-2,9.226728E-2,6.0988776E-2,-1.0385202E0,1.1123082E-3,1.2680812E-1,7.0490736E-1,-7.268083E-1,-1.2295079E-2,4.1367214E-2,-1.1128105E-1,-1.1901789E-2,6.053226E-2,-1.1275496E-1,-1.1570012E-1,-1.2366908E-2],"split_indices":[6,0,0,0,11,4,1,6,10,0,0,13,10,12,0,0,9,0,0,9,10,0,0,0,0,0,0,0,0],"split_type":[0,0,0,0,0,0,0,0,0,0,0,0,0,0,0,0,0,0,0,0,0,0,0,0,0,0,0,0,0],"sum_hessian":[4.3757214E2,1.8603539E2,2.5153676E2,9.243001E0,1.7679239E2,2.7752758E1,2.23784E2,1.0838921E2,6.8403175E1,1.5020863E1,1.2731896E1,1.8341398E1,2.054426E2,9.6159676E1,1.222954E1,1.2224776E1,5.6178402E1,1.0072385E1,8.269013E0,4.018292E1,1.6525967E2,5.1860893E1,4.4298782E1,1.0279915E1,4.5898487E1,3.2112232E1,8.070686E0,8.023235E0,1.5723645E2],"tree_param":{"num_deleted":"0","num_feature":"17","num_nodes":"29","size_leaf_vector":"1"}},{"base_weights":[1.8325504E-2,-3.3331874E-1,3.910104E-2,-1.092716E-1,2.6576023E-3,-2.2955358E-1,6.415676E-2,-3.6417674E-3,-1.0302434E-1,1.1211116E-1,4.280061E-2,-6.6640325E-2,3.9766364E-2,2.0239351E-2,3.8775995E-1,6.2258802E-3,-2.7262412E-2,9.7348735E-2,6.0698524E-4],"categories":[],"categories_nodes":[],"categories_segments":[],"categories_sizes":[],"default_left":[0,0,0,0,0,0,0,0,0,0,0,0,0,0,0,0,0,0,0],"id":32,"left_children":[1,3,5,-1,-1,7,9,11,-1,-1,13,-1,-1,15,17,-1,-1,-1,-1],"loss_changes":[3.1600056E0,4.7383056E0,2.7513006E0,0E0,0E0,4.766593E0,6.7318506E0,4.5055532E0,0E0,0E0,2.8354702E0,0E0,0E0,2.4997382E0,3.4336698E0,0E0,0E0,0E0,0E0],"parents":[2147483647,0,0,1,1,2,2,5,5,6,6,7,7,10,10,13,13,14,14],"right_children":[2,4,6,-1,-1,8,10,12,-1,-1,14,-1,-1,16,18,-1,-1,-1,-1],"split_conditions":[-1.2949752E0,6.105952E-2,-1.5020909E0,-1.092716E-1,2.6576023E-3,-1.6216042E0,-1.4249964E0,9.303017E-1,-1.0302434E-1,1.1211116E-1,4.608191E-1,-6.6640325E-2,3.9766364E-2,2.1501312E-1,-3.176086E-1,6.2258802E-3,-2.7262412E-2,9.7348735E-2,6.0698524E-4],"split_indices":[11,13,2,0,0,2,2,3,0,0,7,0,0,7,11,0,0,0,0],"split_type":[0,0,0,0,0,0,0,0,0,0,0,0,0,0,0,0,0,0,0],"sum_hessian":[4.3224133E2,2.3955162E1,4.0828616E2,9.271526E0,1.4683635E1,3.469398E1,3.735922E2,2.5401302E1,9.29268E0,9.029146E0,3.6456305E2,9.562272E0,1.5839029E1,3.4236783E2,2.21952E1,3.0437894E2,3.7988907E1,1.0738691E1,1.145651E1],"tree_param":{"num_deleted":"0","num_feature":"17","num_nodes":"19","size_leaf_vector":"1"}},{"base_weights":[4.313323E-2,6.326931E-2,2.9375682E-2,3.7848508E-1,1.0711069E-2,7.4730985E-2,-4.4830906E-4,6.619931E-2,-1.3591455E-3,6.1757315E-2,-1.13748774E-1,1.9486086E-3,6.3611746E-2,-5.620331E-2,5.7270855E-4],"categories":[],"categories_nodes":[],"categories_segments":[],"categories_sizes":[],"default_left":[0,0,0,0,0,0,0,0,0,0,0,0,0,0,0],"id":33,"left_children":[1,-1,3,5,7,-1,-1,-1,9,11,13,-1,-1,-1,-1],"loss_changes":[2.8241463E0,0E0,2.7699516E0,1.8775439E0,2.5677729E0,0E0,0E0,0E0,2.8046503E0,5.2776594E0,5.758251E0,0E0,0E0,0E0,0E0],"parents":[2147483647,0,0,2,2,3,3,4,4,8,8,9,9,10,10],"right_children":[2,-1,4,6,8,-1,-1,-1,10,12,14,-1,-1,-1,-1],"split_conditions":[-4.3026476E0,6.326931E-2,-1.5117055E0,3.1065843E-1,-2.4391222E0,7.4730985E-2,-4.4830906E-4,6.619931E-2,1.0302778E0,9.95539E-1,1.1174424E0,1.9486086E-3,6.3611746E-2,-5.620331E-2,5.7270855E-4],"split_indices":[5,0,10,12,13,0,0,0,3,3,3,0,0,0,0],"split_type":[0,0,0,0,0,0,0,0,0,0,0,0,0,0,0],"sum_hessian":[4.375607E2,1.2260768E1,4.2529993E2,2.1402231E1,4.038977E2,1.3361889E1,8.040342E0,8.899966E0,3.9499774E2,2.5297127E2,1.4202646E2,2.2988576E2,2.3085522E1,3.641366E1,1.0561281E2],"tree_param":{"num_deleted":"0","num_feature":"17","num_nodes":"15","size_leaf_vector":"1"}},{"base_weights":[6.5089823E-3,6.435831E-2,-9.354275E-2,-8.1268616E-2,2.0316964E-1,1.653202E-1,-2.672421E-1,-2.9987741E-2,-1.0617265E-1,5.14357E-1,9.873886E-2,1.0236005E-1,2.1921584E-2,-5.2695155E-1,4.020687E-3,-1.6162138E-1,2.246456E-1,1.285837E-1,2.736374E-1,-3.6422506E-1,1.8479264E-1,2.0749578E-1,-7.6100156E-2,-8.8114554E-1,-2.3697287E-1,-4.430549E-2,1.6632387E-1,3.890368E-2,-4.1878104E-2,-3.8973454E-2,6.376844E-2,-3.3830309E-3,1.0646346E-1,-6.869256E-3,-8.3200045E-2,5.3763602E-2,-2.1367357E-3,-5.082846E-2,7.282654E-2,-1.8395403E-1,-5.8364082E-2,1.2398792E-2,-1.22080274E-1,6.556559E-2,-1.5820058E-2],"categories":[],"categories_nodes":[],"categories_segments":[],"categories_sizes":[],"default_left":[0,0,0,0,0,0,0,0,0,0,0,0,0,0,0,0,0,0,0,0,0,0,0,0,0,0,0,0,0,0,0,0,0,0,0,0,0,0,0,0,0,0,0,0,0],"id":34,"left_children":[1,3,5,7,9,11,13,15,-1,17,19,-1,21,23,25,27,29,-1,31,33,35,37,-1,39,41,-1,43,-1,-1,-1,-1,-1,-1,-1,-1,-1,-1,-1,-1,-1,-1,-1,-1,-1,-1],"loss_changes":[2.5025556E0,5.542206E0,7.1300917E0,5.340864E0,4.549413E0,6.0631404E0,6.6858506E0,4.220934E0,0E0,4.4208355E0,4.2063437E0,0E0,6.2539062E0,4.9375105E0,2.7544477E0,7.062319E0,6.811185E0,0E0,4.343011E0,1.5752413E0,4.515707E0,9.740929E0,0E0,5.283407E0,6.854251E0,0E0,3.4896874E0,0E0,0E0,0E0,0E0,0E0,0E0,0E0,0E0,0E0,0E0,0E0,0E0,0E0,0E0,0E0,0E0,0E0,0E0],"parents":[2147483647,0,0,1,1,2,2,3,3,4,4,5,5,6,6,7,7,9,9,10,10,12,12,13,13,14,14,15,15,16,16,18,18,19,19,20,20,21,21,23,23,24,24,26,26],"right_children":[2,4,6,8,10,12,14,16,-1,18,20,-1,22,24,26,28,30,-1,32,34,36,38,-1,40,42,-1,44,-1,-1,-1,-1,-1,-1,-1,-1,-1,-1,-1,-1,-1,-1,-1,-1,-1,-1],"split_conditions":[1.0343769E0,8.6443436E-1,7.3404527E-1,8.199221E-1,-8.1738603E-1,-9.8902917E-1,1.340434E-1,1.1995937E-1,-1.0617265E-1,-6.886064E-1,-1.0385202E0,1.0236005E-1,5.2236624E-2,-3.461906E-1,-5.420139E-1,6.580977E-1,-1.5845598E-1,1.285837E-1,7.614904E-1,1.569212E0,-8.630095E-2,3.4748468E-1,-7.6100156E-2,1.0620031E0,-3.0390704E-1,-4.430549E-2,1.7491053E-1,3.890368E-2,-4.1878104E-2,-3.8973454E-2,6.376844E-2,-3.3830309E-3,1.0646346E-1,-6.869256E-3,-8.3200045E-2,5.3763602E-2,-2.1367357E-3,-5.082846E-2,7.282654E-2,-1.8395403E-1,-5.8364082E-2,1.2398792E-2,-1.22080274E-1,6.556559E-2,-1.5820058E-2],"split_indices":[3,4,4,4,10,12,8,7,0,14,9,0,7,2,10,3,10,0,12,4,7,4,0,4,8,0,10,0,0,0,0,0,0,0,0,0,0,0,0,0,0,0,0,0,0],"split_type":[0,0,0,0,0,0,0,0,0,0,0,0,0,0,0,0,0,0,0,0,0,0,0,0,0,0,0,0,0,0,0,0,0,0,0,0,0,0,0,0,0,0,0,0,0],"sum_hessian":[4.320436E2,2.7382553E2,1.5821808E2,1.3365163E2,1.401739E2,6.3527027E1,9.4691055E1,1.2557603E2,8.075603E0,3.503914E1,1.0513476E2,1.1122622E1,5.2404404E1,4.8300503E1,4.6390553E1,8.2834984E1,4.274104E1,1.078447E1,2.425467E1,1.6382965E1,8.875179E1,4.070485E1,1.1699556E1,2.1576666E1,2.6723837E1,1.4254212E1,3.2136337E1,2.245666E1,6.0378326E1,1.4990229E1,2.7750813E1,1.6159367E1,8.0953045E0,8.324377E0,8.058587E0,3.9502445E1,4.924935E1,1.5538402E1,2.5166447E1,8.456945E0,1.3119721E1,1.8550955E1,8.17288E0,1.429223E1,1.7844109E1],"tree_param":{"num_deleted":"0","num_feature":"17","num_nodes":"45","size_leaf_vector":"1"}},{"base_weights":[-4.81625E-2,-1.1176119E-1,7.893887E-2,-1.6334334E-1,4.1536072E-1,3.623141E-2,9.3858376E-2,-6.018479E-3,-2.9505038E-1,-2.9179055E-2,7.1507955E-1,1.503452E-1,-2.1055898E-1,-9.273787E-2,1.0555334E-1,4.6192396E-2,-4.0947434E-1,1.5459241E-1,2.6635008E-2,-2.6087595E-2,3.5491827E-1,-9.3839064E-2,-7.426775E-2,-2.6332157E-2,3.9700553E-2,-7.467916E-2,2.8912626E-2,-5.294451E-3,-7.420773E-2,2.3712426E-2,-8.878733E-2,6.7954056E-2,-4.091378E-3,-6.4378776E-2,1.6012333E-2],"categories":[],"categories_nodes":[],"categories_segments":[],"categories_sizes":[],"default_left":[0,0,0,0,0,0,0,0,0,0,0,0,0,0,0,0,0,0,0,0,0,0,0,0,0,0,0,0,0,0,0,0,0,0,0],"id":35,"left_children":[1,3,5,7,9,11,-1,13,15,-1,17,19,21,23,-1,25,27,-1,-1,29,31,-1,33,-1,-1,-1,-1,-1,-1,-1,-1,-1,-1,-1,-1],"loss_changes":[3.5295758E0,7.922351E0,4.2331953E0,5.4929643E0,5.107214E0,3.8700752E0,0E0,9.0547695E0,5.6400404E0,0E0,4.7400894E0,3.3942802E0,3.244853E0,5.523875E0,0E0,4.4853354E0,7.6061344E0,0E0,0E0,7.689698E0,3.3165388E0,0E0,3.2132196E0,0E0,0E0,0E0,0E0,0E0,0E0,0E0,0E0,0E0,0E0,0E0,0E0],"parents":[2147483647,0,0,1,1,2,2,3,3,4,4,5,5,7,7,8,8,10,10,11,11,12,12,13,13,15,15,16,16,19,19,20,20,22,22],"right_children":[2,4,6,8,10,12,-1,14,16,-1,18,20,22,24,-1,26,28,-1,-1,30,32,-1,34,-1,-1,-1,-1,-1,-1,-1,-1,-1,-1,-1,-1],"split_conditions":[1.1690825E0,1.2E1,1.3879391E0,-1.476017E-1,-8.6701435E-1,9E0,9.3858376E-2,-2.3269372E-1,-4.560203E-1,-2.9179055E-2,-6.1326396E-1,2.6882148E-1,-1.0208422E0,8.117537E-1,1.0555334E-1,7.692308E-1,-7.210082E-1,1.5459241E-1,2.6635008E-2,6.1068094E-1,1.6128472E0,-9.3839064E-2,2E0,-2.6332157E-2,3.9700553E-2,-7.467916E-2,2.8912626E-2,-5.294451E-3,-7.420773E-2,2.3712426E-2,-8.878733E-2,6.7954056E-2,-4.091378E-3,-6.4378776E-2,1.6012333E-2],"split_indices":[4,16,0,8,6,16,0,8,6,0,11,8,8,13,0,3,11,0,0,6,5,0,15,0,0,0,0,0,0,0,0,0,0,0,0],"split_type":[0,0,0,0,0,0,0,0,0,0,0,0,0,0,0,0,0,0,0,0,0,0,0,0,0,0,0,0,0,0,0,0,0,0,0],"sum_hessian":[4.3625967E2,2.908038E2,1.4545587E2,2.6500006E2,2.580373E1,1.3706186E2,8.394008E0,1.2085417E2,1.4414589E2,8.133776E0,1.7669954E1,9.378313E1,4.327874E1,1.0994966E2,1.0904508E1,3.6213192E1,1.079327E2,8.371894E0,9.29806E0,5.042452E1,4.335861E1,8.427977E0,3.485076E1,8.522516E1,2.4724504E1,8.023849E0,2.8189342E1,3.7198936E1,7.0733765E1,3.8444386E1,1.1980129E1,2.8768738E1,1.4589869E1,1.0835157E1,2.4015606E1],"tree_param":{"num_deleted":"0","num_feature":"17","num_nodes":"35","size_leaf_vector":"1"}},{"base_weights":[8.4841335E-3,1.06449306E-1,-8.8660404E-2,7.497585E-2,7.126376E-2,4.585687E-2,-2.296224E-1,-4.0977058E-1,1.3266912E-1,1.6171801E-1,-3.583062E-1,2.5034787E-3,-4.2461747E-1,-8.221954E-3,-1.1680575E-1,6.5977126E-3,2.9459462E-1,6.018035E-1,5.5734996E-2,1.9919444E-2,-6.1859417E-1,5.240869E-2,-2.0115995E-1,-2.6038125E-1,-1.6097729E-1,-2.5311872E-2,1.6823588E-2,1.173002E-1,1.924282E-2,4.632186E-2,1.0169803E-1,-4.5083463E-2,2.8085E-2,-1.3075589E-1,-2.032696E-2,-7.9176754E-2,8.033335E-3,-9.73413E-2,-5.731061E-4],"categories":[],"categories_nodes":[],"categories_segments":[],"categories_sizes":[],"default_left":[0,0,0,0,0,0,0,0,0,0,0,0,0,0,0,0,0,0,0,0,0,0,0,0,0,0,0,0,0,0,0,0,0,0,0,0,0,0,0],"id":36,"left_children":[1,3,5,-1,7,9,11,13,15,17,19,21,23,-1,-1,25,27,29,31,-1,33,-1,35,37,-1,-1,-1,-1,-1,-1,-1,-1,-1,-1,-1,-1,-1,-1,-1],"loss_changes":[4.123534E0,3.7955394E0,4.1275597E0,0E0,5.9690876E0,5.227661E0,4.8121705E0,4.201436E0,3.6544638E0,4.0369997E0,3.3848112E0,4.2032E0,8.286874E0,0E0,0E0,2.7780404E0,7.099438E0,7.878442E-1,5.091609E0,0E0,3.2930331E0,0E0,3.8771267E0,6.608972E0,0E0,0E0,0E0,0E0,0E0,0E0,0E0,0E0,0E0,0E0,0E0,0E0,0E0,0E0,0E0],"parents":[2147483647,0,0,1,1,2,2,4,4,5,5,6,6,7,7,8,8,9,9,10,10,11,11,12,12,15,15,16,16,17,17,18,18,20,20,22,22,23,23],"right_children":[2,4,6,-1,8,10,12,14,16,18,20,22,24,-1,-1,26,28,30,32,-1,34,-1,36,38,-1,-1,-1,-1,-1,-1,-1,-1,-1,-1,-1,-1,-1,-1,-1],"split_conditions":[3.0905364E-2,-1.6602867E0,7E0,7.497585E-2,-9.53829E-1,1.1363447E0,-5.2509004E-1,-6.750084E-1,-5.2850854E-1,-7.651367E-1,2E0,8.4119433E-1,7.373744E-1,-8.221954E-3,-1.1680575E-1,9.211921E-1,-4.3009162E-1,9.422782E-1,7.30344E-1,1.9919444E-2,5.9989417E-1,5.240869E-2,9E0,8.5800564E-1,-1.6097729E-1,-2.5311872E-2,1.6823588E-2,1.173002E-1,1.924282E-2,4.632186E-2,1.0169803E-1,-4.5083463E-2,2.8085E-2,-1.3075589E-1,-2.032696E-2,-7.9176754E-2,8.033335E-3,-9.73413E-2,-5.731061E-4],"split_indices":[8,6,16,0,6,0,14,8,14,14,15,0,13,0,0,0,14,0,3,0,8,0,16,0,0,0,0,0,0,0,0,0,0,0,0,0,0,0,0],"split_type":[0,0,0,0,0,0,0,0,0,0,0,0,0,0,0,0,0,0,0,0,0,0,0,0,0,0,0,0,0,0,0,0,0,0,0,0,0,0,0],"sum_hessian":[4.3293695E2,2.1557246E2,2.1736449E2,1.3942733E1,2.0162973E2,1.11268616E2,1.0609586E2,2.270531E1,1.7892442E2,8.656746E1,2.470116E1,4.850415E1,5.7591717E1,1.3979452E1,8.725859E0,1.0071672E2,7.82077E1,1.6635653E1,6.993181E1,8.2582655E0,1.6442894E1,1.5725164E1,3.2778984E1,4.8731247E1,8.86047E0,3.8216965E1,6.2499756E1,1.3451813E1,6.475589E1,8.492155E0,8.1434965E0,2.0207771E1,4.9724037E1,8.212435E0,8.23046E0,1.2259787E1,2.05192E1,1.576193E1,3.2969315E1],"tree_param":{"num_deleted":"0","num_feature":"17","num_nodes":"39","size_leaf_vector":"1"}},{"base_weights":[7.5558177E-3,-7.9180915E-3,5.8252085E-2,2.6601315E-2,-2.1363842E-1,9.1192596E-2,-1.3453913E-1,-6.2135977E-1,-4.8406024E-2,5.12463E-2,3.3961156E-1,3.2935885E-3,-7.214706E-1,-3.2122828E-2,-1.2385121E-1,6.456923E-2,-3.0287006E-1,-1.8188982E-4,5.064535E-2,-1.504139E-2,7.134166E-2,1.1429193E-2,-9.82654E-2,-4.7007394E-3,-1.4959309E-1,-6.5215304E-2,3.1765286E-2],"categories":[],"categories_nodes":[],"categories_segments":[],"categories_sizes":[],"default_left":[0,0,0,0,0,0,0,0,0,0,0,0,0,0,0,0,0,0,0,0,0,0,0,0,0,0,0],"id":37,"left_children":[1,3,-1,5,7,9,11,13,15,17,19,21,23,-1,-1,-1,25,-1,-1,-1,-1,-1,-1,-1,-1,-1,-1],"loss_changes":[3.1091392E0,2.9719412E0,0E0,3.7310858E0,4.0430083E0,2.5345423E0,8.3014555E0,2.341445E0,6.2822537E0,4.1822634E0,3.9154644E0,5.95947E0,6.537633E0,0E0,0E0,0E0,3.8045008E0,0E0,0E0,0E0,0E0,0E0,0E0,0E0,0E0,0E0,0E0],"parents":[2147483647,0,0,1,1,3,3,4,4,5,5,6,6,7,7,8,8,9,9,10,10,11,11,12,12,16,16],"right_children":[2,4,-1,6,8,10,12,14,16,18,20,22,24,-1,-1,-1,26,-1,-1,-1,-1,-1,-1,-1,-1,-1,-1],"split_conditions":[2.052116E0,1.0526547E0,5.8252085E-2,-1.4976014E-1,-6.9980526E-1,7.3335826E-1,1.4131618E-1,-9.0418124E-1,-1.9132675E-1,-2.4896249E-1,-4.0358487E-1,1.256445E0,-2.0996301E-1,-3.2122828E-2,-1.2385121E-1,6.456923E-2,1.0894206E-1,-1.8188982E-4,5.064535E-2,-1.504139E-2,7.134166E-2,1.1429193E-2,-9.82654E-2,-4.7007394E-3,-1.4959309E-1,-6.5215304E-2,3.1765286E-2],"split_indices":[1,6,0,14,12,11,13,14,12,14,6,3,7,0,0,0,7,0,0,0,0,0,0,0,0,0,0],"split_type":[0,0,0,0,0,0,0,0,0,0,0,0,0,0,0,0,0,0,0,0,0,0,0,0,0,0,0],"sum_hessian":[4.3183524E2,4.180748E2,1.3760443E1,3.5811365E2,5.9961136E1,2.557158E2,1.0239786E2,1.7146126E1,4.2815014E1,2.2048804E2,3.522776E1,8.305786E1,1.9339994E1,8.980051E0,8.166074E0,1.312272E1,2.9692291E1,1.924176E2,2.8070444E1,1.20328665E1,2.3194893E1,7.485458E1,8.203276E0,8.170769E0,1.1169225E1,2.1176207E1,8.516086E0],"tree_param":{"num_deleted":"0","num_feature":"17","num_nodes":"27","size_leaf_vector":"1"}},{"base_weights":[1.6393507E-2,9.368352E-2,-6.2215723E-2,-1.7108371E-2,2.4887379E-1,-1.9732816E-2,-7.663701E-2,1.958428E-1,-2.304814E-1,4.9982196E-1,3.1989332E-2,2.0282607E-1,-1.2358076E-1,5.5611265E-1,-6.571807E-2,-1.175364E-1,-1.0183169E-1,7.404943E-1,2.5428453E-1,-5.4355215E-2,1.5520518E-1,-2.4698185E-2,4.0742138E-1,-8.1940256E-2,-5.3231955E-2,2.4831397E-2,1.0650472E-1,-9.3876146E-2,2.1529488E-2,4.1081935E-2,-3.841326E-2,1.2765415E-1,3.994319E-2,7.09409E-2,-2.3410149E-2,-1.1002764E-2,8.054543E-2,-4.7462262E-2,4.370537E-2,8.2004145E-2,1.2091718E-2,-2.1871908E-2,2.9879395E-2],"categories":[],"categories_nodes":[],"categories_segments":[],"categories_sizes":[],"default_left":[0,0,0,0,0,0,0,0,0,0,0,0,0,0,0,0,0,0,0,0,0,0,0,0,0,0,0,0,0,0,0,0,0,0,0,0,0,0,0,0,0,0,0],"id":38,"left_children":[1,3,5,7,9,11,-1,13,15,17,19,21,23,25,27,-1,29,31,33,-1,35,37,39,-1,41,-1,-1,-1,-1,-1,-1,-1,-1,-1,-1,-1,-1,-1,-1,-1,-1,-1,-1],"loss_changes":[2.6188617E0,3.7387567E0,5.070181E0,5.7767096E0,4.923778E0,4.5981145E0,0E0,6.004081E0,5.8804665E0,2.4426146E0,2.8509803E0,2.949757E0,5.150763E0,2.8861008E0,6.208684E0,0E0,4.9494085E0,2.5230532E0,3.018938E0,0E0,4.735747E0,4.134576E0,2.6407928E0,0E0,4.4152255E0,0E0,0E0,0E0,0E0,0E0,0E0,0E0,0E0,0E0,0E0,0E0,0E0,0E0,0E0,0E0,0E0,0E0,0E0],"parents":[2147483647,0,0,1,1,2,2,3,3,4,4,5,5,7,7,8,8,9,9,10,10,11,11,12,12,13,13,14,14,16,16,17,17,18,18,20,20,21,21,22,22,24,24],"right_children":[2,4,6,8,10,12,-1,14,16,18,20,22,24,26,28,-1,30,32,34,-1,36,38,40,-1,42,-1,-1,-1,-1,-1,-1,-1,-1,-1,-1,-1,-1,-1,-1,-1,-1,-1,-1],"split_conditions":[-1.3176222E-2,-9.248859E-2,1.4398364E0,6.935877E-1,8.062513E-2,-4.560203E-1,-7.663701E-2,-1.6292456E-1,-8.8548326E-1,5.279808E-1,-1.6161326E0,-1.0681067E0,1.2910478E-1,-4.1815126E-1,-2.7858762E-2,-1.175364E-1,-3.9197814E-1,8E0,-5.9380406E-1,-5.4355215E-2,1.5135943E0,2.5578967E-1,-7.8375146E-2,-8.1940256E-2,8.0775845E-1,2.4831397E-2,1.0650472E-1,-9.3876146E-2,2.1529488E-2,4.1081935E-2,-3.841326E-2,1.2765415E-1,3.994319E-2,7.09409E-2,-2.3410149E-2,-1.1002764E-2,8.054543E-2,-4.7462262E-2,4.370537E-2,8.2004145E-2,1.2091718E-2,-2.1871908E-2,2.9879395E-2],"split_indices":[12,11,10,4,1,6,0,7,14,11,12,6,12,7,7,0,8,16,14,0,4,8,7,0,6,0,0,0,0,0,0,0,0,0,0,0,0,0,0,0,0,0,0],"split_type":[0,0,0,0,0,0,0,0,0,0,0,0,0,0,0,0,0,0,0,0,0,0,0,0,0,0,0,0,0,0,0,0,0,0,0,0,0,0,0,0,0,0,0],"sum_hessian":[4.3067508E2,2.171714E2,2.1350368E2,1.26784485E2,9.038691E1,1.9860028E2,1.4903395E1,6.3451702E1,6.3332783E1,4.178841E1,4.85985E1,6.311945E1,1.3548083E2,2.6614649E1,3.6837055E1,9.400592E0,5.3932194E1,2.0917503E1,2.0870907E1,9.949542E0,3.8648956E1,2.9947094E1,3.3172356E1,1.5421397E1,1.2005943E2,1.2493117E1,1.41215315E1,9.367782E0,2.746927E1,1.7498978E1,3.6433216E1,1.210004E1,8.817463E0,1.2092795E1,8.778112E0,2.6011223E1,1.2637735E1,1.5361887E1,1.4585207E1,1.7991365E1,1.5180991E1,8.461055E1,3.5448883E1],"tree_param":{"num_deleted":"0","num_feature":"17","num_nodes":"43","size_leaf_vector":"1"}},{"base_weights":[-1.0916829E-2,8.1962004E-2,-7.925755E-2,-6.17058E-3,4.0009528E-1,-3.2334566E-1,-3.5822343E-3,1.0938462E-1,-4.5250526E-1,-6.665891E-2,8.311964E-1,4.2543314E-2,-5.6444544E-1,3.3686167E-1,-8.999921E-2,-5.223766E-2,1.8313229E-1,-1.17249906E-1,-2.1570525E-1,-5.4704428E-2,5.0516274E-2,4.204395E-2,1.5743345E-1,-3.270837E-2,6.943403E-2,-1.3203421E-1,-1.8933009E-1,-4.1204866E-2,7.2066605E-1,3.985541E-2,-3.529895E-1,3.14729E-2,-6.369887E-2,8.474686E-3,-6.614356E-2,4.3254547E-2,-8.436641E-2,1.5270574E-1,2.1855079E-2,-3.9547365E-3,9.670028E-2,-8.363798E-2,-3.185468E-3],"categories":[],"categories_nodes":[],"categories_segments":[],"categories_sizes":[],"default_left":[0,0,0,0,0,0,0,0,0,0,0,0,0,0,0,0,0,0,0,0,0,0,0,0,0,0,0,0,0,0,0,0,0,0,0,0,0,0,0,0,0,0,0],"id":39,"left_children":[1,3,5,7,9,11,13,15,17,19,21,23,25,27,29,-1,31,-1,33,-1,-1,-1,-1,-1,-1,-1,35,-1,37,39,41,-1,-1,-1,-1,-1,-1,-1,-1,-1,-1,-1,-1],"loss_changes":[2.6234443E0,4.913987E0,4.3968225E0,7.0936623E0,7.662706E0,4.976417E0,5.3573933E0,4.3048935E0,3.2952714E0,3.3351538E0,4.234829E0,3.6350727E0,6.4084196E0,9.535702E0,4.9648175E0,0E0,4.8621798E0,0E0,1.7771363E0,0E0,0E0,0E0,0E0,0E0,0E0,0E0,5.3126802E0,0E0,6.5651646E0,5.219573E0,5.103686E0,0E0,0E0,0E0,0E0,0E0,0E0,0E0,0E0,0E0,0E0,0E0,0E0],"parents":[2147483647,0,0,1,1,2,2,3,3,4,4,5,5,6,6,7,7,8,8,9,9,10,10,11,11,12,12,13,13,14,14,16,16,18,18,26,26,28,28,29,29,30,30],"right_children":[2,4,6,8,10,12,14,16,18,20,22,24,26,28,30,-1,32,-1,34,-1,-1,-1,-1,-1,-1,-1,36,-1,38,40,42,-1,-1,-1,-1,-1,-1,-1,-1,-1,-1,-1,-1],"split_conditions":[-1.4524229E-1,9.575352E-1,-4.5461625E-2,4.5930856E-1,-4.0623415E-1,-6.1326396E-1,-8.3142865E-1,-7.2712857E-1,-3.413335E-1,1.758745E0,1.03366174E-1,1.9871973E-1,1.4305206E-1,-6.474942E-1,5.001142E-1,-5.223766E-2,1.1702545E0,-1.17249906E-1,3E0,-5.4704428E-2,5.0516274E-2,4.204395E-2,1.5743345E-1,-3.270837E-2,6.943403E-2,-1.3203421E-1,-1.02326736E-1,-4.1204866E-2,-1.9907054E-1,2.2612885E-1,7.2392866E-2,3.14729E-2,-6.369887E-2,8.474686E-3,-6.614356E-2,4.3254547E-2,-8.436641E-2,1.5270574E-1,2.1855079E-2,-3.9547365E-3,9.670028E-2,-8.363798E-2,-3.185468E-3],"split_indices":[7,1,7,1,7,11,13,7,6,1,10,6,11,2,1,0,10,0,15,0,0,0,0,0,0,0,7,0,10,1,10,0,0,0,0,0,0,0,0,0,0,0,0],"split_type":[0,0,0,0,0,0,0,0,0,0,0,0,0,0,0,0,0,0,0,0,0,0,0,0,0,0,0,0,0,0,0,0,0,0,0,0,0,0,0,0,0,0,0],"sum_hessian":[4.1296045E2,1.7501111E2,2.3794933E2,1.3716771E2,3.7843403E1,5.6164883E1,1.8178445E2,1.0905471E2,2.8112995E1,1.8235832E1,1.9607573E1,2.2358501E1,3.380638E1,3.668963E1,1.4509482E2,1.3150472E1,9.5904236E1,8.884694E0,1.9228302E1,1.0191862E1,8.043969E0,9.480397E0,1.0127175E1,1.4098213E1,8.260289E0,1.4250983E1,1.9555397E1,1.3355105E1,2.3334522E1,9.72211E1,4.7873726E1,8.705796E1,8.846281E0,1.0252998E1,8.975304E0,9.36884E0,1.0186557E1,1.1837198E1,1.1497323E1,8.879883E1,8.422269E0,2.3913698E1,2.3960026E1],"tree_param":{"num_deleted":"0","num_feature":"17","num_nodes":"43","size_leaf_vector":"1"}},{"base_weights":[1.0606344E-2,4.511882E-1,-1.0388367E-2,9.845819E-2,9.132379E-3,-4.0421996E-1,1.5663272E-2,-1.5154098E-2,-1.07644476E-1,3.3943546E-1,-1.5147749E-2,-3.9044816E-2,9.4376765E-2,-6.1809354E-2,1.6246499E-1,-6.631508E-2,6.3640244E-2,-5.3708926E-3,-8.0127075E-2,6.951835E-2,-8.868887E-3],"categories":[],"categories_nodes":[],"categories_segments":[],"categories_sizes":[],"default_left":[0,0,0,0,0,0,0,0,0,0,0,0,0,0,0,0,0,0,0,0,0],"id":40,"left_children":[1,3,5,-1,-1,7,9,-1,-1,11,13,15,-1,17,19,-1,-1,-1,-1,-1,-1],"loss_changes":[3.9225736E0,2.5103111E0,4.154543E0,0E0,0E0,3.2884774E0,3.7901492E0,0E0,0E0,5.3272934E0,2.8759863E0,4.9278774E0,0E0,2.9430513E0,6.796202E0,0E0,0E0,0E0,0E0,0E0,0E0],"parents":[2147483647,0,0,1,1,2,2,5,5,6,6,9,9,10,10,11,11,13,13,14,14],"right_children":[2,4,6,-1,-1,8,10,-1,-1,12,14,16,-1,18,20,-1,-1,-1,-1,-1,-1],"split_conditions":[-1.74897E0,-2.701647E-1,-1.3396765E0,9.845819E-2,9.132379E-3,2.775146E-1,-9.7347695E-1,-1.5154098E-2,-1.07644476E-1,6.586191E-2,1.0919467E0,-7.126362E-2,9.4376765E-2,2.4781046E0,-2.6829916E-1,-6.631508E-2,6.3640244E-2,-5.3708926E-3,-8.0127075E-2,6.951835E-2,-8.868887E-3],"split_indices":[1,6,1,0,0,12,1,0,0,10,1,6,0,4,12,0,0,0,0,0,0],"split_type":[0,0,0,0,0,0,0,0,0,0,0,0,0,0,0,0,0,0,0,0,0],"sum_hessian":[4.235942E2,1.9114975E1,4.0447925E2,9.848192E0,9.266782E0,2.4950176E1,3.7952905E2,1.5730584E1,9.219593E0,3.2840134E1,3.4668893E2,1.746176E1,1.5378372E1,2.7466763E2,7.20213E1,9.2053795E0,8.25638E0,2.665768E2,8.090822E0,2.6478231E1,4.554307E1],"tree_param":{"num_deleted":"0","num_feature":"17","num_nodes":"21","size_leaf_vector":"1"}},{"base_weights":[4.448079E-2,2.2353118E-2,3.0606747E-1,-3.7152022E-1,4.2329267E-2,5.2606004E-1,-5.3598676E-3,-8.472288E-2,5.112378E-3,4.1678864E-1,1.7884992E-2,1.0602935E-1,1.5644273E-2,1.2271781E-1,5.537361E-3,-4.690194E-2,3.4682732E-2,5.154835E-2,-9.6080714E-4],"categories":[],"categories_nodes":[],"categories_segments":[],"categories_sizes":[],"default_left":[0,0,0,0,0,0,0,0,0,0,0,0,0,0,0,0,0,0,0],"id":41,"left_children":[1,3,5,7,9,11,-1,-1,-1,13,15,-1,-1,-1,-1,-1,17,-1,-1],"loss_changes":[2.470519E0,3.1024537E0,2.5661898E0,2.4862015E0,3.4319468E0,2.7002902E0,0E0,0E0,0E0,4.927741E0,2.3580062E0,0E0,0E0,0E0,0E0,0E0,5.5099936E0,0E0,0E0],"parents":[2147483647,0,0,1,1,2,2,3,3,4,4,5,5,9,9,10,10,16,16],"right_children":[2,4,6,8,10,12,-1,-1,-1,14,16,-1,-1,-1,-1,-1,18,-1,-1],"split_conditions":[1.3419044E0,-1.9500865E0,1.0324605E-1,1.1568619E0,2E0,1.0477672E0,-5.3598676E-3,-8.472288E-2,5.112378E-3,2E0,-1.2949752E0,1.0602935E-1,1.5644273E-2,1.2271781E-1,5.537361E-3,-4.690194E-2,-1.0005317E0,5.154835E-2,-9.6080714E-4],"split_indices":[12,13,6,0,16,0,0,0,0,15,11,0,0,0,0,0,11,0,0],"split_type":[0,0,0,0,0,0,0,0,0,0,0,0,0,0,0,0,0,0,0],"sum_hessian":[4.2709555E2,3.9397446E2,3.3121067E1,1.8858677E1,3.7511578E2,2.028099E1,1.2840076E1,1.0634262E1,8.224416E0,2.2804794E1,3.52311E2,1.0934737E1,9.346253E0,8.809069E0,1.3995726E1,1.4100421E1,3.3821057E2,3.36011E1,3.0460947E2],"tree_param":{"num_deleted":"0","num_feature":"17","num_nodes":"19","size_leaf_vector":"1"}},{"base_weights":[2.580085E-2,8.440477E-2,-7.8415774E-2,2.4905978E-1,3.0580001E-2,2.8984365E-1,-1.2205375E-1,1.0271004E-1,7.6521926E-2,-1.3582176E-1,1.6634971E-1,6.720461E-2,3.6354945E-3,-9.38555E-2,-6.847806E-2,2.4568121E-1,-7.702961E-2,-3.329421E-1,1.2500486E-1,4.709132E-1,-4.6425465E-2,5.8415625E-2,-1.211099E-1,-2.7946834E-2,7.060913E-2,-1.2608181E-1,-2.4777194E-2,8.700233E-2,-1.1350605E-2,1.1747839E-1,3.4683205E-2,-2.3360869E-2,1.1383079E-1,-5.26051E-3,-8.5562125E-2],"categories":[],"categories_nodes":[],"categories_segments":[],"categories_sizes":[],"default_left":[0,0,0,0,0,0,0,0,0,0,0,0,0,0,0,0,0,0,0,0,0,0,0,0,0,0,0,0,0,0,0,0,0,0,0],"id":42,"left_children":[1,3,5,7,9,11,13,-1,15,17,19,-1,-1,-1,21,23,-1,25,27,29,31,-1,33,-1,-1,-1,-1,-1,-1,-1,-1,-1,-1,-1,-1],"loss_changes":[2.5955682E0,2.4080873E0,2.4634182E0,6.728159E0,4.6402683E0,1.0732169E0,4.6723022E0,0E0,6.1773286E0,4.7529235E0,7.3349643E0,0E0,0E0,0E0,3.6170754E0,6.4936266E0,0E0,4.7485876E0,5.0316496E0,4.199813E0,9.27402E0,0E0,5.1776114E0,0E0,0E0,0E0,0E0,0E0,0E0,0E0,0E0,0E0,0E0,0E0,0E0],"parents":[2147483647,0,0,1,1,2,2,3,3,4,4,5,5,6,6,8,8,9,9,10,10,14,14,15,15,17,17,18,18,19,19,20,20,22,22],"right_children":[2,4,6,8,10,12,14,-1,16,18,20,-1,-1,-1,22,24,-1,26,28,30,32,-1,34,-1,-1,-1,-1,-1,-1,-1,-1,-1,-1,-1,-1],"split_conditions":[3.6456496E-1,7.671111E-1,-9.520414E-1,-1.907677E-1,1E0,8.904838E-1,-8.700436E-1,1.0271004E-1,1.186396E0,9.301326E-1,7.386079E-1,6.720461E-2,3.6354945E-3,-9.38555E-2,-7.651367E-1,-3.8798872E-2,-7.702961E-2,-8.367426E-1,8.2965076E-1,-5.864889E-1,1.2405337E0,5.8415625E-2,9.823499E-1,-2.7946834E-2,7.060913E-2,-1.2608181E-1,-2.4777194E-2,8.700233E-2,-1.1350605E-2,1.1747839E-1,3.4683205E-2,-2.3360869E-2,1.1383079E-1,-5.26051E-3,-8.5562125E-2],"split_indices":[8,3,14,7,3,3,14,0,0,4,4,0,0,0,14,7,0,9,3,9,0,0,9,0,0,0,0,0,0,0,0,0,0,0,0],"split_type":[0,0,0,0,0,0,0,0,0,0,0,0,0,0,0,0,0,0,0,0,0,0,0,0,0,0,0,0,0,0,0,0,0,0,0],"sum_hessian":[4.2461438E2,2.718315E2,1.5278288E2,6.6793144E1,2.0503836E2,1.6071903E1,1.3671098E2,1.5083413E1,5.1709732E1,9.2111786E1,1.12926575E2,8.015513E0,8.05639E0,1.0394402E1,1.26316574E2,4.1753284E1,9.956447E0,5.2445213E1,3.966657E1,4.6367332E1,6.655924E1,1.10491495E1,1.15267426E2,1.7091208E1,2.4662077E1,8.240398E0,4.4204815E1,1.0695822E1,2.8970747E1,1.2902899E1,3.346443E1,5.812953E1,8.429712E0,1.01545616E2,1.37218075E1],"tree_param":{"num_deleted":"0","num_feature":"17","num_nodes":"35","size_leaf_vector":"1"}},{"base_weights":[1.6833445E-2,7.37781E-2,4.1894186E-3,5.2482553E-2,-9.57239E-3,-1.9277728E-1,2.9983435E-2,3.8508843E-3,-4.689814E-1,2.2210585E-1,-5.1404476E-2,3.235605E-2,-6.0928833E-2,-9.811091E-2,-5.731548E-4,1.0592106E-1,1.5698086E-2,-2.4149373E-2,8.647331E-3],"categories":[],"categories_nodes":[],"categories_segments":[],"categories_sizes":[],"default_left":[0,0,0,0,0,0,0,0,0,0,0,0,0,0,0,0,0,0,0],"id":43,"left_children":[1,-1,3,-1,5,7,9,11,13,15,17,-1,-1,-1,-1,-1,-1,-1,-1],"loss_changes":[3.147558E0,0E0,2.4360085E0,0E0,2.94836E0,3.9259953E0,5.233735E0,5.4722276E0,4.5508986E0,5.989895E0,4.1275396E0,0E0,0E0,0E0,0E0,0E0,0E0,0E0,0E0],"parents":[2147483647,0,0,2,2,4,4,5,5,6,6,7,7,8,8,9,9,10,10],"right_children":[2,-1,4,-1,6,8,10,12,14,16,18,-1,-1,-1,-1,-1,-1,-1,-1],"split_conditions":[-2.4391222E0,7.37781E-2,-4.0770087E0,5.2482553E-2,-8.9854497E-1,-1.3220333E-1,-1.660957E-1,-3.0073889E-2,-1.2809532E0,-1.0201694E0,-4.5072377E-1,3.235605E-2,-6.0928833E-2,-9.811091E-2,-5.731548E-4,1.0592106E-1,1.5698086E-2,-2.4149373E-2,8.647331E-3],"split_indices":[13,0,5,0,6,2,6,11,6,12,2,0,0,0,0,0,0,0,0],"split_type":[0,0,0,0,0,0,0,0,0,0,0,0,0,0,0,0,0,0,0],"sum_hessian":[4.2849847E2,8.943632E0,4.1955484E2,1.3117617E1,4.0643723E2,7.207199E1,3.3436523E2,4.2191296E1,