{"learner":{"attributes":{"best_iteration":"6","best_score":"0.8530350045478962","scikit_learn":"{\"_estimator_type\": \"regressor\"}"},"feature_names":[],"feature_types":[],"gradient_booster":{"model":{"cats":{"enc":[],"feature_segments":[],"sorted_idx":[]},"gbtree_model_param":{"num_parallel_tree":"1","num_trees":"107"},"iteration_indptr":[0,1,2,3,4,5,6,7,8,9,10,11,12,13,14,15,16,17,18,19,20,21,22,23,24,25,26,27,28,29,30,31,32,33,34,35,36,37,38,39,40,41,42,43,44,45,46,47,48,49,50,51,52,53,54,55,56,57,58,59,60,61,62,63,64,65,66,67,68,69,70,71,72,73,74,75,76,77,78,79,80,81,82,83,84,85,86,87,88,89,90,91,92,93,94,95,96,97,98,99,100,101,102,103,104,105,106,107],"tree_info":[0,0,0,0,0,0,0,0,0,0,0,0,0,0,0,0,0,0,0,0,0,0,0,0,0,0,0,0,0,0,0,0,0,0,0,0,0,0,0,0,0,0,0,0,0,0,0,0,0,0,0,0,0,0,0,0,0,0,0,0,0,0,0,0,0,0,0,0,0,0,0,0,0,0,0,0,0,0,0,0,0,0,0,0,0,0,0,0,0,0,0,0,0,0,0,0,0,0,0,0,0,0,0,0,0,0,0],"trees":[{"base_weights":[3.929387E-3,5.0842583E-2,-1.982094E-1,1.9927995E-1,1.1131375E-2,-6.3310236E-1,-0E0,1.1498732E-1,2.1682227E-2,5.311773E-2,-2.781453E-1,-3.1822848E-1,-8.893829E-1,1.5382685E-1,-1.9274026E-1,1.8184349E-3,1.9668648E-2,5.4321424E-3,-0E0,-1.4798332E-2,5.6262305E-3,-2.4619652E-2,-0E0,-1.5748153E-2,-4.4917416E-2,1.8835496E-2,1.7444595E-3,-3.289074E-2,1.8916145E-3],"categories":[],"categories_nodes":[],"categories_segments":[],"categories_sizes":[],"default_left":[0,0,0,0,0,0,0,0,0,0,0,0,0,0,0,0,0,0,0,0,0,0,0,0,0,0,0,0,0],"id":0,"left_children":[1,3,5,7,9,11,13,15,-1,17,19,21,23,25,27,-1,-1,-1,-1,-1,-1,-1,-1,-1,-1,-1,-1,-1,-1],"loss_changes":[1.6857382E1,8.267954E0,2.8871426E1,7.799364E0,1.3893933E1,5.2275887E0,6.903944E0,5.5994515E0,0E0,4.951788E0,7.386877E0,5.5882573E0,2.7136765E0,3.6417232E0,1.8457972E1,0E0,0E0,0E0,0E0,0E0,0E0,0E0,0E0,0E0,0E0,0E0,0E0,0E0,0E0],"parents":[2147483647,0,0,1,1,2,2,3,3,4,4,5,5,6,6,7,7,9,9,10,10,11,11,12,12,13,13,14,14],"right_children":[2,4,6,8,10,12,14,16,-1,18,20,22,24,26,28,-1,-1,-1,-1,-1,-1,-1,-1,-1,-1,-1,-1,-1,-1],"split_conditions":[3.4530913E-6,2.4052021E-1,8.082975E-2,6.059597E-3,1.6656928E-7,2.6365253E-3,1.110223E-16,4E-2,2.1682227E-2,1.0972258E-8,5.056981E-1,4.8182783E-1,5.6662583E-1,3.7208945E-1,4.0110033E-2,1.8184349E-3,1.9668648E-2,5.4321424E-3,-0E0,-1.4798332E-2,5.6262305E-3,-2.4619652E-2,-0E0,-1.5748153E-2,-4.4917416E-2,1.8835496E-2,1.7444595E-3,-3.289074E-2,1.8916145E-3],"split_indices":[8,16,11,11,8,11,3,3,0,8,10,10,10,16,16,0,0,0,0,0,0,0,0,0,0,0,0,0,0],"split_type":[0,0,0,0,0,0,0,0,0,0,0,0,0,0,0,0,0,0,0,0,0,0,0,0,0,0,0,0,0],"sum_hessian":[1.804E3,1.474E3,3.3E2,2.98E2,1.176E3,1.02E2,2.28E2,2.5E2,4.8E1,1.035E3,1.41E2,5.2E1,5E1,1.28E2,1E2,2.21E2,2.9E1,3.85E2,6.5E2,1.16E2,2.5E1,2.4E1,2.8E1,2.4E1,2.6E1,2.4E1,1.04E2,2.7E1,7.3E1],"tree_param":{"num_deleted":"0","num_feature":"23","num_nodes":"29","size_leaf_vector":"1"}},{"base_weights":[-0E0,-3.903379E-2,1.543698E-1,-2.5979977E-2,-2.1700703E-2,1.9350848E-1,-3.2275212E-3,-7.960253E-2,1.0710028E-2,1.15512565E-1,4.4563952E-1,6.1469007E-4,-6.635629E-3,-5.761067E-3,2.1985448E-3,1.1813999E-2,-0E0,8.475332E-3,2.4254471E-2],"categories":[],"categories_nodes":[],"categories_segments":[],"categories_sizes":[],"default_left":[0,0,0,0,0,0,0,0,0,0,0,0,0,0,0,0,0,0,0],"id":1,"left_children":[1,3,5,7,-1,9,-1,11,13,15,17,-1,-1,-1,-1,-1,-1,-1,-1],"loss_changes":[1.0855869E1,8.698968E0,3.6683798E0,2.9165044E0,0E0,5.021823E0,0E0,5.7226553E0,6.045474E0,5.8933115E0,7.9476166E-1,0E0,0E0,0E0,0E0,0E0,0E0,0E0,0E0],"parents":[2147483647,0,0,1,1,2,2,3,3,5,5,7,7,8,8,9,9,10,10],"right_children":[2,4,6,8,-1,10,-1,12,14,16,18,-1,-1,-1,-1,-1,-1,-1,-1],"split_conditions":[7.073905E-1,9.852811E-1,1.6396172E0,-3.0705786E-1,-2.1700703E-2,8.922814E-1,-3.2275212E-3,-7.887454E-1,-9.3955934E-1,-5.276004E-1,-3.532284E-1,6.1469007E-4,-6.635629E-3,-5.761067E-3,2.1985448E-3,1.1813999E-2,-0E0,8.475332E-3,2.4254471E-2],"split_indices":[9,5,6,10,0,10,0,10,9,20,6,0,0,0,0,0,0,0,0],"split_type":[0,0,0,0,0,0,0,0,0,0,0,0,0,0,0,0,0,0,0],"sum_hessian":[1.796E3,1.435E3,3.61E2,1.407E3,2.8E1,3.18E2,4.3E1,5.93E2,8.14E2,2.52E2,6.6E1,2.85E2,3.08E2,1.72E2,6.42E2,9.4E1,1.58E2,3.8E1,2.8E1],"tree_param":{"num_deleted":"0","num_feature":"23","num_nodes":"19","size_leaf_vector":"1"}},{"base_weights":[1.4455511E-2,-2.6950099E-2,1.8453199E-1,-1.5152036E-1,6.92888E-3,-0E0,2.5446582E-1,8.718909E-3,-2.513845E-1,1.2306581E-2,-4.0799836E-3,6.728268E-2,-7.5805043E-3,3.0415016E-1,-1.2882815E-3,-1.1713025E-2,7.2949086E-3,-3.51036E-3,-1.3797331E-2,2.2288786E-4,-1.1373884E-2,-0E0,5.83064E-3,5.688064E-3,1.5452821E-2],"categories":[],"categories_nodes":[],"categories_segments":[],"categories_sizes":[],"default_left":[0,0,0,0,0,0,0,0,0,0,0,0,0,0,0,0,0,0,0,0,0,0,0,0,0],"id":2,"left_children":[1,3,5,7,9,11,13,15,17,-1,19,21,-1,23,-1,-1,-1,-1,-1,-1,-1,-1,-1,-1,-1],"loss_changes":[1.2874897E1,6.3109465E0,4.6645994E0,5.585013E0,4.516926E0,1.4012629E0,4.313154E0,6.6562448E0,2.5741339E0,0E0,3.7277362E0,6.5153563E-1,0E0,2.2966022E0,0E0,0E0,0E0,0E0,0E0,0E0,0E0,0E0,0E0,0E0,0E0],"parents":[2147483647,0,0,1,1,2,2,3,3,4,4,5,5,6,6,7,7,8,8,10,10,11,11,13,13],"right_children":[2,4,6,8,10,12,14,16,18,-1,20,22,-1,24,-1,-1,-1,-1,-1,-1,-1,-1,-1,-1,-1],"split_conditions":[7.073905E-1,-7.78263E-1,6.7204423E-4,-6.6846544E-1,-3.7657052E-1,6.9029087E-1,1.6396172E0,-3.549665E-1,-7.944704E-2,1.2306581E-2,2.4698932E0,-5.4386026E-1,-7.5805043E-3,-8.587147E-2,-1.2882815E-3,-1.1713025E-2,7.2949086E-3,-3.51036E-3,-1.3797331E-2,2.2288786E-4,-1.1373884E-2,-0E0,5.83064E-3,5.688064E-3,1.5452821E-2],"split_indices":[9,9,22,6,7,14,6,14,7,0,6,14,0,14,0,0,0,0,0,0,0,0,0,0,0],"split_type":[0,0,0,0,0,0,0,0,0,0,0,0,0,0,0,0,0,0,0,0,0,0,0,0,0],"sum_hessian":[1.778E3,1.422E3,3.56E2,3.15E2,1.107E3,9.8E1,2.58E2,1.14E2,2.01E2,4.1E1,1.066E3,7.4E1,2.4E1,2.26E2,3.2E1,3.7E1,7.7E1,9.2E1,1.09E2,1.027E3,3.9E1,3.4E1,4E1,1E2,1.26E2],"tree_param":{"num_deleted":"0","num_feature":"23","num_nodes":"25","size_leaf_vector":"1"}},{"base_weights":[-1.1113617E-2,6.7671545E-2,-9.762642E-2,1.4519343E-1,2.5559101E-2,-1.3988094E-1,8.198543E-2,1.738418E-1,-9.80713E-4,-0E0,1.7418367E-1,-1.07312284E-1,-2.5940863E-2,1.967282E-2,-6.3577816E-2,7.7008316E-3,-0E0,3.795467E-3,-2.2423617E-3,1.1848211E-2,-0E0,1.3573872E-3,-6.68094E-3,2.0990775E-3,-2.1003969E-2],"categories":[],"categories_nodes":[],"categories_segments":[],"categories_sizes":[],"default_left":[0,0,0,0,0,0,0,0,0,0,0,0,0,0,0,0,0,0,0,0,0,0,0,0,0],"id":3,"left_children":[1,3,5,7,9,11,13,15,-1,17,19,21,-1,-1,23,-1,-1,-1,-1,-1,-1,-1,-1,-1,-1],"loss_changes":[1.2365308E1,2.6856465E0,6.7714357E0,1.8359141E0,2.0687478E0,1.082131E1,1.1042431E1,1.5926504E0,0E0,3.2855353E0,2.0329134E0,6.9409485E0,0E0,0E0,7.9031467E0,0E0,0E0,0E0,0E0,0E0,0E0,0E0,0E0,0E0,0E0],"parents":[2147483647,0,0,1,1,2,2,3,3,4,4,5,5,6,6,7,7,9,9,10,10,11,11,14,14],"right_children":[2,4,6,8,10,12,14,16,-1,18,20,22,-1,-1,24,-1,-1,-1,-1,-1,-1,-1,-1,-1,-1],"split_conditions":[3.7479964E-8,-5.163215E-1,7.2035766E-1,1.3495659E0,2.6191712E-8,5.3638655E-1,-5.7757604E-1,2.3381942E-8,-9.80713E-4,9.766266E-9,3.2547018E-8,2.4052021E-1,-2.5940863E-2,1.967282E-2,2.9902243E-5,7.7008316E-3,-0E0,3.795467E-3,-2.2423617E-3,1.1848211E-2,-0E0,1.3573872E-3,-6.68094E-3,2.0990775E-3,-2.1003969E-2],"split_indices":[8,20,14,14,8,14,20,8,0,8,8,16,0,0,8,0,0,0,0,0,0,0,0,0,0],"split_type":[0,0,0,0,0,0,0,0,0,0,0,0,0,0,0,0,0,0,0,0,0,0,0,0,0],"sum_hessian":[1.8E3,9.3E2,8.7E2,3.08E2,6.22E2,7.14E2,1.56E2,2.74E2,3.4E1,5.43E2,7.9E1,6.8E2,3.4E1,4.1E1,1.15E2,2.41E2,3.3E1,2.12E2,3.31E2,4.4E1,3.5E1,2.1E2,4.7E2,9.1E1,2.4E1],"tree_param":{"num_deleted":"0","num_feature":"23","num_nodes":"25","size_leaf_vector":"1"}},{"base_weights":[-0E0,-2.1064302E-1,4.0918436E-2,-1.374046E-1,-2.4569321E-2,2.3308896E-2,4.331648E-1,-0E0,-1.9750775E-1,-2.6560202E-2,1.00362726E-1,3.8733375E-3,2.558317E-2,4.7415276E-3,-3.753119E-3,-1.5302418E-2,-2.460858E-3,-1.7949003E-3,8.893014E-3,-2.0359147E-3,6.1974525E-3],"categories":[],"categories_nodes":[],"categories_segments":[],"categories_sizes":[],"default_left":[0,0,0,0,0,0,0,0,0,0,0,0,0,0,0,0,0,0,0,0,0],"id":4,"left_children":[1,3,5,7,-1,9,11,13,15,17,19,-1,-1,-1,-1,-1,-1,-1,-1,-1,-1],"loss_changes":[1.5552988E1,7.5041437E0,9.453294E0,2.3584585E0,0E0,5.7322106E0,2.9495726E0,9.8871267E-1,4.0145764E0,4.277523E0,5.8669252E0,0E0,0E0,0E0,0E0,0E0,0E0,0E0,0E0,0E0,0E0],"parents":[2147483647,0,0,1,1,2,2,3,3,5,5,6,6,7,7,8,8,9,9,10,10],"right_children":[2,4,6,8,-1,10,12,14,16,18,20,-1,-1,-1,-1,-1,-1,-1,-1,-1,-1],"split_conditions":[-8.219895E-1,1.09362096E-1,5E-2,-1.5860862E0,-2.4569321E-2,3.3097136E-1,7.0740795E-3,1E-2,0E0,9.468016E-1,6.8829214E-4,3.8733375E-3,2.558317E-2,4.7415276E-3,-3.753119E-3,-1.5302418E-2,-2.460858E-3,-1.7949003E-3,8.893014E-3,-2.0359147E-3,6.1974525E-3],"split_indices":[9,19,4,9,0,9,22,4,4,22,22,0,0,0,0,0,0,0,0,0,0],"split_type":[0,0,0,0,0,0,0,0,0,0,0,0,0,0,0,0,0,0,0,0,0],"sum_hessian":[1.796E3,2.91E2,1.505E3,2.56E2,3.5E1,1.448E3,5.7E1,7.3E1,1.83E2,8.64E2,5.84E2,2.9E1,2.8E1,3.7E1,3.6E1,6.4E1,1.19E2,8.1E2,5.4E1,1.59E2,4.25E2],"tree_param":{"num_deleted":"0","num_feature":"23","num_nodes":"21","size_leaf_vector":"1"}},{"base_weights":[1.5211076E-3,-4.168198E-2,1.5891972E-1,-2.3957718E-2,-3.2477677E-1,4.413659E-1,1.0009516E-1,1.4130493E-1,-5.4919105E-2,-2.3305645E-2,3.500253E-3,5.9026945E-3,2.516458E-2,-3.1635775E-3,1.2975307E-1,1.3590375E-2,2.3905647E-3,-4.7381995E-3,-2.0382791E-5,-3.895213E-3,2.1298283E-3,1.0295205E-2,3.3349516E-3],"categories":[],"categories_nodes":[],"categories_segments":[],"categories_sizes":[],"default_left":[0,0,0,0,0,0,0,0,0,0,0,0,0,0,0,0,0,0,0,0,0,0,0],"id":5,"left_children":[1,3,5,7,9,11,13,15,17,-1,-1,-1,-1,19,21,-1,-1,-1,-1,-1,-1,-1,-1],"loss_changes":[1.2630984E1,6.389357E0,5.4656734E0,6.729031E0,1.0372217E1,1.9935036E0,1.30933E0,2.511907E0,4.070786E0,0E0,0E0,0E0,0E0,4.821975E-1,8.76143E-1,0E0,0E0,0E0,0E0,0E0,0E0,0E0,0E0],"parents":[2147483647,0,0,1,1,2,2,3,3,4,4,5,5,6,6,7,7,8,8,13,13,14,14],"right_children":[2,4,6,8,10,12,14,16,18,-1,-1,-1,-1,20,22,-1,-1,-1,-1,-1,-1,-1,-1],"split_conditions":[6.375933E-1,1.5610718E0,-3E-2,-2.5090894E-1,-3.9846382E-1,-2.3203567E-1,-2.4495354E-1,-1.0199878E0,-3.0705786E-1,-2.3305645E-2,3.500253E-3,5.9026945E-3,2.516458E-2,1.1843579E0,-1.6661504E-1,1.3590375E-2,2.3905647E-3,-4.7381995E-3,-2.0382791E-5,-3.895213E-3,2.1298283E-3,1.0295205E-2,3.3349516E-3],"split_indices":[9,10,3,7,9,14,7,14,10,0,0,0,0,9,7,0,0,0,0,0,0,0,0],"split_type":[0,0,0,0,0,0,0,0,0,0,0,0,0,0,0,0,0,0,0,0,0,0,0],"sum_hessian":[1.817E3,1.417E3,4E2,1.343E3,7.4E1,6E1,3.4E2,2E2,1.143E3,4.6E1,2.8E1,3.2E1,2.8E1,6.1E1,2.79E2,4.4E1,1.56E2,4.84E2,6.59E2,3.5E1,2.6E1,5E1,2.29E2],"tree_param":{"num_deleted":"0","num_feature":"23","num_nodes":"23","size_leaf_vector":"1"}},{"base_weights":[-4.139977E-4,4.489954E-2,-2.0243767E-1,1.4984521E-1,5.4827095E-3,-5.80774E-1,-8.500408E-2,2.3202357E-1,7.563768E-2,-6.757084E-2,6.813942E-2,-1.1339164E-2,-3.239442E-2,-2.8447924E-2,-1.8251874E-2,-0E0,1.0194808E-2,3.5594606E-3,-0E0,3.8949533E-3,-4.8909253E-3,6.549283E-3,6.8306754E-4,-3.5313726E-3,1.4553821E-2],"categories":[],"categories_nodes":[],"categories_segments":[],"categories_sizes":[],"default_left":[0,0,0,0,0,0,0,0,0,0,0,0,0,0,0,0,0,0,0,0,0,0,0,0,0],"id":6,"left_children":[1,3,5,7,9,11,13,15,17,19,21,-1,-1,23,-1,-1,-1,-1,-1,-1,-1,-1,-1,-1,-1],"loss_changes":[1.6829954E1,5.738745E0,1.3553359E1,1.6761093E0,4.9642577E0,2.7562065E0,4.845719E0,1.2052612E0,2.6761758E-1,5.1013885E0,2.7222636E0,0E0,0E0,5.819437E0,0E0,0E0,0E0,0E0,0E0,0E0,0E0,0E0,0E0,0E0,0E0],"parents":[2147483647,0,0,1,1,2,2,3,3,4,4,5,5,6,6,7,7,8,8,9,9,10,10,13,13],"right_children":[2,4,6,8,10,12,14,16,18,20,22,-1,-1,24,-1,-1,-1,-1,-1,-1,-1,-1,-1,-1,-1],"split_conditions":[3.4530913E-6,1.0972258E-8,-1.7018524E-1,-3.6557904E-1,-3.0705786E-1,-6.25713E-2,2.2176995E0,-2.3644897E-1,9.627717E-9,-2.0838952E-1,-5.540934E-1,-1.1339164E-2,-3.239442E-2,1.1869397E0,-1.8251874E-2,-0E0,1.0194808E-2,3.5594606E-3,-0E0,3.8949533E-3,-4.8909253E-3,6.549283E-3,6.8306754E-4,-3.5313726E-3,1.4553821E-2],"split_indices":[8,8,6,20,10,7,6,7,8,7,20,0,0,6,0,0,0,0,0,0,0,0,0,0,0],"split_type":[0,0,0,0,0,0,0,0,0,0,0,0,0,0,0,0,0,0,0,0,0,0,0,0,0],"sum_hessian":[1.798E3,1.462E3,3.36E2,3.83E2,1.079E3,7.3E1,2.63E2,1.66E2,2.17E2,4.83E2,5.96E2,4.2E1,3.1E1,2.37E2,2.6E1,2.5E1,1.41E2,1.72E2,4.5E1,1.18E2,3.65E2,1.79E2,4.17E2,2.11E2,2.6E1],"tree_param":{"num_deleted":"0","num_feature":"23","num_nodes":"25","size_leaf_vector":"1"}},{"base_weights":[2.8775088E-3,1.9789683E-2,-2.6945023E-2,2.7906893E-2,3.261291E-3,6.762393E-2,-4.948651E-2,6.6126726E-4,6.7502996E-3,-5.6006275E-3,-3.414541E-4],"categories":[],"categories_nodes":[],"categories_segments":[],"categories_sizes":[],"default_left":[0,0,0,0,0,0,0,0,0,0,0],"id":7,"left_children":[1,3,-1,-1,5,7,9,-1,-1,-1,-1],"loss_changes":[2.0506752E1,1.9510159E1,0E0,0E0,5.9859095E0,4.035842E0,3.414179E0,0E0,0E0,0E0,0E0],"parents":[2147483647,0,0,1,1,4,4,5,5,6,6],"right_children":[2,4,-1,-1,6,8,10,-1,-1,-1,-1],"split_conditions":[9E-2,-8E-2,-2.6945023E-2,2.7906893E-2,0E0,6.64545E-1,-6.692188E-1,6.6126726E-4,6.7502996E-3,-5.6006275E-3,-3.414541E-4],"split_indices":[0,0,0,0,0,9,9,0,0,0,0],"split_type":[0,0,0,0,0,0,0,0,0,0,0],"sum_hessian":[1.819E3,1.782E3,3.7E1,3.5E1,1.747E3,8.04E2,9.43E2,5.66E2,2.38E2,2.6E2,6.83E2],"tree_param":{"num_deleted":"0","num_feature":"23","num_nodes":"11","size_leaf_vector":"1"}},{"base_weights":[1.2152496E-2,3.140727E-2,-2.7101208E-2,3.404306E-2,1.7132312E-2,-1.3910159E-2,1.3850705E-1,1.6871812E-3,-2.687397E-3,-8.128559E-3,6.966181E-3],"categories":[],"categories_nodes":[],"categories_segments":[],"categories_sizes":[],"default_left":[0,0,0,0,0,0,0,0,0,0,0],"id":8,"left_children":[1,3,-1,-1,5,7,9,-1,-1,-1,-1],"loss_changes":[2.4071257E1,2.0022282E1,0E0,0E0,6.882318E0,4.6375613E0,5.8367662E0,0E0,0E0,0E0,0E0],"parents":[2147483647,0,0,1,1,4,4,5,5,6,6],"right_children":[2,4,-1,-1,6,8,10,-1,-1,-1,-1],"split_conditions":[9E-2,-9E-2,-2.7101208E-2,3.404306E-2,7.028737E-1,0E0,-1.2978026E0,1.6871812E-3,-2.687397E-3,-8.128559E-3,6.966181E-3],"split_indices":[0,0,0,0,14,0,18,0,0,0,0],"split_type":[0,0,0,0,0,0,0,0,0,0,0],"sum_hessian":[1.821E3,1.779E3,4.2E1,2.4E1,1.755E3,1.386E3,3.69E2,6.66E2,7.2E2,3.5E1,3.34E2],"tree_param":{"num_deleted":"0","num_feature":"23","num_nodes":"11","size_leaf_vector":"1"}},{"base_weights":[-9.84757E-3,-2.0322137E-1,2.2497788E-2,-1.0567745E-1,-2.8557178E-2,4.814105E-3,2.0637982E-1,4.9810663E-2,-2.054326E-1,-1.6414886E-2,1.0695521E-1,3.453834E-1,-5.021851E-3,6.33196E-3,-0E0,1.4087658E-3,-1.052638E-2,-7.2359317E-3,4.3921516E-4,1.0291937E-2,1.0144192E-3,-0E0,2.4029223E-2],"categories":[],"categories_nodes":[],"categories_segments":[],"categories_sizes":[],"default_left":[0,0,0,0,0,0,0,0,0,0,0,0,0,0,0,0,0,0,0,0,0,0,0],"id":9,"left_children":[1,3,5,7,-1,9,11,13,15,17,19,21,-1,-1,-1,-1,-1,-1,-1,-1,-1,-1,-1],"loss_changes":[1.1569188E1,1.2197008E1,4.5262914E0,3.9381316E0,0E0,3.2355783E0,6.3687806E0,5.532629E-1,3.086144E0,5.9393234E0,2.7640657E0,7.8964596E0,0E0,0E0,0E0,0E0,0E0,0E0,0E0,0E0,0E0,0E0,0E0],"parents":[2147483647,0,0,1,1,2,2,3,3,5,5,6,6,7,7,8,8,9,9,10,10,11,11],"right_children":[2,4,6,8,-1,10,12,14,16,18,20,22,-1,-1,-1,-1,-1,-1,-1,-1,-1,-1,-1],"split_conditions":[-9.1240734E-1,3.4238636E-2,6.465908E-1,-1.5351174E0,-2.8557178E-2,8.4680176E-1,2.158406E-1,1.9000244E-1,-2.9191098E-1,-2.9000092E-1,0E0,-1.0141531E-1,-5.021851E-3,6.33196E-3,-0E0,1.4087658E-3,-1.052638E-2,-7.2359317E-3,4.3921516E-4,1.0291937E-2,1.0144192E-3,-0E0,2.4029223E-2],"split_indices":[9,19,19,9,0,9,12,1,12,1,12,12,0,0,0,0,0,0,0,0,0,0,0],"split_type":[0,0,0,0,0,0,0,0,0,0,0,0,0,0,0,0,0,0,0,0,0,0,0],"sum_hessian":[1.786E3,2.63E2,1.523E3,2.29E2,3.4E1,1.402E3,1.21E2,8.2E1,1.47E2,1.146E3,2.56E2,9E1,3.1E1,2.5E1,5.7E1,2.7E1,1.2E2,1.67E2,9.79E2,7.4E1,1.82E2,4.5E1,4.5E1],"tree_param":{"num_deleted":"0","num_feature":"23","num_nodes":"23","size_leaf_vector":"1"}},{"base_weights":[-0E0,-1.5866351E-1,4.0466394E-2,-8.801235E-2,-5.0758797E-1,2.4340585E-2,3.5727352E-1,2.569665E-2,-1.7007843E-1,-2.775138E-2,-5.3501697E-3,4.29825E-3,2.3847863E-1,-0E0,2.4847643E-2,4.280292E-3,-3.3943981E-3,-1.0770446E-2,-2.263025E-3,-1.3182131E-3,3.362042E-3,-0E0,1.2308835E-2],"categories":[],"categories_nodes":[],"categories_segments":[],"categories_sizes":[],"default_left":[0,0,0,0,0,0,0,0,0,0,0,0,0,0,0,0,0,0,0,0,0,0,0],"id":10,"left_children":[1,3,5,7,9,11,13,15,17,-1,-1,19,21,-1,-1,-1,-1,-1,-1,-1,-1,-1,-1],"loss_changes":[1.1494646E1,7.6035814E0,6.5767703E0,3.1962676E0,2.4632425E0,5.438999E0,7.033148E0,1.2836722E0,1.6319599E0,0E0,0E0,4.286051E0,2.0761423E0,0E0,0E0,0E0,0E0,0E0,0E0,0E0,0E0,0E0,0E0],"parents":[2147483647,0,0,1,1,2,2,3,3,4,4,5,5,6,6,7,7,8,8,11,11,12,12],"right_children":[2,4,6,8,10,12,14,16,18,-1,-1,20,22,-1,-1,-1,-1,-1,-1,-1,-1,-1,-1],"split_conditions":[-6.692188E-1,1.2237549E0,5E-2,7.311825E-2,2.0570424E0,1.2871151E0,9.07014E-2,-1.0181819E0,-1.6086479E-1,-2.775138E-2,-5.3501697E-3,1.3907932E-1,2.3343715E-1,-0E0,2.4847643E-2,4.280292E-3,-3.3943981E-3,-1.0770446E-2,-2.263025E-3,-1.3182131E-3,3.362042E-3,-0E0,1.2308835E-2],"split_indices":[9,10,4,5,10,17,5,9,10,0,0,5,9,0,0,0,0,0,0,0,0,0,0],"split_type":[0,0,0,0,0,0,0,0,0,0,0,0,0,0,0,0,0,0,0,0,0,0,0],"sum_hessian":[1.802E3,3.6E2,1.442E3,3.07E2,5.3E1,1.381E3,6.1E1,1.19E2,1.88E2,2.8E1,2.5E1,1.274E3,1.07E2,2.8E1,3.3E1,7.8E1,4.1E1,8.2E1,1.06E2,8.55E2,4.19E2,3E1,7.7E1],"tree_param":{"num_deleted":"0","num_feature":"23","num_nodes":"23","size_leaf_vector":"1"}},{"base_weights":[-2.7218752E-3,8.288877E-2,-3.530226E-2,-1.6375476E-2,1.4095226E-1,-0E0,-1.2521414E-1,1.5274738E-1,-1.0841555E-1,7.638129E-2,3.396499E-1,-1.993265E-2,1.9871384E-2,-1.8148333E-1,9.376829E-3,-0E0,1.28702605E-2,-8.278891E-3,7.7788685E-3,-2.9255964E-3,4.6952427E-3,2.0688241E-2,-0E0,2.729842E-4,-4.023073E-3,-3.629867E-2,-3.84705E-3],"categories":[],"categories_nodes":[],"categories_segments":[],"categories_sizes":[],"default_left":[0,0,0,0,0,0,0,0,0,0,0,0,0,0,0,0,0,0,0,0,0,0,0,0,0,0,0],"id":11,"left_children":[1,3,5,7,9,11,13,15,17,19,21,23,-1,25,-1,-1,-1,-1,-1,-1,-1,-1,-1,-1,-1,-1,-1],"loss_changes":[4.910435E0,3.013825E0,4.231644E0,2.531239E0,3.1174116E0,1.005574E1,7.813073E0,1.8344617E0,4.113042E0,1.9041475E0,4.062739E0,2.3216486E0,0E0,1.8183382E1,0E0,0E0,0E0,0E0,0E0,0E0,0E0,0E0,0E0,0E0,0E0,0E0,0E0],"parents":[2147483647,0,0,1,1,2,2,3,3,4,4,5,5,6,6,7,7,8,8,9,9,10,10,11,11,13,13],"right_children":[2,4,6,8,10,12,14,16,18,20,22,24,-1,26,-1,-1,-1,-1,-1,-1,-1,-1,-1,-1,-1,-1,-1],"split_conditions":[-5.714313E-1,-1.1213903E0,2.9542214E-1,-4.308243E-1,9.027751E-2,9.898579E-1,1.3481202E0,1.8644463E-3,8.657229E-1,-6.339228E-1,9.1006523E-1,6.1518115E-1,1.9871384E-2,5.3899307E-3,9.376829E-3,-0E0,1.28702605E-2,-8.278891E-3,7.7788685E-3,-2.9255964E-3,4.6952427E-3,2.0688241E-2,-0E0,2.729842E-4,-4.023073E-3,-3.629867E-2,-3.84705E-3],"split_indices":[20,20,15,15,22,22,21,22,21,15,22,21,0,16,0,0,0,0,0,0,0,0,0,0,0,0,0],"split_type":[0,0,0,0,0,0,0,0,0,0,0,0,0,0,0,0,0,0,0,0,0,0,0,0,0,0,0],"sum_hessian":[1.79E3,4.75E2,1.315E3,1.63E2,3.12E2,9.43E2,3.72E2,4.9E1,1.14E2,2.46E2,6.6E1,9.1E2,3.3E1,3.29E2,4.3E1,2.5E1,2.4E1,9E1,2.4E1,4.7E1,1.99E2,3.8E1,2.8E1,6.75E2,2.35E2,2.6E1,3.03E2],"tree_param":{"num_deleted":"0","num_feature":"23","num_nodes":"27","size_leaf_vector":"1"}},{"base_weights":[-1.5818398E-2,-5.7737567E-3,-1.3874135E-2,-3.0891199E-2,7.0723176E-2,-2.0679664E-2,-9.891449E-3,1.7825784E-1,-8.142012E-2,9.061827E-3,-1.0933259E-3,2.2829156E-2,3.7395253E-3,-1.1963032E-2,2.2244008E-4],"categories":[],"categories_nodes":[],"categories_segments":[],"categories_sizes":[],"default_left":[0,0,0,0,0,0,0,0,0,0,0,0,0,0,0],"id":12,"left_children":[1,3,-1,5,7,9,-1,11,13,-1,-1,-1,-1,-1,-1],"loss_changes":[5.527319E0,3.2975667E0,0E0,2.5506806E0,7.0200434E0,2.2792072E0,0E0,6.9036694E0,3.9964166E0,0E0,0E0,0E0,0E0,0E0,0E0],"parents":[2147483647,0,0,1,1,3,3,4,4,5,5,7,7,8,8],"right_children":[2,4,-1,6,8,10,-1,12,14,-1,-1,-1,-1,-1,-1],"split_conditions":[9.852811E-1,4.18823E-1,-1.3874135E-2,3.079158E-1,1.2000275E-1,-1.496598E0,-9.891449E-3,-3.13125E-1,-1.7564544E-1,9.061827E-3,-1.0933259E-3,2.2829156E-2,3.7395253E-3,-1.1963032E-2,2.2244008E-4],"split_indices":[5,17,0,17,1,17,0,7,7,0,0,0,0,0,0],"split_type":[0,0,0,0,0,0,0,0,0,0,0,0,0,0,0],"sum_hessian":[1.795E3,1.753E3,4.2E1,1.341E3,4.12E2,1.295E3,4.6E1,2.49E2,1.63E2,2.9E1,1.266E3,3.3E1,2.16E2,4.9E1,1.14E2],"tree_param":{"num_deleted":"0","num_feature":"23","num_nodes":"15","size_leaf_vector":"1"}},{"base_weights":[1.7098065E-3,-1.4497861E-1,3.4629747E-2,-2.0448705E-2,-9.450878E-2,2.5240652E-2,1.6886089E-2,3.0144397E-2,-1.7735983E-1,1.15796156E-1,-6.19442E-3,6.565944E-3,-5.9425924E-3,-1.4271215E-2,-3.919967E-3,1.1575085E-3,8.24766E-3,-8.27663E-3,1.7379802E-4],"categories":[],"categories_nodes":[],"categories_segments":[],"categories_sizes":[],"default_left":[0,0,0,0,0,0,0,0,0,0,0,0,0,0,0,0,0,0,0],"id":13,"left_children":[1,3,5,-1,7,9,-1,11,13,15,17,-1,-1,-1,-1,-1,-1,-1,-1],"loss_changes":[8.574471E0,4.953683E0,4.7649865E0,0E0,3.3477879E0,4.420967E0,0E0,3.00556E0,1.6628976E0,2.8884258E0,2.8882904E0,0E0,0E0,0E0,0E0,0E0,0E0,0E0,0E0],"parents":[2147483647,0,0,1,1,2,2,4,4,5,5,7,7,8,8,9,9,10,10],"right_children":[2,4,6,-1,8,10,-1,12,14,16,18,-1,-1,-1,-1,-1,-1,-1,-1],"split_conditions":[-8.219895E-1,1.2348123E-3,4.011E1,-2.0448705E-2,-1.4210824E0,-5.7757604E-1,1.6886089E-2,2.4052021E-1,2.05211E-1,2.3838717E-1,-4.7447976E-1,6.565944E-3,-5.9425924E-3,-1.4271215E-2,-3.919967E-3,1.1575085E-3,8.24766E-3,-8.27663E-3,1.7379802E-4],"split_indices":[9,16,2,0,9,20,0,16,16,21,20,0,0,0,0,0,0,0,0],"split_type":[0,0,0,0,0,0,0,0,0,0,0,0,0,0,0,0,0,0,0],"sum_hessian":[1.817E3,3.2E2,1.497E3,2.9E1,2.91E2,1.471E3,2.6E1,1.07E2,1.84E2,3.94E2,1.077E3,6.7E1,4E1,4E1,1.44E2,2.26E2,1.68E2,5.9E1,1.018E3],"tree_param":{"num_deleted":"0","num_feature":"23","num_nodes":"19","size_leaf_vector":"1"}},{"base_weights":[-1.2108239E-2,3.5965018E-2,-2.2381754E-1,5.3122817E-3,-0E0,-4.4373706E-1,4.5731654E-3,-6.766928E-2,5.3921334E-2,-3.499484E-2,-2.6512256E-1,1.0835105E-2,-4.293178E-2,2.7214043E-4,-5.7530976E-3,4.6934835E-3,-9.832014E-4,-1.3090934E-2,-0E0,-0E0,-6.5174736E-3],"categories":[],"categories_nodes":[],"categories_segments":[],"categories_sizes":[],"default_left":[0,0,0,0,0,0,0,0,0,0,0,0,0,0,0,0,0,0,0,0,0],"id":14,"left_children":[1,3,5,-1,7,9,11,13,15,-1,17,-1,19,-1,-1,-1,-1,-1,-1,-1,-1],"loss_changes":[1.874172E1,5.663129E0,1.8063194E1,0E0,3.959816E0,1.2084724E1,2.7277272E0,3.3619049E0,3.4526334E0,0E0,2.6302366E0,0E0,6.1347127E-1,0E0,0E0,0E0,0E0,0E0,0E0,0E0,0E0],"parents":[2147483647,0,0,1,1,2,2,4,4,5,5,6,6,7,7,8,8,10,10,12,12],"right_children":[2,4,6,-1,8,10,12,14,16,-1,18,-1,20,-1,-1,-1,-1,-1,-1,-1,-1],"split_conditions":[3.4530913E-6,1.0972258E-8,3.058706E-1,5.3122817E-3,-3.0705786E-1,-8.506505E-2,1.1928123E-4,-7.653088E-1,1.1564769E-1,-3.499484E-2,8.571321E-1,1.0835105E-2,6.465908E-1,2.7214043E-4,-5.7530976E-3,4.6934835E-3,-9.832014E-4,-1.3090934E-2,-0E0,-0E0,-6.5174736E-3],"split_indices":[8,8,19,0,10,13,8,10,13,0,10,0,19,0,0,0,0,0,0,0,0],"split_type":[0,0,0,0,0,0,0,0,0,0,0,0,0,0,0,0,0,0,0,0,0],"sum_hessian":[1.799E3,1.46E3,3.39E2,3.86E2,1.074E3,1.76E2,1.63E2,4.89E2,5.85E2,4.2E1,1.34E2,2.8E1,1.35E2,2.46E2,2.43E2,3.26E2,2.59E2,1.01E2,3.3E1,1.08E2,2.7E1],"tree_param":{"num_deleted":"0","num_feature":"23","num_nodes":"21","size_leaf_vector":"1"}},{"base_weights":[-0E0,-1.7866524E-2,1.4525558E-1,-5.826648E-3,-1.6401293E-2,-0E0,2.1253267E-1,-3.400038E-2,7.815756E-2,8.552527E-3,-6.847612E-3,-0E0,2.75682E-1,-2.28518E-3,1.5643706E-3,-2.4293387E-5,1.4042439E-2,4.164775E-3,1.3752185E-2],"categories":[],"categories_nodes":[],"categories_segments":[],"categories_sizes":[],"default_left":[0,0,0,0,0,0,0,0,0,0,0,0,0,0,0,0,0,0,0],"id":15,"left_children":[1,3,5,7,-1,9,11,13,15,-1,-1,-1,17,-1,-1,-1,-1,-1,-1],"loss_changes":[4.6722302E0,7.2461324E0,1.7067924E0,3.7040153E0,0E0,2.960792E0,1.2606816E0,2.4212794E0,9.554578E0,0E0,0E0,0E0,2.6230574E-1,0E0,0E0,0E0,0E0,0E0,0E0],"parents":[2147483647,0,0,1,1,2,2,3,3,5,5,6,6,7,7,8,8,12,12],"right_children":[2,4,6,8,-1,10,12,14,16,-1,-1,-1,18,-1,-1,-1,-1,-1,-1],"split_conditions":[1.0640748E0,9.4729316E-1,-1.6035978E-1,1.7166275E-1,-1.6401293E-2,-2.7150562E-1,-3.3975703E-1,3.9665338E-1,-3.1995982E-2,8.552527E-3,-6.847612E-3,-0E0,3.3951965E-3,-2.28518E-3,1.5643706E-3,-2.4293387E-5,1.4042439E-2,4.164775E-3,1.3752185E-2],"split_indices":[13,5,7,5,0,7,10,10,7,0,0,0,22,0,0,0,0,0,0],"split_type":[0,0,0,0,0,0,0,0,0,0,0,0,0,0,0,0,0,0,0],"sum_hessian":[1.831E3,1.637E3,1.94E2,1.598E3,3.9E1,6.7E1,1.27E2,1.216E3,3.82E2,3.2E1,3.5E1,3.6E1,9.1E1,9.24E2,2.92E2,2.97E2,8.5E1,4.1E1,5E1],"tree_param":{"num_deleted":"0","num_feature":"23","num_nodes":"19","size_leaf_vector":"1"}},{"base_weights":[1.317669E-2,-1.9531734E-3,3.628615E-1,4.7407644E-3,-1.3847961E-2,4.6751967E-1,2.8837486E-3,-5.2225824E-2,4.8042495E-2,-0E0,3.1517588E-2,1.3224488E-5,-5.9213173E-3,2.355115E-3,-8.996438E-3],"categories":[],"categories_nodes":[],"categories_segments":[],"categories_sizes":[],"default_left":[0,0,0,0,0,0,0,0,0,0,0,0,0,0,0],"id":16,"left_children":[1,3,5,7,-1,9,-1,11,13,-1,-1,-1,-1,-1,-1],"loss_changes":[1.01820755E1,4.870588E0,1.189023E0,4.1264963E0,0E0,7.4055576E0,0E0,4.134413E0,3.4878263E0,0E0,0E0,0E0,0E0,0E0,0E0],"parents":[2147483647,0,0,1,1,2,2,3,3,5,5,7,7,8,8],"right_children":[2,4,6,8,-1,10,-1,12,14,-1,-1,-1,-1,-1,-1],"split_conditions":[5E-2,8.699951E-1,9.000397E-2,0E0,-1.3847961E-2,-3.6879268E-1,2.8837486E-3,2.627264E-1,1.4202563E0,-0E0,3.1517588E-2,1.3224488E-5,-5.9213173E-3,2.355115E-3,-8.996438E-3],"split_indices":[4,1,1,4,0,17,0,20,18,0,0,0,0,0,0],"split_type":[0,0,0,0,0,0,0,0,0,0,0,0,0,0,0],"sum_hessian":[1.782E3,1.705E3,7.7E1,1.671E3,3.4E1,5E1,2.7E1,7.01E2,9.7E2,2.5E1,2.5E1,4.53E2,2.48E2,9.34E2,3.6E1],"tree_param":{"num_deleted":"0","num_feature":"23","num_nodes":"15","size_leaf_vector":"1"}},{"base_weights":[4.6999985E-3,-1.0474508E-2,3.6975604E-1,2.8277703E-2,-1.8233493E-1,4.2873863E-3,2.6620261E-2,1.340643E-1,-8.522048E-3,-4.7128373E-1,-4.4766236E-2,6.110796E-3,1.4163338E-3,-2.3443082E-3,4.103157E-3,-0E0,-2.6180867E-2,-1.6715953E-2,6.180341E-5],"categories":[],"categories_nodes":[],"categories_segments":[],"categories_sizes":[],"default_left":[0,0,0,0,0,0,0,0,0,0,0,0,0,0,0,0,0,0,0],"id":17,"left_children":[1,3,5,7,9,-1,-1,11,13,15,17,-1,-1,-1,-1,-1,-1,-1,-1],"loss_changes":[1.0625673E1,1.1714843E1,4.6174192E0,5.661771E0,1.1793127E1,0E0,0E0,5.3047276E-1,6.1918344E0,1.074988E1,5.056115E0,0E0,0E0,0E0,0E0,0E0,0E0,0E0,0E0],"parents":[2147483647,0,0,1,1,2,2,3,3,4,4,7,7,8,8,9,9,10,10],"right_children":[2,4,6,8,10,-1,-1,12,14,16,18,-1,-1,-1,-1,-1,-1,-1,-1],"split_conditions":[5E-2,2.9043101E-6,9.169627E-7,1.0972258E-8,-2.8261906E-2,4.2873863E-3,2.6620261E-2,-2.9014776E-2,3.4680587E-1,-1.9971965E-1,-1.8925081E-1,6.110796E-3,1.4163338E-3,-2.3443082E-3,4.103157E-3,-0E0,-2.6180867E-2,-1.6715953E-2,6.180341E-5],"split_indices":[4,8,8,8,9,0,0,17,17,7,7,0,0,0,0,0,0,0,0],"split_type":[0,0,0,0,0,0,0,0,0,0,0,0,0,0,0,0,0,0,0],"sum_hessian":[1.781E3,1.707E3,7.4E1,1.385E3,3.22E2,4.7E1,2.7E1,3.7E2,1.015E3,9.7E1,2.25E2,2.73E2,9.7E1,7.1E2,3.05E2,3E1,6.7E1,2.6E1,1.99E2],"tree_param":{"num_deleted":"0","num_feature":"23","num_nodes":"19","size_leaf_vector":"1"}},{"base_weights":[-1.521656E-3,2.9770175E-2,-1.4335372E-2,-1.2324186E-3,-2.0581463E-2,6.427836E-2,-6.1535235E-2,1.0694413E-2,-2.3815602E-4,-4.5224517E-3,4.1019736E-4],"categories":[],"categories_nodes":[],"categories_segments":[],"categories_sizes":[],"default_left":[0,0,0,0,0,0,0,0,0,0,0],"id":18,"left_children":[1,-1,3,5,-1,7,9,-1,-1,-1,-1],"loss_changes":[1.6623955E1,0E0,1.120096E1,6.916716E0,0E0,1.3137239E1,4.0620794E0,0E0,0E0,0E0,0E0],"parents":[2147483647,0,0,2,2,3,3,5,5,6,6],"right_children":[2,-1,4,6,-1,8,10,-1,-1,-1,-1],"split_conditions":[-9E-2,2.9770175E-2,9E-2,0E0,-2.0581463E-2,3.479661E-1,8.715152E-1,1.0694413E-2,-2.3815602E-4,-4.5224517E-3,4.1019736E-4],"split_indices":[0,0,0,0,0,16,16,0,0,0,0],"split_type":[0,0,0,0,0,0,0,0,0,0,0],"sum_hessian":[1.808E3,2.4E1,1.784E3,1.747E3,3.7E1,8.21E2,9.26E2,2.07E2,6.14E2,5.32E2,3.94E2],"tree_param":{"num_deleted":"0","num_feature":"23","num_nodes":"11","size_leaf_vector":"1"}},{"base_weights":[-0E0,-3.742422E-2,7.192739E-2,-2.5833765E-2,-1.3256222E-2,1.10256605E-1,-2.3127891E-1,-6.0184862E-2,3.770607E-2,-2.658481E-2,1.7611976E-1,-0E0,-1.429022E-2,-0E0,-3.8130719E-3,5.632535E-3,3.9476532E-4,3.7752704E-3,-1.5421715E-2,3.5615433E-3,1.3700495E-2],"categories":[],"categories_nodes":[],"categories_segments":[],"categories_sizes":[],"default_left":[0,0,0,0,0,0,0,0,0,0,0,0,0,0,0,0,0,0,0,0,0],"id":19,"left_children":[1,3,5,7,-1,9,11,13,15,17,19,-1,-1,-1,-1,-1,-1,-1,-1,-1,-1],"loss_changes":[4.9049816E0,3.4318924E0,7.148656E0,2.5394013E0,0E0,5.434209E0,1.5020545E0,1.8647926E0,8.186116E-1,9.125686E0,4.953001E0,0E0,0E0,0E0,0E0,0E0,0E0,0E0,0E0,0E0,0E0],"parents":[2147483647,0,0,1,1,2,2,3,3,5,5,6,6,7,7,8,8,9,9,10,10],"right_children":[2,4,6,8,-1,10,12,14,16,18,20,-1,-1,-1,-1,-1,-1,-1,-1,-1,-1],"split_conditions":[1.82E1,1.782E1,8.016927E-1,1.16529584E-1,-1.3256222E-2,-6.350864E-1,2.357E1,-4.9753654E-1,1.199E1,-9.3146986E-1,4.18823E-1,-0E0,-1.429022E-2,-0E0,-3.8130719E-3,5.632535E-3,3.9476532E-4,3.7752704E-3,-1.5421715E-2,3.5615433E-3,1.3700495E-2],"split_indices":[2,2,5,5,0,21,2,17,2,21,17,0,0,0,0,0,0,0,0,0,0],"split_type":[0,0,0,0,0,0,0,0,0,0,0,0,0,0,0,0,0,0,0,0,0],"sum_hessian":[1.798E3,1.17E3,6.28E2,1.137E3,3.3E1,5.65E2,6.3E1,7.59E2,3.78E2,1.74E2,3.91E2,3E1,3.3E1,3E2,4.59E2,5.8E1,3.2E2,1.28E2,4.6E1,2.8E2,1.11E2],"tree_param":{"num_deleted":"0","num_feature":"23","num_nodes":"21","size_leaf_vector":"1"}},{"base_weights":[-2.0361014E-3,1.9185344E-2,-1.3500005E-2,-2.6644378E-3,-1.6399914E-2,2.0354116E-2,-8.7642886E-2,-0E0,4.4384133E-3,-6.712291E-3,2.9902353E-3],"categories":[],"categories_nodes":[],"categories_segments":[],"categories_sizes":[],"default_left":[0,0,0,0,0,0,0,0,0,0,0],"id":20,"left_children":[1,-1,3,5,-1,7,9,-1,-1,-1,-1],"loss_changes":[9.608271E0,0E0,7.2141867E0,3.5765097E0,0E0,2.8086786E0,6.0254097E0,0E0,0E0,0E0,0E0],"parents":[2147483647,0,0,2,2,3,3,5,5,6,6],"right_children":[2,-1,4,6,-1,8,10,-1,-1,-1,-1],"split_conditions":[-8E-2,1.9185344E-2,9E-2,3E-2,-1.6399914E-2,5.1734203E-1,3.494162E-4,-0E0,4.4384133E-3,-6.712291E-3,2.9902353E-3],"split_indices":[0,0,0,0,0,15,19,0,0,0,0],"split_type":[0,0,0,0,0,0,0,0,0,0,0],"sum_hessian":[1.825E3,3.4E1,1.791E3,1.753E3,3.8E1,1.362E3,3.91E2,1.116E3,2.46E2,2.63E2,1.28E2],"tree_param":{"num_deleted":"0","num_feature":"23","num_nodes":"11","size_leaf_vector":"1"}},{"base_weights":[1.7054133E-3,-4.3845824E-3,1.5122396E-2,4.1200393E-3,-1.7404604E-1,-2.1639755E-2,5.926632E-2,-6.5737795E-3,-1.4546015E-2,-4.573832E-4,-9.85324E-3,4.2717546E-4,8.326261E-3,7.2618225E-3,-7.6204217E-3],"categories":[],"categories_nodes":[],"categories_segments":[],"categories_sizes":[],"default_left":[0,0,0,0,0,0,0,0,0,0,0,0,0,0,0],"id":21,"left_children":[1,3,-1,5,7,9,11,13,-1,-1,-1,-1,-1,-1,-1],"loss_changes":[5.1701016E0,2.9216633E0,0E0,2.4791498E0,2.560835E0,2.012932E0,3.8373451E0,2.4703937E0,0E0,0E0,0E0,0E0,0E0,0E0,0E0],"parents":[2147483647,0,0,1,1,3,3,4,4,5,5,6,6,7,7],"right_children":[2,4,-1,6,8,10,12,14,-1,-1,-1,-1,-1,-1,-1],"split_conditions":[2.244238E0,5.546095E-1,1.5122396E-2,1.82E1,5.6662583E-1,1.782E1,6.9029087E-1,-4.8679712E-1,-1.4546015E-2,-4.573832E-4,-9.85324E-3,4.2717546E-4,8.326261E-3,7.2618225E-3,-7.6204217E-3],"split_indices":[14,12,0,2,10,2,14,21,0,0,0,0,0,0,0],"split_type":[0,0,0,0,0,0,0,0,0,0,0,0,0,0,0],"sum_hessian":[1.81E3,1.78E3,3E1,1.686E3,9.4E1,1.125E3,5.61E2,5.9E1,3.5E1,1.092E3,3.3E1,4.43E2,1.18E2,2.4E1,3.5E1],"tree_param":{"num_deleted":"0","num_feature":"23","num_nodes":"15","size_leaf_vector":"1"}},{"base_weights":[-0E0,-8.174678E-3,1.268355E-2,-0E0,-1.1159243E-2,-3.5560116E-2,7.3545136E-2,-8.9283235E-4,-1.5466803E-2,1.5336322E-3,1.4889305E-2],"categories":[],"categories_nodes":[],"categories_segments":[],"categories_sizes":[],"default_left":[0,0,0,0,0,0,0,0,0,0,0],"id":22,"left_children":[1,3,-1,5,-1,7,9,-1,-1,-1,-1],"loss_changes":[4.621309E0,3.8822987E0,0E0,4.486925E0,0E0,4.359044E0,4.9454374E0,0E0,0E0,0E0,0E0],"parents":[2147483647,0,0,1,1,3,3,5,5,6,6],"right_children":[2,4,-1,6,-1,8,10,-1,-1,-1,-1],"split_conditions":[6.8136466E-1,3.0276952E0,1.268355E-2,2.576529E-1,-1.1159243E-2,9.9999803E-1,6.059597E-3,-8.9283235E-4,-1.5466803E-2,1.5336322E-3,1.4889305E-2],"split_indices":[11,6,0,13,0,19,11,0,0,0,0],"split_type":[0,0,0,0,0,0,0,0,0,0,0],"sum_hessian":[1.804E3,1.766E3,3.8E1,1.722E3,4.4E1,1.169E3,5.53E2,1.14E3,2.9E1,5.09E2,4.4E1],"tree_param":{"num_deleted":"0","num_feature":"23","num_nodes":"11","size_leaf_vector":"1"}},{"base_weights":[6.0932045E-3,1.5630458E-2,-1.2840883E-2,2.9161663E-3,2.2542034E-1,-1.4245282E-2,1.1197845E-1,1.8756457E-2,-0E0,6.957949E-5,-3.0987156E-3,8.635886E-3,-3.6194164E-4,-4.4586733E-3,6.8316753E-3],"categories":[],"categories_nodes":[],"categories_segments":[],"categories_sizes":[],"default_left":[0,0,0,0,0,0,0,0,0,0,0,0,0,0,0],"id":23,"left_children":[1,3,-1,5,7,9,11,-1,13,-1,-1,-1,-1,-1,-1],"loss_changes":[5.3240967E0,4.286062E0,0E0,3.3721733E0,4.8981385E0,1.724854E0,3.8858008E0,0E0,1.3080032E0,0E0,0E0,0E0,0E0,0E0,0E0],"parents":[2147483647,0,0,1,1,3,3,4,4,5,5,6,6,8,8],"right_children":[2,4,-1,6,8,10,12,-1,14,-1,-1,-1,-1,-1,-1],"split_conditions":[9.852811E-1,5.065614E-1,-1.2840883E-2,9.6242094E-1,4.664655E-3,1.458453E-1,1.6396172E0,1.8756457E-2,2.0714183E-4,6.957949E-5,-3.0987156E-3,8.635886E-3,-3.6194164E-4,-4.4586733E-3,6.8316753E-3],"split_indices":[5,5,0,6,12,12,6,0,19,0,0,0,0,0,0],"split_type":[0,0,0,0,0,0,0,0,0,0,0,0,0,0,0],"sum_hessian":[1.821E3,1.78E3,4.1E1,1.69E3,9E1,1.446E3,2.44E2,3.7E1,5.3E1,1.144E3,3.02E2,1.33E2,1.11E2,2.8E1,2.5E1],"tree_param":{"num_deleted":"0","num_feature":"23","num_nodes":"15","size_leaf_vector":"1"}},{"base_weights":[-2.1784114E-4,-1.6072325E-2,3.200471E-1,-4.582378E-3,-1.9874234E-2,-0E0,4.623131E-1,-3.4538213E-2,1.06409036E-1,5.072809E-3,2.4459464E-2,-4.766687E-3,-2.4502934E-4,-0E0,6.301662E-3],"categories":[],"categories_nodes":[],"categories_segments":[],"categories_sizes":[],"default_left":[0,0,0,0,0,0,0,0,0,0,0,0,0,0,0],"id":24,"left_children":[1,3,5,7,-1,-1,9,11,13,-1,-1,-1,-1,-1,-1],"loss_changes":[8.6058035E0,9.010781E0,3.520297E0,5.5336304E0,0E0,0E0,1.4201746E0,3.1899424E0,2.087988E0,0E0,0E0,0E0,0E0,0E0,0E0],"parents":[2147483647,0,0,1,1,2,2,3,3,6,6,7,7,8,8],"right_children":[2,4,6,8,-1,-1,10,12,14,-1,-1,-1,-1,-1,-1],"split_conditions":[5E-2,1E0,-5.2541375E-1,7.073905E-1,-1.9874234E-2,-0E0,1.0945979E-2,-7.603145E-1,8.287722E-5,5.072809E-3,2.4459464E-2,-4.766687E-3,-2.4502934E-4,-0E0,6.301662E-3],"split_indices":[4,19,9,9,0,0,19,9,11,0,0,0,0,0,0],"split_type":[0,0,0,0,0,0,0,0,0,0,0,0,0,0,0],"sum_hessian":[1.812E3,1.735E3,7.7E1,1.703E3,3.2E1,2.5E1,5.2E1,1.357E3,3.46E2,2.4E1,2.8E1,3.02E2,1.055E3,1.28E2,2.18E2],"tree_param":{"num_deleted":"0","num_feature":"23","num_nodes":"15","size_leaf_vector":"1"}},{"base_weights":[1.2193572E-2,1.7019792E-2,-8.355145E-3,-0E0,1.0227114E-1,-8.979281E-3,2.3029143E-1,1.206325E-2,4.688735E-2,7.810449E-4,-2.0696581E-3,7.513786E-4,1.5713947E-2,5.2051446E-3,-2.2908398E-3],"categories":[],"categories_nodes":[],"categories_segments":[],"categories_sizes":[],"default_left":[0,0,0,0,0,0,0,0,0,0,0,0,0,0,0],"id":25,"left_children":[1,3,-1,5,7,9,11,-1,13,-1,-1,-1,-1,-1,-1],"loss_changes":[1.6256047E0,2.5211644E0,0E0,3.2792485E0,2.6674724E0,2.0043585E0,1.3817587E0,0E0,2.4982986E0,0E0,0E0,0E0,0E0,0E0,0E0],"parents":[2147483647,0,0,1,1,3,3,4,4,5,5,6,6,8,8],"right_children":[2,4,-1,6,8,10,12,-1,14,-1,-1,-1,-1,-1,-1],"split_conditions":[3.0950086E0,7.250375E-1,-8.355145E-3,1.589608E0,8.6152256E-1,3.9629266E-4,2.733809E-4,1.206325E-2,2.3491727E-1,7.810449E-4,-2.0696581E-3,7.513786E-4,1.5713947E-2,5.2051446E-3,-2.2908398E-3],"split_indices":[17,17,0,15,17,11,11,0,15,0,0,0,0,0,0],"split_type":[0,0,0,0,0,0,0,0,0,0,0,0,0,0,0],"sum_hessian":[1.814E3,1.788E3,2.6E1,1.5E3,2.88E2,1.443E3,5.7E1,4.9E1,2.39E2,8.48E2,5.95E2,3.3E1,2.4E1,1.4E2,9.9E1],"tree_param":{"num_deleted":"0","num_feature":"23","num_nodes":"15","size_leaf_vector":"1"}},{"base_weights":[-0E0,6.373159E-2,-7.1750544E-2,1.4091926E-2,1.3050857E-1,1.6612844E-1,-1.1188087E-1,6.8647884E-2,-1.3402613E-1,7.220006E-2,2.4783637E-1,2.1672366E-2,1.7586797E-2,-8.688226E-2,-2.4093553E-2,4.7794558E-4,5.8928495E-3,-8.863522E-3,-0E0,-0E0,6.8200286E-3,1.3788623E-2,3.2375194E-3,-1.0047868E-2,8.804443E-3,-7.663831E-3,2.9451021E-5],"categories":[],"categories_nodes":[],"categories_segments":[],"categories_sizes":[],"default_left":[0,0,0,0,0,0,0,0,0,0,0,0,0,0,0,0,0,0,0,0,0,0,0,0,0,0,0],"id":26,"left_children":[1,3,5,7,9,11,13,15,17,19,21,-1,23,25,-1,-1,-1,-1,-1,-1,-1,-1,-1,-1,-1,-1,-1],"loss_changes":[8.180558E0,2.797478E0,8.067853E0,4.3885202E0,1.9021916E0,5.7507334E0,7.9815683E0,1.6731199E0,2.324667E0,2.171313E0,1.115809E0,0E0,5.597185E0,7.527889E0,0E0,0E0,0E0,0E0,0E0,0E0,0E0,0E0,0E0,0E0,0E0,0E0,0E0],"parents":[2147483647,0,0,1,1,2,2,3,3,4,4,5,5,6,6,7,7,8,8,9,9,10,10,12,12,13,13],"right_children":[2,4,6,8,10,12,14,16,18,20,22,-1,24,26,-1,-1,-1,-1,-1,-1,-1,-1,-1,-1,-1,-1,-1],"split_conditions":[3.9510894E-8,8.938538E-5,-2.7910733E-1,1.5484616E-8,5.325653E-1,6.862455E-5,1E0,2.5114141E-5,2.4133309E-8,-4.0393084E-2,1.3312066E0,2.1672366E-2,3.7664687E-4,1.3322823E-3,-2.4093553E-2,4.7794558E-4,5.8928495E-3,-8.863522E-3,-0E0,-0E0,6.8200286E-3,1.3788623E-2,3.2375194E-3,-1.0047868E-2,8.804443E-3,-7.663831E-3,2.9451021E-5],"split_indices":[8,11,7,8,13,19,19,11,8,7,13,0,19,11,0,0,0,0,0,0,0,0,0,0,0,0,0],"split_type":[0,0,0,0,0,0,0,0,0,0,0,0,0,0,0,0,0,0,0,0,0,0,0,0,0,0,0],"sum_hessian":[1.781E3,9.32E2,8.49E2,5.54E2,3.78E2,1.14E2,7.35E2,4.16E2,1.38E2,2.67E2,1.11E2,2.5E1,8.9E1,7.08E2,2.7E1,2.68E2,1.48E2,8.7E1,5.1E1,1.58E2,1.09E2,5.6E1,5.5E1,3.4E1,5.5E1,3.16E2,3.92E2],"tree_param":{"num_deleted":"0","num_feature":"23","num_nodes":"27","size_leaf_vector":"1"}},{"base_weights":[1.8082729E-3,-5.0488364E-2,3.301134E-2,9.415461E-3,-1.7353074E-1,1.003562E-1,-7.656694E-3,-1.2369835E-2,1.3461803E-2,1.17843494E-1,-2.8704393E-1,6.58428E-2,2.0709507E-2,-5.2823965E-2,7.444873E-2,-1.6656155E-3,2.0258848E-3,1.3852067E-2,-3.9051375E-3,-2.378761E-3,-1.5967507E-2,3.6902728E-3,-7.269592E-3,-2.6438038E-3,5.4276865E-3,7.3682982E-3,-1.9618352E-3],"categories":[],"categories_nodes":[],"categories_segments":[],"categories_sizes":[],"default_left":[0,0,0,0,0,0,0,0,0,0,0,0,0,0,0,0,0,0,0,0,0,0,0,0,0,0,0],"id":27,"left_children":[1,3,5,7,9,11,13,15,-1,17,19,21,-1,23,25,-1,-1,-1,-1,-1,-1,-1,-1,-1,-1,-1,-1],"loss_changes":[2.955899E0,5.209366E0,3.4032426E0,3.9727707E0,7.964231E0,5.7049947E0,2.6163354E0,8.2220465E-1,0E0,3.9151013E0,3.9771032E0,3.3158517E0,0E0,1.4249469E0,3.8910975E0,0E0,0E0,0E0,0E0,0E0,0E0,0E0,0E0,0E0,0E0,0E0,0E0],"parents":[2147483647,0,0,1,1,2,2,3,3,4,4,5,5,6,6,7,7,9,9,10,10,11,11,13,13,14,14],"right_children":[2,4,6,8,10,12,14,16,-1,18,20,22,-1,24,26,-1,-1,-1,-1,-1,-1,-1,-1,-1,-1,-1,-1],"split_conditions":[-2.6726624E-1,4.1494338E-4,-9.815678E-2,2.672856E-4,-8.646861E-1,5E-1,6.986655E-2,-5.4386026E-1,1.3461803E-2,9.955478E-3,-1.0199878E0,1.0505452E-2,2.0709507E-2,1.9535633E0,4.3129352E-1,-1.6656155E-3,2.0258848E-3,1.3852067E-2,-3.9051375E-3,-2.378761E-3,-1.5967507E-2,3.6902728E-3,-7.269592E-3,-2.6438038E-3,5.4276865E-3,7.3682982E-3,-1.9618352E-3],"split_indices":[14,11,7,11,15,11,7,14,0,12,14,11,0,14,14,0,0,0,0,0,0,0,0,0,0,0,0],"split_type":[0,0,0,0,0,0,0,0,0,0,0,0,0,0,0,0,0,0,0,0,0,0,0,0,0,0,0],"sum_hessian":[1.828E3,6.58E2,1.17E3,4.33E2,2.25E2,4.58E2,7.12E2,4.04E2,2.9E1,5.8E1,1.67E2,4.32E2,2.6E1,4.76E2,2.36E2,2.95E2,1.09E2,3.1E1,2.7E1,6.9E1,9.8E1,3.94E2,3.8E1,4.5E2,2.6E1,1.29E2,1.07E2],"tree_param":{"num_deleted":"0","num_feature":"23","num_nodes":"27","size_leaf_vector":"1"}},{"base_weights":[1.2211095E-2,-1.26175E-2,2.2104664E-2,1.00902796E-1,-2.558827E-3,2.25194E-1,1.9769054E-2,-1.2959121E-1,2.02577E-2,3.4351929E-3,3.056556E-2,-5.846987E-3,4.583283E-3,-2.0197213E-3,-1.3418975E-2,1.4898345E-3,-1.452643E-3],"categories":[],"categories_nodes":[],"categories_segments":[],"categories_sizes":[],"default_left":[0,0,0,0,0,0,0,0,0,0,0,0,0,0,0,0,0],"id":28,"left_children":[1,-1,3,5,7,9,11,13,15,-1,-1,-1,-1,-1,-1,-1,-1],"loss_changes":[5.4837766E0,0E0,3.6079874E0,3.9003801E0,4.0496516E0,1.0656299E1,4.8154945E0,2.78089E0,1.2223792E0,0E0,0E0,0E0,0E0,0E0,0E0,0E0,0E0],"parents":[2147483647,0,0,2,2,3,3,4,4,5,5,6,6,7,7,8,8],"right_children":[2,-1,4,6,8,10,12,14,16,-1,-1,-1,-1,-1,-1,-1,-1],"split_conditions":[1.0015196E-4,-1.26175E-2,3.610252E-1,-1.1999512E-1,-2.9000092E-1,2.1924565E-3,1.2999725E-1,1.357123E-1,1.6419E-1,3.4351929E-3,3.056556E-2,-5.846987E-3,4.583283E-3,-2.0197213E-3,-1.3418975E-2,1.4898345E-3,-1.452643E-3],"split_indices":[16,0,16,1,1,19,1,12,12,0,0,0,0,0,0,0,0],"split_type":[0,0,0,0,0,0,0,0,0,0,0,0,0,0,0,0,0],"sum_hessian":[1.792E3,4.2E1,1.75E3,4.35E2,1.315E3,1.6E2,2.75E2,2.12E2,1.103E3,1.35E2,2.5E1,9.3E1,1.82E2,1.67E2,4.5E1,8.61E2,2.42E2],"tree_param":{"num_deleted":"0","num_feature":"23","num_nodes":"17","size_leaf_vector":"1"}},{"base_weights":[-4.6017335E-4,1.9613123E-1,-1.4327818E-2,-0E0,2.943071E-1,-2.5633423E-2,2.0562501E-1,-0E0,1.5619919E-2,-1.981098E-1,-8.9696795E-3,-0E0,3.4110004E-1,4.0698145E-3,-1.9001048E-2,-2.5812238E-3,7.3710567E-4,1.9258283E-2,2.5222127E-3],"categories":[],"categories_nodes":[],"categories_segments":[],"categories_sizes":[],"default_left":[0,0,0,0,0,0,0,0,0,0,0,0,0,0,0,0,0,0,0],"id":29,"left_children":[1,3,5,-1,7,9,11,-1,-1,13,15,-1,17,-1,-1,-1,-1,-1,-1],"loss_changes":[4.566319E0,2.5937228E0,3.8771563E0,0E0,1.8671708E0,4.255456E0,2.7356517E0,0E0,0E0,1.3099249E1,2.5983608E0,0E0,1.0302415E0,0E0,0E0,0E0,0E0,0E0,0E0],"parents":[2147483647,0,0,1,1,2,2,4,4,5,5,6,6,9,9,10,10,12,12],"right_children":[2,4,6,-1,8,10,12,-1,-1,14,16,-1,18,-1,-1,-1,-1,-1,-1],"split_conditions":[-1.4975417E0,-7.7775246E-1,5E-2,-0E0,-1E-2,-1.3045356E0,1.729E1,-0E0,1.5619919E-2,-3.7489783E-2,-3.7489783E-2,-0E0,1.6890405E-2,4.0698145E-3,-1.9001048E-2,-2.5812238E-3,7.3710567E-4,1.9258283E-2,2.5222127E-3],"split_indices":[15,18,4,0,4,18,2,0,0,15,15,0,15,0,0,0,0,0,0],"split_type":[0,0,0,0,0,0,0,0,0,0,0,0,0,0,0,0,0,0,0],"sum_hessian":[1.806E3,1.07E2,1.699E3,3.1E1,7.6E1,1.627E3,7.2E1,2.7E1,4.9E1,1.3E2,1.497E3,2.4E1,4.8E1,6.2E1,6.8E1,5.09E2,9.88E2,2.4E1,2.4E1],"tree_param":{"num_deleted":"0","num_feature":"23","num_nodes":"19","size_leaf_vector":"1"}},{"base_weights":[-2.5578681E-3,8.525952E-3,-1.9014046E-2,2.413147E-2,-0E0,8.032232E-2,-3.1652067E-2,1.1279603E-3,7.588682E-3,-2.2448698E-5,-4.7651604E-3],"categories":[],"categories_nodes":[],"categories_segments":[],"categories_sizes":[],"default_left":[0,0,0,0,0,0,0,0,0,0,0],"id":30,"left_children":[1,3,-1,-1,5,7,9,-1,-1,-1,-1],"loss_changes":[1.0984005E1,1.055573E1,0E0,0E0,4.3609867E0,2.4016273E0,3.4298196E0,0E0,0E0,0E0,0E0],"parents":[2147483647,0,0,1,1,4,4,5,5,6,6],"right_children":[2,4,-1,-1,6,8,10,-1,-1,-1,-1],"split_conditions":[9E-2,-9E-2,-1.9014046E-2,2.413147E-2,-5.714313E-1,4.4395027E-1,3E-2,1.1279603E-3,7.588682E-3,-2.2448698E-5,-4.7651604E-3],"split_indices":[0,0,0,0,20,13,0,0,0,0,0],"split_type":[0,0,0,0,0,0,0,0,0,0,0],"sum_hessian":[1.809E3,1.768E3,4.1E1,2.4E1,1.744E3,4.76E2,1.268E3,3.48E2,1.28E2,9.7E2,2.98E2],"tree_param":{"num_deleted":"0","num_feature":"23","num_nodes":"11","size_leaf_vector":"1"}},{"base_weights":[4.0572495E-3,1.3339812E-2,-1.586122E-2,-1.3161589E-2,6.958976E-2,-1.9549942E-1,-0E0,3.927249E-2,2.8258157E-1,-2.3138553E-3,-1.4017941E-2,-1.3076902E-3,2.734114E-3,4.0091113E-3,-3.3825256E-3,1.7107418E-2,-0E0],"categories":[],"categories_nodes":[],"categories_segments":[],"categories_sizes":[],"default_left":[0,0,0,0,0,0,0,0,0,0,0,0,0,0,0,0,0],"id":31,"left_children":[1,3,-1,5,7,9,11,13,15,-1,-1,-1,-1,-1,-1,-1,-1],"loss_changes":[6.2904882E0,2.7826734E0,0E0,2.9134943E0,3.171503E0,9.6121645E-1,2.7591336E0,4.573311E0,3.1527E0,0E0,0E0,0E0,0E0,0E0,0E0,0E0,0E0],"parents":[2147483647,0,0,1,1,3,3,4,4,5,5,6,6,7,7,8,8],"right_children":[2,4,-1,6,8,10,12,14,16,-1,-1,-1,-1,-1,-1,-1,-1],"split_conditions":[9.9320734E-1,1.82E1,-1.586122E-2,2.62E-4,5E-1,2.4492852E-4,1.16529584E-1,1.8255132E-3,6.913795E-1,-2.3138553E-3,-1.4017941E-2,-1.3076902E-3,2.734114E-3,4.0091113E-3,-3.3825256E-3,1.7107418E-2,-0E0],"split_indices":[5,2,0,22,11,11,5,11,6,0,0,0,0,0,0,0,0],"split_type":[0,0,0,0,0,0,0,0,0,0,0,0,0,0,0,0,0],"sum_hessian":[1.817E3,1.785E3,3.2E1,1.19E3,5.95E2,7.9E1,1.111E3,5.32E2,6.3E1,5.3E1,2.6E1,7.5E2,3.61E2,3.62E2,1.7E2,3.9E1,2.4E1],"tree_param":{"num_deleted":"0","num_feature":"23","num_nodes":"17","size_leaf_vector":"1"}},{"base_weights":[-3.021616E-3,-1.0173055E-1,2.9593948E-2,-1.2705071E-1,2.5218055E-3,1.6581543E-2,1.7974205E-1,-3.4888525E-2,-1.9325694E-1,3.2623596E-2,-1.2851092E-2,-0E0,1.9421527E-2,-0E0,-3.6413656E-3,-1.1414297E-2,9.0605643E-4,6.033496E-4,8.348844E-3,3.0170253E-3,-1.8186071E-3],"categories":[],"categories_nodes":[],"categories_segments":[],"categories_sizes":[],"default_left":[0,0,0,0,0,0,0,0,0,0,0,0,0,0,0,0,0,0,0,0,0],"id":32,"left_children":[1,3,5,7,-1,9,11,13,15,17,-1,19,-1,-1,-1,-1,-1,-1,-1,-1,-1],"loss_changes":[5.9300084E0,2.1094003E0,2.1981437E0,2.0333223E0,0E0,6.465706E0,4.6751347E0,3.9730257E-1,5.812868E0,3.260001E0,0E0,3.1604117E-1,0E0,0E0,0E0,0E0,0E0,0E0,0E0,0E0,0E0],"parents":[2147483647,0,0,1,1,2,2,3,3,5,5,6,6,7,7,8,8,9,9,11,11],"right_children":[2,4,6,8,-1,10,12,14,16,18,-1,20,-1,-1,-1,-1,-1,-1,-1,-1,-1],"split_conditions":[6.8829214E-4,9.3358153E-1,1.4826435E0,4.0502728E-5,2.5218055E-3,9.9673516E-1,8.467036E-3,1.447E1,1.82E1,5E-2,-1.2851092E-2,1.788E1,1.9421527E-2,-0E0,-3.6413656E-3,-1.1414297E-2,9.0605643E-4,6.033496E-4,8.348844E-3,3.0170253E-3,-1.8186071E-3],"split_indices":[22,13,13,11,0,22,11,2,2,3,0,2,0,0,0,0,0,0,0,0,0],"split_type":[0,0,0,0,0,0,0,0,0,0,0,0,0,0,0,0,0,0,0,0,0],"sum_hessian":[1.791E3,4.59E2,1.332E3,4.1E2,4.9E1,1.241E3,9.1E1,1.86E2,2.24E2,1.195E3,4.6E1,6.4E1,2.7E1,1.2E2,6.6E1,1.56E2,6.8E1,1.109E3,8.6E1,3.7E1,2.7E1],"tree_param":{"num_deleted":"0","num_feature":"23","num_nodes":"21","size_leaf_vector":"1"}},{"base_weights":[-0E0,-1.5601661E-2,3.6287147E-1,-7.406201E-2,2.5136188E-2,4.3862127E-3,2.538632E-2,-3.172509E-2,-1.5844925E-1,1.3174177E-2,1.1551912E-2,-2.4466207E-3,7.674407E-3,-9.736827E-3,-7.632802E-4,9.223911E-4,-8.813856E-3],"categories":[],"categories_nodes":[],"categories_segments":[],"categories_sizes":[],"default_left":[0,0,0,0,0,0,0,0,0,0,0,0,0,0,0,0,0],"id":33,"left_children":[1,3,5,7,9,-1,-1,11,13,15,-1,-1,-1,-1,-1,-1,-1],"loss_changes":[1.0649011E1,4.276592E0,4.0354795E0,2.2438002E0,2.7137926E0,0E0,0E0,3.6365387E0,2.5227137E0,2.2396374E0,0E0,0E0,0E0,0E0,0E0,0E0,0E0],"parents":[2147483647,0,0,1,1,2,2,3,3,4,4,7,7,8,8,9,9],"right_children":[2,4,6,8,10,-1,-1,12,14,16,-1,-1,-1,-1,-1,-1,-1],"split_conditions":[5E-2,0E0,2.1424915E-1,6.101657E-4,9.9038416E-1,4.3862127E-3,2.538632E-2,3.3492062E-4,5E-1,1.4437268E0,1.1551912E-2,-2.4466207E-3,7.674407E-3,-9.736827E-3,-7.632802E-4,9.223911E-4,-8.813856E-3],"split_indices":[4,4,6,19,19,0,0,19,19,18,0,0,0,0,0,0,0],"split_type":[0,0,0,0,0,0,0,0,0,0,0,0,0,0,0,0,0],"sum_hessian":[1.824E3,1.749E3,7.5E1,7.38E2,1.011E3,4.7E1,2.8E1,5.1E2,2.28E2,9.79E2,3.2E1,4.57E2,5.3E1,1.24E2,1.04E2,9.47E2,3.2E1],"tree_param":{"num_deleted":"0","num_feature":"23","num_nodes":"17","size_leaf_vector":"1"}},{"base_weights":[1.9360312E-3,-2.5446707E-1,1.42073585E-2,-2.058154E-2,7.3446687E-3,5.919845E-4,2.9574978E-1,-1.909235E-1,1.1284326E-2,2.0400647E-3,1.7471865E-2,-1.3043648E-2,-1.1620914E-3,-4.6026317E-4,2.9744585E-3],"categories":[],"categories_nodes":[],"categories_segments":[],"categories_sizes":[],"default_left":[0,0,0,0,0,0,0,0,0,0,0,0,0,0,0],"id":34,"left_children":[1,3,5,-1,-1,7,9,11,13,-1,-1,-1,-1,-1,-1],"loss_changes":[5.243366E0,1.0650007E1,6.088732E0,0E0,0E0,3.0694897E0,1.7915907E0,1.1199682E0,2.6334884E0,0E0,0E0,0E0,0E0,0E0,0E0],"parents":[2147483647,0,0,1,1,2,2,5,5,6,6,7,7,8,8],"right_children":[2,4,6,-1,-1,8,10,12,14,-1,-1,-1,-1,-1,-1],"split_conditions":[1.2348123E-3,1.0136045E0,5E-2,-2.058154E-2,7.3446687E-3,-4E-2,-3.6879268E-1,4.327736E-3,3.75187E-1,2.0400647E-3,1.7471865E-2,-1.3043648E-2,-1.1620914E-3,-4.6026317E-4,2.9744585E-3],"split_indices":[16,13,4,0,0,4,17,13,13,0,0,0,0,0,0],"split_type":[0,0,0,0,0,0,0,0,0,0,0,0,0,0,0],"sum_hessian":[1.817E3,7.3E1,1.744E3,4.7E1,2.6E1,1.673E3,7.1E1,7.6E1,1.597E3,3.5E1,3.6E1,3.1E1,4.5E1,1.162E3,4.35E2],"tree_param":{"num_deleted":"0","num_feature":"23","num_nodes":"15","size_leaf_vector":"1"}},{"base_weights":[1.2305881E-2,1.069085E-2,4.0589804E-3,1.5104262E-2,-1.4698798E-2,7.498938E-3,1.20557835E-2,1.1473905E-3,-1.9929816E-3],"categories":[],"categories_nodes":[],"categories_segments":[],"categories_sizes":[],"default_left":[0,0,0,0,0,0,0,0,0],"id":35,"left_children":[1,-1,3,5,-1,7,-1,-1,-1],"loss_changes":[3.5004783E0,0E0,7.014858E0,3.3635085E0,0E0,2.292804E0,0E0,0E0,0E0],"parents":[2147483647,0,0,2,2,3,3,5,5],"right_children":[2,-1,4,6,-1,8,-1,-1,-1],"split_conditions":[-6E-2,1.069085E-2,1E0,7E-2,-1.4698798E-2,2E-2,1.20557835E-2,1.1473905E-3,-1.9929816E-3],"split_indices":[3,0,19,3,0,3,0,0,0],"split_type":[0,0,0,0,0,0,0,0,0],"sum_hessian":[1.844E3,4.5E1,1.799E3,1.757E3,4.2E1,1.723E3,3.4E1,1.276E3,4.47E2],"tree_param":{"num_deleted":"0","num_feature":"23","num_nodes":"9","size_leaf_vector":"1"}},{"base_weights":[1.2459078E-2,4.7930088E-2,-1.2268663E-1,2.282287E-1,1.7893426E-2,-2.0475602E-2,-5.6888506E-2,1.3640937E-2,3.247338E-1,1.081571E-1,-3.366824E-2,-2.3220958E-1,1.8459268E-2,-1.6274023E-3,4.7569135E-3,1.5420281E-2,-0E0,5.808797E-3,2.1213482E-3,-5.2031167E-3,1.4707088E-3,-2.019719E-2,-8.179232E-4,1.0463299E-2,-2.864483E-4],"categories":[],"categories_nodes":[],"categories_segments":[],"categories_sizes":[],"default_left":[0,0,0,0,0,0,0,0,0,0,0,0,0,0,0,0,0,0,0,0,0,0,0,0,0],"id":36,"left_children":[1,3,5,7,9,-1,11,13,15,17,19,21,23,-1,-1,-1,-1,-1,-1,-1,-1,-1,-1,-1,-1],"loss_changes":[8.5758705E0,7.358035E0,8.708408E0,3.3889399E0,6.019839E0,0E0,4.723774E0,6.2474906E-1,3.4690266E0,6.507201E-1,6.078558E0,5.473275E0,2.0200245E0,0E0,0E0,0E0,0E0,0E0,0E0,0E0,0E0,0E0,0E0,0E0,0E0],"parents":[2147483647,0,0,1,1,2,2,3,3,4,4,6,6,7,7,8,8,9,9,10,10,11,11,12,12],"right_children":[2,4,6,8,10,-1,12,14,16,18,20,22,24,-1,-1,-1,-1,-1,-1,-1,-1,-1,-1,-1,-1],"split_conditions":[2.5758243E-6,1.11783996E-1,-9.897953E-1,1.489E1,1.2473112E-8,-2.0475602E-2,3.3654395E-1,3.1068001E-2,2.612E1,9.5957536E-1,1.52E1,1.6666988E-1,-1.03241935E-1,-1.6274023E-3,4.7569135E-3,1.5420281E-2,-0E0,5.808797E-3,2.1213482E-3,-5.2031167E-3,1.4707088E-3,-2.019719E-2,-8.179232E-4,1.0463299E-2,-2.864483E-4],"split_indices":[8,16,6,2,8,0,16,16,2,16,2,6,6,0,0,0,0,0,0,0,0,0,0,0,0],"split_type":[0,0,0,0,0,0,0,0,0,0,0,0,0,0,0,0,0,0,0,0,0,0,0,0,0],"sum_hessian":[1.815E3,1.451E3,3.64E2,1.95E2,1.256E3,4.3E1,3.21E2,6.8E1,1.27E2,4.7E2,7.86E2,1.03E2,2.18E2,3.4E1,3.4E1,1.02E2,2.5E1,2.31E2,2.39E2,3.35E2,4.51E2,3.7E1,6.6E1,2.5E1,1.93E2],"tree_param":{"num_deleted":"0","num_feature":"23","num_nodes":"25","size_leaf_vector":"1"}},{"base_weights":[1.3524685E-2,2.964692E-4,2.4644988E-2,4.414714E-2,-1.8725099E-1,1.5766343E-2,1.9042166E-1,-5.729849E-1,-9.9545486E-2,3.3830502E-3,-2.9028982E-3,1.4335594E-2,-0E0,-3.194486E-3,-3.8880505E-2,-2.0252386E-2,-2.414539E-4],"categories":[],"categories_nodes":[],"categories_segments":[],"categories_sizes":[],"default_left":[0,0,0,0,0,0,0,0,0,0,0,0,0,0,0,0,0],"id":37,"left_children":[1,3,-1,5,7,9,11,13,15,-1,-1,-1,-1,-1,-1,-1,-1],"loss_changes":[1.3743943E1,1.4266227E1,0E0,5.563401E0,9.524371E0,8.260529E0,7.447897E0,9.693031E0,9.90906E0,0E0,0E0,0E0,0E0,0E0,0E0,0E0,0E0],"parents":[2147483647,0,0,1,1,3,3,4,4,5,5,6,6,7,7,8,8],"right_children":[2,4,-1,6,8,10,12,14,16,-1,-1,-1,-1,-1,-1,-1,-1],"split_conditions":[9.995149E-1,2.5758243E-6,2.4644988E-2,1.6243379E-1,8.504024E-3,2.1428946E-8,-9.638024E-2,3.4819048E-5,7.753709E-6,3.3830502E-3,-2.9028982E-3,1.4335594E-2,-0E0,-3.194486E-3,-3.8880505E-2,-2.0252386E-2,-2.414539E-4],"split_indices":[22,8,0,22,16,8,7,8,8,0,0,0,0,0,0,0,0],"split_type":[0,0,0,0,0,0,0,0,0,0,0,0,0,0,0,0,0],"sum_hessian":[1.796E3,1.765E3,3.1E1,1.441E3,3.24E2,1.221E3,2.2E2,5.3E1,2.71E2,6.93E2,5.28E2,1.07E2,1.13E2,2.9E1,2.4E1,4.2E1,2.29E2],"tree_param":{"num_deleted":"0","num_feature":"23","num_nodes":"17","size_leaf_vector":"1"}},{"base_weights":[-1.6106459E-3,9.257468E-3,-2.158761E-2,9.3293875E-2,-4.2831853E-2,-0E0,1.3652273E-1,-1.5772668E-1,9.661417E-3,-1.8008657E-3,5.1757977E-3,1.7131626E-3,6.4003565E-3,3.7879697E-3,-7.1662497E-3,5.032301E-3,-2.2253855E-3],"categories":[],"categories_nodes":[],"categories_segments":[],"categories_sizes":[],"default_left":[0,0,0,0,0,0,0,0,0,0,0,0,0,0,0,0,0],"id":38,"left_children":[1,3,-1,5,7,9,11,13,15,-1,-1,-1,-1,-1,-1,-1,-1],"loss_changes":[1.2228723E1,7.855776E0,0E0,2.8924956E0,6.812365E0,1.3435886E0,9.232626E-1,2.9680328E0,6.259295E0,0E0,0E0,0E0,0E0,0E0,0E0,0E0,0E0],"parents":[2147483647,0,0,1,1,3,3,4,4,5,5,6,6,7,7,8,8],"right_children":[2,4,-1,6,8,10,12,14,16,-1,-1,-1,-1,-1,-1,-1,-1],"split_conditions":[8.699951E-1,1.8258428E-8,-2.158761E-2,-1.6000366E-1,2.733809E-4,2E-2,1.4268223E-5,-4.7000122E-1,2.9100107E-7,-1.8008657E-3,5.1757977E-3,1.7131626E-3,6.4003565E-3,3.7879697E-3,-7.1662497E-3,5.032301E-3,-2.2253855E-3],"split_indices":[1,8,0,1,11,4,11,1,8,0,0,0,0,0,0,0,0],"split_type":[0,0,0,0,0,0,0,0,0,0,0,0,0,0,0,0,0],"sum_hessian":[1.801E3,1.766E3,3.5E1,6.9E2,1.076E3,2.14E2,4.76E2,3.48E2,7.28E2,1.64E2,5E1,1.4E2,3.36E2,2.9E1,3.19E2,2.7E2,4.58E2],"tree_param":{"num_deleted":"0","num_feature":"23","num_nodes":"17","size_leaf_vector":"1"}},{"base_weights":[-7.3271274E-4,1.08456155E-2,-1.9771433E-2,1.7565016E-2,-0E0,6.4492137E-3,-1.2264768E-2,-1.0854838E-4,7.292419E-3],"categories":[],"categories_nodes":[],"categories_segments":[],"categories_sizes":[],"default_left":[0,0,0,0,0,0,0,0,0],"id":39,"left_children":[1,3,-1,-1,5,7,-1,-1,-1],"loss_changes":[1.1683589E1,7.5825E0,0E0,0E0,2.9331508E0,3.2635424E0,0E0,0E0,0E0],"parents":[2147483647,0,0,1,1,4,4,5,5],"right_children":[2,4,-1,-1,6,8,-1,-1,-1],"split_conditions":[9E-2,-8E-2,-1.9771433E-2,1.7565016E-2,8.699951E-1,5.400009E-1,-1.2264768E-2,-1.0854838E-4,7.292419E-3],"split_indices":[0,0,0,0,1,1,0,0,0],"split_type":[0,0,0,0,0,0,0,0,0],"sum_hessian":[1.769E3,1.729E3,4E1,3.4E1,1.695E3,1.67E3,2.5E1,1.582E3,8.8E1],"tree_param":{"num_deleted":"0","num_feature":"23","num_nodes":"9","size_leaf_vector":"1"}},{"base_weights":[7.7289636E-3,1.670747E-2,-2.392802E-1,-4.5198478E-2,5.205261E-2,7.3852905E-5,-1.8867316E-2,1.8910555E-2,-1.7354113E-1,4.513538E-3,8.772572E-2,-6.873055E-4,4.795999E-3,-0E0,-1.0572223E-2,1.7222816E-3,-4.626924E-3,1.2207392E-3,7.3370608E-3],"categories":[],"categories_nodes":[],"categories_segments":[],"categories_sizes":[],"default_left":[0,0,0,0,0,0,0,0,0,0,0,0,0,0,0,0,0,0,0],"id":40,"left_children":[1,3,5,7,9,-1,-1,11,13,15,17,-1,-1,-1,-1,-1,-1,-1,-1],"loss_changes":[3.5042877E0,3.8026013E0,4.3842173E0,5.332759E0,1.714113E0,0E0,0E0,1.7981709E0,3.624339E0,2.4652605E0,3.1244102E0,0E0,0E0,0E0,0E0,0E0,0E0,0E0,0E0],"parents":[2147483647,0,0,1,1,2,2,3,3,4,4,7,7,8,8,9,9,10,10],"right_children":[2,4,6,8,10,-1,-1,12,14,16,18,-1,-1,-1,-1,-1,-1,-1,-1],"split_conditions":[9.4729316E-1,-2.3203567E-1,5.084312E-4,4.1494338E-4,2.390296E-4,7.3852905E-5,-1.8867316E-2,1.0017491E-1,-1.0050083E0,8.6087734E-1,4.327736E-3,-6.873055E-4,4.795999E-3,-0E0,-1.0572223E-2,1.7222816E-3,-4.626924E-3,1.2207392E-3,7.3370608E-3],"split_indices":[5,14,11,11,11,0,0,5,14,15,13,0,0,0,0,0,0,0,0],"split_type":[0,0,0,0,0,0,0,0,0,0,0,0,0,0,0,0,0,0,0],"sum_hessian":[1.778E3,1.726E3,5.2E1,6.06E2,1.12E3,2.4E1,2.8E1,3.95E2,2.11E2,5.06E2,6.14E2,2.81E2,1.14E2,8.3E1,1.28E2,3.96E2,1.1E2,4.16E2,1.98E2],"tree_param":{"num_deleted":"0","num_feature":"23","num_nodes":"19","size_leaf_vector":"1"}},{"base_weights":[-7.3198667E-3,-1.2262281E-1,1.5939828E-2,-1.2911278E-3,-6.725856E-1,2.5312242E-3,2.4398629E-2,-4.1724056E-2,9.209917E-3,-1.0695036E-2,-3.4955747E-2,-1.9965986E-2,1.899132E-1,2.9092547E-3,-4.768757E-3,4.3400304E-4,-4.5533245E-3,1.2176432E-2,-0E0],"categories":[],"categories_nodes":[],"categories_segments":[],"categories_sizes":[],"default_left":[0,0,0,0,0,0,0,0,0,0,0,0,0,0,0,0,0,0,0],"id":41,"left_children":[1,3,5,7,9,11,-1,13,-1,-1,-1,15,17,-1,-1,-1,-1,-1,-1],"loss_changes":[4.9935203E0,1.9547447E1,1.0968746E1,2.1980696E0,2.0172615E0,6.4391646E0,0E0,2.436728E0,0E0,0E0,0E0,4.2220035E0,3.829722E0,0E0,0E0,0E0,0E0,0E0,0E0],"parents":[2147483647,0,0,1,1,2,2,3,3,4,4,5,5,7,7,11,11,12,12],"right_children":[2,4,6,8,10,12,-1,14,-1,-1,-1,16,18,-1,-1,-1,-1,-1,-1],"split_conditions":[-8.219895E-1,1.3562524E0,9.995149E-1,8.571321E-1,-8.700853E-2,8.922814E-1,2.4398629E-2,-1.14437394E-1,9.209917E-3,-1.0695036E-2,-3.4955747E-2,2E-2,-6.274126E-4,2.9092547E-3,-4.768757E-3,4.3400304E-4,-4.5533245E-3,1.2176432E-2,-0E0],"split_indices":[9,10,22,10,7,10,0,7,0,0,0,3,7,0,0,0,0,0,0],"split_type":[0,0,0,0,0,0,0,0,0,0,0,0,0,0,0,0,0,0,0],"sum_hessian":[1.776E3,3.11E2,1.465E3,2.6E2,5.1E1,1.44E3,2.5E1,2.32E2,2.8E1,2.5E1,2.6E1,1.278E3,1.62E2,8.6E1,1.46E2,9.58E2,3.2E2,9.3E1,6.9E1],"tree_param":{"num_deleted":"0","num_feature":"23","num_nodes":"19","size_leaf_vector":"1"}},{"base_weights":[-1.0301888E-2,-2.3479396E-3,-1.2205876E-2,-8.801104E-3,1.2594257E-2,-1.0877194E-2,-0E0,2.388811E-3,-7.7839853E-4],"categories":[],"categories_nodes":[],"categories_segments":[],"categories_sizes":[],"default_left":[0,0,0,0,0,0,0,0,0],"id":42,"left_children":[1,3,-1,5,-1,-1,7,-1,-1],"loss_changes":[3.7834933E0,3.1446743E0,0E0,3.6659133E0,0E0,0E0,2.0927196E0,0E0,0E0],"parents":[2147483647,0,0,1,1,3,3,6,6],"right_children":[2,4,-1,6,-1,-1,8,-1,-1],"split_conditions":[8.699951E-1,9.995149E-1,-1.2205876E-2,1.2348123E-3,1.2594257E-2,-1.0877194E-2,3.479661E-1,2.388811E-3,-7.7839853E-4],"split_indices":[1,22,0,16,0,0,16,0,0],"split_type":[0,0,0,0,0,0,0,0,0],"sum_hessian":[1.8E3,1.764E3,3.6E1,1.739E3,2.5E1,4.4E1,1.695E3,3.91E2,1.304E3],"tree_param":{"num_deleted":"0","num_feature":"23","num_nodes":"9","size_leaf_vector":"1"}},{"base_weights":[7.210755E-3,-1.3213123E-1,3.8375452E-2,-0E0,-3.2743597E-1,-2.2015521E-2,8.290624E-2,1.5354748E-1,-1.4968264E-1,-4.1012576E-1,-0E0,3.3854444E-3,-2.2257544E-1,1.0788988E-1,-1.9210479E-1,-8.093102E-3,1.2081417E-2,-0E0,-9.5907925E-3,-4.8791193E-3,-1.7959246E-2,-8.012604E-4,5.7233702E-3,-1.6905935E-2,5.065714E-3,2.2779217E-3,8.689399E-3,3.14793E-4,-1.3323412E-2],"categories":[],"categories_nodes":[],"categories_segments":[],"categories_sizes":[],"default_left":[0,0,0,0,0,0,0,0,0,0,0,0,0,0,0,0,0,0,0,0,0,0,0,0,0,0,0,0,0],"id":43,"left_children":[1,3,5,7,9,11,13,15,17,19,-1,21,23,25,27,-1,-1,-1,-1,-1,-1,-1,-1,-1,-1,-1,-1,-1,-1],"loss_changes":[7.7104053E0,7.657582E0,4.159582E0,4.641571E0,2.8306646E0,3.601941E0,5.9467316E0,5.995696E0,1.534831E0,2.6664543E-1,0E0,2.2179039E0,6.9736004E0,4.1017733E0,2.8415735E0,0E0,0E0,0E0,0E0,0E0,0E0,0E0,0E0,0E0,0E0,0E0,0E0,0E0,0E0],"parents":[2147483647,0,0,1,1,2,2,3,3,4,4,5,5,6,6,7,7,8,8,9,9,11,11,12,12,13,13,14,14],"right_children":[2,4,6,8,10,12,14,16,18,20,-1,22,24,26,28,-1,-1,-1,-1,-1,-1,-1,-1,-1,-1,-1,-1,-1,-1],"split_conditions":[-8.219895E-1,3.0901408E-1,-4.1080976E-1,-3.131498E-1,1.123946E0,5.73243E-3,2.4116201E0,-3.6621946E-1,-2.3203567E-1,2.008429E-8,-0E0,3.544375E-4,4.7823325E-1,1.0945979E-2,1.4134565E-6,-8.093102E-3,1.2081417E-2,-0E0,-9.5907925E-3,-4.8791193E-3,-1.7959246E-2,-8.012604E-4,5.7233702E-3,-1.6905935E-2,5.065714E-3,2.2779217E-3,8.689399E-3,3.14793E-4,-1.3323412E-2],"split_indices":[9,15,6,6,14,19,6,14,14,19,0,19,9,19,19,0,0,0,0,0,0,0,0,0,0,0,0,0,0],"split_type":[0,0,0,0,0,0,0,0,0,0,0,0,0,0,0,0,0,0,0,0,0,0,0,0,0,0,0,0,0],"sum_hessian":[1.814E3,3.18E2,1.496E3,1.97E2,1.21E2,6.16E2,8.8E2,9.1E1,1.06E2,9.3E1,2.8E1,5.4E2,7.6E1,8.15E2,6.5E1,2.4E1,6.7E1,4.6E1,6E1,2.4E1,6.9E1,4.53E2,8.7E1,5E1,2.6E1,5.97E2,2.18E2,2.4E1,4.1E1],"tree_param":{"num_deleted":"0","num_feature":"23","num_nodes":"29","size_leaf_vector":"1"}},{"base_weights":[-4.7992007E-3,1.1005545E-2,-1.3727499E-2,-2.4770771E-1,-2.963716E-3,-1.6027458E-2,-0E0,-1.3391887E-2,1.3526133E-2,-6.412136E-3,-0E0],"categories":[],"categories_nodes":[],"categories_segments":[],"categories_sizes":[],"default_left":[0,0,0,0,0,0,0,0,0,0,0],"id":44,"left_children":[1,-1,3,5,7,-1,-1,9,-1,-1,-1],"loss_changes":[4.0925584E0,0E0,3.8388844E0,3.5713735E0,5.5240717E0,0E0,0E0,3.6351721E0,0E0,0E0,0E0],"parents":[2147483647,0,0,2,2,3,3,4,4,7,7],"right_children":[2,-1,4,6,8,-1,-1,10,-1,-1,-1],"split_conditions":[-6E-2,1.1005545E-2,1.2348123E-3,8.5285544E-1,7E-2,-1.6027458E-2,-0E0,-1.3045356E0,1.3526133E-2,-6.412136E-3,-0E0],"split_indices":[3,0,16,13,3,0,0,18,0,0,0],"split_type":[0,0,0,0,0,0,0,0,0,0,0],"sum_hessian":[1.769E3,4.3E1,1.726E3,6.5E1,1.661E3,4.1E1,2.4E1,1.622E3,3.9E1,1.36E2,1.486E3],"tree_param":{"num_deleted":"0","num_feature":"23","num_nodes":"11","size_leaf_vector":"1"}},{"base_weights":[3.536815E-4,1.25410445E-2,-1.8647939E-2,1.7441005E-2,1.8907305E-3,-2.2463463E-2,9.963639E-2,-1.879773E-4,-6.9417935E-3,1.2830187E-2,1.16467E-3],"categories":[],"categories_nodes":[],"categories_segments":[],"categories_sizes":[],"default_left":[0,0,0,0,0,0,0,0,0,0,0],"id":45,"left_children":[1,3,-1,-1,5,7,9,-1,-1,-1,-1],"loss_changes":[9.771184E0,7.4058967E0,0E0,0E0,4.274045E0,3.4443116E0,5.1438446E0,0E0,0E0,0E0,0E0],"parents":[2147483647,0,0,1,1,4,4,5,5,6,6],"right_children":[2,4,-1,-1,6,8,10,-1,-1,-1,-1],"split_conditions":[9E-2,-8E-2,-1.8647939E-2,1.7441005E-2,7.028737E-1,5E-2,-2E-2,-1.879773E-4,-6.9417935E-3,1.2830187E-2,1.16467E-3],"split_indices":[0,0,0,0,14,0,0,0,0,0,0],"split_type":[0,0,0,0,0,0,0,0,0,0,0],"sum_hessian":[1.795E3,1.758E3,3.7E1,3.4E1,1.724E3,1.365E3,3.59E2,1.244E3,1.21E2,7.2E1,2.87E2],"tree_param":{"num_deleted":"0","num_feature":"23","num_nodes":"11","size_leaf_vector":"1"}},{"base_weights":[-6.3186963E-3,-1.3741109E-2,1.2734016E-2,-2.2267199E-1,-2.8177712E-3,-3.0987503E-3,-1.2062856E-2,-1.3283615E-2,1.9462548E-1,2.1775695E-3,-1.5698995E-3,-3.090927E-4,2.0648519E-2],"categories":[],"categories_nodes":[],"categories_segments":[],"categories_sizes":[],"default_left":[0,0,0,0,0,0,0,0,0,0,0,0,0],"id":46,"left_children":[1,3,-1,5,7,-1,-1,9,11,-1,-1,-1,-1],"loss_changes":[3.9078429E0,3.5780714E0,0E0,1.621368E-1,3.1376731E0,0E0,0E0,3.1626902E0,6.4294014E0,0E0,0E0,0E0,0E0],"parents":[2147483647,0,0,1,1,3,3,4,4,7,7,8,8],"right_children":[2,4,-1,6,8,-1,-1,10,12,-1,-1,-1,-1],"split_conditions":[2.244238E0,-4E-2,1.2734016E-2,1.2402539E0,5E-2,-3.0987503E-3,-1.2062856E-2,-6.0080355E-1,-5.7194743E-2,2.1775695E-3,-1.5698995E-3,-3.090927E-4,2.0648519E-2],"split_indices":[14,4,0,20,4,0,0,20,12,0,0,0,0],"split_type":[0,0,0,0,0,0,0,0,0,0,0,0,0],"sum_hessian":[1.798E3,1.768E3,3E1,7.6E1,1.692E3,4.1E1,3.5E1,1.619E3,7.3E1,4.38E2,1.181E3,4.4E1,2.9E1],"tree_param":{"num_deleted":"0","num_feature":"23","num_nodes":"13","size_leaf_vector":"1"}},{"base_weights":[-1.36753265E-2,4.055056E-2,-1.3732637E-1,1.04866E-1,-0E0,-1.7400073E-1,1.2616229E-2,1.7754267E-1,1.2296942E-2,-2.8144607E-2,2.0810288E-1,-5.257446E-1,-1.1074893E-1,7.844304E-3,2.8795747E-3,2.3687086E-3,-2.6866707E-3,2.0158216E-3,-3.0621018E-3,1.2425489E-2,-0E0,-8.3889095E-3,-2.6423067E-2,4.541686E-3,-5.753419E-3],"categories":[],"categories_nodes":[],"categories_segments":[],"categories_sizes":[],"default_left":[0,0,0,0,0,0,0,0,0,0,0,0,0,0,0,0,0,0,0,0,0,0,0,0,0],"id":47,"left_children":[1,3,5,7,9,11,-1,13,15,17,19,21,23,-1,-1,-1,-1,-1,-1,-1,-1,-1,-1,-1,-1],"loss_changes":[1.2299462E1,3.4164665E0,9.479426E0,2.947081E0,4.1090884E0,1.0261379E1,0E0,1.5085316E-1,9.594011E-1,2.901845E0,2.3384101E0,1.554575E0,4.3210206E0,0E0,0E0,0E0,0E0,0E0,0E0,0E0,0E0,0E0,0E0,0E0,0E0],"parents":[2147483647,0,0,1,1,2,2,3,3,4,4,5,5,7,7,8,8,9,9,10,10,11,11,12,12],"right_children":[2,4,6,8,10,12,-1,14,16,18,20,22,24,-1,-1,-1,-1,-1,-1,-1,-1,-1,-1,-1,-1],"split_conditions":[2.1175595E-7,1.2550653E-8,5E-2,-1.1030376E-1,1.2402539E0,-5.2018416E-1,1.2616229E-2,1.3297406E-1,9.627717E-9,-5.7757604E-1,1.9991269E0,-2.2796178E-1,5.1533397E-7,7.844304E-3,2.8795747E-3,2.3687086E-3,-2.6866707E-3,2.0158216E-3,-3.0621018E-3,1.2425489E-2,-0E0,-8.3889095E-3,-2.6423067E-2,4.541686E-3,-5.753419E-3],"split_indices":[8,8,4,20,20,10,0,12,8,20,20,20,8,0,0,0,0,0,0,0,0,0,0,0,0],"split_type":[0,0,0,0,0,0,0,0,0,0,0,0,0,0,0,0,0,0,0,0,0,0,0,0,0],"sum_hessian":[1.8E3,1.241E3,5.59E2,4.94E2,7.47E2,5.24E2,3.5E1,2.63E2,2.31E2,6.67E2,8E1,7.2E1,4.52E2,1.88E2,7.5E1,1.6E2,7.1E1,2.46E2,4.21E2,5.3E1,2.7E1,3.2E1,4E1,5.9E1,3.93E2],"tree_param":{"num_deleted":"0","num_feature":"23","num_nodes":"25","size_leaf_vector":"1"}},{"base_weights":[-5.541351E-3,5.229337E-2,-1.18566096E-1,-3.964536E-2,8.194975E-2,-1.5813932E-1,1.2806916E-2,2.9987594E-2,-2.1168087E-1,-5.8630344E-2,9.460243E-2,-3.8584685E-1,-5.696708E-2,2.83862E-3,-5.494314E-4,-1.1438397E-2,-0E0,7.363621E-4,-8.337E-3,-1.5343716E-3,3.985899E-3,-4.4487845E-3,-3.0692069E-2,-5.7957624E-4,-1.6682286E-2],"categories":[],"categories_nodes":[],"categories_segments":[],"categories_sizes":[],"default_left":[0,0,0,0,0,0,0,0,0,0,0,0,0,0,0,0,0,0,0,0,0,0,0,0,0],"id":48,"left_children":[1,3,5,7,9,11,-1,13,15,17,19,21,23,-1,-1,-1,-1,-1,-1,-1,-1,-1,-1,-1,-1],"loss_changes":[1.194836E1,3.3223615E0,1.0997581E1,3.6663623E0,1.7115159E0,1.2389714E1,0E0,4.9863535E-1,1.538121E0,1.2138517E0,1.2927461E0,1.7249058E1,5.586323E0,0E0,0E0,0E0,0E0,0E0,0E0,0E0,0E0,0E0,0E0,0E0,0E0],"parents":[2147483647,0,0,1,1,2,2,3,3,4,4,5,5,7,7,8,8,9,9,10,10,11,11,12,12],"right_children":[2,4,6,8,10,12,-1,14,16,18,20,22,24,-1,-1,-1,-1,-1,-1,-1,-1,-1,-1,-1,-1],"split_conditions":[1.1841951E-7,-1E-2,5E-2,2.6684502E-8,-5.328631E-1,-3.2367464E-2,1.2806916E-2,1.458453E-1,9.886169E-1,1.857214E-8,-1.3668369E0,2.5758243E-6,3.6141238E-1,2.83862E-3,-5.494314E-4,-1.1438397E-2,-0E0,7.363621E-4,-8.337E-3,-1.5343716E-3,3.985899E-3,-4.4487845E-3,-3.0692069E-2,-5.7957624E-4,-1.6682286E-2],"split_indices":[8,4,4,8,12,13,0,12,18,8,18,8,12,0,0,0,0,0,0,0,0,0,0,0,0],"split_type":[0,0,0,0,0,0,0,0,0,0,0,0,0,0,0,0,0,0,0,0,0,0,0,0,0],"sum_hessian":[1.802E3,1.181E3,6.21E2,2.71E2,9.1E2,5.77E2,4.4E1,1.86E2,8.5E1,6.1E1,8.49E2,1.69E2,4.08E2,1.15E2,7.1E1,5.8E1,2.7E1,3.4E1,2.7E1,4.4E1,8.05E2,1.08E2,6.1E1,3.75E2,3.3E1],"tree_param":{"num_deleted":"0","num_feature":"23","num_nodes":"25","size_leaf_vector":"1"}},{"base_weights":[-1.2390063E-3,1.2848701E-2,-7.951219E-3,6.255216E-4,-1.4564983E-2,1.873457E-1,-7.4791727E-3,-0E0,1.1752733E-2,-7.467191E-4,6.1141346E-3],"categories":[],"categories_nodes":[],"categories_segments":[],"categories_sizes":[],"default_left":[0,0,0,0,0,0,0,0,0,0,0],"id":49,"left_children":[1,-1,3,5,-1,7,9,-1,-1,-1,-1],"loss_changes":[3.4811044E0,0E0,6.555803E0,3.0284445E0,0E0,2.1679204E0,3.1287763E0,0E0,0E0,0E0,0E0],"parents":[2147483647,0,0,2,2,3,3,5,5,6,6],"right_children":[2,-1,4,6,-1,8,10,-1,-1,-1,-1],"split_conditions":[-7E-2,1.2848701E-2,1E0,-1.7614815E0,-1.4564983E-2,-1.6999817E-1,5E-2,-0E0,1.1752733E-2,-7.467191E-4,6.1141346E-3],"split_indices":[3,0,19,15,0,1,3,0,0,0,0],"split_type":[0,0,0,0,0,0,0,0,0,0,0],"sum_hessian":[1.823E3,2.7E1,1.796E3,1.753E3,4.3E1,8.1E1,1.672E3,3E1,5.1E1,1.573E3,9.9E1],"tree_param":{"num_deleted":"0","num_feature":"23","num_nodes":"11","size_leaf_vector":"1"}},{"base_weights":[9.321206E-5,2.530241E-2,-8.66081E-3,2.6959449E-3,-1.9406596E-2,2.3498554E-2,-6.438424E-2,3.2779148E-3,-6.269268E-4,-4.4308086E-3,1.2819924E-3],"categories":[],"categories_nodes":[],"categories_segments":[],"categories_sizes":[],"default_left":[0,0,0,0,0,0,0,0,0,0,0],"id":50,"left_children":[1,-1,3,5,-1,7,9,-1,-1,-1,-1],"loss_changes":[1.18804865E1,0E0,1.1199164E1,2.3562853E0,0E0,3.5380068E0,2.167142E0,0E0,0E0,0E0,0E0],"parents":[2147483647,0,0,2,2,3,3,5,5,6,6],"right_children":[2,-1,4,6,-1,8,10,-1,-1,-1,-1],"split_conditions":[-9E-2,2.530241E-2,9E-2,3E-2,-1.9406596E-2,5.597365E-1,9.134883E-1,3.2779148E-3,-6.269268E-4,-4.4308086E-3,1.2819924E-3],"split_indices":[0,0,0,0,0,16,16,0,0,0,0],"split_type":[0,0,0,0,0,0,0,0,0,0,0],"sum_hessian":[1.808E3,2.4E1,1.784E3,1.743E3,4.1E1,1.355E3,3.88E2,5.47E2,8.08E2,2.67E2,1.21E2],"tree_param":{"num_deleted":"0","num_feature":"23","num_nodes":"11","size_leaf_vector":"1"}},{"base_weights":[-6.124877E-4,-1.1429678E-1,2.0421997E-2,5.064402E-3,-1.7066483E-1,-0E0,1.1773329E-1,-3.5045502E-1,-9.639174E-2,-2.5800211E-2,1.6562358E-1,1.1061892E-2,3.836335E-1,-3.387947E-3,-1.755221E-2,3.5975992E-3,-7.4295783E-3,2.9901012E-3,-1.9456005E-3,-0E0,8.03214E-3,1.3371486E-2,-1.4629042E-3,3.5632215E-3,2.1444332E-2],"categories":[],"categories_nodes":[],"categories_segments":[],"categories_sizes":[],"default_left":[0,0,0,0,0,0,0,0,0,0,0,0,0,0,0,0,0,0,0,0,0,0,0,0,0],"id":51,"left_children":[1,3,5,-1,7,9,11,13,15,17,19,21,23,-1,-1,-1,-1,-1,-1,-1,-1,-1,-1,-1,-1],"loss_changes":[4.487282E0,4.2567134E0,3.2086215E0,0E0,2.31709E0,4.983916E0,7.0278945E0,6.0222435E-1,3.7847028E0,2.7830126E0,1.5808811E0,4.1315937E0,2.3467827E0,0E0,0E0,0E0,0E0,0E0,0E0,0E0,0E0,0E0,0E0,0E0,0E0],"parents":[2147483647,0,0,1,1,2,2,4,4,5,5,6,6,7,7,8,8,9,9,10,10,11,11,12,12],"right_children":[2,4,6,-1,8,10,12,14,16,18,20,22,24,-1,-1,-1,-1,-1,-1,-1,-1,-1,-1,-1,-1],"split_conditions":[-8.219895E-1,-1.8844748E0,5.975959E-2,5.064402E-3,-9.0005094E-1,1.12378955E-1,2.8316486E-1,-1.2588675E0,-2.9504815E-1,-1.8009554E-1,-2.6251462E-1,-4.3481758E-1,-4.643475E-2,-3.387947E-3,-1.755221E-2,3.5975992E-3,-7.4295783E-3,2.9901012E-3,-1.9456005E-3,-0E0,8.03214E-3,1.3371486E-2,-1.4629042E-3,3.5632215E-3,2.1444332E-2],"split_indices":[9,9,19,0,21,7,9,9,21,12,12,9,21,0,0,0,0,0,0,0,0,0,0,0,0],"split_type":[0,0,0,0,0,0,0,0,0,0,0,0,0,0,0,0,0,0,0,0,0,0,0,0,0],"sum_hessian":[1.791E3,2.93E2,1.498E3,4.7E1,2.46E2,1.224E3,2.74E2,6.1E1,1.85E2,1.071E3,1.53E2,2.03E2,7.1E1,2.5E1,3.6E1,5.6E1,1.29E2,1.92E2,8.79E2,2.4E1,1.29E2,2.9E1,1.74E2,3.3E1,3.8E1],"tree_param":{"num_deleted":"0","num_feature":"23","num_nodes":"25","size_leaf_vector":"1"}},{"base_weights":[8.4795477E-4,8.684777E-3,-1.3855482E-2,-1.8181961E-3,1.4455333E-1,-2.1171173E-1,5.21247E-3,-2.7879674E-2,3.1845814E-1,-0E0,-1.1864172E-2,6.7270217E-3,-3.734549E-5,9.490421E-3,-1.1647791E-2,2.1066349E-2,-0E0],"categories":[],"categories_nodes":[],"categories_segments":[],"categories_sizes":[],"default_left":[0,0,0,0,0,0,0,0,0,0,0,0,0,0,0,0,0],"id":52,"left_children":[1,3,-1,5,7,9,11,13,15,-1,-1,-1,-1,-1,-1,-1,-1],"loss_changes":[4.448626E0,2.8308241E0,0E0,2.8449147E0,4.864996E0,7.448263E-1,2.0357437E0,5.5209703E0,6.790527E0,0E0,0E0,0E0,0E0,0E0,0E0,0E0,0E0],"parents":[2147483647,0,0,1,1,3,3,4,4,5,5,6,6,7,7,8,8],"right_children":[2,4,-1,6,8,10,12,14,16,-1,-1,-1,-1,-1,-1,-1,-1],"split_conditions":[9.9320734E-1,9.3462455E-1,-1.3855482E-2,-1.8006282E0,7.8384005E-2,7.2520554E-5,-1.4028878E0,6.436577E-2,1.5903896E-1,-0E0,-1.1864172E-2,6.7270217E-3,-3.734549E-5,9.490421E-3,-1.1647791E-2,2.1066349E-2,-0E0],"split_indices":[5,22,0,14,5,19,14,5,5,0,0,0,0,0,0,0,0],"split_type":[0,0,0,0,0,0,0,0,0,0,0,0,0,0,0,0,0],"sum_hessian":[1.806E3,1.776E3,3E1,1.637E3,1.39E2,6E1,1.577E3,6.5E1,7.4E1,2.6E1,3.4E1,6.4E1,1.513E3,2.9E1,3.6E1,4.5E1,2.9E1],"tree_param":{"num_deleted":"0","num_feature":"23","num_nodes":"17","size_leaf_vector":"1"}},{"base_weights":[-9.593451E-3,2.03365E-3,-2.3962386E-2,5.506732E-2,-4.3555968E-2,-1.7815007E-2,1.5234734E-1,-3.0089881E-2,-1.0744117E-2,-8.081877E-3,4.3812546E-5,7.595892E-3,-7.0698373E-4,-2.1950924E-3,6.273216E-3],"categories":[],"categories_nodes":[],"categories_segments":[],"categories_sizes":[],"default_left":[0,0,0,0,0,0,0,0,0,0,0,0,0,0,0],"id":53,"left_children":[1,3,-1,5,7,9,11,13,-1,-1,-1,-1,-1,-1,-1],"loss_changes":[1.4331268E1,4.327806E0,0E0,6.2637167E0,2.3465981E0,2.1738305E0,3.3818064E0,4.617137E0,0E0,0E0,0E0,0E0,0E0,0E0,0E0],"parents":[2147483647,0,0,1,1,3,3,4,4,5,5,6,6,7,7],"right_children":[2,4,-1,6,8,10,12,14,-1,-1,-1,-1,-1,-1,-1],"split_conditions":[9E-2,0E0,-2.3962386E-2,-1.913498E-1,2.1341781E-1,-3.0850533E-1,1.5464914E0,1.0144492E-1,-1.0744117E-2,-8.081877E-3,4.3812546E-5,7.595892E-3,-7.0698373E-4,-2.1950924E-3,6.273216E-3],"split_indices":[0,0,0,10,7,12,17,7,0,0,0,0,0,0,0],"split_type":[0,0,0,0,0,0,0,0,0,0,0,0,0,0,0],"sum_hessian":[1.809E3,1.775E3,3.4E1,8.41E2,9.34E2,4.7E2,3.71E2,8.95E2,3.9E1,4.9E1,4.21E2,3E2,7.1E1,7.95E2,1E2],"tree_param":{"num_deleted":"0","num_feature":"23","num_nodes":"15","size_leaf_vector":"1"}},{"base_weights":[9.864857E-3,6.7270696E-2,-7.83071E-2,1.16682276E-1,3.6066383E-2,-3.080968E-1,-3.0942576E-4,7.980151E-2,1.2103236E-2,6.636638E-2,-5.1422924E-2,-3.6480784E-1,-0E0,-3.7107617E-2,1.902297E-2,-4.4127493E-3,3.964943E-3,1.6062623E-3,9.553994E-3,-4.2152368E-3,5.4840925E-3,-5.3752935E-3,-1.9180492E-2,3.8094812E-3,-5.360074E-3],"categories":[],"categories_nodes":[],"categories_segments":[],"categories_sizes":[],"default_left":[0,0,0,0,0,0,0,0,0,0,0,0,0,0,0,0,0,0,0,0,0,0,0,0,0],"id":54,"left_children":[1,3,5,7,9,11,13,15,-1,17,19,21,-1,23,-1,-1,-1,-1,-1,-1,-1,-1,-1,-1,-1],"loss_changes":[9.085125E0,1.3780956E0,1.1836788E1,2.0897975E0,1.9101468E0,3.1463432E0,8.821823E0,1.6719408E0,0E0,1.7951379E0,1.8898025E0,2.979618E0,0E0,7.200491E0,0E0,0E0,0E0,0E0,0E0,0E0,0E0,0E0,0E0,0E0,0E0],"parents":[2147483647,0,0,1,1,2,2,3,3,4,4,5,5,6,6,7,7,9,9,10,10,11,11,13,13],"right_children":[2,4,6,8,10,12,14,16,-1,18,20,22,-1,24,-1,-1,-1,-1,-1,-1,-1,-1,-1,-1,-1],"split_conditions":[8.019221E-8,-6.227594E-1,-2.3184378E-1,3.5060673E-8,3.2547018E-8,1.601465E-1,1.8099742E0,-1.5212015E0,1.2103236E-2,2.5760988E-8,8.343303E-1,-7.718347E-1,-0E0,3.4530913E-6,1.902297E-2,-4.4127493E-3,3.964943E-3,1.6062623E-3,9.553994E-3,-4.2152368E-3,5.4840925E-3,-5.3752935E-3,-1.9180492E-2,3.8094812E-3,-5.360074E-3],"split_indices":[8,17,17,8,8,10,14,14,0,8,14,17,0,8,0,0,0,0,0,0,0,0,0,0,0],"split_type":[0,0,0,0,0,0,0,0,0,0,0,0,0,0,0,0,0,0,0,0,0,0,0,0,0],"sum_hessian":[1.794E3,1.101E3,6.93E2,3.98E2,7.03E2,1.67E2,5.26E2,3.48E2,5E1,5.4E2,1.63E2,1.42E2,2.5E1,4.96E2,3E1,2.8E1,3.2E2,4.9E2,5E1,1.34E2,2.9E1,6.2E1,8E1,2.05E2,2.91E2],"tree_param":{"num_deleted":"0","num_feature":"23","num_nodes":"25","size_leaf_vector":"1"}},{"base_weights":[-9.283657E-3,-8.144331E-4,-1.04485825E-2,-9.435986E-3,1.0681502E-2,8.605197E-3,-7.0991024E-2,-1.5905113E-3,2.1482361E-3,7.831232E-5,-5.1136296E-3],"categories":[],"categories_nodes":[],"categories_segments":[],"categories_sizes":[],"default_left":[0,0,0,0,0,0,0,0,0,0,0],"id":55,"left_children":[1,3,-1,5,-1,7,9,-1,-1,-1,-1],"loss_changes":[3.4301572E0,3.657656E0,0E0,2.00894E0,0E0,3.128883E0,2.1628232E0,0E0,0E0,0E0,0E0],"parents":[2147483647,0,0,1,1,3,3,5,5,6,6],"right_children":[2,4,-1,6,-1,8,10,-1,-1,-1,-1],"split_conditions":[9.852811E-1,7E-2,-1.04485825E-2,2E-2,1.0681502E-2,7.8046024E-2,7.621381E-2,-1.5905113E-3,2.1482361E-3,7.831232E-5,-5.1136296E-3],"split_indices":[5,3,0,3,0,5,5,0,0,0,0],"split_type":[0,0,0,0,0,0,0,0,0,0,0],"sum_hessian":[1.777E3,1.732E3,4.5E1,1.69E3,4.2E1,1.283E3,4.07E2,6.04E2,6.79E2,1.75E2,2.32E2],"tree_param":{"num_deleted":"0","num_feature":"23","num_nodes":"11","size_leaf_vector":"1"}},{"base_weights":[-7.6751066E-3,2.5103267E-3,-1.8519185E-2,1.48582375E-2,-4.3172287E-3,2.2144208E-2,-1.30474E-1,3.6629275E-3,-1.5995071E-4,-2.0854415E-2,-1.5880686E-3],"categories":[],"categories_nodes":[],"categories_segments":[],"categories_sizes":[],"default_left":[0,0,0,0,0,0,0,0,0,0,0],"id":56,"left_children":[1,3,-1,-1,5,7,9,-1,-1,-1,-1],"loss_changes":[9.741642E0,5.4403524E0,0E0,0E0,5.9832034E0,2.9445367E0,1.03073635E1,0E0,0E0,0E0,0E0],"parents":[2147483647,0,0,1,1,4,4,5,5,6,6],"right_children":[2,4,-1,-1,6,8,10,-1,-1,-1,-1],"split_conditions":[9E-2,-8E-2,-1.8519185E-2,1.48582375E-2,2.5758243E-6,1.0972258E-8,6.7565015E-6,3.6629275E-3,-1.5995071E-4,-2.0854415E-2,-1.5880686E-3],"split_indices":[0,0,0,0,8,8,8,0,0,0,0],"split_type":[0,0,0,0,0,0,0,0,0,0,0],"sum_hessian":[1.793E3,1.754E3,3.9E1,3.3E1,1.721E3,1.411E3,3.1E2,3.89E2,1.022E3,4.8E1,2.62E2],"tree_param":{"num_deleted":"0","num_feature":"23","num_nodes":"11","size_leaf_vector":"1"}},{"base_weights":[7.28057E-3,1.966442E-2,-1.7056217E-2,9.985565E-3,2.187642E-2,3.6683362E-2,-1.10123135E-1,5.1864492E-5,3.7787433E-3,-1.330277E-4,-1.4825023E-2],"categories":[],"categories_nodes":[],"categories_segments":[],"categories_sizes":[],"default_left":[0,0,0,0,0,0,0,0,0,0,0],"id":57,"left_children":[1,3,-1,5,-1,7,9,-1,-1,-1,-1],"loss_changes":[9.331762E0,8.271475E0,0E0,5.448416E0,0E0,2.9762857E0,8.225802E0,0E0,0E0,0E0,0E0],"parents":[2147483647,0,0,1,1,3,3,5,5,6,6],"right_children":[2,4,-1,6,-1,8,10,-1,-1,-1,-1],"split_conditions":[9E-2,4.011E1,-1.7056217E-2,3.4530913E-6,2.187642E-2,1.82E1,1.94E1,5.1864492E-5,3.7787433E-3,-1.330277E-4,-1.4825023E-2],"split_indices":[0,2,0,8,0,2,2,0,0,0,0],"split_type":[0,0,0,0,0,0,0,0,0,0,0],"sum_hessian":[1.805E3,1.764E3,4.1E1,1.74E3,2.4E1,1.439E3,3.01E2,9.42E2,4.97E2,2.25E2,7.6E1],"tree_param":{"num_deleted":"0","num_feature":"23","num_nodes":"11","size_leaf_vector":"1"}},{"base_weights":[3.0389074E-3,1.27195865E-2,-2.6720086E-1,-6.8002075E-2,3.5838928E-2,-0E0,-1.8170388E-2,3.1599663E-2,-1.1879114E-1,-5.573294E-3,6.9970846E-2,-2.1351024E-3,6.597893E-3,3.0125068E-3,-6.5703574E-3,1.3684687E-3,-5.112026E-3,4.3915794E-4,6.937712E-3],"categories":[],"categories_nodes":[],"categories_segments":[],"categories_sizes":[],"default_left":[0,0,0,0,0,0,0,0,0,0,0,0,0,0,0,0,0,0,0],"id":58,"left_children":[1,3,5,7,9,-1,-1,11,13,15,17,-1,-1,-1,-1,-1,-1,-1,-1],"loss_changes":[4.1650324E0,3.1797264E0,2.384468E0,2.0479965E0,2.0701213E0,0E0,0E0,1.6626198E0,2.9620411E0,3.3863988E0,4.700549E0,0E0,0E0,0E0,0E0,0E0,0E0,0E0,0E0],"parents":[2147483647,0,0,1,1,2,2,3,3,4,4,7,7,8,8,9,9,10,10],"right_children":[2,4,6,8,10,-1,-1,12,14,16,18,-1,-1,-1,-1,-1,-1,-1,-1],"split_conditions":[9.4729316E-1,-9.746157E-1,1.1418091E-1,6.453473E-2,8.069927E-2,-0E0,-1.8170388E-2,6.328761E-2,-2.032561E-1,2.0014651E-2,-2.370285E-2,-2.1351024E-3,6.597893E-3,3.0125068E-3,-6.5703574E-3,1.3684687E-3,-5.112026E-3,4.3915794E-4,6.937712E-3],"split_indices":[5,6,10,5,5,0,0,5,7,7,7,0,0,0,0,0,0,0,0],"split_type":[0,0,0,0,0,0,0,0,0,0,0,0,0,0,0,0,0,0,0],"sum_hessian":[1.785E3,1.733E3,5.2E1,3.65E2,1.368E3,2.7E1,2.5E1,1.1E2,2.55E2,5.92E2,7.76E2,6E1,5E1,4.6E1,2.09E2,4.37E2,1.55E2,5.24E2,2.52E2],"tree_param":{"num_deleted":"0","num_feature":"23","num_nodes":"19","size_leaf_vector":"1"}},{"base_weights":[-0E0,1.0114732E-2,-1.3348163E-2,1.9306606E-1,-2.1215538E-3,-0E0,4.4128695E-1,-2.907754E-2,9.2089E-2,4.7783884E-3,-4.307126E-3,4.8460173E-3,2.522343E-2,-7.043481E-4,-5.9202593E-3,9.791923E-3,8.8267203E-4],"categories":[],"categories_nodes":[],"categories_segments":[],"categories_sizes":[],"default_left":[0,0,0,0,0,0,0,0,0,0,0,0,0,0,0,0,0],"id":59,"left_children":[1,3,-1,5,7,9,11,13,15,-1,-1,-1,-1,-1,-1,-1,-1],"loss_changes":[5.7824454E0,4.3599725E0,0E0,6.1054163E0,4.07763E0,1.0168658E0,1.9516449E0,1.3820081E0,3.4079103E0,0E0,0E0,0E0,0E0,0E0,0E0,0E0,0E0],"parents":[2147483647,0,0,1,1,3,3,4,4,5,5,6,6,7,7,8,8],"right_children":[2,4,-1,6,8,10,12,14,16,-1,-1,-1,-1,-1,-1,-1,-1],"split_conditions":[9E-2,-5E-2,-1.3348163E-2,3.1788006E-1,7.028737E-1,-1.7484717E-1,-3.262949E-1,5.182897E-1,9.55639E-1,4.7783884E-3,-4.307126E-3,4.8460173E-3,2.522343E-2,-7.043481E-4,-5.9202593E-3,9.791923E-3,8.8267203E-4],"split_indices":[0,0,0,17,14,14,14,14,14,0,0,0,0,0,0,0,0],"split_type":[0,0,0,0,0,0,0,0,0,0,0,0,0,0,0,0,0],"sum_hessian":[1.813E3,1.77E3,4.3E1,1.19E2,1.651E3,6.7E1,5.2E1,1.302E3,3.49E2,2.9E1,3.8E1,2.7E1,2.5E1,1.219E3,8.3E1,9.2E1,2.57E2],"tree_param":{"num_deleted":"0","num_feature":"23","num_nodes":"17","size_leaf_vector":"1"}},{"base_weights":[-7.27738E-3,-0E0,-1.8966955E-1,-2.9392574E-2,5.9294265E-2,-0E0,-1.47743905E-2,-5.62911E-2,6.2179826E-2,-3.238007E-2,1.1195492E-1,-2.3982218E-4,-5.3368355E-3,5.6572943E-3,-4.5359936E-3,5.050579E-3,-9.841798E-3,7.733115E-3,1.3531499E-3],"categories":[],"categories_nodes":[],"categories_segments":[],"categories_sizes":[],"default_left":[0,0,0,0,0,0,0,0,0,0,0,0,0,0,0,0,0,0,0],"id":60,"left_children":[1,3,5,7,9,-1,-1,11,13,15,17,-1,-1,-1,-1,-1,-1,-1,-1],"loss_changes":[2.443528E0,3.0955544E0,3.4187088E0,2.9225154E0,3.014042E0,0E0,0E0,3.6215935E0,4.0738316E0,7.8985357E0,2.1968207E0,0E0,0E0,0E0,0E0,0E0,0E0,0E0,0E0],"parents":[2147483647,0,0,1,1,2,2,3,3,4,4,7,7,8,8,9,9,10,10],"right_children":[2,4,6,8,10,-1,-1,12,14,16,18,-1,-1,-1,-1,-1,-1,-1,-1],"split_conditions":[2.4698932E0,3.262635E-2,1.2146577E-1,2.7048364E-1,-4.6230036E-1,-0E0,-1.47743905E-2,-7.070422E-2,1.3855599E0,-8.205099E-1,1.2808152E-1,-2.3982218E-4,-5.3368355E-3,5.6572943E-3,-4.5359936E-3,5.050579E-3,-9.841798E-3,7.733115E-3,1.3531499E-3],"split_indices":[6,6,10,10,10,0,0,7,10,10,10,0,0,0,0,0,0,0,0],"split_type":[0,0,0,0,0,0,0,0,0,0,0,0,0,0,0,0,0,0,0],"sum_hessian":[1.839E3,1.771E3,6.8E1,1.185E3,5.86E2,3.1E1,3.7E1,9.34E2,2.51E2,2E2,3.86E2,6.02E2,3.32E2,1.78E2,7.3E1,1.11E2,8.9E1,1.62E2,2.24E2],"tree_param":{"num_deleted":"0","num_feature":"23","num_nodes":"19","size_leaf_vector":"1"}},{"base_weights":[-4.31933E-3,2.0191478E-2,-1.3443145E-2,7.2625373E-3,-1.2547162E-1,-1.6026514E-2,1.0565994E-1,-1.2776792E-2,-2.9564172E-1,1.7980287E-3,-2.0638271E-3,9.616891E-3,-0E0,2.1083616E-3,-5.4999073E-3,-1.3658236E-3,-1.3086147E-2],"categories":[],"categories_nodes":[],"categories_segments":[],"categories_sizes":[],"default_left":[0,0,0,0,0,0,0,0,0,0,0,0,0,0,0,0,0],"id":61,"left_children":[1,-1,3,5,7,9,11,13,15,-1,-1,-1,-1,-1,-1,-1,-1],"loss_changes":[7.768772E0,0E0,4.379255E0,3.6060193E0,4.9902725E0,2.8942695E0,4.179497E0,1.8757529E0,5.536661E-1,0E0,0E0,0E0,0E0,0E0,0E0,0E0,0E0],"parents":[2147483647,0,0,2,2,3,3,4,4,5,5,6,6,7,7,8,8],"right_children":[2,-1,4,6,8,10,12,14,16,-1,-1,-1,-1,-1,-1,-1,-1],"split_conditions":[-9E-2,2.0191478E-2,4E-2,7.028737E-1,1.22537136E-1,-1.2000275E-1,-7.5021374E-1,1.2396339E-1,-9.7013366E-1,1.7980287E-3,-2.0638271E-3,9.616891E-3,-0E0,2.1083616E-3,-5.4999073E-3,-1.3658236E-3,-1.3086147E-2],"split_indices":[0,0,0,14,5,1,18,18,18,0,0,0,0,0,0,0,0],"split_type":[0,0,0,0,0,0,0,0,0,0,0,0,0,0,0,0,0],"sum_hessian":[1.804E3,2.4E1,1.78E3,1.489E3,2.91E2,1.189E3,3E2,1.84E2,1.07E2,4.27E2,7.62E2,1.16E2,1.84E2,1.12E2,7.2E1,2.4E1,8.3E1],"tree_param":{"num_deleted":"0","num_feature":"23","num_nodes":"17","size_leaf_vector":"1"}},{"base_weights":[-6.0825846E-3,-1.977332E-2,2.7490804E-1,-6.663726E-2,1.21954065E-2,-0E0,2.5717737E-2,-3.6026403E-2,-2.014447E-1,4.0833413E-4,8.640351E-3,-2.8923072E-3,2.7837376E-3,7.9930923E-4,-1.1283779E-2,-3.480192E-3,8.024268E-4],"categories":[],"categories_nodes":[],"categories_segments":[],"categories_sizes":[],"default_left":[0,0,0,0,0,0,0,0,0,0,0,0,0,0,0,0,0],"id":62,"left_children":[1,3,5,7,9,-1,-1,11,13,15,-1,-1,-1,-1,-1,-1,-1],"loss_changes":[6.48096E0,2.7227902E0,9.457357E0,2.5183804E0,2.0937364E0,0E0,0E0,2.6860604E0,3.1626978E0,1.7005085E0,0E0,0E0,0E0,0E0,0E0,0E0,0E0],"parents":[2147483647,0,0,1,1,2,2,3,3,4,4,7,7,8,8,9,9],"right_children":[2,4,6,8,10,-1,-1,12,14,16,-1,-1,-1,-1,-1,-1,-1],"split_conditions":[5E-2,0E0,-1.1605001E-2,1.4178576E0,5.476277E-1,-0E0,2.5717737E-2,1.8467987E-1,7.998075E-2,-2.9191098E-1,8.640351E-3,-2.8923072E-3,2.7837376E-3,7.9930923E-4,-1.1283779E-2,-3.480192E-3,8.024268E-4],"split_indices":[4,4,6,6,5,0,0,5,5,12,0,0,0,0,0,0,0],"split_type":[0,0,0,0,0,0,0,0,0,0,0,0,0,0,0,0,0],"sum_hessian":[1.814E3,1.739E3,7.5E1,7.3E2,1.009E3,4.4E1,3.1E1,6.1E2,1.2E2,9.68E2,4.1E1,4.61E2,1.49E2,3E1,9E1,1.58E2,8.1E2],"tree_param":{"num_deleted":"0","num_feature":"23","num_nodes":"17","size_leaf_vector":"1"}},{"base_weights":[6.151634E-3,-0E0,1.1036245E-2,1.1096886E-2,-8.171217E-3,-0E0,-1.9939953E-2,-2.4821504E-4,9.554202E-3],"categories":[],"categories_nodes":[],"categories_segments":[],"categories_sizes":[],"default_left":[0,0,0,0,0,0,0,0,0],"id":63,"left_children":[1,3,-1,-1,5,7,-1,-1,-1],"loss_changes":[3.593129E0,3.7310805E0,0E0,0E0,8.276206E0,3.2535322E0,0E0,0E0,0E0],"parents":[2147483647,0,0,1,1,4,4,5,5],"right_children":[2,4,-1,-1,6,8,-1,-1,-1],"split_conditions":[7E-2,-6E-2,1.1036245E-2,1.1096886E-2,1E0,9.9038416E-1,-1.9939953E-2,-2.4821504E-4,9.554202E-3],"split_indices":[3,3,0,0,19,19,0,0,0],"split_type":[0,0,0,0,0,0,0,0,0],"sum_hessian":[1.793E3,1.752E3,4.1E1,4E1,1.712E3,1.684E3,2.8E1,1.636E3,4.8E1],"tree_param":{"num_deleted":"0","num_feature":"23","num_nodes":"9","size_leaf_vector":"1"}},{"base_weights":[-1.1336405E-3,-6.046171E-2,2.19158E-2,1.00397244E-1,-9.640837E-2,-8.7489046E-2,4.792336E-2,-0E0,1.6132838E-1,-0E0,-1.4653394E-1,-2.3308745E-1,-6.070455E-3,3.7049796E-2,1.2900257E-2,-0E0,1.1102607E-2,-4.2011812E-3,6.70205E-3,-2.5657571E-3,-1.7273296E-2,-1.2349199E-3,-1.2807238E-2,-3.8214615E-3,2.8586236E-3,3.996048E-3,-0E0],"categories":[],"categories_nodes":[],"categories_segments":[],"categories_sizes":[],"default_left":[0,0,0,0,0,0,0,0,0,0,0,0,0,0,0,0,0,0,0,0,0,0,0,0,0,0,0],"id":64,"left_children":[1,3,5,7,9,11,13,-1,15,17,19,21,23,25,-1,-1,-1,-1,-1,-1,-1,-1,-1,-1,-1,-1,-1],"loss_changes":[2.5460384E0,3.0798755E0,3.5568995E0,6.948112E-1,1.9790449E0,2.2410975E0,2.5064464E0,0E0,1.2779588E0,3.1295667E0,5.770535E0,7.4017906E-1,1.2914139E0,2.6017206E0,0E0,0E0,0E0,0E0,0E0,0E0,0E0,0E0,0E0,0E0,0E0,0E0,0E0],"parents":[2147483647,0,0,1,1,2,2,3,3,4,4,5,5,6,6,8,8,9,9,10,10,11,11,12,12,13,13],"right_children":[2,4,6,8,10,12,14,-1,16,18,20,22,24,26,-1,-1,-1,-1,-1,-1,-1,-1,-1,-1,-1,-1,-1],"split_conditions":[-5.990867E-1,7.999899E-9,5.1770974E-9,1.4268223E-5,-1.2538035E0,4.864073E-1,5.758594E-1,-0E0,7.4995244E-1,7.0410315E-4,4.5228633E-3,8.3430395E-2,2.3838717E-1,-3.7635546E-2,1.2900257E-2,-0E0,1.1102607E-2,-4.2011812E-3,6.70205E-3,-2.5657571E-3,-1.7273296E-2,-1.2349199E-3,-1.2807238E-2,-3.8214615E-3,2.8586236E-3,3.996048E-3,-0E0],"split_indices":[21,19,19,11,21,16,11,0,16,19,19,16,21,12,0,0,0,0,0,0,0,0,0,0,0,0,0],"split_type":[0,0,0,0,0,0,0,0,0,0,0,0,0,0,0,0,0,0,0,0,0,0,0,0,0,0,0],"sum_hessian":[1.799E3,5.27E2,1.272E3,8.5E1,4.42E2,2.28E2,1.044E3,2.7E1,5.8E1,1.6E2,2.82E2,7.1E1,1.57E2,1.016E3,2.8E1,2.7E1,3.1E1,1.03E2,5.7E1,2.32E2,5E1,3.2E1,3.9E1,8.4E1,7.3E1,3.61E2,6.55E2],"tree_param":{"num_deleted":"0","num_feature":"23","num_nodes":"27","size_leaf_vector":"1"}},{"base_weights":[6.894931E-3,2.5715914E-2,-1.9245802E-3,6.5487E-3,-1.4119153E-2,8.331668E-2,-9.8709585E-3,-1.6321635E-3,5.4710456E-3,2.6539457E-3,-1.4336571E-3],"categories":[],"categories_nodes":[],"categories_segments":[],"categories_sizes":[],"default_left":[0,0,0,0,0,0,0,0,0,0,0],"id":65,"left_children":[1,-1,3,5,-1,7,9,-1,-1,-1,-1],"loss_changes":[1.2054052E1,0E0,6.3350134E0,2.351526E0,0E0,2.7289443E0,3.0707204E0,0E0,0E0,0E0,0E0],"parents":[2147483647,0,0,2,2,3,3,5,5,6,6],"right_children":[2,-1,4,6,-1,8,10,-1,-1,-1,-1],"split_conditions":[-9E-2,2.5715914E-2,9E-2,6.453473E-2,-1.4119153E-2,-8.115428E-1,-2E-2,-1.6321635E-3,5.4710456E-3,2.6539457E-3,-1.4336571E-3],"split_indices":[0,0,0,5,0,18,0,0,0,0,0],"split_type":[0,0,0,0,0,0,0,0,0,0,0],"sum_hessian":[1.809E3,2.4E1,1.785E3,1.742E3,4.3E1,3.27E2,1.415E3,9.5E1,2.32E2,3.46E2,1.069E3],"tree_param":{"num_deleted":"0","num_feature":"23","num_nodes":"11","size_leaf_vector":"1"}},{"base_weights":[-5.052678E-3,-0E0,-2.2089042E-1,-1.6030869E-2,1.6759515E-1,4.2589245E-4,-1.9351665E-2,-6.7374796E-2,3.2845174E-3,6.513809E-2,1.4119822E-2,-4.767004E-3,3.883996E-3,1.9413406E-3,-1.3894764E-3,8.619345E-3,-9.400847E-5],"categories":[],"categories_nodes":[],"categories_segments":[],"categories_sizes":[],"default_left":[0,0,0,0,0,0,0,0,0,0,0,0,0,0,0,0,0],"id":66,"left_children":[1,3,5,7,9,-1,-1,11,13,15,-1,-1,-1,-1,-1,-1,-1],"loss_changes":[2.4237745E0,5.0974646E0,4.4037294E0,1.7408975E0,2.5108075E0,0E0,0E0,4.701667E0,2.218713E0,1.7729409E0,0E0,0E0,0E0,0E0,0E0,0E0,0E0],"parents":[2147483647,0,0,1,1,2,2,3,3,4,4,7,7,8,8,9,9],"right_children":[2,4,6,8,10,-1,-1,12,14,16,-1,-1,-1,-1,-1,-1,-1],"split_conditions":[1E0,8.576522E-1,-1.8925081E-1,6.8829214E-4,5.975959E-2,4.2589245E-4,-1.9351665E-2,2.2978587E-4,8.943283E-3,9.9439436E-5,1.4119822E-2,-4.767004E-3,3.883996E-3,1.9413406E-3,-1.3894764E-3,8.619345E-3,-9.400847E-5],"split_indices":[19,22,7,22,19,0,0,19,22,19,0,0,0,0,0,0,0],"split_type":[0,0,0,0,0,0,0,0,0,0,0,0,0,0,0,0,0],"sum_hessian":[1.832E3,1.784E3,4.8E1,1.62E3,1.64E2,2.4E1,2.4E1,4.7E2,1.15E3,1.18E2,4.6E1,3.6E2,1.1E2,5.46E2,6.04E2,4.2E1,7.6E1],"tree_param":{"num_deleted":"0","num_feature":"23","num_nodes":"17","size_leaf_vector":"1"}},{"base_weights":[3.325107E-3,1.0911047E-2,-1.09513085E-2,1.3191578E-3,1.8183854E-1,-1.1212242E-2,9.140396E-2,2.437487E-2,1.5644332E-2,-3.6758976E-3,1.8358022E-4,1.0540912E-2,-7.377841E-4,-9.387489E-4,5.4065394E-3],"categories":[],"categories_nodes":[],"categories_segments":[],"categories_sizes":[],"default_left":[0,0,0,0,0,0,0,0,0,0,0,0,0,0,0],"id":67,"left_children":[1,3,-1,5,7,9,11,13,-1,-1,-1,-1,-1,-1,-1],"loss_changes":[3.4671266E0,2.5555623E0,0E0,2.0933404E0,2.0965588E0,2.21254E0,5.232085E0,5.810807E-1,0E0,0E0,0E0,0E0,0E0,0E0,0E0],"parents":[2147483647,0,0,1,1,3,3,4,4,5,5,6,6,7,7],"right_children":[2,4,-1,6,8,10,12,14,-1,-1,-1,-1,-1,-1,-1],"split_conditions":[8.699951E-1,1.8099742E0,-1.09513085E-2,8.922814E-1,5.000305E-2,-2.9000092E-1,1.3562524E0,1.0104551E0,1.5644332E-2,-3.6758976E-3,1.8358022E-4,1.0540912E-2,-7.377841E-4,-9.387489E-4,5.4065394E-3],"split_indices":[1,14,0,10,1,1,10,15,0,0,0,0,0,0,0],"split_type":[0,0,0,0,0,0,0,0,0,0,0,0,0,0,0],"sum_hessian":[1.822E3,1.785E3,3.7E1,1.704E3,8.1E1,1.478E3,2.26E2,5.5E1,2.6E1,2.52E2,1.226E3,9E1,1.36E2,2.8E1,2.7E1],"tree_param":{"num_deleted":"0","num_feature":"23","num_nodes":"15","size_leaf_vector":"1"}},{"base_weights":[6.323531E-3,7.2420195E-2,-4.9758896E-2,2.7289048E-1,-0E0,-2.8421202E-1,-2.5608167E-2,-0E0,4.389769E-1,8.741245E-2,-3.657454E-2,-5.104986E-1,1.2986615E-3,-4.5849036E-2,1.4249536E-1,5.6700595E-3,-4.720561E-3,1.894422E-2,5.60069E-3,5.744184E-3,-7.8787245E-3,-6.6165393E-3,-3.5255845E-4,-6.262935E-3,-2.8282609E-2,-3.691053E-3,4.7060935E-4,8.312572E-3,-0E0],"categories":[],"categories_nodes":[],"categories_segments":[],"categories_sizes":[],"default_left":[0,0,0,0,0,0,0,0,0,0,0,0,0,0,0,0,0,0,0,0,0,0,0,0,0,0,0,0,0],"id":68,"left_children":[1,3,5,7,9,11,13,15,17,19,21,23,-1,25,27,-1,-1,-1,-1,-1,-1,-1,-1,-1,-1,-1,-1,-1,-1],"loss_changes":[6.7490892E0,1.2213588E1,4.7920413E0,1.0061144E1,2.0231428E0,6.900262E0,2.822737E0,1.6686382E0,8.469486E-1,3.464611E0,1.271918E0,1.9666891E0,0E0,2.5537844E0,1.1676884E0,0E0,0E0,0E0,0E0,0E0,0E0,0E0,0E0,0E0,0E0,0E0,0E0,0E0,0E0],"parents":[2147483647,0,0,1,1,2,2,3,3,4,4,5,5,6,6,7,7,8,8,9,9,10,10,11,11,13,13,14,14],"right_children":[2,4,6,8,10,12,14,16,18,20,22,24,-1,26,28,-1,-1,-1,-1,-1,-1,-1,-1,-1,-1,-1,-1,-1,-1],"split_conditions":[0E0,3.479661E-1,1.7829085E-2,7.8046024E-2,6.4885265E-1,3.4313935E-1,5E-2,6.403652E-2,6.513349E-1,7.733634E-1,7.897481E-1,8.741572E-2,1.2986615E-3,8.715152E-1,2.7070254E-1,5.6700595E-3,-4.720561E-3,1.894422E-2,5.60069E-3,5.744184E-3,-7.8787245E-3,-6.6165393E-3,-3.5255845E-4,-6.262935E-3,-2.8282609E-2,-3.691053E-3,4.7060935E-4,8.312572E-3,-0E0],"split_indices":[0,16,16,5,16,21,3,5,5,21,16,5,0,16,5,0,0,0,0,0,0,0,0,0,0,0,0,0,0],"split_type":[0,0,0,0,0,0,0,0,0,0,0,0,0,0,0,0,0,0,0,0,0,0,0,0,0,0,0,0,0],"sum_hessian":[1.803E3,8.44E2,9.59E2,2.21E2,6.23E2,7.9E1,8.8E2,8.5E1,1.36E2,1.85E2,4.38E2,4.9E1,3E1,7.98E2,8.2E1,3.9E1,4.6E1,1.06E2,3E1,1.59E2,2.6E1,5.8E1,3.8E2,2.5E1,2.4E1,4.43E2,3.55E2,5.8E1,2.4E1],"tree_param":{"num_deleted":"0","num_feature":"23","num_nodes":"29","size_leaf_vector":"1"}},{"base_weights":[-7.894406E-3,6.486843E-2,-6.4508796E-2,7.8403614E-2,-0E0,8.305412E-3,-7.8405805E-2,1.6223863E-1,5.4176882E-2,-6.347648E-2,3.1027268E-3,-5.6106105E-2,-2.8595418E-1,-0E0,9.1055175E-3,3.6272376E-3,-0E0,-0E0,-5.1046982E-3,2.9106098E-3,-3.7402813E-3,-1.3683869E-2,-2.2824774E-4],"categories":[],"categories_nodes":[],"categories_segments":[],"categories_sizes":[],"default_left":[0,0,0,0,0,0,0,0,0,0,0,0,0,0,0,0,0,0,0,0,0,0,0],"id":69,"left_children":[1,3,5,7,9,-1,11,13,15,17,-1,19,21,-1,-1,-1,-1,-1,-1,-1,-1,-1,-1],"loss_changes":[7.514376E0,7.616E-1,3.8487883E0,8.7389374E-1,6.460008E-1,0E0,3.8938456E0,1.2458403E0,1.2461349E0,5.3822136E-1,0E0,5.1728396E0,1.0432138E0,0E0,0E0,0E0,0E0,0E0,0E0,0E0,0E0,0E0,0E0],"parents":[2147483647,0,0,1,1,2,2,3,3,4,4,6,6,7,7,8,8,9,9,11,11,12,12],"right_children":[2,4,6,8,10,-1,12,14,16,18,-1,20,22,-1,-1,-1,-1,-1,-1,-1,-1,-1,-1],"split_conditions":[2.1752545E-8,1.1203432E0,-1.7614815E0,5.4661745E-1,9.2973757E-1,8.305412E-3,1.6396172E0,-1.1228823E-1,1.0972258E-8,1.01786135E-8,3.1027268E-3,1.3004053E-1,5.044783E-1,-0E0,9.1055175E-3,3.6272376E-3,-0E0,-0E0,-5.1046982E-3,2.9106098E-3,-3.7402813E-3,-1.3683869E-2,-2.2824774E-4],"split_indices":[8,6,15,16,16,0,6,15,8,8,0,16,15,0,0,0,0,0,0,0,0,0,0],"split_type":[0,0,0,0,0,0,0,0,0,0,0,0,0,0,0,0,0,0,0,0,0,0,0],"sum_hessian":[1.819E3,7.8E2,1.039E3,6.57E2,1.23E2,4E1,9.99E2,1.25E2,5.32E2,7.6E1,4.7E1,9.14E2,8.5E1,4.7E1,7.8E1,3.08E2,2.24E2,3.1E1,4.5E1,2.08E2,7.06E2,6.1E1,2.4E1],"tree_param":{"num_deleted":"0","num_feature":"23","num_nodes":"23","size_leaf_vector":"1"}},{"base_weights":[6.0258806E-3,5.6679845E-2,-4.9920168E-2,2.1719936E-2,1.5781057E-1,8.99872E-2,-1.2760893E-1,7.466346E-2,-1.7640464E-2,-5.205723E-4,2.0857349E-1,-3.3449929E-3,4.7311592E-1,-4.0709022E-1,-9.1649204E-2,-0E0,4.225321E-3,1.6384036E-3,-3.445185E-3,8.969706E-3,-0E0,-3.4175366E-3,5.8340915E-3,2.0071117E-3,2.7378324E-2,-0E0,-2.5218103E-2,-9.186115E-3,-0E0],"categories":[],"categories_nodes":[],"categories_segments":[],"categories_sizes":[],"default_left":[0,0,0,0,0,0,0,0,0,0,0,0,0,0,0,0,0,0,0,0,0,0,0,0,0,0,0,0,0],"id":70,"left_children":[1,3,5,7,9,11,13,15,17,-1,19,21,23,25,27,-1,-1,-1,-1,-1,-1,-1,-1,-1,-1,-1,-1,-1,-1],"loss_changes":[5.1467543E0,3.0518885E0,9.255141E0,1.6593416E0,2.4398918E0,1.142924E1,4.4254456E0,7.9438615E-1,1.8887699E0,0E0,5.9773636E-1,3.0631657E0,4.6833467E0,4.6387863E0,6.5443864E0,0E0,0E0,0E0,0E0,0E0,0E0,0E0,0E0,0E0,0E0,0E0,0E0,0E0,0E0],"parents":[2147483647,0,0,1,1,2,2,3,3,4,4,5,5,6,6,7,7,8,8,10,10,11,11,12,12,13,13,14,14],"right_children":[2,4,6,8,10,12,14,16,18,-1,20,22,24,26,28,-1,-1,-1,-1,-1,-1,-1,-1,-1,-1,-1,-1,-1,-1],"split_conditions":[4.1007407E-8,8.620839E-3,-1.1999512E-1,1.0972258E-8,-3.6999512E-1,9.468016E-1,5.2502356E-4,-1.1000061E-1,8.677669E-1,-5.205723E-4,9.853514E-1,-2.3000336E-1,-3.6999512E-1,4.016477E-1,-9.225419E-3,-0E0,4.225321E-3,1.6384036E-3,-3.445185E-3,8.969706E-3,-0E0,-3.4175366E-3,5.8340915E-3,2.0071117E-3,2.7378324E-2,-0E0,-2.5218103E-2,-9.186115E-3,-0E0],"split_indices":[8,22,1,8,1,22,22,1,16,0,16,1,1,16,12,0,0,0,0,0,0,0,0,0,0,0,0,0,0],"split_type":[0,0,0,0,0,0,0,0,0,0,0,0,0,0,0,0,0,0,0,0,0,0,0,0,0,0,0,0,0],"sum_hessian":[1.806E3,9.67E2,8.39E2,7.36E2,2.31E2,2.9E2,5.49E2,3.35E2,4.01E2,4.4E1,1.87E2,2.31E2,5.9E1,5.3E1,4.96E2,1.2E2,2.15E2,2.04E2,1.97E2,1.57E2,3E1,1.58E2,7.3E1,2.6E1,3.3E1,2.4E1,2.9E1,1.82E2,3.14E2],"tree_param":{"num_deleted":"0","num_feature":"23","num_nodes":"29","size_leaf_vector":"1"}},{"base_weights":[-1.8939392E-3,5.8313194E-3,-1.4499461E-2,-0E0,1.5492509E-2,-4.7578525E-2,2.9142981E-2,-6.976391E-4,-9.217928E-3,-1.0966293E-4,4.868443E-3],"categories":[],"categories_nodes":[],"categories_segments":[],"categories_sizes":[],"default_left":[0,0,0,0,0,0,0,0,0,0,0],"id":71,"left_children":[1,3,-1,5,-1,7,9,-1,-1,-1,-1],"loss_changes":[6.083575E0,4.839405E0,0E0,2.4608192E0,0E0,3.3675609E0,3.6190176E0,0E0,0E0,0E0,0E0],"parents":[2147483647,0,0,1,1,3,3,5,5,6,6],"right_children":[2,4,-1,6,-1,8,10,-1,-1,-1,-1],"split_conditions":[9E-2,8.4737E-1,-1.4499461E-2,0E0,1.5492509E-2,5E-2,5.1630277E-4,-6.976391E-4,-9.217928E-3,-1.0966293E-4,4.868443E-3],"split_indices":[0,11,0,4,0,0,19,0,0,0,0],"split_type":[0,0,0,0,0,0,0,0,0,0,0],"sum_hessian":[1.813E3,1.774E3,3.9E1,1.747E3,2.7E1,6.85E2,1.062E3,6.07E2,7.8E1,7.88E2,2.74E2],"tree_param":{"num_deleted":"0","num_feature":"23","num_nodes":"11","size_leaf_vector":"1"}},{"base_weights":[-7.68728E-3,2.2580689E-2,-1.4117941E-1,-1.6796771E-2,8.434909E-2,-4.682542E-1,-2.7818698E-2,3.9859127E-2,-8.169293E-2,2.2333507E-1,4.769857E-2,-1.3437419E-3,-3.6781374E-2,-1.34235965E-2,9.22537E-3,3.2966428E-3,-0E0,-6.874653E-3,-5.65352E-4,2.2858921E-3,1.818428E-2,1.0096029E-3,1.1668291E-2,-9.976593E-4,8.0415895E-3],"categories":[],"categories_nodes":[],"categories_segments":[],"categories_sizes":[],"default_left":[0,0,0,0,0,0,0,0,0,0,0,0,0,0,0,0,0,0,0,0,0,0,0,0,0],"id":72,"left_children":[1,3,5,7,9,11,13,15,17,19,21,-1,-1,-1,23,-1,-1,-1,-1,-1,-1,-1,-1,-1,-1],"loss_changes":[7.4820886E0,3.665407E0,1.16920185E1,3.2805552E0,2.395585E0,1.5865343E1,3.867464E0,8.657263E-1,2.3768167E0,3.3728752E0,1.916036E0,0E0,0E0,0E0,2.0553877E0,0E0,0E0,0E0,0E0,0E0,0E0,0E0,0E0,0E0,0E0],"parents":[2147483647,0,0,1,1,2,2,3,3,4,4,5,5,6,6,7,7,8,8,9,9,10,10,14,14],"right_children":[2,4,6,8,10,12,14,16,18,20,22,-1,-1,-1,24,-1,-1,-1,-1,-1,-1,-1,-1,-1,-1],"split_conditions":[3.4530913E-6,2.3838717E-1,-1.1362349E-2,2.0764132E-8,-8.5112846E-1,3.4819048E-5,7.753709E-6,-1.6445385E-1,0E0,-1.0460964E0,5E-2,-1.3437419E-3,-3.6781374E-2,-1.34235965E-2,2E-2,3.2966428E-3,-0E0,-6.874653E-3,-5.65352E-4,2.2858921E-3,1.818428E-2,1.0096029E-3,1.1668291E-2,-9.976593E-4,8.0415895E-3],"split_indices":[8,21,12,8,20,8,8,20,4,20,4,0,0,0,4,0,0,0,0,0,0,0,0,0,0],"split_type":[0,0,0,0,0,0,0,0,0,0,0,0,0,0,0,0,0,0,0,0,0,0,0,0,0],"sum_hessian":[1.787E3,1.446E3,3.41E2,8.64E2,5.82E2,8.1E1,2.6E2,4.45E2,4.19E2,1.07E2,4.75E2,4.7E1,3.4E1,3E1,2.3E2,2.08E2,2.37E2,1.55E2,2.64E2,7.2E1,3.5E1,4.49E2,2.6E1,1.89E2,4.1E1],"tree_param":{"num_deleted":"0","num_feature":"23","num_nodes":"25","size_leaf_vector":"1"}},{"base_weights":[6.3360897E-3,1.2717322E-2,-9.787675E-3,5.7309545E-3,1.1375175E-2,6.3462555E-2,-1.7826091E-2,-5.599662E-4,5.439961E-3,8.29961E-4,-3.2139968E-3],"categories":[],"categories_nodes":[],"categories_segments":[],"categories_sizes":[],"default_left":[0,0,0,0,0,0,0,0,0,0,0],"id":73,"left_children":[1,3,-1,5,-1,7,9,-1,-1,-1,-1],"loss_changes":[2.4967077E0,2.8610184E0,0E0,2.4282138E0,0E0,3.507483E0,3.2809067E0,0E0,0E0,0E0,0E0],"parents":[2147483647,0,0,1,1,3,3,5,5,6,6],"right_children":[2,4,-1,6,-1,8,10,-1,-1,-1,-1],"split_conditions":[9.9320734E-1,2.1804247E0,-9.787675E-3,-2.7900827E-1,1.1375175E-2,-7.464742E-1,6.735965E-4,-5.599662E-4,5.439961E-3,8.29961E-4,-3.2139968E-3],"split_indices":[5,15,0,15,0,15,20,0,0,0,0],"split_type":[0,0,0,0,0,0,0,0,0,0,0],"sum_hessian":[1.776E3,1.744E3,3.2E1,1.712E3,3.2E1,5.2E2,1.192E3,2.5E2,2.7E2,7.29E2,4.63E2],"tree_param":{"num_deleted":"0","num_feature":"23","num_nodes":"11","size_leaf_vector":"1"}},{"base_weights":[-1.1175159E-2,8.158997E-2,-4.3652944E-2,9.764866E-3,1.2939985E-1,-1.3475426E-1,5.03563E-3,3.2413922E-2,-2.2333516E-3,1.4911425E-1,-0E0,-5.696311E-2,-2.9008576E-1,2.1967577E-2,-1.2143285E-2,2.4245386E-3,-9.5617824E-4,3.5133867E-3,9.559652E-3,-3.848788E-3,5.4530823E-3,-2.3114877E-3,-1.4577251E-2,-1.0201464E-3,4.2762086E-3],"categories":[],"categories_nodes":[],"categories_segments":[],"categories_sizes":[],"default_left":[0,0,0,0,0,0,0,0,0,0,0,0,0,0,0,0,0,0,0,0,0,0,0,0,0],"id":74,"left_children":[1,3,5,7,9,11,13,15,-1,17,-1,19,21,23,-1,-1,-1,-1,-1,-1,-1,-1,-1,-1,-1],"loss_changes":[5.392899E0,1.273191E0,6.3023624E0,2.636948E-1,8.699832E-1,5.15092E0,4.2059326E0,3.9839733E-1,0E0,5.787854E-1,0E0,2.9279904E0,2.2928085E0,3.8769705E0,0E0,0E0,0E0,0E0,0E0,0E0,0E0,0E0,0E0,0E0,0E0],"parents":[2147483647,0,0,1,1,2,2,3,3,4,4,5,5,6,6,7,7,9,9,11,11,12,12,13,13],"right_children":[2,4,6,8,10,12,14,16,-1,18,-1,20,22,24,-1,-1,-1,-1,-1,-1,-1,-1,-1,-1,-1],"split_conditions":[1.1923626E-8,1.9328852E-5,-3.0705786E-1,1.6783135E-5,1.5669054E0,1.10310346E-7,9.4729316E-1,9.921464E-9,-2.2333516E-3,4.0666562E-1,-0E0,1.7965256E-1,-8.899836E-1,6.059597E-3,-1.2143285E-2,2.4245386E-3,-9.5617824E-4,3.5133867E-3,9.559652E-3,-3.848788E-3,5.4530823E-3,-2.3114877E-3,-1.4577251E-2,-1.0201464E-3,4.2762086E-3],"split_indices":[8,11,10,11,21,8,5,8,0,21,0,5,10,11,0,0,0,0,0,0,0,0,0,0,0],"split_type":[0,0,0,0,0,0,0,0,0,0,0,0,0,0,0,0,0,0,0,0,0,0,0,0,0],"sum_hessian":[1.81E3,4.52E2,1.358E3,1.99E2,2.53E2,4.86E2,8.72E2,1.73E2,2.6E1,2.29E2,2.4E1,3.35E2,1.51E2,8.37E2,3.5E1,1.35E2,3.8E1,1.63E2,6.6E1,2.84E2,5.1E1,5.1E1,1E2,5.3E2,3.07E2],"tree_param":{"num_deleted":"0","num_feature":"23","num_nodes":"25","size_leaf_vector":"1"}},{"base_weights":[-0E0,-4.739379E-3,1.0152901E-2,1.50377555E-5,-1.2556288E-2,-1.4946355E-2,1.0499527E-1,-1.2176381E-3,8.385959E-3,8.28563E-3,-5.4839137E-3],"categories":[],"categories_nodes":[],"categories_segments":[],"categories_sizes":[],"default_left":[0,0,0,0,0,0,0,0,0,0,0],"id":75,"left_children":[1,3,-1,5,-1,7,9,-1,-1,-1,-1],"loss_changes":[2.7120056E0,3.3961613E0,0E0,