{"learner":{"attributes":{"scikit_learn":"{\"_estimator_type\": \"regressor\"}"},"feature_names":["real_rate_change","dxy_change","vix","yield_spread_change","inflation_exp_change","vix_regime_probability","vix_mean_reversion_z","vix_persistence","tech_trend_regime_prob","tech_mean_reversion_z","tech_volatility_regime","xasset_regime_prob","xasset_recession_signal","xasset_divergence","yc_spread_velocity_z","yc_curvature_z","etf_regime_prob","etf_capital_intensity","etf_pv_divergence","ie_regime_prob","ie_anchoring_z","ie_gold_sensitivity_z"],"feature_types":["float","float","float","float","float","float","float","float","float","float","float","float","float","float","float","float","float","float","float","float","float","float"],"gradient_booster":{"model":{"cats":{"enc":[],"feature_segments":[],"sorted_idx":[]},"gbtree_model_param":{"num_parallel_tree":"1","num_trees":"300"},"iteration_indptr":[0,1,2,3,4,5,6,7,8,9,10,11,12,13,14,15,16,17,18,19,20,21,22,23,24,25,26,27,28,29,30,31,32,33,34,35,36,37,38,39,40,41,42,43,44,45,46,47,48,49,50,51,52,53,54,55,56,57,58,59,60,61,62,63,64,65,66,67,68,69,70,71,72,73,74,75,76,77,78,79,80,81,82,83,84,85,86,87,88,89,90,91,92,93,94,95,96,97,98,99,100,101,102,103,104,105,106,107,108,109,110,111,112,113,114,115,116,117,118,119,120,121,122,123,124,125,126,127,128,129,130,131,132,133,134,135,136,137,138,139,140,141,142,143,144,145,146,147,148,149,150,151,152,153,154,155,156,157,158,159,160,161,162,163,164,165,166,167,168,169,170,171,172,173,174,175,176,177,178,179,180,181,182,183,184,185,186,187,188,189,190,191,192,193,194,195,196,197,198,199,200,201,202,203,204,205,206,207,208,209,210,211,212,213,214,215,216,217,218,219,220,221,222,223,224,225,226,227,228,229,230,231,232,233,234,235,236,237,238,239,240,241,242,243,244,245,246,247,248,249,250,251,252,253,254,255,256,257,258,259,260,261,262,263,264,265,266,267,268,269,270,271,272,273,274,275,276,277,278,279,280,281,282,283,284,285,286,287,288,289,290,291,292,293,294,295,296,297,298,299,300],"tree_info":[0,0,0,0,0,0,0,0,0,0,0,0,0,0,0,0,0,0,0,0,0,0,0,0,0,0,0,0,0,0,0,0,0,0,0,0,0,0,0,0,0,0,0,0,0,0,0,0,0,0,0,0,0,0,0,0,0,0,0,0,0,0,0,0,0,0,0,0,0,0,0,0,0,0,0,0,0,0,0,0,0,0,0,0,0,0,0,0,0,0,0,0,0,0,0,0,0,0,0,0,0,0,0,0,0,0,0,0,0,0,0,0,0,0,0,0,0,0,0,0,0,0,0,0,0,0,0,0,0,0,0,0,0,0,0,0,0,0,0,0,0,0,0,0,0,0,0,0,0,0,0,0,0,0,0,0,0,0,0,0,0,0,0,0,0,0,0,0,0,0,0,0,0,0,0,0,0,0,0,0,0,0,0,0,0,0,0,0,0,0,0,0,0,0,0,0,0,0,0,0,0,0,0,0,0,0,0,0,0,0,0,0,0,0,0,0,0,0,0,0,0,0,0,0,0,0,0,0,0,0,0,0,0,0,0,0,0,0,0,0,0,0,0,0,0,0,0,0,0,0,0,0,0,0,0,0,0,0,0,0,0,0,0,0,0,0,0,0,0,0,0,0,0,0,0,0,0,0,0,0,0,0,0,0,0,0,0,0,0,0,0,0,0,0,0,0,0,0,0,0],"trees":[{"base_weights":[-3.4101661E-3,1.9231578E-2,-6.101424E-1,6.407613E-2,-1.302868E-1,1.5266725E-2,-9.1137755E-1,3.190911E-3,4.0850542E-2,-6.1268443E-3,-4.8743516E-2,-1.1197614E-1,-9.317493E-3],"categories":[],"categories_nodes":[],"categories_segments":[],"categories_sizes":[],"default_left":[0,0,0,0,0,0,0,0,0,0,0,0,0],"id":0,"left_children":[1,3,5,7,9,-1,11,-1,-1,-1,-1,-1,-1],"loss_changes":[2.0031425E1,8.471978E0,1.5421772E1,9.791319E0,5.2134166E0,0E0,3.8288727E0,0E0,0E0,0E0,0E0,0E0,0E0],"parents":[2147483647,0,0,1,1,2,2,3,3,4,4,6,6],"right_children":[2,4,6,8,10,-1,12,-1,-1,-1,-1,-1,-1],"split_conditions":[5.426043E-5,3E-2,-3E-2,2.6551746E-2,2.4934325E-6,1.5266725E-2,1.0504851E-1,3.190911E-3,4.0850542E-2,-6.1268443E-3,-4.8743516E-2,-1.1197614E-1,-9.317493E-3],"split_indices":[8,0,0,19,8,0,16,0,0,0,0,0,0],"split_type":[0,0,0,0,0,0,0,0,0,0,0,0,0],"sum_hessian":[1.32E3,1.275E3,4.5E1,9.99E2,2.76E2,1.1E1,3.4E1,9.34E2,6.5E1,2.48E2,2.8E1,2.1E1,1.3E1],"tree_param":{"num_deleted":"0","num_feature":"22","num_nodes":"13","size_leaf_vector":"1"}},{"base_weights":[-0E0,8.3426915E-2,-1.3727373E-2,3.3705514E-2,-4.4909436E-1,1.0501443E-2,-4.329042E-3,4.0682717E-3,-7.437999E-2],"categories":[],"categories_nodes":[],"categories_segments":[],"categories_sizes":[],"default_left":[0,0,0,0,0,0,0,0,0],"id":1,"left_children":[1,-1,3,5,7,-1,-1,-1,-1],"loss_changes":[1.6243767E1,0E0,2.8232983E1,7.108801E0,2.3395653E1,0E0,0E0,0E0,0E0],"parents":[2147483647,0,0,2,2,3,3,4,4],"right_children":[2,-1,4,6,8,-1,-1,-1,-1],"split_conditions":[-9E-2,8.3426915E-2,2.8925374E-6,2.0940043E-8,0E0,1.0501443E-2,-4.329042E-3,4.0682717E-3,-7.437999E-2],"split_indices":[0,0,8,8,0,0,0,0,0],"split_type":[0,0,0,0,0,0,0,0,0],"sum_hessian":[1.31E3,1.4E1,1.296E3,1.169E3,1.27E2,6.16E2,5.53E2,4.9E1,7.8E1],"tree_param":{"num_deleted":"0","num_feature":"22","num_nodes":"9","size_leaf_vector":"1"}},{"base_weights":[3.5575088E-3,2.1233667E-2,-5.8531386E-1,1.0973283E-1,-5.211554E-2,-0E0,-9.242515E-2,6.957449E-3,3.7304375E-2,1.072669E-2,-1.1649506E-2],"categories":[],"categories_nodes":[],"categories_segments":[],"categories_sizes":[],"default_left":[0,0,0,0,0,0,0,0,0,0,0],"id":2,"left_children":[1,3,5,7,9,-1,-1,-1,-1,-1,-1],"loss_changes":[1.2420602E1,8.73644E0,5.9698105E0,4.8988905E0,7.9553723E0,0E0,0E0,0E0,0E0,0E0,0E0],"parents":[2147483647,0,0,1,1,2,2,3,3,4,4],"right_children":[2,4,6,8,10,-1,-1,-1,-1,-1,-1],"split_conditions":[9E-2,0E0,4.4157367E-2,5.7625595E-2,-6.304873E-1,-0E0,-9.242515E-2,6.957449E-3,3.7304375E-2,1.072669E-2,-1.1649506E-2],"split_indices":[0,0,19,19,20,0,0,0,0,0,0],"split_type":[0,0,0,0,0,0,0,0,0,0,0],"sum_hessian":[1.333E3,1.306E3,2.7E1,6.08E2,6.98E2,1.5E1,1.2E1,5.52E2,5.6E1,1.92E2,5.06E2],"tree_param":{"num_deleted":"0","num_feature":"22","num_nodes":"11","size_leaf_vector":"1"}},{"base_weights":[1.2367298E-2,1.5180559E-3,5.7040945E-2,1.0039931E-1,-3.7149586E-2,1.939849E-2,7.678681E-5,4.857252E-4,-1.3089821E-2],"categories":[],"categories_nodes":[],"categories_segments":[],"categories_sizes":[],"default_left":[0,0,0,0,0,0,0,0,0],"id":3,"left_children":[1,3,-1,5,7,-1,-1,-1,-1],"loss_changes":[6.5856333E0,5.23704E0,0E0,3.3222396E0,4.219859E0,0E0,0E0,0E0,0E0],"parents":[2147483647,0,0,1,1,3,3,4,4],"right_children":[2,4,-1,6,8,-1,-1,-1,-1],"split_conditions":[3.6206968E0,-5.988485E-1,5.7040945E-2,-6.661338E-16,3.5385752E-1,1.939849E-2,7.678681E-5,4.857252E-4,-1.3089821E-2],"split_indices":[20,20,0,3,15,0,0,0,0],"split_type":[0,0,0,0,0,0,0,0,0],"sum_hessian":[1.319E3,1.307E3,1.2E1,3.85E2,9.22E2,1.74E2,2.11E2,6.29E2,2.93E2],"tree_param":{"num_deleted":"0","num_feature":"22","num_nodes":"9","size_leaf_vector":"1"}},{"base_weights":[1.6604196E-3,3.926918E-2,-2.9936728E-1,2.4121816E-1,4.363991E-3,3.5454372E-1,-5.988473E-1,4.286625E-2,5.1497575E-3,1.23246545E-2,-5.36488E-3,-1.7696504E-2,7.05249E-2,-9.548406E-2,-2.2529624E-3],"categories":[],"categories_nodes":[],"categories_segments":[],"categories_sizes":[],"default_left":[0,0,0,0,0,0,0,0,0,0,0,0,0,0,0],"id":4,"left_children":[1,3,5,7,9,11,13,-1,-1,-1,-1,-1,-1,-1,-1],"loss_changes":[1.4345789E1,7.6970253E0,2.9646866E1,4.582244E0,7.875001E0,1.1722267E1,1.9524593E1,0E0,0E0,0E0,0E0,0E0,0E0,0E0,0E0],"parents":[2147483647,0,0,1,1,2,2,3,3,4,4,5,5,6,6],"right_children":[2,4,6,8,10,12,14,-1,-1,-1,-1,-1,-1,-1,-1],"split_conditions":[2.8925374E-6,1.11783996E-1,-2E-2,-1.1966434E-1,1.1034778E-8,-1.7676534E-1,3.2669905E-1,4.286625E-2,5.1497575E-3,1.23246545E-2,-5.36488E-3,-1.7696504E-2,7.05249E-2,-9.548406E-2,-2.2529624E-3],"split_indices":[8,16,0,7,8,20,13,0,0,0,0,0,0,0,0],"split_type":[0,0,0,0,0,0,0,0,0,0,0,0,0,0,0],"sum_hessian":[1.318E3,1.186E3,1.32E2,1.56E2,1.03E3,3.8E1,9.4E1,6.3E1,9.3E1,3.5E2,6.8E2,1.4E1,2.4E1,5E1,4.4E1],"tree_param":{"num_deleted":"0","num_feature":"22","num_nodes":"15","size_leaf_vector":"1"}},{"base_weights":[-7.795976E-3,1.7133744E-2,-5.459362E-1,-2.1576067E-2,1.7289701E-1,1.6018422E-2,-8.446108E-1,4.991556E-3,-9.40591E-3,2.0618666E-2,-3.9492818E-3,-8.290958E-3,-1.2808378E-1],"categories":[],"categories_nodes":[],"categories_segments":[],"categories_sizes":[],"default_left":[0,0,0,0,0,0,0,0,0,0,0,0,0],"id":5,"left_children":[1,3,5,7,9,-1,11,-1,-1,-1,-1,-1,-1],"loss_changes":[1.9541143E1,8.186191E0,1.6736198E1,5.7857738E0,2.8700285E0,0E0,1.3046589E1,0E0,0E0,0E0,0E0,0E0,0E0],"parents":[2147483647,0,0,1,1,2,2,3,3,4,4,6,6],"right_children":[2,4,6,8,10,-1,12,-1,-1,-1,-1,-1,-1],"split_conditions":[3.1798958E-5,7.4267745E-1,-1E-2,1.9585523E-8,5.239518E-1,1.6018422E-2,9.2481606E-2,4.991556E-3,-9.40591E-3,2.0618666E-2,-3.9492818E-3,-8.290958E-3,-1.2808378E-1],"split_indices":[8,9,3,8,12,0,5,0,0,0,0,0,0],"split_type":[0,0,0,0,0,0,0,0,0,0,0,0,0],"sum_hessian":[1.33E3,1.273E3,5.7E1,1.01E3,2.63E2,1.5E1,4.2E1,4.95E2,5.15E2,2.33E2,3E1,2.2E1,2E1],"tree_param":{"num_deleted":"0","num_feature":"22","num_nodes":"13","size_leaf_vector":"1"}},{"base_weights":[5.958488E-3,3.066028E-2,-1.9609234E-1,-1.6701229E-2,1.3944064E-1,5.1877763E-2,-3.3979684E-1,4.952751E-3,-1.1642404E-2,-2.1252384E-4,2.142022E-2,-4.659466E-2,2.5873596E-2],"categories":[],"categories_nodes":[],"categories_segments":[],"categories_sizes":[],"default_left":[0,0,0,0,0,0,0,0,0,0,0,0,0],"id":6,"left_children":[1,3,5,7,9,-1,11,-1,-1,-1,-1,-1,-1],"loss_changes":[6.224113E0,6.593221E0,1.4856276E1,6.0671487E0,5.0942626E0,0E0,1.183153E1,0E0,0E0,0E0,0E0,0E0,0E0],"parents":[2147483647,0,0,1,1,2,2,3,3,4,4,6,6],"right_children":[2,4,6,8,10,-1,12,-1,-1,-1,-1,-1,-1],"split_conditions":[2.8925374E-6,1.805E1,-4E-2,2.1479877E-8,-6.6949254E-1,5.1877763E-2,1.6704541E0,4.952751E-3,-1.1642404E-2,-2.1252384E-4,2.142022E-2,-4.659466E-2,2.5873596E-2],"split_indices":[8,2,3,8,21,0,14,0,0,0,0,0,0],"split_type":[0,0,0,0,0,0,0,0,0,0,0,0,0],"sum_hessian":[1.326E3,1.2E3,1.26E2,8.22E2,3.78E2,1.4E1,1.12E2,4.82E2,3.4E2,1.28E2,2.5E2,9.6E1,1.6E1],"tree_param":{"num_deleted":"0","num_feature":"22","num_nodes":"13","size_leaf_vector":"1"}},{"base_weights":[-2.7171984E-2,-4.5809496E-2,5.461085E-1,-4.52775E-3,-4.1174313E-1,-0E0,9.5617905E-2,1.4277525E-2,-3.052632E-3,-5.0857604E-2,4.5260894E-3],"categories":[],"categories_nodes":[],"categories_segments":[],"categories_sizes":[],"default_left":[0,0,0,0,0,0,0,0,0,0,0],"id":7,"left_children":[1,3,5,7,9,-1,-1,-1,-1,-1,-1],"loss_changes":[1.2951849E1,1.8416664E1,1.1757014E1,4.5472755E0,8.030159E0,0E0,0E0,0E0,0E0,0E0,0E0],"parents":[2147483647,0,0,1,1,2,2,3,3,4,4],"right_children":[2,4,6,8,10,-1,-1,-1,-1,-1,-1],"split_conditions":[6.8136466E-1,2.8925374E-6,5.948169E-1,1.11783996E-1,8.7363386E-1,-0E0,9.5617905E-2,1.4277525E-2,-3.052632E-3,-5.0857604E-2,4.5260894E-3],"split_indices":[11,8,18,16,16,0,0,0,0,0,0],"split_type":[0,0,0,0,0,0,0,0,0,0,0],"sum_hessian":[1.322E3,1.292E3,3E1,1.175E3,1.17E2,1.4E1,1.6E1,1.56E2,1.019E3,9.8E1,1.9E1],"tree_param":{"num_deleted":"0","num_feature":"22","num_nodes":"11","size_leaf_vector":"1"}},{"base_weights":[-3.8756608E-4,2.868475E-2,-2.401353E-1,-3.0763138E-2,1.0761306E-1,-0E0,-4.321265E-1,6.3689384E-3,-1.226201E-2,3.189482E-3,3.0734729E-2,-6.0867976E-2,-0E0],"categories":[],"categories_nodes":[],"categories_segments":[],"categories_sizes":[],"default_left":[0,0,0,0,0,0,0,0,0,0,0,0,0],"id":8,"left_children":[1,3,5,7,9,-1,11,-1,-1,-1,-1,-1,-1],"loss_changes":[9.880676E0,5.762762E0,8.373344E0,6.299218E0,7.170789E0,0E0,8.201347E0,0E0,0E0,0E0,0E0,0E0,0E0],"parents":[2147483647,0,0,1,1,2,2,3,3,4,4,6,6],"right_children":[2,4,6,8,10,-1,12,-1,-1,-1,-1,-1,-1],"split_conditions":[5E-2,-2.0011953E-1,3.689959E-8,2.0940043E-8,9.395635E-8,-0E0,5.6662095E-1,6.3689384E-3,-1.226201E-2,3.189482E-3,3.0734729E-2,-6.0867976E-2,-0E0],"split_indices":[0,6,8,8,8,0,14,0,0,0,0,0,0],"split_type":[0,0,0,0,0,0,0,0,0,0,0,0,0],"sum_hessian":[1.315E3,1.168E3,1.47E2,6.48E2,5.2E2,6.2E1,8.5E1,3.09E2,3.39E2,4E2,1.2E2,5.7E1,2.8E1],"tree_param":{"num_deleted":"0","num_feature":"22","num_nodes":"13","size_leaf_vector":"1"}},{"base_weights":[-2.2971528E-3,1.5894242E-2,-3.383884E-1,-6.0389205E-3,3.207741E-1,2.1110268E-1,-7.391976E-1,2.2167496E-3,-1.3511372E-2,-3.4440684E-3,4.4434533E-2,-4.729808E-2,8.199347E-2,-9.510951E-2,-0E0],"categories":[],"categories_nodes":[],"categories_segments":[],"categories_sizes":[],"default_left":[0,0,0,0,0,0,0,0,0,0,0,0,0,0,0],"id":9,"left_children":[1,3,5,7,9,11,13,-1,-1,-1,-1,-1,-1,-1,-1],"loss_changes":[9.198066E0,9.452549E0,1.979121E1,4.9465737E0,5.9901276E0,1.9965616E1,1.0086594E1,0E0,0E0,0E0,0E0,0E0,0E0,0E0,0E0],"parents":[2147483647,0,0,1,1,2,2,3,3,4,4,5,5,6,6],"right_children":[2,4,6,8,10,12,14,-1,-1,-1,-1,-1,-1,-1,-1],"split_conditions":[2.330442E-5,7.1692667E-3,-1.4338794E-1,1.1864811E-7,-6.468821E-1,-2.0599085E-1,1.9603751E0,2.2167496E-3,-1.3511372E-2,-3.4440684E-3,4.4434533E-2,-4.729808E-2,8.199347E-2,-9.510951E-2,-0E0],"split_indices":[8,11,15,8,10,12,14,0,0,0,0,0,0,0,0],"split_type":[0,0,0,0,0,0,0,0,0,0,0,0,0,0,0],"sum_hessian":[1.338E3,1.268E3,7E1,1.181E3,8.7E1,2.8E1,4.2E1,9.58E2,2.23E2,2E1,6.7E1,1.2E1,1.6E1,3.1E1,1.1E1],"tree_param":{"num_deleted":"0","num_feature":"22","num_nodes":"15","size_leaf_vector":"1"}},{"base_weights":[4.779635E-3,-1.3313263E-2,4.3878108E-1,-1.1122656E-1,2.8763043E-2,-0E0,6.4920896E-1,-0E0,-1.6810756E-2,-1.0642672E-2,8.256985E-3,9.962289E-4,7.5778484E-2],"categories":[],"categories_nodes":[],"categories_segments":[],"categories_sizes":[],"default_left":[0,0,0,0,0,0,0,0,0,0,0,0,0],"id":10,"left_children":[1,3,5,7,9,-1,11,-1,-1,-1,-1,-1,-1],"loss_changes":[1.1861362E1,5.599724E0,5.8604E0,2.813651E0,6.9776864E0,0E0,1.1841602E0,0E0,0E0,0E0,0E0,0E0,0E0],"parents":[2147483647,0,0,1,1,2,2,3,3,4,4,6,6],"right_children":[2,4,6,8,10,-1,12,-1,-1,-1,-1,-1,-1],"split_conditions":[5E-2,-5.542553E-1,1.2511169E-4,-1.3221931E0,-7.2925365E-1,-0E0,-4.39195E-1,-0E0,-1.6810756E-2,-1.0642672E-2,8.256985E-3,9.962289E-4,7.5778484E-2],"split_indices":[4,14,11,14,21,0,21,0,0,0,0,0,0],"split_type":[0,0,0,0,0,0,0,0,0,0,0,0,0],"sum_hessian":[1.341E3,1.288E3,5.3E1,4.04E2,8.84E2,1.9E1,3.4E1,1.49E2,2.55E2,2.39E2,6.45E2,1.1E1,2.3E1],"tree_param":{"num_deleted":"0","num_feature":"22","num_nodes":"13","size_leaf_vector":"1"}},{"base_weights":[9.627604E-3,-3.8551097E-3,3.733288E-1,-2.6647357E-2,1.7347623E-1,-1.0526679E-2,5.911629E-1,7.806899E-4,-1.8798541E-2,-2.6763964E-3,2.3810709E-2,-0E0,8.091402E-2],"categories":[],"categories_nodes":[],"categories_segments":[],"categories_sizes":[],"default_left":[0,0,0,0,0,0,0,0,0,0,0,0,0],"id":11,"left_children":[1,3,5,7,9,-1,11,-1,-1,-1,-1,-1,-1],"loss_changes":[7.640916E0,4.827586E0,7.7137904E0,7.3135953E0,2.622675E0,0E0,4.7028522E0,0E0,0E0,0E0,0E0,0E0,0E0],"parents":[2147483647,0,0,1,1,2,2,3,3,4,4,6,6],"right_children":[2,4,6,8,10,-1,12,-1,-1,-1,-1,-1,-1],"split_conditions":[5E-2,1.1843579E0,1.477E1,1.6176493E-3,-8.9306027E-1,-1.0526679E-2,-5.4899734E-2,7.806899E-4,-1.8798541E-2,-2.6763964E-3,2.3810709E-2,-0E0,8.091402E-2],"split_indices":[4,9,2,11,21,0,21,0,0,0,0,0,0],"split_type":[0,0,0,0,0,0,0,0,0,0,0,0,0],"sum_hessian":[1.331E3,1.283E3,4.8E1,1.157E3,1.26E2,1.2E1,3.6E1,9.5E2,2.07E2,2.4E1,1.02E2,1.5E1,2.1E1],"tree_param":{"num_deleted":"0","num_feature":"22","num_nodes":"13","size_leaf_vector":"1"}},{"base_weights":[5.081981E-4,-1.5079772E-1,3.829525E-2,-2.3705582E-1,1.2139001E-1,-0E0,1.5257995E-1,-1.0243418E-2,-6.2769264E-2,-0E0,2.4865983E-2,-3.5734533E-3,1.7093727E-2,1.9397317E-2,-2.9115826E-2],"categories":[],"categories_nodes":[],"categories_segments":[],"categories_sizes":[],"default_left":[0,0,0,0,0,0,0,0,0,0,0,0,0,0,0],"id":12,"left_children":[1,3,5,7,9,11,13,-1,-1,-1,-1,-1,-1,-1,-1],"loss_changes":[7.080727E0,6.2704973E0,4.8966923E0,7.858409E0,1.3927798E0,4.872705E0,6.135415E0,0E0,0E0,0E0,0E0,0E0,0E0,0E0,0E0],"parents":[2147483647,0,0,1,1,2,2,3,3,4,4,5,5,6,6],"right_children":[2,4,6,8,10,12,14,-1,-1,-1,-1,-1,-1,-1,-1],"split_conditions":[-8.219895E-1,1.2666982E0,2.7307275E-1,1.1565244E0,1.481E1,1.7661767E-1,3.053E1,-1.0243418E-2,-6.2769264E-2,-0E0,2.4865983E-2,-3.5734533E-3,1.7093727E-2,1.9397317E-2,-2.9115826E-2],"split_indices":[9,13,10,10,2,5,2,0,0,0,0,0,0,0,0],"split_type":[0,0,0,0,0,0,0,0,0,0,0,0,0,0,0],"sum_hessian":[1.28E3,2.36E2,1.044E3,1.88E2,4.8E1,7.75E2,2.69E2,1.55E2,3.3E1,2.2E1,2.6E1,6.55E2,1.2E2,2.53E2,1.6E1],"tree_param":{"num_deleted":"0","num_feature":"22","num_nodes":"15","size_leaf_vector":"1"}},{"base_weights":[1.993751E-2,3.4321997E-2,-4.7748873E-1,1.252587E-2,2.7880433E-1,-0E0,-6.952746E-2,-1.4995664E-3,1.4413704E-2,8.3877124E-2,7.2187004E-3],"categories":[],"categories_nodes":[],"categories_segments":[],"categories_sizes":[],"default_left":[0,0,0,0,0,0,0,0,0,0,0],"id":13,"left_children":[1,3,5,7,9,-1,-1,-1,-1,-1,-1],"loss_changes":[8.444721E0,6.1486745E0,3.6843357E0,5.0857735E0,8.378712E0,0E0,0E0,0E0,0E0,0E0,0E0],"parents":[2147483647,0,0,1,1,2,2,3,3,4,4],"right_children":[2,4,6,8,10,-1,-1,-1,-1,-1,-1],"split_conditions":[9E-2,1.1227832E-2,6.809928E-1,8.0901444E-1,-3E-2,-0E0,-6.952746E-2,-1.4995664E-3,1.4413704E-2,8.3877124E-2,7.2187004E-3],"split_indices":[0,11,17,9,3,0,0,0,0,0,0],"split_type":[0,0,0,0,0,0,0,0,0,0,0],"sum_hessian":[1.334E3,1.309E3,2.5E1,1.22E3,8.9E1,1.1E1,1.4E1,1E3,2.2E2,1.3E1,7.6E1],"tree_param":{"num_deleted":"0","num_feature":"22","num_nodes":"11","size_leaf_vector":"1"}},{"base_weights":[1.5935913E-2,7.813629E-2,6.392162E-4,4.1112203E-2,-1.2637307E-1,-1.3353345E-3,8.727916E-3,-4.2959075E-2,-6.2169433E-3],"categories":[],"categories_nodes":[],"categories_segments":[],"categories_sizes":[],"default_left":[0,0,0,0,0,0,0,0,0],"id":14,"left_children":[1,-1,3,5,7,-1,-1,-1,-1],"loss_changes":[1.3697275E1,0E0,6.53559E0,2.9652429E0,4.2672324E0,0E0,0E0,0E0,0E0],"parents":[2147483647,0,0,2,2,3,3,4,4],"right_children":[2,-1,4,6,8,-1,-1,-1,-1],"split_conditions":[-9E-2,7.813629E-2,3E-2,1.52E1,1.7829085E-2,-1.3353345E-3,8.727916E-3,-4.2959075E-2,-6.2169433E-3],"split_indices":[0,0,0,2,16,0,0,0,0],"split_type":[0,0,0,0,0,0,0,0,0],"sum_hessian":[1.318E3,1.4E1,1.304E3,1.01E3,2.94E2,4.51E2,5.59E2,3.3E1,2.61E2],"tree_param":{"num_deleted":"0","num_feature":"22","num_nodes":"9","size_leaf_vector":"1"}},{"base_weights":[5.426142E-3,2.8450495E-2,-1.691771E-1,1.5993725E-1,-3.1912131E-3,6.6162557E-3,-5.510727E-1,2.9591825E-2,3.1511986E-3,2.1520248E-3,-1.8148763E-2,-1.1923598E-2,4.640479E-2,-7.082592E-2,-0E0],"categories":[],"categories_nodes":[],"categories_segments":[],"categories_sizes":[],"default_left":[0,0,0,0,0,0,0,0,0,0,0,0,0,0,0],"id":15,"left_children":[1,3,5,7,9,11,13,-1,-1,-1,-1,-1,-1,-1,-1],"loss_changes":[4.9473352E0,5.405324E0,1.10360775E1,3.557735E0,4.945026E0,7.5120454E0,5.56022E0,0E0,0E0,0E0,0E0,0E0,0E0,0E0,0E0],"parents":[2147483647,0,0,1,1,2,2,3,3,4,4,5,5,6,6],"right_children":[2,4,6,8,10,12,14,-1,-1,-1,-1,-1,-1,-1,-1],"split_conditions":[2.8925374E-6,2.6530072E-1,3.5385752E-1,-1.1966434E-1,1.1864811E-7,4E-2,7.968303E-1,2.9591825E-2,3.1511986E-3,2.1520248E-3,-1.8148763E-2,-1.1923598E-2,4.640479E-2,-7.082592E-2,-0E0],"split_indices":[8,16,15,7,8,4,13,0,0,0,0,0,0,0,0],"split_type":[0,0,0,0,0,0,0,0,0,0,0,0,0,0,0],"sum_hessian":[1.315E3,1.182E3,1.33E2,2.41E2,9.41E2,9.1E1,4.2E1,9.7E1,1.44E2,8.19E2,1.22E2,7.1E1,2E1,3.1E1,1.1E1],"tree_param":{"num_deleted":"0","num_feature":"22","num_nodes":"15","size_leaf_vector":"1"}},{"base_weights":[-6.847091E-3,6.9031596E-2,-2.1090861E-2,-1.027085E-2,-3.8219664E-2,-4.6912874E-3,5.5756173E-3],"categories":[],"categories_nodes":[],"categories_segments":[],"categories_sizes":[],"default_left":[0,0,0,0,0,0,0],"id":16,"left_children":[1,-1,3,5,-1,-1,-1],"loss_changes":[1.1465609E1,0E0,4.007485E0,3.2744896E0,0E0,0E0,0E0],"parents":[2147483647,0,0,2,2,3,3],"right_children":[2,-1,4,6,-1,-1,-1],"split_conditions":[-9E-2,6.9031596E-2,9.999994E-1,3.345693E-1,-3.8219664E-2,-4.6912874E-3,5.5756173E-3],"split_indices":[0,0,19,13,0,0,0],"split_type":[0,0,0,0,0,0,0],"sum_hessian":[1.295E3,1.4E1,1.281E3,1.26E3,2.1E1,8.35E2,4.25E2],"tree_param":{"num_deleted":"0","num_feature":"22","num_nodes":"7","size_leaf_vector":"1"}},{"base_weights":[-1.322756E-2,6.2664196E-2,-2.6691224E-2,-8.725601E-3,-5.8911675E-1,-2.8826906E-3,2.013857E-2,-9.4026394E-2,-0E0],"categories":[],"categories_nodes":[],"categories_segments":[],"categories_sizes":[],"default_left":[0,0,0,0,0,0,0,0,0],"id":17,"left_children":[1,-1,3,5,7,-1,-1,-1,-1],"loss_changes":[1.014771E1,0E0,1.1508859E1,5.3880987E0,8.916595E0,0E0,0E0,0E0,0E0],"parents":[2147483647,0,0,2,2,3,3,4,4],"right_children":[2,-1,4,6,8,-1,-1,-1,-1],"split_conditions":[-9E-2,6.2664196E-2,6.8290083E-4,7.1692667E-3,6.4345396E-1,-2.8826906E-3,2.013857E-2,-9.4026394E-2,-0E0],"split_indices":[0,0,8,11,14,0,0,0,0],"split_type":[0,0,0,0,0,0,0,0,0],"sum_hessian":[1.321E3,1.5E1,1.306E3,1.278E3,2.8E1,1.183E3,9.5E1,1.5E1,1.3E1],"tree_param":{"num_deleted":"0","num_feature":"22","num_nodes":"9","size_leaf_vector":"1"}},{"base_weights":[1.1951356E-2,-1.3735179E-3,3.6013073E-1,6.529312E-3,-4.661515E-2,-0E0,5.957727E-1,-2.3866764E-3,1.0470994E-2,-1.3611748E-2,1.2440447E-2,-0E0,8.213078E-2],"categories":[],"categories_nodes":[],"categories_segments":[],"categories_sizes":[],"default_left":[0,0,0,0,0,0,0,0,0,0,0,0,0],"id":18,"left_children":[1,3,5,7,-1,9,11,-1,-1,-1,-1,-1,-1],"loss_changes":[7.151715E0,6.2030883E0,4.9349036E0,4.2153554E0,0E0,6.729332E-1,4.6697254E0,0E0,0E0,0E0,0E0,0E0,0E0],"parents":[2147483647,0,0,1,1,2,2,3,3,5,5,6,6],"right_children":[2,4,6,8,-1,10,12,-1,-1,-1,-1,-1,-1],"split_conditions":[5E-2,9E-2,-1.3904336E-1,6.726363E-1,-4.661515E-2,-4.8871577E-1,1.6515532E-4,-2.3866764E-3,1.0470994E-2,-1.3611748E-2,1.2440447E-2,-0E0,8.213078E-2],"split_indices":[4,0,14,14,0,13,11,0,0,0,0,0,0],"split_type":[0,0,0,0,0,0,0,0,0,0,0,0,0],"sum_hessian":[1.31E3,1.261E3,4.9E1,1.242E3,1.9E1,2.2E1,2.7E1,9.33E2,3.09E2,1.1E1,1.1E1,1.1E1,1.6E1],"tree_param":{"num_deleted":"0","num_feature":"22","num_nodes":"13","size_leaf_vector":"1"}},{"base_weights":[-1.2018903E-2,3.0392095E-2,-1.2866433E-1,5.5603854E-2,-8.5380875E-2,-1.8565345E-1,4.0150258E-1,-0E0,1.7359255E-2,2.0095636E-3,-1.5756527E-2,-3.2875899E-3,-3.7533935E-2,-0E0,5.502396E-2],"categories":[],"categories_nodes":[],"categories_segments":[],"categories_sizes":[],"default_left":[0,0,0,0,0,0,0,0,0,0,0,0,0,0,0],"id":19,"left_children":[1,3,5,7,9,11,13,-1,-1,-1,-1,-1,-1,-1,-1],"loss_changes":[6.6581388E0,2.660411E0,1.086643E1,5.2883816E0,1.6530106E0,8.987473E0,1.7078962E0,0E0,0E0,0E0,0E0,0E0,0E0,0E0,0E0],"parents":[2147483647,0,0,1,1,2,2,3,3,4,4,5,5,6,6],"right_children":[2,4,6,8,10,12,14,-1,-1,-1,-1,-1,-1,-1,-1],"split_conditions":[8.037947E-8,1.1203432E0,5E-2,1.7768623E-4,-4.0394118E-1,2.9689094E-1,1.9360721E-1,-0E0,1.7359255E-2,2.0095636E-3,-1.5756527E-2,-3.2875899E-3,-3.7533935E-2,-0E0,5.502396E-2],"split_indices":[8,6,4,11,17,15,16,0,0,0,0,0,0,0,0],"split_type":[0,0,0,0,0,0,0,0,0,0,0,0,0,0,0],"sum_hessian":[1.275E3,9.21E2,3.54E2,7.8E2,1.41E2,3.29E2,2.5E1,5.47E2,2.33E2,4.6E1,9.5E1,2.01E2,1.28E2,1.1E1,1.4E1],"tree_param":{"num_deleted":"0","num_feature":"22","num_nodes":"15","size_leaf_vector":"1"}},{"base_weights":[-1.0735007E-3,2.0112429E-2,-1.9134279E-1,4.45494E-2,8.98968E-3,-2.8516434E-3,-5.1177484E-1,4.676699E-3,-8.648436E-3,1.3420612E-2,-1.2108658E-2,-6.8527736E-2,-3.8464952E-3],"categories":[],"categories_nodes":[],"categories_segments":[],"categories_sizes":[],"default_left":[0,0,0,0,0,0,0,0,0,0,0,0,0],"id":20,"left_children":[1,3,5,-1,7,9,11,-1,-1,-1,-1,-1,-1],"loss_changes":[5.8424664E0,4.38992E0,7.357016E0,0E0,4.413024E0,1.9149357E0,2.1158447E0,0E0,0E0,0E0,0E0,0E0,0E0],"parents":[2147483647,0,0,1,1,2,2,4,4,5,5,6,6],"right_children":[2,4,6,-1,8,10,12,-1,-1,-1,-1,-1,-1],"split_conditions":[5E-2,-9E-2,5.695209E-7,4.45494E-2,8.037947E-8,4.3983352E-1,4E-2,4.676699E-3,-8.648436E-3,1.3420612E-2,-1.2108658E-2,-6.8527736E-2,-3.8464952E-3],"split_indices":[0,0,8,0,8,16,3,0,0,0,0,0,0],"split_type":[0,0,0,0,0,0,0,0,0,0,0,0,0],"sum_hessian":[1.312E3,1.173E3,1.39E2,1.5E1,1.158E3,9.8E1,4.1E1,8.51E2,3.07E2,3.4E1,6.4E1,2.2E1,1.9E1],"tree_param":{"num_deleted":"0","num_feature":"22","num_nodes":"13","size_leaf_vector":"1"}},{"base_weights":[-2.5233367E-2,4.9067464E-2,-9.432593E-2,1.5809841E-2,1.3516666E-1,5.7339214E-2,-1.5658839E-1,6.3221375E-3,-3.1081217E-3,-0E0,1.9063776E-2,-9.398734E-3,2.9400248E-2,-1.2444148E-3,-2.4700265E-2],"categories":[],"categories_nodes":[],"categories_segments":[],"categories_sizes":[],"default_left":[0,0,0,0,0,0,0,0,0,0,0,0,0,0,0],"id":21,"left_children":[1,3,5,7,9,11,13,-1,-1,-1,-1,-1,-1,-1,-1],"loss_changes":[6.9706697E0,1.333769E0,7.0549417E0,1.2542889E0,9.085765E-1,8.362225E0,6.53434E0,0E0,0E0,0E0,0E0,0E0,0E0,0E0,0E0],"parents":[2147483647,0,0,1,1,2,2,3,3,4,4,5,5,6,6],"right_children":[2,4,6,8,10,12,14,-1,-1,-1,-1,-1,-1,-1,-1],"split_conditions":[1.9585523E-8,2E-2,-2E-2,1.09635625E-8,-6.019634E-1,-8.8156987E-4,7.439844E-2,6.3221375E-3,-3.1081217E-3,-0E0,1.9063776E-2,-9.398734E-3,2.9400248E-2,-1.2444148E-3,-2.4700265E-2],"split_indices":[8,4,0,8,6,14,5,0,0,0,0,0,0,0,0],"split_type":[0,0,0,0,0,0,0,0,0,0,0,0,0,0,0],"sum_hessian":[1.318E3,6.16E2,7.02E2,4.75E2,1.41E2,1.91E2,5.11E2,2.62E2,2.13E2,5.5E1,8.6E1,1.13E2,7.8E1,2.23E2,2.88E2],"tree_param":{"num_deleted":"0","num_feature":"22","num_nodes":"15","size_leaf_vector":"1"}},{"base_weights":[-1.6253408E-3,-3.301629E-2,1.5197432E-1,-2.1861293E-3,-3.0660206E-1,4.4492933E-1,2.6738541E-2,2.0459287E-2,-3.8888885E-3,-4.0380355E-2,2.1713484E-2,5.94028E-2,-0E0,2.4236573E-2,-4.5127613E-3],"categories":[],"categories_nodes":[],"categories_segments":[],"categories_sizes":[],"default_left":[0,0,0,0,0,0,0,0,0,0,0,0,0,0,0],"id":22,"left_children":[1,3,5,7,9,11,13,-1,-1,-1,-1,-1,-1,-1,-1],"loss_changes":[6.1681886E0,8.690621E0,6.384696E0,7.9808E0,7.437525E0,2.550084E0,3.3715472E0,0E0,0E0,0E0,0E0,0E0,0E0,0E0,0E0],"parents":[2147483647,0,0,1,1,2,2,3,3,4,4,5,5,6,6],"right_children":[2,4,6,8,10,12,14,-1,-1,-1,-1,-1,-1,-1,-1],"split_conditions":[3E-2,2.8925374E-6,-2.4998532E-1,1.11783996E-1,1.2624336E0,4.3887392E-1,-8.477882E-1,2.0459287E-2,-3.8888885E-3,-4.0380355E-2,2.1713484E-2,5.94028E-2,-0E0,2.4236573E-2,-4.5127613E-3],"split_indices":[4,8,7,16,21,21,18,0,0,0,0,0,0,0,0],"split_type":[0,0,0,0,0,0,0,0,0,0,0,0,0,0,0],"sum_hessian":[1.335E3,1.129E3,2.06E2,1.031E3,9.8E1,4.9E1,1.57E2,1.39E2,8.92E2,8.7E1,1.1E1,2.9E1,2E1,4.4E1,1.13E2],"tree_param":{"num_deleted":"0","num_feature":"22","num_nodes":"15","size_leaf_vector":"1"}},{"base_weights":[1.6764669E-2,-1.2833117E-1,5.2527815E-2,-2.7808684E-1,-0E0,3.209472E-2,4.9965304E-1,-6.13209E-3,-4.6444595E-2,-1.3756654E-2,1.8143917E-2,3.9701075E-3,-3.1182239E-2,1.4523896E-3,6.715667E-2],"categories":[],"categories_nodes":[],"categories_segments":[],"categories_sizes":[],"default_left":[0,0,0,0,0,0,0,0,0,0,0,0,0,0,0],"id":23,"left_children":[1,3,5,7,9,11,13,-1,-1,-1,-1,-1,-1,-1,-1],"loss_changes":[6.690112E0,4.8604274E0,8.22567E0,3.2014847E0,3.9296122E0,2.5863805E0,1.6834822E0,0E0,0E0,0E0,0E0,0E0,0E0,0E0,0E0],"parents":[2147483647,0,0,1,1,2,2,3,3,4,4,5,5,6,6],"right_children":[2,4,6,8,10,12,14,-1,-1,-1,-1,-1,-1,-1,-1],"split_conditions":[-8.219895E-1,2.202554E-1,4.4650668E-1,4.6528838E-4,1.619E1,2.7296774E-4,-2.4253742E-1,-6.13209E-3,-4.6444595E-2,-1.3756654E-2,1.8143917E-2,3.9701075E-3,-3.1182239E-2,1.4523896E-3,6.715667E-2],"split_indices":[9,13,11,11,2,8,14,0,0,0,0,0,0,0,0],"split_type":[0,0,0,0,0,0,0,0,0,0,0,0,0,0,0],"sum_hessian":[1.314E3,2.4E2,1.074E3,1.08E2,1.32E2,1.041E3,3.3E1,6.4E1,4.4E1,7.5E1,5.7E1,1.03E3,1.1E1,1.6E1,1.7E1],"tree_param":{"num_deleted":"0","num_feature":"22","num_nodes":"15","size_leaf_vector":"1"}},{"base_weights":[-8.166858E-3,3.7100914E-1,-1.94567E-2,-0E0,6.901624E-2,-3.4134388E-2,2.543464E-1,-7.69419E-3,2.9541957E-3,4.5694392E-2,-0E0],"categories":[],"categories_nodes":[],"categories_segments":[],"categories_sizes":[],"default_left":[0,0,0,0,0,0,0,0,0,0,0],"id":24,"left_children":[1,3,5,-1,-1,7,9,-1,-1,-1,-1],"loss_changes":[4.753427E0,5.587401E0,4.6973143E0,0E0,0E0,3.8484783E0,3.5215516E0,0E0,0E0,0E0,0E0],"parents":[2147483647,0,0,1,1,2,2,5,5,6,6],"right_children":[2,4,6,-1,-1,8,10,-1,-1,-1,-1],"split_conditions":[-6E-2,9.54287E-1,1.9603751E0,-0E0,6.901624E-2,2.202554E-1,-5.204679E-2,-7.69419E-3,2.9541957E-3,4.5694392E-2,-0E0],"split_indices":[3,20,14,0,0,13,12,0,0,0,0],"split_type":[0,0,0,0,0,0,0,0,0,0,0],"sum_hessian":[1.327E3,2.4E1,1.303E3,1.2E1,1.2E1,1.253E3,5E1,7.62E2,4.91E2,2.5E1,2.5E1],"tree_param":{"num_deleted":"0","num_feature":"22","num_nodes":"11","size_leaf_vector":"1"}},{"base_weights":[-4.3754795E-4,-1.3236557E-1,4.0938582E-2,-0E0,-2.3287791E-1,5.3994313E-2,-2.562669E-1,7.4951095E-3,-1.826972E-2,-0E0,-3.2943506E-2,1.6778298E-3,1.8606232E-2,-4.1050512E-2,-0E0],"categories":[],"categories_nodes":[],"categories_segments":[],"categories_sizes":[],"default_left":[0,0,0,0,0,0,0,0,0,0,0,0,0,0,0],"id":25,"left_children":[1,3,5,7,9,11,13,-1,-1,-1,-1,-1,-1,-1,-1],"loss_changes":[7.4643106E0,3.875114E0,3.3532171E0,2.7091455E0,4.256462E0,4.2394094E0,1.1298313E0,0E0,0E0,0E0,0E0,0E0,0E0,0E0,0E0],"parents":[2147483647,0,0,1,1,2,2,3,3,4,4,5,5,6,6],"right_children":[2,4,6,8,10,12,14,-1,-1,-1,-1,-1,-1,-1,-1],"split_conditions":[-1E-2,-1.8353266E-1,5.426043E-5,1.3378482E-1,7.252345E-5,3.789845E-4,-1.7027085E-1,7.4951095E-3,-1.826972E-2,-0E0,-3.2943506E-2,1.6778298E-3,1.8606232E-2,-4.1050512E-2,-0E0],"split_indices":[4,6,8,12,19,19,18,0,0,0,0,0,0,0,0],"split_type":[0,0,0,0,0,0,0,0,0,0,0,0,0,0,0],"sum_hessian":[1.304E3,3.24E2,9.8E2,1.53E2,1.71E2,9.54E2,2.6E1,1.03E2,5E1,5.8E1,1.13E2,7.77E2,1.77E2,1.1E1,1.5E1],"tree_param":{"num_deleted":"0","num_feature":"22","num_nodes":"15","size_leaf_vector":"1"}},{"base_weights":[1.7269038E-2,-7.308189E-2,5.0769523E-2,5.796638E-2,-2.0470881E-1,1.7542931E-3,1.8952386E-1,-0E0,2.1107323E-2,-9.128313E-3,-4.8890438E-2,2.4864577E-2,-1.6135125E-3,-0E0,3.3978675E-2],"categories":[],"categories_nodes":[],"categories_segments":[],"categories_sizes":[],"default_left":[0,0,0,0,0,0,0,0,0,0,0,0,0,0,0],"id":26,"left_children":[1,3,5,7,9,11,13,-1,-1,-1,-1,-1,-1,-1,-1],"loss_changes":[3.9336047E0,6.284554E0,6.141747E0,1.949157E0,3.8627062E0,4.2465844E0,7.8756666E0,0E0,0E0,0E0,0E0,0E0,0E0,0E0,0E0],"parents":[2147483647,0,0,1,1,2,2,3,3,4,4,5,5,6,6],"right_children":[2,4,6,8,10,12,14,-1,-1,-1,-1,-1,-1,-1,-1],"split_conditions":[-1E-2,-1.8353266E-1,4.279598E-1,6.514548E-4,5E-2,-4E-2,-1.0938087E-1,-0E0,2.1107323E-2,-9.128313E-3,-4.8890438E-2,2.4864577E-2,-1.6135125E-3,-0E0,3.3978675E-2],"split_indices":[4,6,10,11,0,0,14,0,0,0,0,0,0,0,0],"split_type":[0,0,0,0,0,0,0,0,0,0,0,0,0,0,0],"sum_hessian":[1.304E3,3.27E2,9.77E2,1.55E2,1.72E2,7.43E2,2.34E2,1.1E2,4.5E1,1.4E2,3.2E1,5.4E1,6.89E2,1.07E2,1.27E2],"tree_param":{"num_deleted":"0","num_feature":"22","num_nodes":"15","size_leaf_vector":"1"}},{"base_weights":[8.946979E-3,4.1185282E-2,-0E0,6.8711385E-2,-2.6123362E-2,1.0095822E-2,-1.8744415E-2,2.1694126E-2,-4.1663283E-3],"categories":[],"categories_nodes":[],"categories_segments":[],"categories_sizes":[],"default_left":[0,0,0,0,0,0,0,0,0],"id":27,"left_children":[1,-1,3,5,7,-1,-1,-1,-1],"loss_changes":[4.1541142E0,0E0,2.4447012E0,3.4553642E0,3.499691E0,0E0,0E0,0E0,0E0],"parents":[2147483647,0,0,2,2,3,3,4,4],"right_children":[2,-1,4,6,8,-1,-1,-1,-1],"split_conditions":[-9E-2,4.1185282E-2,-5.988485E-1,5E-2,-3.7739936E-1,1.0095822E-2,-1.8744415E-2,2.1694126E-2,-4.1663283E-3],"split_indices":[0,0,20,0,7,0,0,0,0],"split_type":[0,0,0,0,0,0,0,0,0],"sum_hessian":[1.319E3,1.6E1,1.303E3,3.75E2,9.28E2,3.44E2,3.1E1,4.2E1,8.86E2],"tree_param":{"num_deleted":"0","num_feature":"22","num_nodes":"9","size_leaf_vector":"1"}},{"base_weights":[-0E0,-1.9603018E-2,1.7845935E-1,-5.7076868E-2,3.9793417E-2,7.690564E-2,-0E0,-6.174042E-4,-1.4414361E-2,1.1932995E-2,-3.8689857E-3,1.8482612E-2,-2.490607E-2],"categories":[],"categories_nodes":[],"categories_segments":[],"categories_sizes":[],"default_left":[0,0,0,0,0,0,0,0,0,0,0,0,0],"id":28,"left_children":[1,3,5,7,9,-1,11,-1,-1,-1,-1,-1,-1],"loss_changes":[4.670137E0,2.6614287E0,1.3783289E1,3.0211556E0,3.106319E0,0E0,5.7786093E0,0E0,0E0,0E0,0E0,0E0,0E0],"parents":[2147483647,0,0,1,1,2,2,3,3,4,4,6,6],"right_children":[2,4,6,8,10,-1,12,-1,-1,-1,-1,-1,-1],"split_conditions":[7.1692667E-3,1.679E1,-3E-2,1.2098764E-1,2.7945414E-1,7.690564E-2,9.841832E-2,-6.174042E-4,-1.4414361E-2,1.1932995E-2,-3.8689857E-3,1.8482612E-2,-2.490607E-2],"split_indices":[11,2,3,20,18,0,5,0,0,0,0,0,0],"split_type":[0,0,0,0,0,0,0,0,0,0,0,0,0],"sum_hessian":[1.283E3,1.158E3,1.25E2,7.4E2,4.18E2,2.1E1,1.04E2,5.02E2,2.38E2,2.2E2,1.98E2,6.3E1,4.1E1],"tree_param":{"num_deleted":"0","num_feature":"22","num_nodes":"13","size_leaf_vector":"1"}},{"base_weights":[7.542857E-3,2.392887E-2,-2.8838342E-1,1.6432798E-1,-1.015141E-3,-5.871162E-2,-0E0,-0E0,3.0815743E-2,2.4538087E-3,-1.3548554E-2,3.406617E-2,-1.956486E-2],"categories":[],"categories_nodes":[],"categories_segments":[],"categories_sizes":[],"default_left":[0,0,0,0,0,0,0,0,0,0,0,0,0],"id":29,"left_children":[1,3,5,7,9,-1,11,-1,-1,-1,-1,-1,-1],"loss_changes":[5.687917E0,4.908177E0,7.292318E0,4.74498E0,4.254119E0,0E0,3.4237108E0,0E0,0E0,0E0,0E0,0E0,0E0],"parents":[2147483647,0,0,1,1,2,2,3,3,4,4,6,6],"right_children":[2,4,6,8,10,-1,12,-1,-1,-1,-1,-1,-1],"split_conditions":[5.426043E-5,1.11783996E-1,-7.808732E-2,7.4016294E-3,1.2204174E-7,-5.871162E-2,5.250958E-1,-0E0,3.0815743E-2,2.4538087E-3,-1.3548554E-2,3.406617E-2,-1.956486E-2],"split_indices":[8,16,18,13,8,0,10,0,0,0,0,0,0],"split_type":[0,0,0,0,0,0,0,0,0,0,0,0,0],"sum_hessian":[1.312E3,1.259E3,5.3E1,2.01E2,1.058E3,2.6E1,2.7E1,1.06E2,9.5E1,8.77E2,1.81E2,1.3E1,1.4E1],"tree_param":{"num_deleted":"0","num_feature":"22","num_nodes":"13","size_leaf_vector":"1"}},{"base_weights":[-0E0,8.184272E-2,-2.9904976E-2,4.904616E-4,1.2874797E-1,-7.8227974E-2,5.7726964E-2,1.5097388E-2,-0E0,-2.632783E-3,-2.3263725E-2,2.4822826E-2,-2.412978E-3],"categories":[],"categories_nodes":[],"categories_segments":[],"categories_sizes":[],"default_left":[0,0,0,0,0,0,0,0,0,0,0,0,0],"id":30,"left_children":[1,3,5,-1,7,9,11,-1,-1,-1,-1,-1,-1],"loss_changes":[3.2952933E0,9.039471E-1,4.292326E0,0E0,1.0524211E0,4.6638427E0,6.219628E0,0E0,0E0,0E0,0E0,0E0,0E0],"parents":[2147483647,0,0,1,1,2,2,4,4,5,5,6,6],"right_children":[2,4,6,-1,8,10,12,-1,-1,-1,-1,-1,-1],"split_conditions":[1.09635625E-8,1.9461357E-5,4.2831844E-1,4.904616E-4,1.2509065E0,2.517681E-7,-2E-2,1.5097388E-2,-0E0,-2.632783E-3,-2.3263725E-2,2.4822826E-2,-2.412978E-3],"split_indices":[8,11,17,0,18,8,0,0,0,0,0,0,0],"split_type":[0,0,0,0,0,0,0,0,0,0,0,0,0],"sum_hessian":[1.336E3,3.52E2,9.84E2,1.6E2,1.92E2,6.56E2,3.28E2,1.72E2,2E1,5.19E2,1.37E2,1.02E2,2.26E2],"tree_param":{"num_deleted":"0","num_feature":"22","num_nodes":"13","size_leaf_vector":"1"}},{"base_weights":[-0E0,-7.437375E-2,4.598825E-2,-1.102163E-2,-3.9216286E-1,1.955777E-2,5.567983E-1,2.6403132E-3,-1.956207E-2,-0E0,-8.42974E-2,4.176283E-3,-5.0266985E-2,-0E0,8.433702E-2],"categories":[],"categories_nodes":[],"categories_segments":[],"categories_sizes":[],"default_left":[0,0,0,0,0,0,0,0,0,0,0,0,0,0,0],"id":31,"left_children":[1,3,5,7,9,11,13,-1,-1,-1,-1,-1,-1,-1,-1],"loss_changes":[4.5699263E0,9.143539E0,9.292557E0,3.786459E0,1.3487811E1,8.819844E0,4.114291E0,0E0,0E0,0E0,0E0,0E0,0E0,0E0,0E0],"parents":[2147483647,0,0,1,1,2,2,3,3,4,4,5,5,6,6],"right_children":[2,4,6,8,10,12,14,-1,-1,-1,-1,-1,-1,-1,-1],"split_conditions":[0E0,1.5726623E-6,3.199E1,3.9594004E-1,2.8516385E-1,3.6384547E-5,5.5567707E-6,2.6403132E-3,-1.956207E-2,-0E0,-8.42974E-2,4.176283E-3,-5.0266985E-2,-0E0,8.433702E-2],"split_indices":[4,8,2,12,15,8,8,0,0,0,0,0,0,0,0],"split_type":[0,0,0,0,0,0,0,0,0,0,0,0,0,0,0],"sum_hessian":[1.316E3,5.06E2,8.1E2,4.36E2,7E1,7.83E2,2.7E1,3.56E2,8E1,4.4E1,2.6E1,7.62E2,2.1E1,1.5E1,1.2E1],"tree_param":{"num_deleted":"0","num_feature":"22","num_nodes":"15","size_leaf_vector":"1"}},{"base_weights":[1.8485766E-2,-0E0,2.9019696E-1,1.4477047E-2,-2.3813452E-1,5.218778E-1,-3.1428132E-2,-1.5328404E-3,1.0580677E-2,-0E0,-4.1487295E-2,8.863438E-2,1.499225E-3,1.1990948E-2,-3.0545983E-2],"categories":[],"categories_nodes":[],"categories_segments":[],"categories_sizes":[],"default_left":[0,0,0,0,0,0,0,0,0,0,0,0,0,0,0],"id":32,"left_children":[1,3,5,7,9,11,13,-1,-1,-1,-1,-1,-1,-1,-1],"loss_changes":[5.9170275E0,3.7972255E0,7.170843E0,3.6883137E0,3.341639E0,7.074068E0,2.3273E0,0E0,0E0,0E0,0E0,0E0,0E0,0E0,0E0],"parents":[2147483647,0,0,1,1,2,2,3,3,4,4,5,5,6,6],"right_children":[2,4,6,8,10,12,14,-1,-1,-1,-1,-1,-1,-1,-1],"split_conditions":[5.629506E-2,7.7984387E-1,2E-2,1.894E1,-6.2056262E-2,4.0831435E-2,5.250958E-1,-1.5328404E-3,1.0580677E-2,-0E0,-4.1487295E-2,8.863438E-2,1.499225E-3,1.1990948E-2,-3.0545983E-2],"split_indices":[11,5,0,2,10,12,10,0,0,0,0,0,0,0,0],"split_type":[0,0,0,0,0,0,0,0,0,0,0,0,0,0,0],"sum_hessian":[1.302E3,1.234E3,6.8E1,1.179E3,5.5E1,4.2E1,2.6E1,8.75E2,3.04E2,2.5E1,3E1,1.7E1,2.5E1,1.3E1,1.3E1],"tree_param":{"num_deleted":"0","num_feature":"22","num_nodes":"15","size_leaf_vector":"1"}},{"base_weights":[3.6013473E-3,1.8008918E-2,-2.8876963E-1,-0E0,2.6115292E-1,4.854983E-3,-5.051814E-1,7.4679707E-3,-3.278507E-3,-8.80132E-3,3.879362E-2,-0E0,-8.399933E-2],"categories":[],"categories_nodes":[],"categories_segments":[],"categories_sizes":[],"default_left":[0,0,0,0,0,0,0,0,0,0,0,0,0],"id":33,"left_children":[1,3,5,7,9,-1,11,-1,-1,-1,-1,-1,-1],"loss_changes":[4.867222E0,4.9419794E0,5.4339337E0,3.301649E0,5.02047E0,0E0,9.380424E0,0E0,0E0,0E0,0E0,0E0,0E0],"parents":[2147483647,0,0,1,1,2,2,3,3,4,4,6,6],"right_children":[2,4,6,8,10,-1,12,-1,-1,-1,-1,-1,-1],"split_conditions":[5.426043E-5,5E-2,-4.1633363E-16,1.2515097E-8,-5.391984E-1,4.854983E-3,7.964054E-2,7.4679707E-3,-3.278507E-3,-8.80132E-3,3.879362E-2,-0E0,-8.399933E-2],"split_indices":[8,3,3,8,10,0,5,0,0,0,0,0,0],"split_type":[0,0,0,0,0,0,0,0,0,0,0,0,0],"sum_hessian":[1.324E3,1.278E3,4.6E1,1.207E3,7.1E1,1.5E1,3.1E1,3.89E2,8.18E2,1.5E1,5.6E1,1.3E1,1.8E1],"tree_param":{"num_deleted":"0","num_feature":"22","num_nodes":"13","size_leaf_vector":"1"}},{"base_weights":[-8.311543E-3,-4.41489E-2,9.0646304E-2,-1.6692674E-2,-4.0991855E-1,-1.3183475E-1,1.9546402E-1,-3.375022E-3,4.5410063E-2,-5.7075508E-2,2.3075708E-3,-3.0144472E-2,3.7328182E-3,8.916034E-3,4.815382E-2],"categories":[],"categories_nodes":[],"categories_segments":[],"categories_sizes":[],"default_left":[0,0,0,0,0,0,0,0,0,0,0,0,0,0,0],"id":34,"left_children":[1,3,5,7,9,11,13,-1,-1,-1,-1,-1,-1,-1,-1],"loss_changes":[4.5581493E0,8.675284E0,8.087814E0,7.128633E0,6.5231676E0,3.9802208E0,5.3331995E0,0E0,0E0,0E0,0E0,0E0,0E0,0E0,0E0],"parents":[2147483647,0,0,1,1,2,2,3,3,4,4,5,5,6,6],"right_children":[2,4,6,8,10,12,14,-1,-1,-1,-1,-1,-1,-1,-1],"split_conditions":[3.789845E-4,2.8925374E-6,-6.5249604E-1,1.3312005E-6,1.3792123E0,1E-2,3E-2,-3.375022E-3,4.5410063E-2,-5.7075508E-2,2.3075708E-3,-3.0144472E-2,3.7328182E-3,8.916034E-3,4.815382E-2],"split_indices":[19,8,21,8,17,4,3,0,0,0,0,0,0,0,0],"split_type":[0,0,0,0,0,0,0,0,0,0,0,0,0,0,0],"sum_hessian":[1.307E3,9.84E2,3.23E2,9.3E2,5.4E1,9.4E1,2.29E2,9.09E2,2.1E1,4.1E1,1.3E1,5.1E1,4.3E1,1.85E2,4.4E1],"tree_param":{"num_deleted":"0","num_feature":"22","num_nodes":"15","size_leaf_vector":"1"}},{"base_weights":[-2.1442056E-3,3.7765113E-1,-1.3435216E-2,-0E0,5.5384032E-2,-4.0205657E-3,-4.8160862E-2,-1.9744106E-3,2.2831744E-2],"categories":[],"categories_nodes":[],"categories_segments":[],"categories_sizes":[],"default_left":[0,0,0,0,0,0,0,0,0],"id":35,"left_children":[1,3,5,-1,-1,7,-1,-1,-1],"loss_changes":[4.586204E0,1.7095404E0,4.379173E0,0E0,0E0,4.400844E0,0E0,0E0,0E0],"parents":[2147483647,0,0,1,1,2,2,5,5],"right_children":[2,4,6,-1,-1,8,-1,-1,-1],"split_conditions":[-6E-2,1.0851296E0,9.999585E-1,-0E0,5.5384032E-2,1.7995366E0,-4.8160862E-2,-1.9744106E-3,2.2831744E-2],"split_indices":[3,20,5,0,0,14,0,0,0],"split_type":[0,0,0,0,0,0,0,0,0],"sum_hessian":[1.298E3,2.3E1,1.275E3,1.2E1,1.1E1,1.264E3,1.1E1,1.201E3,6.3E1],"tree_param":{"num_deleted":"0","num_feature":"22","num_nodes":"9","size_leaf_vector":"1"}},{"base_weights":[8.0644805E-3,-6.0851704E-2,5.8357194E-2,-9.357299E-2,2.5564423E-1,3.311388E-2,4.7672865E-1,3.491001E-4,-2.03039E-2,3.697218E-2,-0E0,-5.0023864E-3,1.1216123E-2,-0E0,6.173173E-2],"categories":[],"categories_nodes":[],"categories_segments":[],"categories_sizes":[],"default_left":[0,0,0,0,0,0,0,0,0,0,0,0,0,0,0],"id":36,"left_children":[1,3,5,7,9,11,13,-1,-1,-1,-1,-1,-1,-1,-1],"loss_changes":[4.5552034E0,5.21866E0,6.6952953E0,6.18616E0,1.4591925E0,5.5159035E0,2.2495117E0,0E0,0E0,0E0,0E0,0E0,0E0,0E0,0E0],"parents":[2147483647,0,0,1,1,2,2,3,3,4,4,5,5,6,6],"right_children":[2,4,6,8,10,12,14,-1,-1,-1,-1,-1,-1,-1,-1],"split_conditions":[0E0,1.5081142E0,3.199E1,2.3790435E-8,2.0813015E0,-3.1738928E-1,3.5911592E-7,3.491001E-4,-2.03039E-2,3.697218E-2,-0E0,-5.0023864E-3,1.1216123E-2,-0E0,6.173173E-2],"split_indices":[4,14,2,8,14,10,8,0,0,0,0,0,0,0,0],"split_type":[0,0,0,0,0,0,0,0,0,0,0,0,0,0,0],"sum_hessian":[1.301E3,5.24E2,7.77E2,4.88E2,3.6E1,7.47E2,3E1,2.56E2,2.32E2,2.2E1,1.4E1,3.53E2,3.94E2,1.1E1,1.9E1],"tree_param":{"num_deleted":"0","num_feature":"22","num_nodes":"15","size_leaf_vector":"1"}},{"base_weights":[1.8060751E-3,2.1415678E-1,-8.294021E-3,-0E0,4.5463914E-1,1.0927223E-3,-2.5500762E-1,-0E0,6.1345764E-2,-9.912474E-4,2.4055233E-2,-4.5472406E-2,1.960609E-3],"categories":[],"categories_nodes":[],"categories_segments":[],"categories_sizes":[],"default_left":[0,0,0,0,0,0,0,0,0,0,0,0,0],"id":37,"left_children":[1,3,5,-1,7,9,11,-1,-1,-1,-1,-1,-1],"loss_changes":[3.4569242E0,4.5990357E0,3.6586683E0,0E0,2.2804537E0,4.1004233E0,4.764536E0,0E0,0E0,0E0,0E0,0E0,0E0],"parents":[2147483647,0,0,1,1,2,2,4,4,5,5,6,6],"right_children":[2,4,6,-1,8,10,12,-1,-1,-1,-1,-1,-1],"split_conditions":[-3.7285048E-1,2.9867102E-4,2.330442E-5,-0E0,-3.4416014E-1,7.1692667E-3,9.822014E-1,-0E0,6.1345764E-2,-9.912474E-4,2.4055233E-2,-4.5472406E-2,1.960609E-3],"split_indices":[7,11,8,0,13,11,19,0,0,0,0,0,0],"split_type":[0,0,0,0,0,0,0,0,0,0,0,0,0],"sum_hessian":[1.321E3,6.6E1,1.255E3,3.5E1,3.1E1,1.205E3,5E1,1.3E1,1.8E1,1.148E3,5.7E1,3.1E1,1.9E1],"tree_param":{"num_deleted":"0","num_feature":"22","num_nodes":"13","size_leaf_vector":"1"}},{"base_weights":[-4.846839E-3,2.9414812E-2,-1.5959479E-2,-1.4365375E-1,1.066066E-2,-7.045496E-3,-5.813478E-2,2.3454016E-3,-2.0860462E-2],"categories":[],"categories_nodes":[],"categories_segments":[],"categories_sizes":[],"default_left":[0,0,0,0,0,0,0,0,0],"id":38,"left_children":[1,-1,3,5,7,-1,-1,-1,-1],"loss_changes":[3.6647823E0,0E0,4.717725E0,5.4516954E0,2.673717E0,0E0,0E0,0E0,0E0],"parents":[2147483647,0,0,2,2,3,3,4,4],"right_children":[2,-1,4,6,8,-1,-1,-1,-1],"split_conditions":[-2.0439608E0,2.9414812E-2,-7.428661E-1,1.9532405E0,1.443643E0,-7.045496E-3,-5.813478E-2,2.3454016E-3,-2.0860462E-2],"split_indices":[9,0,9,17,18,0,0,0,0],"split_type":[0,0,0,0,0,0,0,0,0],"sum_hessian":[1.293E3,2.9E1,1.264E3,2.31E2,1.033E3,2.13E2,1.8E1,9.93E2,4E1],"tree_param":{"num_deleted":"0","num_feature":"22","num_nodes":"9","size_leaf_vector":"1"}},{"base_weights":[-9.490346E-3,-3.7919447E-2,1.1147573E-1,4.530064E-3,-1.332505E-1,-1.7405264E-2,2.5850222E-1,4.076854E-3,-4.2979443E-3,-1.7422898E-2,3.3728562E-2,1.9697301E-2,-9.0580145E-3,4.1146442E-2,3.9048567E-3],"categories":[],"categories_nodes":[],"categories_segments":[],"categories_sizes":[],"default_left":[0,0,0,0,0,0,0,0,0,0,0,0,0,0,0],"id":39,"left_children":[1,3,5,7,9,11,13,-1,-1,-1,-1,-1,-1,-1,-1],"loss_changes":[4.337115E0,4.781179E0,5.136793E0,1.3653197E0,7.984413E0,1.8520399E0,2.8648477E0,0E0,0E0,0E0,0E0,0E0,0E0,0E0,0E0],"parents":[2147483647,0,0,1,1,2,2,3,3,4,4,5,5,6,6],"right_children":[2,4,6,8,10,12,14,-1,-1,-1,-1,-1,-1,-1,-1],"split_conditions":[8.481482E-1,6.576851E-8,-8.330084E-2,-2.0929363E-1,1.7995366E0,-9.1647744E-1,6.353101E-1,4.076854E-3,-4.2979443E-3,-1.7422898E-2,3.3728562E-2,1.9697301E-2,-9.0580145E-3,4.1146442E-2,3.9048567E-3],"split_indices":[9,8,14,17,14,18,14,0,0,0,0,0,0,0,0],"split_type":[0,0,0,0,0,0,0,0,0,0,0,0,0,0,0],"sum_hessian":[1.306E3,1.081E3,2.25E2,7.32E2,3.49E2,1.13E2,1.12E2,4.48E2,2.84E2,3.28E2,2.1E1,1.6E1,9.7E1,5.2E1,6E1],"tree_param":{"num_deleted":"0","num_feature":"22","num_nodes":"15","size_leaf_vector":"1"}},{"base_weights":[-5.33004E-3,1.4166556E-3,-3.2625768E-1,-4.237743E-2,9.2113845E-2,-5.0018255E-2,-0E0,2.4402107E-3,-1.8456316E-2,-4.600565E-3,1.5930003E-2],"categories":[],"categories_nodes":[],"categories_segments":[],"categories_sizes":[],"default_left":[0,0,0,0,0,0,0,0,0,0,0],"id":40,"left_children":[1,3,5,7,9,-1,-1,-1,-1,-1,-1],"loss_changes":[3.7524643E0,5.2198057E0,1.4307342E0,8.925582E0,4.8135867E0,0E0,0E0,0E0,0E0,0E0,0E0],"parents":[2147483647,0,0,1,1,2,2,3,3,4,4],"right_children":[2,4,6,8,10,-1,-1,-1,-1,-1,-1],"split_conditions":[9.894282E-1,1.821E1,9.7453244E-2,3.9416033E-8,-5.136245E-1,-5.0018255E-2,-0E0,2.4402107E-3,-1.8456316E-2,-4.600565E-3,1.5930003E-2],"split_indices":[5,2,12,8,17,0,0,0,0,0,0],"split_type":[0,0,0,0,0,0,0,0,0,0,0],"sum_hessian":[1.291E3,1.263E3,2.8E1,8.33E2,4.3E2,1.2E1,1.6E1,5.63E2,2.7E2,1.34E2,2.96E2],"tree_param":{"num_deleted":"0","num_feature":"22","num_nodes":"11","size_leaf_vector":"1"}},{"base_weights":[6.4421105E-3,-7.0324786E-2,4.1794028E-2,-0E0,-3.2770383E-1,1.397998E-1,-8.4231645E-3,1.304227E-2,-5.2042985E-3,-4.397261E-2,-0E0,-1.3604736E-2,2.0617012E-2,-5.762929E-3,7.7405497E-3],"categories":[],"categories_nodes":[],"categories_segments":[],"categories_sizes":[],"default_left":[0,0,0,0,0,0,0,0,0,0,0,0,0,0,0],"id":41,"left_children":[1,3,5,7,9,11,13,-1,-1,-1,-1,-1,-1,-1,-1],"loss_changes":[3.5590775E0,7.653261E0,5.0318675E0,2.4496121E0,4.712801E0,7.381741E0,2.7349927E0,0E0,0E0,0E0,0E0,0E0,0E0,0E0,0E0],"parents":[2147483647,0,0,1,1,2,2,3,3,4,4,5,5,6,6],"right_children":[2,4,6,8,10,12,14,-1,-1,-1,-1,-1,-1,-1,-1],"split_conditions":[-7.2925365E-1,1.6312359E-7,5.924104E-1,-6.723636E-1,7.5425917E-1,3.6724592E-9,-2.370285E-2,1.304227E-2,-5.2042985E-3,-4.397261E-2,-0E0,-1.3604736E-2,2.0617012E-2,-5.762929E-3,7.7405497E-3],"split_indices":[21,8,16,17,18,19,7,0,0,0,0,0,0,0,0],"split_type":[0,0,0,0,0,0,0,0,0,0,0,0,0,0,0],"sum_hessian":[1.326E3,3.9E2,9.36E2,3.08E2,8.2E1,3.32E2,6.04E2,9.2E1,2.16E2,6.2E1,2E1,5.9E1,2.73E2,4.05E2,1.99E2],"tree_param":{"num_deleted":"0","num_feature":"22","num_nodes":"15","size_leaf_vector":"1"}},{"base_weights":[3.9001275E-3,-1.6738046E-2,1.3007675E-1,-6.350881E-2,1.7634073E-2,2.0709483E-1,-1.616566E-1,-1.4407081E-2,5.747233E-4,-4.11008E-3,1.3615775E-2,-4.3244218E-3,3.178021E-2,-0E0,-3.189599E-2],"categories":[],"categories_nodes":[],"categories_segments":[],"categories_sizes":[],"default_left":[0,0,0,0,0,0,0,0,0,0,0,0,0,0,0],"id":42,"left_children":[1,3,5,7,9,11,13,-1,-1,-1,-1,-1,-1,-1,-1],"loss_changes":[3.7901812E0,1.9487283E0,5.0262146E0,3.4569693E0,4.8940454E0,6.2428827E0,1.9545386E0,0E0,0E0,0E0,0E0,0E0,0E0,0E0,0E0],"parents":[2147483647,0,0,1,1,2,2,3,3,4,4,5,5,6,6],"right_children":[2,4,6,8,10,12,14,-1,-1,-1,-1,-1,-1,-1,-1],"split_conditions":[8.922814E-1,1.52E1,1.7093124E0,9.1541904E-1,2.202554E-1,-6.782284E-1,-2.732376E-1,-1.4407081E-2,5.747233E-4,-4.11008E-3,1.3615775E-2,-4.3244218E-3,3.178021E-2,-0E0,-3.189599E-2],"split_indices":[10,2,6,16,13,9,18,0,0,0,0,0,0,0,0],"split_type":[0,0,0,0,0,0,0,0,0,0,0,0,0,0,0],"sum_hessian":[1.316E3,1.117E3,1.99E2,5.06E2,6.11E2,1.67E2,3.2E1,2.42E2,2.64E2,3.98E2,2.13E2,4.8E1,1.19E2,1.2E1,2E1],"tree_param":{"num_deleted":"0","num_feature":"22","num_nodes":"15","size_leaf_vector":"1"}},{"base_weights":[-6.053114E-3,2.7593287E-2,-1.03608675E-1,8.9231385E-3,2.943247E-1,-1.6911986E-1,-0E0,2.0278152E-3,-2.3672001E-2,5.4028716E-2,-4.7945785E-3,-1.5992888E-3,-3.0019073E-2,-9.480932E-3,1.4815166E-2],"categories":[],"categories_nodes":[],"categories_segments":[],"categories_sizes":[],"default_left":[0,0,0,0,0,0,0,0,0,0,0,0,0,0,0],"id":43,"left_children":[1,3,5,7,9,11,13,-1,-1,-1,-1,-1,-1,-1,-1],"loss_changes":[4.490297E0,3.8189888E0,2.6061866E0,2.1387773E0,6.344943E0,3.8426929E0,2.2497652E0,0E0,0E0,0E0,0E0,0E0,0E0,0E0,0E0],"parents":[2147483647,0,0,1,1,2,2,3,3,4,4,5,5,6,6],"right_children":[2,4,6,8,10,12,14,-1,-1,-1,-1,-1,-1,-1,-1],"split_conditions":[1.4698978E-1,5.629506E-2,2.582584E-1,8.144636E-1,9.854952E-1,0E0,8.5798405E-2,2.0278152E-3,-2.3672001E-2,5.4028716E-2,-4.7945785E-3,-1.5992888E-3,-3.0019073E-2,-9.480932E-3,1.4815166E-2],"split_indices":[12,11,21,5,17,0,5,0,0,0,0,0,0,0,0],"split_type":[0,0,0,0,0,0,0,0,0,0,0,0,0,0,0],"sum_hessian":[1.287E3,9.39E2,3.48E2,8.95E2,4.4E1,2.17E2,1.31E2,8.72E2,2.3E1,2.7E1,1.7E1,1.18E2,9.9E1,7.7E1,5.4E1],"tree_param":{"num_deleted":"0","num_feature":"22","num_nodes":"15","size_leaf_vector":"1"}},{"base_weights":[-2.1754926E-2,1.5863323E-1,-3.6086816E-2,-4.944805E-2,6.1493192E-2,-1.1090425E-2,-2.3867068E-1,2.5517796E-3,-2.0051418E-2,-2.4319596E-3,1.5346582E-2,-3.6533326E-2,3.1932656E-2],"categories":[],"categories_nodes":[],"categories_segments":[],"categories_sizes":[],"default_left":[0,0,0,0,0,0,0,0,0,0,0,0,0],"id":44,"left_children":[1,3,5,7,-1,9,11,-1,-1,-1,-1,-1,-1],"loss_changes":[3.0263042E0,1.0007519E1,5.4198694E0,1.273646E0,0E0,2.2662776E0,1.0562413E1,0E0,0E0,0E0,0E0,0E0,0E0],"parents":[2147483647,0,0,1,1,2,2,3,3,5,5,6,6],"right_children":[2,4,6,8,-1,10,12,-1,-1,-1,-1,-1,-1],"split_conditions":[-4E-2,2.254E1,3.4530913E-6,-2.6784307E-1,6.1493192E-2,5E-2,1.6704541E0,2.5517796E-3,-2.0051418E-2,-2.4319596E-3,1.5346582E-2,-3.6533326E-2,3.1932656E-2],"split_indices":[3,2,8,6,0,3,14,0,0,0,0,0,0],"split_type":[0,0,0,0,0,0,0,0,0,0,0,0,0],"sum_hessian":[1.283E3,7.4E1,1.209E3,5.2E1,2.2E1,1.096E3,1.13E2,2.7E1,2.5E1,1.034E3,6.2E1,9.7E1,1.6E1],"tree_param":{"num_deleted":"0","num_feature":"22","num_nodes":"13","size_leaf_vector":"1"}},{"base_weights":[-7.711818E-3,4.654678E-3,-2.7328905E-1,-1.0291225E-1,2.1732993E-2,3.2584136E-3,-4.706207E-1,4.2522145E-3,-1.4791382E-2,-7.9078006E-4,1.1045507E-2,-0E0,-5.9802648E-2],"categories":[],"categories_nodes":[],"categories_segments":[],"categories_sizes":[],"default_left":[0,0,0,0,0,0,0,0,0,0,0,0,0],"id":45,"left_children":[1,3,5,7,9,-1,11,-1,-1,-1,-1,-1,-1],"loss_changes":[5.144849E0,2.1076522E0,5.594639E0,1.4718428E0,3.4063783E0,0E0,3.5579338E0,0E0,0E0,0E0,0E0,0E0,0E0],"parents":[2147483647,0,0,1,1,2,2,3,3,4,4,6,6],"right_children":[2,4,6,8,10,-1,12,-1,-1,-1,-1,-1,-1],"split_conditions":[3.1798958E-5,-2E-2,-2.4255814E-1,6.426095E-2,1.1390935E-1,3.2584136E-3,6.463605E-2,4.2522145E-3,-1.4791382E-2,-7.9078006E-4,1.1045507E-2,-0E0,-5.9802648E-2],"split_indices":[8,4,15,5,5,0,5,0,0,0,0,0,0],"split_type":[0,0,0,0,0,0,0,0,0,0,0,0,0],"sum_hessian":[1.32E3,1.258E3,6.2E1,1.44E2,1.114E3,2.1E1,4.1E1,2.2E1,1.22E2,8.23E2,2.91E2,1.1E1,3E1],"tree_param":{"num_deleted":"0","num_feature":"22","num_nodes":"13","size_leaf_vector":"1"}},{"base_weights":[-0E0,3.5165537E-2,-5.1534712E-2,2.0908102E-2,3.6658313E-2,-1.4038602E-2,-3.4750617E-1,-8.948873E-3,4.336125E-3,-1.7910408E-2,1.4948325E-3,-0E0,-5.7639826E-2],"categories":[],"categories_nodes":[],"categories_segments":[],"categories_sizes":[],"default_left":[0,0,0,0,0,0,0,0,0,0,0,0,0],"id":46,"left_children":[1,3,5,7,-1,9,11,-1,-1,-1,-1,-1,-1],"loss_changes":[2.4014108E0,2.7249904E0,4.796965E0,2.0241547E0,0E0,2.959831E0,4.7146387E0,0E0,0E0,0E0,0E0,0E0,0E0],"parents":[2147483647,0,0,1,1,2,2,3,3,5,5,6,6],"right_children":[2,4,6,8,-1,10,12,-1,-1,-1,-1,-1,-1],"split_conditions":[1.2098764E-1,5.777486E-1,2.3250721E-2,-3.6999512E-1,3.6658313E-2,3.1190485E-1,1.110223E-16,-8.948873E-3,4.336125E-3,-1.7910408E-2,1.4948325E-3,-0E0,-5.7639826E-2],"split_indices":[20,11,11,1,0,20,3,0,0,0,0,0,0],"split_type":[0,0,0,0,0,0,0,0,0,0,0,0,0],"sum_hessian":[1.319E3,7.97E2,5.22E2,7.81E2,1.6E1,4.79E2,4.3E1,1.11E2,6.7E2,7.9E1,4E2,2E1,2.3E1],"tree_param":{"num_deleted":"0","num_feature":"22","num_nodes":"13","size_leaf_vector":"1"}},{"base_weights":[3.0932939E-3,-1.1726952E-2,3.8025275E-1,-0E0,-3.6611137E-1,4.3021306E-2,6.938251E-2,-3.7543436E-3,5.455199E-3,-0E0,-4.8400246E-2,-2.3348728E-2,3.2659024E-2],"categories":[],"categories_nodes":[],"categories_segments":[],"categories_sizes":[],"default_left":[0,0,0,0,0,0,0,0,0,0,0,0,0],"id":47,"left_children":[1,3,5,7,9,11,-1,-1,-1,-1,-1,-1,-1],"loss_changes":[8.635106E0,5.7963524E0,4.2110834E0,2.7863717E0,1.4063311E0,4.3651633E0,0E0,0E0,0E0,0E0,0E0,0E0,0E0],"parents":[2147483647,0,0,1,1,2,2,3,3,4,4,5,5],"right_children":[2,4,6,8,10,12,-1,-1,-1,-1,-1,-1,-1],"split_conditions":[2.5396505E-1,3.1798958E-5,4.011E1,1.7768623E-4,-4.1633363E-16,-8.4810996E-1,6.938251E-2,-3.7543436E-3,5.455199E-3,-0E0,-4.8400246E-2,-2.3348728E-2,3.2659024E-2],"split_indices":[11,8,2,11,3,13,0,0,0,0,0,0,0],"split_type":[0,0,0,0,0,0,0,0,0,0,0,0,0],"sum_hessian":[1.341E3,1.29E3,5.1E1,1.253E3,3.7E1,3.4E1,1.7E1,7.32E2,5.21E2,1.5E1,2.2E1,1.3E1,2.1E1],"tree_param":{"num_deleted":"0","num_feature":"22","num_nodes":"13","size_leaf_vector":"1"}},{"base_weights":[3.969632E-3,-5.845711E-3,2.89835E-1,2.9452816E-2,-7.43403E-2,-0E0,4.9205714E-1,8.015796E-3,-6.30439E-3,-1.282311E-2,2.5398603E-2,-0E0,7.1756646E-2],"categories":[],"categories_nodes":[],"categories_segments":[],"categories_sizes":[],"default_left":[0,0,0,0,0,0,0,0,0,0,0,0,0],"id":48,"left_children":[1,3,5,7,9,-1,11,-1,-1,-1,-1,-1,-1],"loss_changes":[4.6077547E0,3.2857451E0,3.5447373E0,4.29513E0,9.094282E0,0E0,3.1574678E0,0E0,0E0,0E0,0E0,0E0,0E0],"parents":[2147483647,0,0,1,1,2,2,3,3,4,4,6,6],"right_children":[2,4,6,8,10,-1,12,-1,-1,-1,-1,-1,-1],"split_conditions":[5E-2,2.6788688E-1,-6.2487897E-2,4.9987543E-1,1.3221471E0,-0E0,-3.5395125E-1,8.015796E-3,-6.30439E-3,-1.282311E-2,2.5398603E-2,-0E0,7.1756646E-2],"split_indices":[4,15,14,21,21,0,10,0,0,0,0,0,0],"split_type":[0,0,0,0,0,0,0,0,0,0,0,0,0],"sum_hessian":[1.338E3,1.291E3,4.7E1,8.27E2,4.64E2,2.1E1,2.6E1,5.49E2,2.78E2,4.07E2,5.7E1,1.3E1,1.3E1],"tree_param":{"num_deleted":"0","num_feature":"22","num_nodes":"13","size_leaf_vector":"1"}},{"base_weights":[-1.1000511E-2,-0E0,-2.3092635E-1,-3.6261912E-2,7.976274E-2,-0E0,-3.014216E-1,3.7250426E-3,-9.909282E-3,-2.5403753E-3,2.5528017E-2,-0E0,-3.6737088E-2],"categories":[],"categories_nodes":[],"categories_segments":[],"categories_sizes":[],"default_left":[0,0,0,0,0,0,0,0,0,0,0,0,0],"id":49,"left_children":[1,3,5,7,9,-1,11,-1,-1,-1,-1,-1,-1],"loss_changes":[3.277159E0,3.8261292E0,1.333132E0,4.7199173E0,8.770653E0,0E0,9.1349745E-1,0E0,0E0,0E0,0E0,0E0,0E0],"parents":[2147483647,0,0,1,1,2,2,3,3,4,4,6,6],"right_children":[2,4,6,8,10,-1,12,-1,-1,-1,-1,-1,-1],"split_conditions":[2.5021574E0,1.855E1,8.215751E-2,1.5468542E-8,2.0597027E-1,-0E0,6.975495E-5,3.7250426E-3,-9.909282E-3,-2.5403753E-3,2.5528017E-2,-0E0,-3.6737088E-2],"split_indices":[6,2,5,8,13,0,11,0,0,0,0,0,0],"split_type":[0,0,0,0,0,0,0,0,0,0,0,0,0],"sum_hessian":[1.368E3,1.311E3,5.7E1,9.06E2,4.05E2,1.2E1,4.5E1,4.06E2,5E2,2.51E2,1.54E2,1.3E1,3.2E1],"tree_param":{"num_deleted":"0","num_feature":"22","num_nodes":"13","size_leaf_vector":"1"}},{"base_weights":[-6.898551E-3,1.0688512E-1,-3.56939E-2,-7.012358E-2,1.7961273E-1,-8.079493E-2,3.308437E-2,-2.8487273E-2,1.1529828E-3,-0E0,3.357354E-2,-1.4173355E-2,-1.9641104E-4,-1.0449155E-3,1.34867625E-2],"categories":[],"categories_nodes":[],"categories_segments":[],"categories_sizes":[],"default_left":[0,0,0,0,0,0,0,0,0,0,0,0,0,0,0],"id":50,"left_children":[1,3,5,7,9,11,13,-1,-1,-1,-1,-1,-1,-1,-1],"loss_changes":[4.169934E0,3.6242223E0,3.5222342E0,2.0633023E0,4.728664E0,3.09123E0,2.2886796E0,0E0,0E0,0E0,0E0,0E0,0E0,0E0,0E0],"parents":[2147483647,0,0,1,1,2,2,3,3,4,4,5,5,6,6],"right_children":[2,4,6,8,10,12,14,-1,-1,-1,-1,-1,-1,-1,-1],"split_conditions":[1.11783996E-1,-8.785776E-1,9.6795225E-1,-1E-2,2.802683E-1,1.9996643E-2,2.2249323E-4,-2.8487273E-2,1.1529828E-3,-0E0,3.357354E-2,-1.4173355E-2,-1.9641104E-4,-1.0449155E-3,1.34867625E-2],"split_indices":[16,21,16,4,9,1,19,0,0,0,0,0,0,0,0],"split_type":[0,0,0,0,0,0,0,0,0,0,0,0,0,0,0],"sum_hessian":[1.319E3,2.42E2,1.077E3,5.9E1,1.83E2,6.75E2,4.02E2,2E1,3.9E1,1E2,8.3E1,3.45E2,3.3E2,2.7E2,1.32E2],"tree_param":{"num_deleted":"0","num_feature":"22","num_nodes":"15","size_leaf_vector":"1"}},{"base_weights":[1.2793516E-2,2.6523584E-2,-2.6336792E-1,1.2887001E-1,4.0530995E-3,3.3871803E-4,-5.1659876E-1,2.511698E-2,-1.4091526E-3,-1.9261264E-3,7.614332E-3,-0E0,-6.556941E-2],"categories":[],"categories_nodes":[],"categories_segments":[],"categories_sizes":[],"default_left":[0,0,0,0,0,0,0,0,0,0,0,0,0],"id":51,"left_children":[1,3,5,7,9,-1,11,-1,-1,-1,-1,-1,-1],"loss_changes":[4.3199067E0,2.5115497E0,5.0471325E0,4.541093E0,2.0804482E0,0E0,1.1887484E0,0E0,0E0,0E0,0E0,0E0,0E0],"parents":[2147483647,0,0,1,1,2,2,3,3,4,4,6,6],"right_children":[2,4,6,8,10,-1,12,-1,-1,-1,-1,-1,-1],"split_conditions":[7.573185E-5,1.11783996E-1,-7.99942E-2,4.857167E-1,1.914E1,3.3871803E-4,7.439844E-2,2.511698E-2,-1.4091526E-3,-1.9261264E-3,7.614332E-3,-0E0,-6.556941E-2],"split_indices":[8,16,1,18,2,0,5,0,0,0,0,0,0],"split_type":[0,0,0,0,0,0,0,0,0,0,0,0,0],"sum_hessian":[1.298E3,1.253E3,4.5E1,1.96E2,1.057E3,2E1,2.5E1,1.1E2,8.6E1,7.75E2,2.82E2,1.1E1,1.4E1],"tree_param":{"num_deleted":"0","num_feature":"22","num_nodes":"13","size_leaf_vector":"1"}},{"base_weights":[-0E0,-1.2137359E-2,3.3111617E-1,-4.0200163E-2,6.31995E-2,-0E0,5.6057923E-2,-0E0,-1.4586224E-2,2.1762403E-3,3.6784325E-2],"categories":[],"categories_nodes":[],"categories_segments":[],"categories_sizes":[],"default_left":[0,0,0,0,0,0,0,0,0,0,0],"id":52,"left_children":[1,3,5,7,9,-1,-1,-1,-1,-1,-1],"loss_changes":[4.748526E0,2.683487E0,2.3301716E0,4.536929E0,2.9724884E0,0E0,0E0,0E0,0E0,0E0,0E0],"parents":[2147483647,0,0,1,1,2,2,3,3,4,4],"right_children":[2,4,6,8,10,-1,-1,-1,-1,-1,-1],"split_conditions":[6.8136466E-1,7.0558804E-1,2E-2,8.037947E-8,5.7625595E-2,-0E0,5.6057923E-2,-0E0,-1.4586224E-2,2.1762403E-3,3.6784325E-2],"split_indices":[11,14,4,8,19,0,0,0,0,0,0],"split_type":[0,0,0,0,0,0,0,0,0,0,0],"sum_hessian":[1.318E3,1.284E3,3.4E1,9.66E2,3.18E2,2.1E1,1.3E1,7.04E2,2.62E2,2.97E2,2.1E1],"tree_param":{"num_deleted":"0","num_feature":"22","num_nodes":"11","size_leaf_vector":"1"}},{"base_weights":[8.609388E-3,-3.141225E-3,2.9744872E-1,4.655367E-3,-1.4550649E-1,-0E0,4.263683E-1,1.1948352E-2,-5.168829E-4,-0E0,-2.6422715E-2,7.325165E-3,7.449656E-2],"categories":[],"categories_nodes":[],"categories_segments":[],"categories_sizes":[],"default_left":[0,0,0,0,0,0,0,0,0,0,0,0,0],"id":53,"left_children":[1,3,5,7,9,-1,11,-1,-1,-1,-1,-1,-1],"loss_changes":[5.3621073E0,1.8251619E0,3.019022E0,1.762874E0,1.8011779E0,0E0,2.7190962E0,0E0,0E0,0E0,0E0,0E0,0E0],"parents":[2147483647,0,0,1,1,2,2,3,3,4,4,6,6],"right_children":[2,4,6,8,10,-1,12,-1,-1,-1,-1,-1,-1],"split_conditions":[5E-2,6.140495E-1,-2.972816E-1,2.811689E-2,2.679688E-4,-0E0,5.552334E-2,1.1948352E-2,-5.168829E-4,-0E0,-2.6422715E-2,7.325165E-3,7.449656E-2],"split_indices":[4,5,21,16,11,0,6,0,0,0,0,0,0],"split_type":[0,0,0,0,0,0,0,0,0,0,0,0,0],"sum_hessian":[1.32E3,1.266E3,5.4E1,1.188E3,7.8E1,1.5E1,3.9E1,1.08E2,1.08E3,3.7E1,4.1E1,2.8E1,1.1E1],"tree_param":{"num_deleted":"0","num_feature":"22","num_nodes":"13","size_leaf_vector":"1"}},{"base_weights":[-6.534222E-3,7.2318815E-2,-3.3681408E-2,-0E0,1.5431128E-1,-0E0,-1.2647504E-1,6.9157337E-3,-1.1757271E-2,2.8348614E-2,-0E0,1.5373927E-3,-2.7463125E-2,-1.5777705E-2,1.2603136E-2],"categories":[],"categories_nodes":[],"categories_segments":[],"categories_sizes":[],"default_left":[0,0,0,0,0,0,0,0,0,0,0,0,0,0,0],"id":54,"left_children":[1,3,5,7,9,11,13,-1,-1,-1,-1,-1,-1,-1,-1],"loss_changes":[2.7102964E0,1.5563837E0,3.3941593E0,1.5721337E0,2.6048968E0,2.7951658E0,2.9015484E0,0E0,0E0,0E0,0E0,0E0,0E0,0E0,0E0],"parents":[2147483647,0,0,1,1,2,2,3,3,4,4,5,5,6,6],"right_children":[2,4,6,8,10,12,14,-1,-1,-1,-1,-1,-1,-1,-1],"split_conditions":[-7.481584E-1,1.2511169E-4,1.431163E-1,1.7654102E-8,1.716E1,1.406169E-4,1.8587427E0,6.9157337E-3,-1.1757271E-2,2.8348614E-2,-0E0,1.5373927E-3,-2.7463125E-2,-1.5777705E-2,1.2603136E-2],"split_indices":[20,11,12,8,2,8,20,0,0,0,0,0,0,0,0],"split_type":[0,0,0,0,0,0,0,0,0,0,0,0,0,0,0],"sum_hessian":[1.302E3,3.03E2,9.99E2,1.77E2,1.26E2,7.23E2,2.76E2,1.23E2,5.4E1,6E1,6.6E1,6.98E2,2.5E1,2.54E2,2.2E1],"tree_param":{"num_deleted":"0","num_feature":"22","num_nodes":"15","size_leaf_vector":"1"}},{"base_weights":[1.3882004E-2,3.5472347E-3,3.7142852E-1,-1.1376905E-3,2.9463148E-1,7.726058E-2,-4.916123E-3,5.7841744E-4,-2.3548609E-2,-0E0,4.107756E-2],"categories":[],"categories_nodes":[],"categories_segments":[],"categories_sizes":[],"default_left":[0,0,0,0,0,0,0,0,0,0,0],"id":55,"left_children":[1,3,5,7,9,-1,-1,-1,-1,-1,-1],"loss_changes":[3.8395474E0,2.6393461E0,7.7803965E0,2.912577E0,8.647969E-1,0E0,0E0,0E0,0E0,0E0,0E0],"parents":[2147483647,0,0,1,1,2,2,3,3,4,4],"right_children":[2,4,6,8,10,-1,-1,-1,-1,-1,-1],"split_conditions":[4.138E1,7E-2,-2.4255814E-1,3.1798958E-5,1.6577158E-4,7.726058E-2,-4.916123E-3,5.7841744E-4,-2.3548609E-2,-0E0,4.107756E-2],"split_indices":[2,3,15,8,19,0,0,0,0,0,0],"split_type":[0,0,0,0,0,0,0,0,0,0,0],"sum_hessian":[1.327E3,1.305E3,2.2E1,1.282E3,2.3E1,1.1E1,1.1E1,1.241E3,4.1E1,1.1E1,1.2E1],"tree_param":{"num_deleted":"0","num_feature":"22","num_nodes":"11","size_leaf_vector":"1"}},{"base_weights":[-1.3800839E-5,1.3270923E-2,-1.3513215E-1,3.1362101E-3,4.3667927E-2,-2.4338509E-1,-0E0,1.3963492E-3,-2.8565336E-2,-0E0,-3.164206E-2,-1.695875E-2,8.435529E-3],"categories":[],"categories_nodes":[],"categories_segments":[],"categories_sizes":[],"default_left":[0,0,0,0,0,0,0,0,0,0,0,0,0],"id":56,"left_children":[1,3,5,7,-1,9,11,-1,-1,-1,-1,-1,-1],"loss_changes":[2.660256E0,3.7851973E0,2.078609E0,3.0521307E0,0E0,1.498611E0,1.0751119E0,0E0,0E0,0E0,0E0,0E0,0E0],"parents":[2147483647,0,0,1,1,2,2,3,3,5,5,6,6],"right_children":[2,4,6,8,-1,10,12,-1,-1,-1,-1,-1,-1],"split_conditions":[5E-2,5.675145E-3,0E0,2.840781E0,4.3667927E-2,-1.3152912E0,-6.385355E-1,1.3963492E-3,-2.8565336E-2,-0E0,-3.164206E-2,-1.695875E-2,8.435529E-3],"split_indices":[0,8,4,17,0,9,10,0,0,0,0,0,0],"split_type":[0,0,0,0,0,0,0,0,0,0,0,0,0],"sum_hessian":[1.271E3,1.144E3,1.27E2,1.132E3,1.2E1,6.9E1,5.8E1,1.107E3,2.5E1,2E1,4.9E1,1.5E1,4.3E1],"tree_param":{"num_deleted":"0","num_feature":"22","num_nodes":"13","size_leaf_vector":"1"}},{"base_weights":[-5.9408234E-3,-2.6183942E-1,3.4343686E-3,-4.1104987E-1,-0E0,-6.090231E-2,3.4285903E-2,-5.572708E-2,-0E0,-0E0,-1.4526484E-2,-2.291891E-3,9.2568435E-3],"categories":[],"categories_nodes":[],"categories_segments":[],"categories_sizes":[],"default_left":[0,0,0,0,0,0,0,0,0,0,0,0,0],"id":57,"left_children":[1,3,5,7,-1,9,11,-1,-1,-1,-1,-1,-1],"loss_changes":[3.9157984E0,1.5566571E0,2.4569974E0,1.6341777E0,0E0,2.4794369E0,3.392745E0,0E0,0E0,0E0,0E0,0E0,0E0],"parents":[2147483647,0,0,1,1,2,2,3,3,5,5,6,6],"right_children":[2,4,6,8,-1,10,12,-1,-1,-1,-1,-1,-1],"split_conditions":[-1.7554494E0,-1.7449036E-1,-5.542553E-1,2.902357E-1,-0E0,5.478813E-2,-3.0407974E-1,-5.572708E-2,-0E0,-0E0,-1.4526484E-2,-2.291891E-3,9.2568435E-3],"split_indices":[13,15,14,16,0,12,10,0,0,0,0,0,0],"split_type":[0,0,0,0,0,0,0,0,0,0,0,0,0],"sum_hessian":[1.311E3,5E1,1.261E3,2.5E1,2.5E1,3.76E2,8.85E2,1.4E1,1.1E1,2.1E2,1.66E2,4.33E2,4.52E2],"tree_param":{"num_deleted":"0","num_feature":"22","num_nodes":"13","size_leaf_vector":"1"}},{"base_weights":[1.0820903E-3,3.4806754E-2,-2.829765E-3,1.5680518E-2,-1.9772391E-1,-3.5959564E-3,4.7022174E-3,3.8495336E-3,-3.5989173E-2],"categories":[],"categories_nodes":[],"categories_segments":[],"categories_sizes":[],"default_left":[0,0,0,0,0,0,0,0,0],"id":58,"left_children":[1,-1,3,5,7,-1,-1,-1,-1],"loss_changes":[2.9228888E0,0E0,5.3524694E0,2.144692E0,6.4147997E0,0E0,0E0,0E0,0E0],"parents":[2147483647,0,0,2,2,3,3,4,4],"right_children":[2,-1,4,6,8,-1,-1,-1,-1],"split_conditions":[-9E-2,3.4806754E-2,2.8925374E-6,1.363E1,-6.640687E-2,-3.5959564E-3,4.7022174E-3,3.8495336E-3,-3.5989173E-2],"split_indices":[0,0,8,2,15,0,0,0,0],"split_type":[0,0,0,0,0,0,0,0,0],"sum_hessian":[1.339E3,1.5E1,1.324E3,1.202E3,1.22E2,4.27E2,7.75E2,4.7E1,7.5E1],"tree_param":{"num_deleted":"0","num_feature":"22","num_nodes":"9","size_leaf_vector":"1"}},{"base_weights":[-0E0,5.607529E-2,-3.918E-2,-1.0272258E-1,1.17272444E-1,-5.648653E-2,3.293615E-2,1.0699922E-3,-2.1311006E-2,-0E0,2.0446403E-2,2.5508956E-3,-1.2020354E-2],"categories":[],"categories_nodes":[],"categories_segments":[],"categories_sizes":[],"default_left":[0,0,0,0,0,0,0,0,0,0,0,0,0],"id":59,"left_children":[1,3,5,7,9,11,-1,-1,-1,-1,-1,-1,-1],"loss_changes":[2.925752E0,5.39626E0,4.554289E0,2.5095687E0,4.263169E0,4.647607E0,0E0,0E0,0E0,0E0,0E0,0E0,0E0],"parents":[2147483647,0,0,1,1,2,2,3,3,4,4,5,5],"right_children":[2,4,6,8,10,12,-1,-1,-1,-1,-1,-1,-1],"split_conditions":[-4.9017432E-1,3.7561254E-8,6.8136466E-1,-6.3140415E-2,-2.550107E-1,1.4710883E-8,3.293615E-2,1.0699922E-3,-2.1311006E-2,-0E0,2.0446403E-2,2.5508956E-3,-1.2020354E-2],"split_indices":[18,19,11,12,21,8,0,0,0,0,0,0,0],"split_type":[0,0,0,0,0,0,0,0,0,0,0,0,0],"sum_hessian":[1.323E3,5.34E2,7.89E2,1.34E2,4E2,7.68E2,2.1E1,5.9E1,7.5E1,1.86E2,2.14E2,3.28E2,4.4E2],"tree_param":{"num_deleted":"0","num_feature":"22","num_nodes":"13","size_leaf_vector":"1"}},{"base_weights":[-1.044357E-2,-1.8666113E-3,-3.269257E-2,-9.745271E-3,3.339845E-2,5.71162E-3,-4.0297424E-3],"categories":[],"categories_nodes":[],"categories_segments":[],"categories_sizes":[],"default_left":[0,0,0,0,0,0,0],"id":60,"left_children":[1,3,-1,5,-1,-1,-1],"loss_changes":[2.6610386E0,2.5612154E0,0E0,2.746212E0,0E0,0E0,0E0],"parents":[2147483647,0,0,1,1,3,3],"right_children":[2,4,-1,6,-1,-1,-1],"split_conditions":[9.982419E-1,2.6972904E0,-3.269257E-2,-5.988485E-1,3.339845E-2,5.71162E-3,-4.0297424E-3],"split_indices":[5,15,0,20,0,0,0],"split_type":[0,0,0,0,0,0,0],"sum_hessian":[1.292E3,1.275E3,1.7E1,1.262E3,1.3E1,3.69E2,8.93E2],"tree_param":{"num_deleted":"0","num_feature":"22","num_nodes":"7","size_leaf_vector":"1"}},{"base_weights":[-2.720044E-3,-5.4316614E-2,3.86139E-2,-1.6975726E-3,-2.9002106E-1,-1.1798413E-2,1.9468683E-1,-2.1046477E-3,2.5034305E-2,1.2071297E-3,-3.832101E-2,1.1073003E-3,-3.585915E-2,-0E0,5.268454E-2],"categories":[],"categories_nodes":[],"categories_segments":[],"categories_sizes":[],"default_left":[0,0,0,0,0,0,0,0,0,0,0,0,0,0,0],"id":61,"left_children":[1,3,5,7,9,11,13,-1,-1,-1,-1,-1,-1,-1,-1],"loss_changes":[2.935157E0,7.0125017E0,6.222456E0,2.1492078E0,4.51217E0,5.5495887E0,1.2167753E1,0E0,0E0,0E0,0E0,0E0,0E0,0E0,0E0],"parents":[2147483647,0,0,1,1,2,2,3,3,4,4,5,5,6,6],"right_children":[2,4,6,8,10,12,14,-1,-1,-1,-1,-1,-1,-1,-1],"split_conditions":[-3.1738928E-1,1.1864811E-7,6.726363E-1,9.098259E-8,-2.9754868E-1,1.543766E-5,1.3322823E-3,-2.1046477E-3,2.5034305E-2,1.2071297E-3,-3.832101E-2,1.1073003E-3,-3.585915E-2,-0E0,5.268454E-2],"split_indices":[10,8,14,8,7,8,11,0,0,0,0,0,0,0,0],"split_type":[0,0,0,0,0,0,0,0,0,0,0,0,0,0,0],"sum_hessian":[1.34E3,6.26E2,7.14E2,5.28E2,9.8E1,5.31E2,1.83E2,5.07E2,2.1E1,2E1,7.8E1,4.98E2,3.3E1,1.25E2,5.8E1],"tree_param":{"num_deleted":"0","num_feature":"22","num_nodes":"15","size_leaf_vector":"1"}},{"base_weights":[9.341371E-3,-5.4232273E-2,4.0106505E-2,8.981764E-2,-1.3928254E-1,-1.8521369E-1,5.5871923E-2,-0E0,3.2899793E-2,5.6622E-4,-3.3061102E-2,-0E0,-2.862742E-2,1.8266419E-2,8.8297855E-4],"categories":[],"categories_nodes":[],"categories_segments":[],"categories_sizes":[],"default_left":[0,0,0,0,0,0,0,0,0,0,0,0,0,0,0],"id":62,"left_children":[1,3,5,7,9,11,13,-1,-1,-1,-1,-1,-1,-1,-1],"loss_changes":[2.5722601E0,5.2063966E0,3.0072944E0,2.6062222E0,8.913426E0,1.545736E0,4.9163427E0,0E0,0E0,0E0,0E0,0E0,0E0,0E0,0E0],"parents":[2147483647,0,0,1,1,2,2,3,3,4,4,5,5,6,6],"right_children":[2,4,6,8,10,12,14,-1,-1,-1,-1,-1,-1,-1,-1],"split_conditions":[-5.542553E-1,-1.3221931E0,-1.7554494E0,1.5316719E-7,3.143878E-8,1.3033686E-8,2.3962675E-1,-0E0,3.2899793E-2,5.6622E-4,-3.3061102E-2,-0E0,-2.862742E-2,1.8266419E-2,8.8297855E-4],"split_indices":[14,14,13,8,8,8,16,0,0,0,0,0,0,0,0],"split_type":[0,0,0,0,0,0,0,0,0,0,0,0,0,0,0],"sum_hessian":[1.32E3,3.98E2,9.22E2,1.35E2,2.63E2,4.3E1,8.79E2,1.1E2,2.5E1,1.49E2,1.14E2,1.3E1,3E1,2.07E2,6.72E2],"tree_param":{"num_deleted":"0","num_feature":"22","num_nodes":"15","size_leaf_vector":"1"}},{"base_weights":[-2.9587548E-3,2.4184052E-2,-6.264781E-2,3.0237925E-3,2.2153825E-1,-1.02145754E-1,1.9891274E-1,5.4217055E-3,-4.9021877E-3,-0E0,3.4423847E-2,-4.532536E-2,-4.717678E-3,2.9643044E-2,-0E0],"categories":[],"categories_nodes":[],"categories_segments":[],"categories_sizes":[],"default_left":[0,0,0,0,0,0,0,0,0,0,0,0,0,0,0],"id":63,"left_children":[1,3,5,7,9,11,13,-1,-1,-1,-1,-1,-1,-1,-1],"loss_changes":[2.2538612E0,3.0076187E0,4.4883304E0,2.3434973E0,2.6195416E0,6.206001E0,1.7577834E0,0E0,0E0,0E0,0E0,0E0,0E0,0E0,0E0],"parents":[2147483647,0,0,1,1,2,2,3,3,4,4,5,5,6,6],"right_children":[2,4,6,8,10,12,14,-1,-1,-1,-1,-1,-1,-1,-1],"split_conditions":[2.9689094E-1,8.57063E-2,1.3221471E0,3.7488054E-2,-1.389975E-1,1.2965426E-2,2.6277384E-1,5.4217055E-3,-4.9021877E-3,-0E0,3.4423847E-2,-4.532536E-2,-4.717678E-3,2.9643044E-2,-0E0],"split_indices":[15,19,21,12,13,16,12,0,0,0,0,0,0,0,0],"split_type":[0,0,0,0,0,0,0,0,0,0,0,0,0,0,0],"sum_hessian":[1.308E3,8.69E2,4.39E2,8.05E2,6.4E1,3.95E2,4.4E1,4.32E2,3.73E2,2.3E1,4.1E1,3.6E1,3.59E2,3.3E1,1.1E1],"tree_param":{"num_deleted":"0","num_feature":"22","num_nodes":"15","size_leaf_vector":"1"}},{"base_weights":[-7.926416E-3,-2.010307E-2,2.3816286E-1,-2.5580123E-3,-1.6030096E-1,-0E0,4.3242164E-2,-3.0787361E-3,6.3070403E-3,-4.570374E-2,3.9986596E-3],"categories":[],"categories_nodes":[],"categories_segments":[],"categories_sizes":[],"default_left":[0,0,0,0,0,0,0,0,0,0,0],"id":64,"left_children":[1,3,5,7,9,-1,-1,-1,-1,-1,-1],"loss_changes":[3.4211848E0,2.711357E0,2.311929E0,2.245497E0,9.272808E0,0E0,0E0,0E0,0E0,0E0,0E0],"parents":[2147483647,0,0,1,1,2,2,3,3,4,4],"right_children":[2,4,6,8,10,-1,-1,-1,-1,-1,-1],"split_conditions":[5E-2,2.8925374E-6,1.1492172E-6,1.1390935E-1,-1.2715329E-1,-0E0,4.3242164E-2,-3.0787361E-3,6.3070403E-3,-4.570374E-2,3.9986596E-3],"split_indices":[4,8,8,5,13,0,0,0,0,0,0],"split_type":[0,0,0,0,0,0,0,0,0,0,0],"sum_hessian":[1.332E3,1.287E3,4.5E1,1.169E3,1.18E2,2.6E1,1.9E1,8.49E2,3.2E2,4.8E1,7E1],"tree_param":{"num_deleted":"0","num_feature":"22","num_nodes":"11","size_leaf_vector":"1"}},{"base_weights":[-0E0,-3.267506E-2,5.2855004E-2,-5.2026138E-2,2.1760568E-1,-3.3754546E-2,1.4216676E-1,-2.87175E-3,-4.328441E-2,-0E0,3.9001618E-2,5.401442E-3,-1.3092156E-2,-2.3499465E-2,1.7321164E-2],"categories":[],"categories_nodes":[],"categories_segments":[],"categories_sizes":[],"default_left":[0,0,0,0,0,0,0,0,0,0,0,0,0,0,0],"id":65,"left_children":[1,3,5,7,9,11,13,-1,-1,-1,-1,-1,-1,-1,-1],"loss_changes":[2.33953E0,3.5095718E0,4.4455624E0,5.281053E0,2.1685696E0,2.6324062E0,4.0687103E0,0E0,0E0,0E0,0E0,0E0,0E0,0E0,0E0],"parents":[2147483647,0,0,1,1,2,2,3,3,4,4,5,5,6,6],"right_children":[2,4,6,8,10,12,14,-1,-1,-1,-1,-1,-1,-1,-1],"split_conditions":[2.202554E-1,1.8962107E0,1.5618633E-4,1.543766E-5,4.4406512E-8,1.2307909E-8,-1.7618959E0,-2.87175E-3,-4.328441E-2,-0E0,3.9001618E-2,5.401442E-3,-1.3092156E-2,-2.3499465E-2,1.7321164E-2],"split_indices":[13,14,11,8,8,8,14,0,0,0,0,0,0,0,0],"split_type":[0,0,0,0,0,0,0,0,0,0,0,0,0,0,0],"sum_hessian":[1.32E3,7.98E2,5.22E2,7.57E2,4.1E1,2.51E2,2.71E2,7.31E2,2.6E1,2.1E1,2E1,1.2E2,1.31E2,1.3E1,2.58E2],"tree_param":{"num_deleted":"0","num_feature":"22","num_nodes":"15","size_leaf_vector":"1"}},{"base_weights":[2.1561464E-2,1.4679961E-1,6.4693848E-3,-0E0,4.38725E-1,1.5998747E-2,-3.4184735E-2,7.7288277E-3,-1.5969245E-2,-0E0,5.63318E-2,1.3746076E-2,2.2382285E-4],"categories":[],"categories_nodes":[],"categories_segments":[],"categories_sizes":[],"default_left":[0,0,0,0,0,0,0,0,0,0,0,0,0],"id":66,"left_children":[1,3,5,7,9,11,-1,-1,-1,-1,-1,-1,-1],"loss_changes":[2.0371428E0,4.4416294E0,3.1884716E0,1.1630719E0,1.606185E0,1.6261206E0,0E0,0E0,0E0,0E0,0E0,0E0,0E0],"parents":[2147483647,0,0,1,1,2,2,3,3,4,4,5,5],"right_children":[2,4,6,8,10,12,-1,-1,-1,-1,-1,-1,-1],"split_conditions":[-4E-2,4.4808667E-3,6.8290083E-4,6.4576215E-1,3.471511E-2,-5E-1,-3.4184735E-2,7.7288277E-3,-1.5969245E-2,-0E0,5.63318E-2,1.3746076E-2,2.2382285E-4],"split_indices":[0,19,8,20,12,1,0,0,0,0,0,0,0],"split_type":[0,0,0,0,0,0,0,0,0,0,0,0,0],"sum_hessian":[1.308E3,1.13E2,1.195E3,8.4E1,2.9E1,1.179E3,1.6E1,6.6E1,1.8E1,1.1E1,1.8E1,8.8E1,1.091E3],"tree_param":{"num_deleted":"0","num_feature":"22","num_nodes":"13","size_leaf_vector":"1"}},{"base_weights":[-0E0,-2.3613848E-2,7.503352E-2,2.9247206E-2,-7.82248E-2,1.3731094E-1,-7.2296284E-2,-1.1517542E-3,9.307855E-3,-1.127178E-2,8.199242E-3,2.0164462E-2,-2.2254828E-3,7.2385375E-3,-1.9403966E-2],"categories":[],"categories_nodes":[],"categories_segments":[],"categories_sizes":[],"default_left":[0,0,0,0,0,0,0,0,0,0,0,0,0,0,0],"id":67,"left_children":[1,3,5,7,9,11,13,-1,-1,-1,-1,-1,-1,-1,-1],"loss_changes":[2.4962325E0,3.0384436E0,3.424384E0,1.5863284E0,3.3914592E0,3.5055447E0,2.2362752E0,0E0,0E0,0E0,0E0,0E0,0E0,0E0,0E0],"parents":[2147483647,0,0,1,1,2,2,3,3,4,4,5,5,6,6],"right_children":[2,4,6,8,10,12,14,-1,-1,-1,-1,-1,-1,-1,-1],"split_conditions":[3.789845E-4,7.37591E-2,4.911104E-2,-4.760662E-1,9.062467E-1,7.101738E-1,2.9867102E-4,-1.1517542E-3,9.307855E-3,-1.127178E-2,8.199242E-3,2.0164462E-2,-2.2254828E-3,7.2385375E-3,-1.9403966E-2],"split_indices":[19,5,7,6,9,13,11,0,0,0,0,0,0,0,0],"split_type":[0,0,0,0,0,0,0,0,0,0,0,0,0,0,0],"sum_hessian":[1.327E3,9.9E2,3.37E2,4.78E2,5.12E2,2.51E2,8.6E1,2.73E2,2.05E2,4.31E2,8.1E1,1.85E2,6.6E1,3.1E1,5.5E1],"tree_param":{"num_deleted":"0","num_feature":"22","num_nodes":"15","size_leaf_vector":"1"}},{"base_weights":[8.4923184E-4,-4.203524E-2,7.402145E-2,1.1170725E-2,-1.628056E-1,-0E0,1.7131971E-1,4.1073123E-3,-1.948613E-2,-8.865245E-3,-5.598714E-2,7.7591604E-3,-7.6494473E-3,2.2297287E-2,-1.5870638E-2],"categories":[],"categories_nodes":[],"categories_segments":[],"categories_sizes":[],"default_left":[0,0,0,0,0,0,0,0,0,0,0,0,0,0,0],"id":68,"left_children":[1,3,5,7,9,11,13,-1,-1,-1,-1,-1,-1,-1,-1],"loss_changes":[4.2597666E0,5.67267E0,4.148019E0,3.2826931E0,5.52784E0,1.8507904E0,5.1604986E0,0E0,0E0,0E0,0E0,0E0,0E0,0E0,0E0],"parents":[2147483647,0,0,1,1,2,2,3,3,4,4,5,5,6,6],"right_children":[2,4,6,8,10,12,14,-1,-1,-1,-1,-1,-1,-1,-1],"split_conditions":[2.1584609E-1,3.991749E-4,2.1388425E-4,1.18916966E-1,1.3057975E0,-4.9696994E-1,2.3722637E0,4.1073123E-3,-1.948613E-2,-8.865245E-3,-5.598714E-2,7.7591604E-3,-7.6494473E-3,2.2297287E-2,-1.5870638E-2],"split_indices":[13,11,11,13,10,17,6,0,0,0,0,0,0,0,0],"split_type":[0,0,0,0,0,0,0,0,0,0,0,0,0,0,0],"sum_hessian":[1.313E3,8.05E2,5.08E2,5.47E2,2.58E2,2.78E2,2.3E2,4.94E2,5.3E1,2.34E2,2.4E1,1.22E2,1.56E2,2.05E2,2.5E1],"tree_param":{"num_deleted":"0","num_feature":"22","num_nodes":"15","size_leaf_vector":"1"}},{"base_weights":[-9.050706E-3,-7.830992E-2,2.1205503E-2,6.8105473E-3,-2.3509549E-1,1.6460244E-1,-0E0,-4.0774625E-3,5.2885953E-3,-0E0,-2.5992084E-2,-4.9612476E-3,2.6039625E-2,1.7601872E-2,-1.6840539E-3],"categories":[],"categories_nodes":[],"categories_segments":[],"categories_sizes":[],"default_left":[0,0,0,0,0,0,0,0,0,0,0,0,0,0,0],"id":69,"left_children":[1,3,5,7,9,11,13,-1,-1,-1,-1,-1,-1,-1,-1],"loss_changes":[3.0305576E0,6.6039696E0,2.9323947E0,7.1593195E-1,1.8802776E0,3.5100684E0,2.4566731E0,0E0,0E0,0E0,0E0,0E0,0E0,0E0,0E0],"parents":[2147483647,0,0,1,1,2,2,3,3,4,4,5,5,6,6],"right_children":[2,4,6,8,10,12,14,-1,-1,-1,-1,-1,-1,-1,-1],"split_conditions":[1.363E1,2.1752545E-8,2.811689E-2,-1.1824939E-1,-1.4003425E0,-4.7062376E-1,1.415E1,-4.0774625E-3,5.2885953E-3,-0E0,-2.5992084E-2,-4.9612476E-3,2.6039625E-2,1.7601872E-2,-1.6840539E-3],"split_indices":[2,8,16,15,13,13,2,0,0,0,0,0,0,0,0],"split_type":[0,0,0,0,0,0,0,0,0,0,0,0,0,0,0],"sum_hessian":[1.354E3,4.37E2,9.17E2,2.76E2,1.61E2,1.16E2,8.01E2,1.07E2,1.69E2,1.3E1,1.48E2,3E1,8.6E1,6E1,7.41E2],"tree_param":{"num_deleted":"0","num_feature":"22","num_nodes":"15","size_leaf_vector":"1"}},{"base_weights":[1.4478292E-2,-2.364813E-2,6.420137E-2,5.9808515E-2,-8.7759964E-2,9.397246E-2,-9.419909E-2,1.7423289E-2,-7.2201696E-4,-3.1730507E-2,-4.1457457E-3,3.5663934E-3,1.8641748E-2,1.0270365E-2,-2.4429118E-2],"categories":[],"categories_nodes":[],"categories_segments":[],"categories_sizes":[],"default_left":[0,0,0,0,0,0,0,0,0,0,0,0,0,0,0],"id":70,"left_children":[1,3,5,7,9,11,13,-1,-1,-1,-1,-1,-1,-1,-1],"loss_changes":[2.6301153E0,3.9705431E0,2.9315832E0,2.909925E0,3.4567897E0,2.2704988E0,3.2986286E0,0E0,0E0,0E0,0E0,0E0,0E0,0E0,0E0],"parents":[2147483647,0,0,1,1,2,2,3,3,4,4,5,5,6,6],"right_children":[2,4,6,8,10,12,14,-1,-1,-1,-1,-1,-1,-1,-1],"split_conditions":[-1.2461686E-1,-7.897052E-1,1.8828208E0,-4.683243E-1,-3.1178033E-1,8.580558E-4,-5.396108E-1,1.7423289E-2,-7.2201696E-4,-3.1730507E-2,-4.1457457E-3,3.5663934E-3,1.8641748E-2,1.0270365E-2,-2.4429118E-2],"split_indices":[10,10,6,20,7,11,18,0,0,0,0,0,0,0,0],"split_type":[0,0,0,0,0,0,0,0,0,0,0,0,0,0,0],"sum_hessian":[1.312E3,7.12E2,6E2,2.9E2,4.22E2,5.23E2,7.7E1,1.15E2,1.75E2,4.9E1,3.73E2,3.56E2,1.67E2,2.7E1,5E1],"tree_param":{"num_deleted":"0","num_feature":"22","num_nodes":"15","size_leaf_vector":"1"}},{"base_weights":[1.6805066E-2,2.4946285E-2,-3.378901E-2,6.71805E-3,2.5677365E-1,-2.4750296E-3,5.7296404E-3,4.4717528E-2,-0E0],"categories":[],"categories_nodes":[],"categories_segments":[],"categories_sizes":[],"default_left":[0,0,0,0,0,0,0,0,0],"id":71,"left_children":[1,3,-1,5,7,-1,-1,-1,-1],"loss_changes":[3.0647638E0,4.7522197E0,0E0,2.191374E0,4.8379154E0,0E0,0E0,0E0,0E0],"parents":[2147483647,0,0,1,1,3,3,4,4],"right_children":[2,4,-1,6,8,-1,-1,-1,-1],"split_conditions":[9.999585E-1,7.5954645E-6,-3.378901E-2,8.000183E-2,1E-2,-2.4750296E-3,5.7296404E-3,4.4717528E-2,-0E0],"split_indices":[5,8,0,1,0,0,0,0,0],"split_type":[0,0,0,0,0,0,0,0,0],"sum_hessian":[1.314E3,1.3E3,1.4E1,1.224E3,7.6E1,7.26E2,4.98E2,4.1E1,3.5E1],"tree_param":{"num_deleted":"0","num_feature":"22","num_nodes":"9","size_leaf_vector":"1"}},{"base_weights":[1.3870759E-2,3.7666135E-2,5.5507594E-3,2.5022436E-2,-7.965235E-2,4.161385E-4,9.507991E-3,-1.4172652E-2,2.0724222E-2],"categories":[],"categories_nodes":[],"categories_segments":[],"categories_sizes":[],"default_left":[0,0,0,0,0,0,0,0,0],"id":72,"left_children":[1,-1,3,5,7,-1,-1,-1,-1],"loss_changes":[2.899518E0,0E0,1.9919614E0,1.3388376E0,4.219584E0,0E0,0E0,0E0,0E0],"parents":[2147483647,0,0,2,2,3,3,4,4],"right_children":[2,-1,4,6,8,-1,-1,-1,-1],"split_conditions":[-9E-2,3.7666135E-2,6.5156405E-7,7.471765E-8,9.8208755E-1,4.161385E-4,9.507991E-3,-1.4172652E-2,2.0724222E-2],"split_indices":[0,0,8,8,16,0,0,0,0],"split_type":[0,0,0,0,0,0,0,0,0],"sum_hessian":[1.292E3,1.3E1,1.279E3,1.073E3,2.06E2,8.73E2,2E2,1.79E2,2.7E1],"tree_param":{"num_deleted":"0","num_feature":"22","num_nodes":"9","size_leaf_vector":"1"}},{"base_weights":[1.151848E-2,-1.4361707E-2,6.693732E-2,-0E0,-1.877711E-1,-1.9357389E-2,2.2370107E-1,-5.4618884E-3,5.998627E-3,-0E0,-5.752171E-2,-7.974531E-3,1.2227968E-2,-0E0,3.065842E-2],"categories":[],"categories_nodes":[],"categories_segments":[],"categories_sizes":[],"default_left":[0,0,0,0,0,0,0,0,0,0,0,0,0,0,0],"id":73,"left_children":[1,3,5,7,9,11,13,-1,-1,-1,-1,-1,-1,-1,-1],"loss_changes":[2.0501494E0,2.344252E0,6.798911E0,2.8435855E0,5.786755E0,2.6056921E0,3.7384748E0,0E0,0E0,0E0,0E0,0E0,0E0,0E0,0E0],"parents":[2147483647,0,0,1,1,2,2,3,3,4,4,5,5,6,6],"right_children":[2,4,6,8,10,12,14,-1,-1,-1,-1,-1,-1,-1,-1],"split_conditions":[3.345693E-1,1.3562524E0,1.742E1,-3.0407974E-1,1.7429842E-3,9.820343E-1,1.8927459E-8,-5.4618884E-3,5.998627E-3,-0E0,-5.752171E-2,-7.974531E-3,1.2227968E-2,-0E0,3.065842E-2],"split_indices":[13,10,2,10,11,18,8,0,0,0,0,0,0,0,0],"split_type":[0,0,0,0,0,0,0,0,0,0,0,0,0,0,0],"sum_hessian":[1.311E3,8.62E2,4.49E2,7.98E2,6.4E1,2.82E2,1.67E2,4.1E2,3.88E2,4.8E1,1.6E1,2.13E2,6.9E1,5E1,1.17E2],"tree_param":{"num_deleted":"0","num_feature":"22","num_nodes":"15","size_leaf_vector":"1"}},{"base_weights":[5.407763E-4,-7.5206216E-3,2.5636548E-1,5.739158E-2,-3.9555736E-2,-0E0,4.2912304E-1,1.2683475E-2,-0E0,1.2976193E-2,-5.40852E-3,6.0074586E-2,-0E0],"categories":[],"categories_nodes":[],"categories_segments":[],"categories_sizes":[],"default_left":[0,0,0,0,0,0,0,0,0,0,0,0,0],"id":74,"left_children":[1,3,5,7,9,-1,11,-1,-1,-1,-1,-1,-1],"loss_changes":[3.3941746E0,2.5600302E0,3.227127E0,1.2763473E0,2.2856452E0,0E0,2.8977466E0,0E0,0E0,0E0,0E0,0E0,0E0],"parents":[2147483647,0,0,1,1,2,2,3,3,4,4,6,6],"right_children":[2,4,6,8,10,-1,12,-1,-1,-1,-1,-1,-1],"split_conditions":[9.9418783E-1,1.1942603E-8,-9.417273E-1,-4.2957205E-1,-1.4913872E0,-0E0,4.182001E-2,1.2683475E-2,-0E0,1.2976193E-2,-5.40852E-3,6.0074586E-2,-0E0],"split_indices":[19,8,18,20,15,0,13,0,0,0,0,0,0],"split_type":[0,0,0,0,0,0,0,0,0,0,0,0,0],"sum_hessian":[1.283E3,1.24E3,4.3E1,3.78E2,8.62E2,1.5E1,2.8E1,1.41E2,2.37E2,5.4E1,8.08E2,1.7E1,1.1E1],"tree_param":{"num_deleted":"0","num_feature":"22","num_nodes":"13","size_leaf_vector":"1"}},{"base_weights":[-5.0644334E-3,5.232781E-2,-4.568084E-2,-6.381502E-2,1.0559552E-1,-0E0,-2.3521693E-1,5.57172E-4,-1.5609938E-2,2.0236418E-2,2.5669143E-3,3.6773211E-3,-8.401568E-3,3.266393E-3,-3.1216769E-2],"categories":[],"categories_nodes":[],"categories_segments":[],"categories_sizes":[],"default_left":[0,0,0,0,0,0,0,0,0,0,0,0,0,0,0],"id":75,"left_children":[1,3,5,7,9,11,13,-1,-1,-1,-1,-1,-1,-1,-1],"loss_changes":[3.112245E0,3.435532E0,6.4076924E0,1.4948819E0,2.3961568E0,2.3873615E0,4.343754E0,0E0,0E0,0E0,0E0,0E0,0E0,0E0,0E0],"parents":[2147483647,0,0,1,1,2,2,3,3,4,4,5,5,6,6],"right_children":[2,4,6,8,10,12,14,-1,-1,-1,-1,-1,-1,-1,-1],"split_conditions":[-4.9017432E-1,1.417808E-7,2.517681E-7,-5.6541283E-2,-9.9998474E-2,2.713002E-1,-3.380082E-1,5.57172E-4,-1.5609938E-2,2.0236418E-2,2.5669143E-3,3.6773211E-3,-8.401568E-3,3.266393E-3,-3.1216769E-2],"split_indices":[18,19,8,12,1,6,7,0,0,0,0,0,0,0,0],"split_type":[0,0,0,0,0,0,0,0,0,0,0,0,0,0,0],"sum_hessian":[1.328E3,5.2E2,8.08E2,1.46E2,3.74E2,6.69E2,1.39E2,7.2E1,7.4E1,1.41E2,2.33E2,4.46E2,2.23E2,2.7E1,1.12E2],"tree_param":{"num_deleted":"0","num_feature":"22","num_nodes":"15","size_leaf_vector":"1"}},{"base_weights":[-8.573961E-3,-7.827218E-2,1.7545851E-2,-3.5700314E-2,-3.9044762E-1,-4.5762427E-2,5.3708702E-2,-5.7306085E-3,1.3021696E-2,-0E0,-6.007855E-2,-9.194824E-3,1.4406627E-2,-6.784096E-3,8.342132E-3],"categories":[],"categories_nodes":[],"categories_segments":[],"categories_sizes":[],"default_left":[0,0,0,0,0,0,0,0,0,0,0,0,0,0,0],"id":76,"left_children":[1,3,5,7,9,11,13,-1,-1,-1,-1,-1,-1,-1,-1],"loss_changes":[2.6170425E0,3.9219658E0,2.2109344E0,1.2972884E0,4.7228913E0,3.0056965E0,2.6396823E0,0E0,0E0,0E0,0E0,0E0,0E0,0E0,0E0],"parents":[2147483647,0,0,1,1,2,2,3,3,4,4,5,5,6,6],"right_children":[2,4,6,8,10,12,14,-1,-1,-1,-1,-1,-1,-1,-1],"split_conditions":[-5.542553E-1,2.8925374E-6,-5.953859E-1,1.4168032E0,-1.2578187E0,1.0674469E-1,4.6848356E-9,-5.7306085E-3,1.3021696E-2,-0E0,-6.007855E-2,-9.194824E-3,1.4406627E-2,-6.784096E-3,8.342132E-3],"split_indices":[14,8,21,10,14,7,19,0,0,0,0,0,0,0,0],"split_type":[0,0,0,0,0,0,0,0,0,0,0,0,0,0,0],"sum_hessian":[1.328E3,3.88E2,9.4E2,3.57E2,3.1E1,3.12E2,6.28E2,3.33E2,2.4E1,1.1E1,2E1,2.64E2,4.8E1,1.1E2,5.18E2],"tree_param":{"num_deleted":"0","num_feature":"22","num_nodes":"15","size_leaf_vector":"1"}},{"base_weights":[1.0031166E-2,3.9240476E-4,3.3662796E-2,1.1947865E-2,-1.9476078E-1,2.5247015E-2,3.2607687E-4,-3.7944905E-2,2.0513287E-2],"categories":[],"categories_nodes":[],"categories_segments":[],"categories_sizes":[],"default_left":[0,0,0,0,0,0,0,0,0],"id":77,"left_children":[1,3,-1,5,7,-1,-1,-1,-1],"loss_changes":[3.316281E0,2.4388394E0,0E0,1.911022E0,5.915452E0,0E0,0E0,0E0,0E0],"parents":[2147483647,0,0,1,1,3,3,4,4],"right_children":[2,4,-1,6,8,-1,-1,-1,-1],"split_conditions":[4.138E1,2.330442E-5,3.3662796E-2,-1.496598E0,1.0575331E0,2.5247015E-2,3.2607687E-4,-3.7944905E-2,2.0513287E-2],"split_indices":[2,8,0,17,13,0,0,0,0],"split_type":[0,0,0,0,0,0,0,0,0],"sum_hessian":[1.321E3,1.3E3,2.1E1,1.248E3,5.2E1,2.3E1,1.225E3,4E1,1.2E1],"tree_param":{"num_deleted":"0","num_feature":"22","num_nodes":"9","size_leaf_vector":"1"}},{"base_weights":[4.395768E-3,-1.7083205E-2,8.0860294E-2,2.654377E-2,-9.236202E-2,-1.8457049E-1,1.4049466E-1,-2.4628425E-3,1.22131845E-2,6.1782454E-3,-1.8786706E-2,-2.7378956E-2,-0E0,-1.0434449E-2,1.7991606E-2],"categories":[],"categories_nodes":[],"categories_segments":[],"categories_sizes":[],"default_left":[0,0,0,0,0,0,0,0,0,0,0,0,0,0,0],"id":78,"left_children":[1,3,5,7,9,11,13,-1,-1,-1,-1,-1,-1,-1,-1],"loss_changes":[2.379795E0,3.543822E0,5.17525E0,3.5445073E0,6.7884645E0,1.4152386E0,3.4798422E0,0E0,0E0,0E0,0E0,0E0,0E0,0E0,0E0],"parents":[2147483647,0,0,1,1,2,2,3,3,4,4,5,5,6,6],"right_children":[2,4,6,8,10,12,14,-1,-1,-1,-1,-1,-1,-1,-1],"split_conditions":[7.0558804E-1,3.689959E-8,-4.399948E-1,-4.0393084E-2,-9.9998474E-2,7.3141485E-1,-1.2982236E0,-2.4628425E-3,1.22131845E-2,6.1782454E-3,-1.8786706E-2,-2.7378956E-2,-0E0,-1.0434449E-2,1.7991606E-2],"split_indices":[14,8,1,7,1,10,18,0,0,0,0,0,0,0,0],"split_type":[0,0,0,0,0,0,0,0,0,0,0,0,0,0,0],"sum_hessian":[1.323E3,1.008E3,3.15E2,6.17E2,3.91E2,4.6E1,2.69E2,3.9E2,2.27E2,1.44E2,2.47E2,3.3E1,1.3E1,3E1,2.39E2],"tree_param":{"num_deleted":"0","num_feature":"22","num_nodes":"15","size_leaf_vector":"1"}},{"base_weights":[-0E0,-7.7338205E-3,1.8724954E-1,-0E0,-2.2548126E-1,3.83006E-1,-0E0,9.85369E-3,-8.792588E-4,-5.995285E-2,-0E0,-0E0,6.3194744E-2,-3.0688949E-2,1.745989E-2],"categories":[],"categories_nodes":[],"categories_segments":[],"categories_sizes":[],"default_left":[0,0,0,0,0,0,0,0,0,0,0,0,0,0,0],"id":79,"left_children":[1,3,5,7,9,11,13,-1,-1,-1,-1,-1,-1,-1,-1],"loss_changes":[2.1662924E0,2.6464458E0,3.2765381E0,1.3510354E0,5.1550283E0,4.6650076E0,2.567422E0,0E0,0E0,0E0,0E0,0E0,0E0,0E0,0E0],"parents":[2147483647,0,0,1,1,2,2,3,3,4,4,5,5,6,6],"right_children":[2,4,6,8,10,12,14,-1,-1,-1,-1,-1,-1,-1,-1],"split_conditions":[9.9038416E-1,2.330442E-5,1.0452681E-2,4.6399254E-2,-2.400055E-1,1.3312005E-6,-8.469337E-2,9.85369E-3,-8.792588E-4,-5.995285E-2,-0E0,-0E0,6.3194744E-2,-3.0688949E-2,1.745989E-2],"split_indices":[19,8,15,16,1,8,7,0,0,0,0,0,0,0,0],"split_type":[0,0,0,0,0,0,0,0,0,0,0,0,0,0,0],"sum_hessian":[1.339E3,1.287E3,5.2E1,1.241E3,4.6E1,2.9E1,2.3E1,1.14E2,1.127E3,1.3E1,3.3E1,1.3E1,1.6E1,1.2E1,1.1E1],"tree_param":{"num_deleted":"0","num_feature":"22","num_nodes":"15","size_leaf_vector":"1"}},{"base_weights":[-1.6867738E-2,-5.7403464E-2,1.3626731E-2,-4.9963035E-3,-2.5157818E-1,-3.532489E-2,9.545885E-2,1.3167487E-3,-1.3633909E-2,1.1568399E-3,-4.22762E-2,9.3516465E-3,-9.340789E-3,-0E0,1.707421E-2],"categories":[],"categories_nodes":[],"categories_segments":[],"categories_sizes":[],"default_left":[0,0,0,0,0,0,0,0,0,0,0,0,0,0,0],"id":80,"left_children":[1,3,5,7,9,11,13,-1,-1,-1,-1,-1,-1,-1,-1],"loss_changes":[1.7374269E0,5.351535E0,3.0294647E0,1.6214631E0,6.891796E0,3.4978733E0,2.326513E0,0E0,0E0,0E0,0E0,0E0,0E0,0E0,0E0],"parents":[2147483647,0,0,1,1,2,2,3,3,4,4,5,5,6,6],"right_children":[2,4,6,8,10,12,14,-1,-1,-1,-1,-1,-1,-1,-1],"split_conditions":[-3.1738928E-1,1.1375214E-7,1E-2,3E-2,-1.2000275E-1,-4.3804276E-1,2.8372709E-8,1.3167487E-3,-1.3633909E-2,1.1568399E-3,-4.22762E-2,9.3516465E-3,-9.340789E-3,-0E0,1.707421E-2],"split_indices":[10,8,4,4,1,15,8,0,0,0,0,0,0,0,0],"split_type":[0,0,0,0,0,0,0,0,0,0,0,0,0,0,0],"sum_hessian":[1.291E3,5.92E2,6.99E2,4.84E2,1.08E2,4.18E2,2.81E2,4.13E2,7.1E1,4.1E1,6.7E1,1.16E2,3.02E2,1.29E2,1.52E2],"tree_param":{"num_deleted":"0","num_feature":"22","num_nodes":"15","size_leaf_vector":"1"}},{"base_weights":[1.5214778E-2,3.0060168E-2,-9.218258E-2,1.4110095E-2,1.8366036E-1,2.972207E-2,-2.655339E-1,2.4478312E-3,-1.8745337E-2,2.3710428E-2,-0E0,1.5095513E-2,-1.5266937E-2,-4.3840244E-2,-0E0],"categories":[],"categories_nodes":[],"categories_segments":[],"categories_sizes":[],"default_left":[0,0,0,0,0,0,0,0,0,0,0,0,0,0,0],"id":81,"left_children":[1,3,5,7,9,11,13,-1,-1,-1,-1,-1,-1,-1,-1],"loss_changes":[1.9727228E0,2.358409E0,3.7108812E0,2.1351006E0,1.7217977E0,2.0601845E0,2.6539903E0,0E0,0E0,0E0,0E0,0E0,0E0,0E0,0E0],"parents":[2147483647,0,0,1,1,2,2,3,3,4,4,5,5,6,6],"right_children":[2,4,6,8,10,12,14,-1,-1,-1,-1,-1,-1,-1,-1],"split_conditions":[1.3562524E0,8.6908555E-1,9.9998474E-2,6.9116026E-1,1.4668604E0,7.092188E-1,-9.379807E-1,2.4478312E-3,-1.8745337E-2,2.3710428E-2,-0E0,1.5095513E-2,-1.5266937E-2,-4.3840244E-2,-0E0],"split_indices":[10,10,1,10,6,21,9,0,0,0,0,0,0,0,0],"split_type":[0,0,0,0,0,0,0,0,0,0,0,0,0,0,0],"sum_hessian":[1.329E3,1.196E3,1.33E2,1.108E3,8.8E1,7.2E1,6.1E1,1.071E3,3.7E1,7.5E1,1.3E1,5.3E1,1.9E1,2.9E1,3.2E1],"tree_param":{"num_deleted":"0","num_feature":"22","num_nodes":"15","size_leaf_vector":"1"}},{"base_weights":[-0E0,1.0344507E-2,-2.894677E-1,-0E0,2.0367126E-1,-0E0,-4.841193E-1,7.2714356E-3,-2.0871945E-3,-1.0028218E-2,3.7589196E-2,-6.960303E-2,-0E0],"categories":[],"categories_nodes":[],"categories_segments":[],"categories_sizes":[],"default_left":[0,0,0,0,0,0,0,0,0,0,0,0,0],"id":82,"left_children":[1,3,5,7,9,-1,11,-1,-1,-1,-1,-1,-1],"loss_changes":[3.7047179E0,3.122223E0,3.5985656E0,1.8248205E0,5.5736694E0,0E0,2.9373035E0,0E0,0E0,0E0,0E0,0E0,0E0],"parents":[2147483647,0,0,1,1,2,2,3,3,4,4,6,6],"right_children":[2,4,6,8,10,-1,12,-1,-1,-1,-1,-1,-1],"split_conditions":[1.406169E-4,1.1227832E-2,5.250958E-1,-8.430994E-1,-2.7000427E-1,-0E0,2.2270083E0,7.2714356E-3,-2.0871945E-3,-1.0028218E-2,3.7589196E-2,-6.960303E-2,-0E0],"split_indices":[8,11,10,20,1,0,10,0,0,0,0,0,0],"split_type":[0,0,0,0,0,0,0,0,0,0,0,0,0],"sum_hessian":[1.31E3,1.275E3,3.5E1,1.204E3,7.1E1,1.2E1,2.3E1,2.36E2,9.68E2,2.2E1,4.9E1,1.2E1,1.1E1],"tree_param":{"num_deleted":"0","num_feature":"22","num_nodes":"13","size_leaf_vector":"1"}},{"base_weights":[-1.3900397E-3,-1.23599336E-1,1.7391045E-2,-1.6937537E-2,-2.587275E-1,-0E0,1.565157E-1,-7.939864E-3,6.3730897E-3,-0E0,-3.2833762E-2,3.6154527E-3,-6.1643803E-3,-5.4732547E-3,4.143083E-2],"categories":[],"categories_nodes":[],"categories_segments":[],"categories_sizes":[],"default_left":[0,0,0,0,0,0,0,0,0,0,0,0,0,0,0],"id":83,"left_children":[1,3,5,7,9,11,13,-1,-1,-1,-1,-1,-1,-1,-1],"loss_changes":[3.3927681E0,2.0478923E0,2.53379E0,7.9509795E-1,2.3575678E0,2.4368193E0,8.043903E0,0E0,0E0,0E0,0E0,0E0,0E0,0E0,0E0],"parents":[2147483647,0,0,1,1,2,2,3,3,4,4,5,5,6,6],"right_children":[2,4,6,8,10,12,14,-1,-1,-1,-1,-1,-1,-1,-1],"split_conditions":[-3.600006E-1,1.4148863E-1,5.756786E-3,-4.4675297E-1,6.4744316E-2,1.7458348E-1,3.345693E-1,-7.939864E-3,6.3730897E-3,-0E0,-3.2833762E-2,3.6154527E-3,-6.1643803E-3,-5.4732547E-3,4.143083E-2],"split_indices":[1,6,11,6,5,20,13,0,0,0,0,0,0,0,0],"split_type":[0,0,0,0,0,0,0,0,0,0,0,0,0,0,0],"sum_hessian":[1.33E3,1.92E2,1.138E3,1.24E2,6.8E1,1.028E3,1.1E2,8.9E1,3.5E1,1.1E1,5.7E1,6.65E2,3.63E2,5.9E1,5.1E1],"tree_param":{"num_deleted":"0","num_feature":"22","num_nodes":"15","size_leaf_vector":"1"}},{"base_weights":[-1.6870296E-2,3.4002732E-2,-4.793254E-2,3.607545E-2,6.80274E-3,6.136894E-2,-1.0058649E-1,-4.31654E-3,7.0816223E-3,-1.2273675E-2,1.0329862E-2,-3.5896357E-3,-1.7677562E-2],"categories":[],"categories_nodes":[],"categories_segments":[],"categories_sizes":[],"default_left":[0,0,0,0,0,0,0,0,0,0,0,0,0],"id":84,"left_children":[1,3,5,-1,7,9,11,-1,-1,-1,-1,-1,-1],"loss_changes":[2.1756983E0,3.2912354E0,5.181727E0,0E0,1.6682236E0,2.3469634E0,2.4863925E0,0E0,0E0,0E0,0E0,0E0,0E0],"parents":[2147483647,0,0,1,1,2,2,4,4,5,5,6,6],"right_children":[2,4,6,-1,8,10,12,-1,-1,-1,-1,-1,-1],"split_conditions":[-6.974088E-1,1.7306341E-3,-6.1481106E-1,3.607545E-2,-4.0513572E-1,-8.370465E-1,3.363726E-8,-4.31654E-3,7.0816223E-3,-1.2273675E-2,1.0329862E-2,-3.5896357E-3,-1.7677562E-2],"split_indices":[18,16,20,0,6,9,8,0,0,0,0,0,0],"split_type":[0,0,0,0,0,0,0,0,0,0,0,0,0],"sum_hessian":[1.336E3,4.71E2,8.65E2,2E1,4.51E2,2.63E2,6.02E2,2.31E2,2.2E2,3.6E1,2.27E2,3.65E2,2.37E2],"tree_param":{"num_deleted":"0","num_feature":"22","num_nodes":"13","size_leaf_vector":"1"}},{"base_weights":[1.9603245E-2,-5.1497053E-2,3.8458493E-2,4.6713736E-2,-1.748527E-1,1.0647623E-2,1.3502282E-1,1.403738E-2,-1.4408269E-2,-9.246922E-4,-2.707021E-2,3.3288973E-3,-7.4595846E-3,-1.0211176E-2,2.5954539E-2],"categories":[],"categories_nodes":[],"categories_segments":[],"categories_sizes":[],"default_left":[0,0,0,0,0,0,0,0,0,0,0,0,0,0,0],"id":85,"left_children":[1,3,5,7,9,11,13,-1,-1,-1,-1,-1,-1,-1,-1],"loss_changes":[1.7772574E0,3.4915214E0,2.516377E0,2.7150056E0,1.3337808E0,1.7332475E0,7.7608476E0,0E0,0E0,0E0,0E0,0E0,0E0,0E0,0E0],"parents":[2147483647,0,0,1,1,2,2,3,3,4,4,5,5,6,6],"right_children":[2,4,6,8,10,12,14,-1,-1,-1,-1,-1,-1,-1,-1],"split_conditions":[-8.219895E-1,-2.4277353E-1,1.3322823E-3,-1.0708672E0,5.9228256E-8,4.9100124E-4,-4.6759874E-1,1.403738E-2,-1.4408269E-2,-9.246922E-4,-2.707021E-2,3.3288973E-3,-7.4595846E-3,-1.0211176E-2,2.5954539E-2],"split_indices":[9,6,11,9,8,19,10,0,0,0,0,0,0,0,0],"split_type":[0,0,0,0,0,0,0,0,0,0,0,0,0,0,0],"sum_hessian":[1.335E3,2.45E2,1.09E3,1.26E2,1.19E2,8.76E2,2.14E2,9.5E1,3.1E1,6E1,5.9E1,7.19E2,1.57E2,6.9E1,1.45E2],"tree_param":{"num_deleted":"0","num_feature":"22","num_nodes":"15","size_leaf_vector":"1"}},{"base_weights":[9.585313E-3,-1.5781109E-3,1.2778884E-1,1.3202463E-1,-1.3990181E-2,6.34657E-2,-0E0,2.6409717E-2,-0E0,2.5691078E-3,-6.527449E-3,1.4149053E-2,-2.0150123E-2],"categories":[],"categories_nodes":[],"categories_segments":[],"categories_sizes":[],"default_left":[0,0,0,0,0,0,0,0,0,0,0,0,0],"id":86,"left_children":[1,3,5,7,9,-1,11,-1,-1,-1,-1,-1,-1],"loss_changes":[2.0963895E0,1.6361272E0,8.331769E0,1.741704E0,2.5308063E0,0E0,3.7557316E0,0E0,0E0,0E0,0E0,0E0,0E0],"parents":[2147483647,0,0,1,1,2,2,3,3,4,4,6,6],"right_children":[2,4,6,8,10,-1,12,-1,-1,-1,-1,-1,-1],"split_conditions":[7.1692667E-3,-1.4424503E0,-3E-2,2.4453905E-1,9.950669E-2,6.34657E-2,8.652235E-1,2.6409717E-2,-0E0,2.5691078E-3,-6.527449E-3,1.4149053E-2,-2.0150123E-2],"split_indices":[11,9,3,15,13,0,17,0,0,0,0,0,0],"split_type":[0,0,0,0,0,0,0,0,0,0,0,0,0],"sum_hessian":[1.304E3,1.176E3,1.28E2,7.4E1,1.102E3,1.7E1,1.11E2,3.5E1,3.9E1,5.98E2,5.04E2,7E1,4.1E1],"tree_param":{"num_deleted":"0","num_feature":"22","num_nodes":"13","size_leaf_vector":"1"}},{"base_weights":[-7.0623406E-3,2.308545E-2,-5.7376586E-2,4.3939617E-2,-1.3998379E-1,-1.3014631E-1,1.5484579E-2,1.5531946E-3,2.032517E-2,-1.9607095E-2,-0E0,-0E0,-1.7197132E-2,-6.224965E-4,3.966302E-2],"categories":[],"categories_nodes":[],"categories_segments":[],"categories_sizes":[],"default_left":[0,0,0,0,0,0,0,0,0,0,0,0,0,0,0],"id":87,"left_children":[1,3,5,7,9,11,13,-1,-1,-1,-1,-1,-1,-1,-1],"loss_changes":[2.139413E0,2.5123727E0,3.206984E0,2.7322137E0,7.969997E-1,2.027884E0,3.3969371E0,0E0,0E0,0E0,0E0,0E0,0E0,0E0,0E0],"parents":[2147483647,0,0,1,1,2,2,3,3,4,4,5,5,6,6],"right_children":[2,4,6,8,10,12,14,-1,-1,-1,-1,-1,-1,-1,-1],"split_conditions":[1E-2,1.562829E0,2.768683E-2,8.384493E-7,9.820343E-1,9.523563E-9,7E-2,1.5531946E-3,2.032517E-2,-1.9607095E-2,-0E0,-0E0,-1.7197132E-2,-6.224965E-4,3.966302E-2],"split_indices":[3,17,21,8,18,8,3,0,0,0,0,0,0,0,0],"split_type":[0,0,0,0,0,0,0,0,0,0,0,0,0,0,0],"sum_hessian":[1.331E3,7.99E2,5.32E2,7.29E2,7E1,2.83E2,2.49E2,6.46E2,8.3E1,4.9E1,2.1E1,7E1,2.13E2,2.36E2,1.3E1],"tree_param":{"num_deleted":"0","num_feature":"22","num_nodes":"15","size_leaf_vector":"1"}},{"base_weights":[-0E0,2.6315987E-2,-8.008433E-2,1.4796846E-3,2.0296808E-1,4.167385E-2,-1.3386674E-1,5.534343E-3,-4.1476013E-3,3.9559778E-2,-0E0,-1.1683027E-3,2.2493662E-2,-0E0,-2.0179663E-2],"categories":[],"categories_nodes":[],"categories_segments":[],"categories_sizes":[],"default_left":[0,0,0,0,0,0,0,0,0,0,0,0,0,0,0],"id":88,"left_children":[1,3,5,7,9,11,13,-1,-1,-1,-1,-1,-1,-1,-1],"loss_changes":[2.669028E0,3.8196652E0,2.3224149E0,2.2866275E0,3.4179864E0,1.511784E0,2.2957935E0,0E0,0E0,0E0,0E0,0E0,0E0,0E0,0E0],"parents":[2147483647,0,0,1,1,2,2,3,3,4,4,5,5,6,6],"right_children":[2,4,6,8,10,12,14,-1,-1,-1,-1,-1,-1,-1,-1],"split_conditions":[3E-2,1.0136847E0,-4.735023E-2,1.798484E-2,-2E-2,3.5924927E-4,6.951944E-2,5.534343E-3,-4.1476013E-3,3.9559778E-2,-0E0,-1.1683027E-3,2.2493662E-2,-0E0,-2.0179663E-2],"split_indices":[0,15,15,12,0,19,5,0,0,0,0,0,0,0,0],"split_type":[0,0,0,0,0,0,0,0,0,0,0,0,0,0,0],"sum_hessian":[1.298E3,9.98E2,3E2,8.96E2,1.02E2,7.6E1,2.24E2,4.25E2,4.71E2,4E1,6.2E1,5.3E1,2.3E1,8.3E1,1.41E2],"tree_param":{"num_deleted":"0","num_feature":"22","num_nodes":"15","size_leaf_vector":"1"}},{"base_weights":[-5.665517E-3,4.008201E-2,-3.5196453E-2,-9.463546E-3,1.5043133E-1,1.883106E-2,-9.1967046E-2,3.2345415E-3,-1.5889183E-2,2.6075454E-2,-7.541591E-3,4.5940382E-3,-2.7618415E-3,-1.45268515E-2,7.836714E-3],"categories":[],"categories_nodes":[],"categories_segments":[],"categories_sizes":[],"default_left":[0,0,0,0,0,0,0,0,0,0,0,0,0,0,0],"id":89,"left_children":[1,3,5,7,9,11,13,-1,-1,-1,-1,-1,-1,-1,-1],"loss_changes":[1.7955058E0,3.0832593E0,2.8360739E0,2.5742667E0,5.305851E0,6.2852997E-1,4.726157E0,0E0,0E0,0E0,0E0,0E0,0E0,0E0,0E0],"parents":[2147483647,0,0,1,1,2,2,3,3,4,4,5,5,6,6],"right_children":[2,4,6,8,10,12,14,-1,-1,-1,-1,-1,-1,-1,-1],"split_conditions":[-1.1999512E-1,6.370855E-8,1.9585523E-8,6.9420874E-1,6.6405624E-1,3.9549965E-1,7.2275215E-1,3.2345415E-3,-1.5889183E-2,2.6075454E-2,-7.541591E-3,4.5940382E-3,-2.7618415E-3,-1.45268515E-2,7.836714E-3],"split_indices":[1,8,8,14,21,20,14,0,0,0,0,0,0,0,0],"split_type":[0,0,0,0,0,0,0,0,0,0,0,0,0,0,0],"sum_hessian":[1.324E3,4.8E2,8.44E2,3.18E2,1.62E2,4.09E2,4.35E2,2.39E2,7.9E1,1.14E2,4.8E1,2.93E2,1.16E2,3.39E2,9.6E1],"tree_param":{"num_deleted":"0","num_feature":"22","num_nodes":"15","size_leaf_vector":"1"}},{"base_weights":[-0E0,-8.054545E-3,2.4026686E-1,-0E0,-2.3844059E-1,3.9878894E-2,-0E0,-4.6187565E-3,2.4577852E-3,1.7815348E-3,-4.5261003E-2],"categories":[],"categories_nodes":[],"categories_segments":[],"categories_sizes":[],"default_left":[0,0,0,0,0,0,0,0,0,0,0],"id":90,"left_children":[1,3,5,7,9,-1,-1,-1,-1,-1,-1],"loss_changes":[2.3115957E0,1.9947631E0,1.7674236E0,1.593061E0,3.508538E0,0E0,0E0,0E0,0E0,0E0,0E0],"parents":[2147483647,0,0,1,1,2,2,3,3,4,4],"right_children":[2,4,6,8,10,-1,-1,-1,-1,-1,-1],"split_conditions":[6.8136466E-1,5.426043E-5,-8.7345265E-2,-5.1577836E-1,-4.1633363E-16,3.9878894E-2,-0E0,-4.6187565E-3,2.4577852E-3,1.7815348E-3,-4.5261003E-2],"split_indices":[11,8,15,10,3,0,0,0,0,0,0],"split_type":[0,0,0,0,0,0,0,0,0,0,0],"sum_hessian":[1.329E3,1.298E3,3.1E1,1.269E3,2.9E1,1.6E1,1.5E1,4.63E2,8.06E2,1.1E1,1.8E1],"tree_param":{"num_deleted":"0","num_feature":"22","num_nodes":"11","size_leaf_vector":"1"}},{"base_weights":[5.343504E-3,1.37473E-1,-6.787141E-4,-1.762854E-2,4.6394986E-1,1.3055692E-2,-1.1416391E-1,-1.3168283E-2,9.4599026E-4,-0E0,7.004525E-2,-0E0,1.3795823E-2,-1.7068528E-2,1.3467621E-3],"categories":[],"categories_nodes":[],"categories_segments":[],"categories_sizes":[],"default_left":[0,0,0,0,0,0,0,0,0,0,0,0,0,0,0],"id":91,"left_children":[1,3,5,7,9,11,13,-1,-1,-1,-1,-1,-1,-1,-1],"loss_changes":[1.4477986E0,5.3285947E0,2.2537963E0,5.508925E-1,3.4355087E0,1.7706062E0,1.7460816E0,0E0,0E0,0E0,0E0,0E0,0E0,0E0,0E0],"parents":[2147483647,0,0,1,1,2,2,3,3,4,4,5,5,6,6],"right_children":[2,4,6,8,10,12,14,-1,-1,-1,-1,-1,-1,-1,-1],"split_conditions":[-4E-2,2.322E1,5.6349374E-3,-2.3249017E-1,8.613392E-3,1.4775864E0,3E-2,-1.3168283E-2,9.4599026E-4,-0E0,7.004525E-2,-0E0,1.3795823E-2,-1.7068528E-2,1.3467621E-3],"split_indices":[3,2,19,14,19,17,3,0,0,0,0,0,0,0,0],"split_type":[0,0,0,0,0,0,0,0,0,0,0,0,0,0,0],"sum_hessian":[1.315E3,7.1E1,1.244E3,4.7E1,2.4E1,1.093E3,1.51E2,2.3E1,2.4E1,1.2E1,1.2E1,1.004E3,8.9E1,1.15E2,3.6E1],"tree_param":{"num_deleted":"0","num_feature":"22","num_nodes":"15","size_leaf_vector":"1"}},{"base_weights":[-4.9566682E-3,8.13043E-3,-6.2037278E-2,-2.1865428E-3,9.853359E-2,-1.1786173E-1,2.150737E-1,8.837657E-4,-1.0709773E-2,-1.4603212E-2,1.5153466E-2,-0E0,-2.0289082E-2,4.0889252E-2,-0E0],"categories":[],"categories_nodes":[],"categories_segments":[],"categories_sizes":[],"default_left":[0,0,0,0,0,0,0,0,0,0,0,0,0,0,0],"id":92,"left_children":[1,3,5,7,9,11,13,-1,-1,-1,-1,-1,-1,-1,-1],"loss_changes":[1.1749916E0,1.2790732E0,4.483967E0,1.4527893E0,2.1940646E0,3.3484726E0,1.827379E0,0E0,0E0,0E0,0E0,0E0,0E0,0E0,0E0],"parents":[2147483647,0,0,1,1,2,2,3,3,4,4,5,5,6,6],"right_children":[2,4,6,8,10,12,14,-1,-1,-1,-1,-1,-1,-1,-1],"split_conditions":[2.517681E-7,7.471765E-8,1.3775816E0,4.0924206E-8,6.334366E-2,-7.349727E-1,1.7558213E0,8.837657E-4,-1.0709773E-2,-1.4603212E-2,1.5153466E-2,-0E0,-2.0289082E-2,4.0889252E-2,-0E0],"split_indices":[8,8,13,8,5,18,13,0,0,0,0,0,0,0,0],"split_type":[0,0,0,0,0,0,0,0,0,0,0,0,0,0,0],"sum_hessian":[1.352E3,1.064E3,2.88E2,9.33E2,1.31E2,2.52E2,3.6E1,8.27E2,1.06E2,1.3E1,1.18E2,1.01E2,1.51E2,1.4E1,2.2E1],"tree_param":{"num_deleted":"0","num_feature":"22","num_nodes":"15","size_leaf_vector":"1"}},{"base_weights":[1.2256238E-2,-2.0043992E-2,5.384418E-2,1.8954955E-2,-8.076381E-2,2.5165144E-1,1.6193949E-2,-3.0388157E-3,9.468058E-3,7.079642E-4,-1.3178964E-2,-0E0,3.4436125E-2,5.0606634E-3,-9.780707E-3],